Language model created by QuickLM on Wed Dec  3 00:09:10 EST 2014
Copyright (c) 1996-2010 Carnegie Mellon University and Alexander I. Rudnicky

The model is in standard ARPA format, designed by Doug Paul while he was at MITRE.

The code that was used to produce this language model is available in Open Source.
Please visit http://www.speech.cs.cmu.edu/tools/ for more information

The (fixed) discount mass is 0.5. The backoffs are computed using the ratio method.
This model based on a corpus of 588 sentences and 349 words

\data\
ngram 1=349
ngram 2=882
ngram 3=1186

\1-grams:
-3.5529 3 -0.2991
-1.0846 </s> -0.3010
-1.0846 <s> -0.2611
-1.4922 ? -0.2637
-2.7078 A -0.2988
-3.8539 AARON -0.2868
-3.8539 ABOUT -0.2868
-3.8539 ACTIVITIES -0.2913
-3.8539 ADDRESS -0.3010
-3.8539 ADVENTURE -0.2868
-3.3768 AFTER -0.2884
-3.5529 AGE -0.3004
-3.8539 AGO -0.2913
-3.3768 ALL -0.2863
-3.8539 ALMOST -0.3009
-3.2519 ALSO -0.2909
-3.8539 ALWAYS -0.3008
-3.8539 AMAZING -0.3010
-3.5529 AN -0.3009
-2.3225 AND -0.2309
-3.8539 ARCHITECTURE -0.2868
-2.8997 ARE -0.2833
-3.8539 AREAS -0.2993
-3.3768 AROUND -0.2868
-3.8539 ARRIVE -0.3006
-3.8539 AS -0.2977
-3.8539 ASIDE -0.2990
-3.8539 ASK -0.2989
-3.8539 ASKED -0.2891
-3.8539 ASTONISHED -0.3010
-2.8125 AT -0.2825
-3.8539 AT? -0.2637
-3.8539 ATTRACTION -0.2913
-3.8539 BACHELOR -0.3008
-3.8539 BANDS -0.3007
-3.8539 BATTLING -0.2868
-3.8539 BBQ -0.3010
-3.5529 BEACH -0.2913
-3.8539 BEAUTIFUL? -0.2637
-3.3768 BEST -0.3005
-3.5529 BIG -0.3008
-3.3768 BIKE -0.2767
-3.8539 BIRTH -0.3010
-3.8539 BIRTHDAY -0.3010
-3.8539 BOY -0.3010
-3.8539 BREAK -0.2868
-3.8539 BRING -0.3010
-3.8539 BROUGHT -0.2977
-3.8539 BUY -0.2868
-3.8539 BY -0.2868
-3.8539 CALL -0.2891
-3.8539 CAN -0.3009
-3.8539 CAR -0.3008
-3.8539 CARE -0.2993
-3.8539 CELEBRATE -0.2868
-3.3768 CHOOSE -0.2820
-3.3768 CITIES -0.2913
-2.7400 CITY -0.2641
-3.5529 CITY? -0.2637
-3.8539 COLLEGES -0.3010
-3.2519 COLOR -0.2972
-3.1550 COME -0.2825
-3.8539 COMPETITION -0.2868
-3.8539 COMPLETE -0.2989
-3.8539 CONCERT -0.2868
-3.5529 COUNTRY -0.2993
-3.8539 DATE -0.3000
-3.8539 DAY -0.2868
-3.8539 DAY, -0.2990
-3.1550 DAY? -0.2637
-3.1550 DAYS -0.2900
-3.8539 DECIDE -0.2969
-3.3768 DEGREE -0.2847
-3.8539 DESIGNED -0.3002
-1.6553 DID -0.2783
-3.8539 DIFFICULT -0.2969
-3.8539 DISCUSSING -0.2794
-2.8997 DO -0.2736
-3.3768 DOING -0.2867
-3.8539 DRINKING -0.2868
-3.5529 DRIVE -0.2868
-3.8539 DROP -0.2999
-3.8539 EAT -0.2868
-3.8539 ELECTED -0.3010
-3.8539 EMAIL -0.3010
-3.8539 ENCOUNTER -0.3002
-3.8539 END? -0.2637
-3.8539 ENJOY -0.2998
-3.8539 ENTER -0.3010
-3.8539 ENTRANCE? -0.2637
-3.8539 EVENING -0.2969
-3.8539 EVENT -0.2868
-3.8539 EVER -0.3008
-3.8539 EVERYTHING -0.3010
-3.8539 EXCELLENT -0.3010
-3.5529 EXCHANGE -0.3009
-3.8539 EXCITED -0.2969
-3.8539 EXCITING -0.3010
-3.8539 EXPERIENCE -0.2913
-3.8539 EXPO -0.2868
-3.8539 FACULTY -0.3010
-3.2519 FAVORITE -0.3007
-3.8539 FINALLY -0.2868
-3.8539 FIND -0.3009
-3.8539 FINISH -0.2989
-2.8997 FIRST -0.2839
-2.7748 FOR -0.2671
-3.8539 FOUND -0.2989
-3.0758 FRIEND -0.2696
-3.3768 FRIENDS -0.2877
-3.2519 FROM -0.2846
-3.8539 FROM? -0.2637
-3.8539 FULL -0.3000
-3.8539 FURTHER -0.3007
-3.8539 GAME -0.2868
-3.8539 GAVE -0.2891
-3.2519 GET -0.2961
-3.8539 GIRLFRIEND -0.3007
-2.2976 GO -0.2937
-3.8539 GOOD -0.3007
-3.8539 GRADUATE -0.2868
-3.8539 GRADUATED? -0.2637
-3.8539 GRADUATION -0.3007
-3.8539 GRANDMA'S -0.3000
-3.8539 GREAT -0.3010
-3.3768 HAD -0.3001
-3.8539 HALF -0.3010
-3.8539 HANG -0.3009
-3.8539 HANGZHOU? -0.2637
-3.8539 HAPPEN -0.2868
-3.5529 HAPPEN? -0.2637
-3.2519 HAPPENED -0.2953
-3.8539 HARD -0.3003
-2.7400 HAVE -0.2718
-3.8539 HE -0.3009
-3.8539 HEADING -0.2969
-2.9509 HER -0.2863
-3.8539 HIGH -0.3005
-3.8539 HIKE -0.3003
-3.8539 HIM -0.2868
-3.8539 HIRED -0.2969
-3.3768 HIS -0.3008
-3.8539 HOLDING -0.2989
-3.8539 HOSPITAL -0.2974
-3.8539 HOSTED -0.2977
-3.8539 HOTEL -0.2868
-3.5529 HOUR -0.2868
-2.2205 HOW -0.2622
-3.8539 HUSBAND -0.2868
-3.2519 I -0.2861
-2.5317 IN -0.2793
-3.1550 IN? -0.2637
-3.8539 INTERNSHIP -0.3008
-3.8539 INTERSHIP -0.3004
-3.2519 INTERVIEW -0.2839
-3.8539 INTERVIEWER -0.3010
-2.6235 IS -0.2967
-3.8539 ISI -0.2868
-2.5987 IT -0.2844
-3.3768 IT? -0.2637
-3.2519 JOB -0.2866
-3.8539 JOIN -0.3010
-3.2519 KIND -0.2951
-3.5529 KOREA -0.2868
-3.8539 KOREA? -0.2637
-3.8539 LAS -0.3010
-3.5529 LAST -0.2865
-3.1550 LEARN -0.2818
-3.8539 LEARNED -0.2969
-3.8539 LEARNING -0.2868
-3.8539 LIKED -0.3005
-3.8539 LINING -0.3003
-3.5529 LIVE -0.2994
-3.8539 LOCATED -0.2998
-3.8539 LOCATION -0.2868
-2.9509 LONG -0.2909
-3.8539 MADE -0.2868
-3.8539 MAINLY -0.3010
-3.8539 MAKE -0.2868
-3.8539 MANAGER -0.2891
-2.9509 MANY -0.2891
-3.5529 MASTER -0.3008
-3.1550 MEET -0.2863
-3.8539 MEET, -0.3008
-3.5529 MEET? -0.2637
-3.8539 MEMBER -0.3004
-3.8539 MEMBERS -0.2868
-3.8539 MIDNIGHT -0.2868
-3.5529 MODEL -0.2974
-3.8539 MOM -0.2868
-3.8539 MOMENT -0.2868
-2.6498 MONTH -0.2990
-3.8539 MONTH, -0.3010
-3.8539 MORNING? -0.2637
-3.8539 MOST -0.3008
-3.5529 MOTHER -0.3002
-3.5529 MOVE -0.2968
-3.5529 MOVIE -0.3000
-3.8539 MY -0.3005
-2.6235 NAME -0.2748
-3.1550 NAMES -0.2993
-3.8539 NEW -0.3010
-3.5529 NEXT -0.3007
-3.8539 NOT -0.3002
-2.3915 OF -0.2641
-3.8539 OFF -0.2868
-3.0758 OLD -0.2935
-3.1550 ON -0.2834
-3.5529 OUT -0.2866
-3.8539 OVER -0.2868
-3.8539 PARENTS -0.3009
-3.8539 PARK -0.2913
-3.5529 PART -0.2855
-3.8539 PARTICIPATE -0.2977
-3.5529 PARTY -0.2861
-3.8539 PASSWORD -0.2993
-3.8539 PEAK -0.2995
-3.0758 PEOPLE -0.2861
-3.0088 PERSON -0.2757
-3.5529 PET -0.2961
-3.5529 PET? -0.2637
-3.3768 PLACE -0.2820
-3.5529 PLAY -0.2868
-3.8539 PLAY? -0.2637
-3.8539 PLAYING -0.2995
-3.8539 PLAYING? -0.2637
-3.8539 PRACTICE? -0.2637
-3.8539 PRESENT? -0.2637
-3.8539 PRICE, -0.3007
-3.8539 PROFESSOR -0.2868
-3.5529 PROGRAM -0.2868
-3.8539 PROPOSE -0.2969
-3.8539 PROPOSED -0.2969
-3.3768 REALLY -0.3008
-3.5529 RECEIVE -0.2995
-3.8539 RECENTLY -0.2868
-3.5529 RELATIONSHIP -0.2993
-3.8539 RELATIONSHOP -0.2993
-3.3768 REMEMBER -0.2841
-3.8539 RENT -0.2868
-3.8539 REPLY? -0.2637
-3.8539 RESPONSIBLE -0.2868
-3.8539 RETREAT -0.2998
-3.5529 RIDE -0.2859
-3.8539 RIDE? -0.2637
-3.8539 RIDING -0.2868
-3.8539 RIVER? -0.2637
-3.8539 ROAD -0.2993
-3.8539 ROOM -0.2993
-3.5529 RUN -0.3008
-3.8539 SAUK -0.3010
-3.5529 SAYING -0.2745
-2.8997 SCHOOL -0.2711
-3.8539 SCHOOL? -0.2637
-2.9509 SEASON -0.2855
-3.8539 SEAT -0.2868
-3.5529 SECOND -0.3007
-3.8539 SEEM -0.2998
-3.8539 SEEN -0.2868
-3.8539 SEVERAL -0.3008
-3.8539 SHANGHAI -0.3010
-3.8539 SHARE -0.2868
-3.0088 SHE -0.2993
-3.8539 SHE? -0.2637
-3.5529 SISTER -0.2868
-3.8539 SIT -0.2868
-3.8539 SLOPE? -0.2637
-3.8539 SON? -0.2637
-3.8539 SPEND -0.2868
-3.8539 SPLENDID -0.3010
-3.5529 START -0.3008
-3.8539 STARTED -0.2969
-3.8539 STATES -0.2913
-3.2519 STAY -0.2861
-3.5529 STAY? -0.2637
-3.8539 STEAL -0.3010
-3.8539 STEEP -0.3010
-3.1550 STUDY -0.2861
-3.8539 STUFF -0.2868
-3.8539 SUBJECT -0.3000
-3.8539 SURFING -0.2868
-2.9509 TAKE -0.2842
-3.5529 TAUGHT -0.2885
-3.5529 TELL -0.2971
-3.8539 TENT, -0.3010
-2.8997 THAT -0.2725
-2.1136 THE -0.2950
-3.0088 THERE -0.2852
-3.5529 THERE? -0.2637
-3.8539 THESE -0.3010
-2.8539 THIS -0.2945
-3.8539 THIS? -0.2637
-3.3768 THREE -0.3005
-3.8539 TILL -0.3002
-3.0758 TIME -0.2866
-2.0214 TO -0.2581
-3.5529 TO? -0.2637
-3.8539 TOLD -0.2891
-3.8539 TOO -0.2868
-3.8539 TOOK -0.2891
-3.8539 TOWN -0.2913
-3.8539 TOY -0.2913
-3.0758 TRANSPORTATION -0.2913
-3.8539 TRANSPORTATIONS -0.2913
-3.1550 TRAVEL -0.2964
-3.8539 TRAVEL? -0.2637
-3.1550 TRIP -0.2788
-3.0758 TWO -0.3005
-3.8539 UNDERGRADUATE -0.3007
-3.0088 UNIVERSITY -0.2845
-3.5529 US -0.3003
-3.5529 US? -0.2637
-3.8539 USC -0.2868
-3.0758 USE -0.2824
-3.3768 USED -0.2969
-3.8539 VEGAS -0.2868
-3.8539 VEGAS? -0.2637
-3.8539 VEHICLE -0.2868
-3.5529 VERY -0.3007
-2.8539 VISIT -0.2833
-3.8539 VISIT? -0.2637
-3.3768 VISITED -0.2863
-3.8539 VISITING? -0.2637
-2.0831 WAS -0.2895
-3.1550 WATCH -0.2826
-3.8539 WATERMELON -0.3003
-3.5529 WE -0.3007
-3.5529 WEDDING -0.2868
-3.8539 WEEK -0.2974
-3.0758 WENT -0.2942
-2.3915 WERE -0.2840
-1.3136 WHAT -0.2336
-2.8997 WHEN -0.2356
-1.9455 WHERE -0.2406
-2.3488 WHICH -0.2609
-1.9401 WHO -0.2446
-3.8539 WHOLE -0.3007
-3.5529 WIN -0.2868
-2.4560 WITH -0.2655
-3.8539 WITH? -0.2637
-3.8539 WITHIN -0.2977
-3.3768 WORK -0.3006
-3.5529 WORKING -0.2852
-3.2519 WOULD -0.2881
-2.2205 YEAR -0.2831
-3.8539 YEARS -0.3010
-1.5661 YOU -0.2551
-2.8997 YOU? -0.2637
-2.3099 YOUR -0.2980

\2-grams:
-0.6021 3 CITIES 0.0000
-0.6021 3 OF -0.2780
-2.7694 <s> AND -0.2814
-1.4472 <s> HOW -0.0100
-0.5338 <s> WHAT -0.0025
-2.1673 <s> WHEN -0.0458
-1.1673 <s> WHERE -0.0053
-1.5653 <s> WHICH 0.0000
-1.1673 <s> WHO -0.0105
-0.3010 ? </s> -0.3010
-1.4472 A BIG -0.1761
-1.4472 A BIKE -0.2218
-1.4472 A FIRST -0.2762
-1.4472 A GOOD 0.0000
-1.4472 A GRADUATION 0.0000
-1.4472 A GREAT 0.0000
-1.4472 A LONG -0.2730
-1.4472 A PROFESSOR 0.0000
-1.4472 A REPLY? 0.0000
-1.4472 A SPLENDID 0.0000
-1.1461 A TRIP -0.0792
-1.4472 A WEDDING 0.0000
-1.4472 A WEEK 0.0000
-0.3010 AARON ? 0.0000
-0.3010 ABOUT ? 0.0000
-0.3010 ACTIVITIES DID -0.0542
-0.3010 ADDRESS RECENTLY 0.0000
-0.3010 ADVENTURE ? 0.0000
-0.7782 AFTER LEARNING 0.0000
-0.7782 AFTER THAT -0.2762
-0.7782 AFTER YOU -0.2999
-0.6021 AGE ABOUT 0.0000
-0.6021 AGE WHEN -0.2762
-0.3010 AGO DID -0.0542
-0.7782 ALL ? 0.0000
-0.7782 ALL ELECTED 0.0000
-0.7782 ALL TAKE -0.2730
-0.3010 ALMOST RUN -0.1761
-0.4260 ALSO DID -0.0542
-0.9031 ALSO WENT -0.2632
-0.3010 ALWAYS CHOOSE -0.2218
-0.3010 AMAZING ADVENTURE 0.0000
-0.6021 AN AMAZING 0.0000
-0.6021 AN EXCELLENT 0.0000
-1.8325 AND </s> -0.3010
-1.8325 AND AROUND -0.1249
-1.8325 AND ASKED 0.0000
-1.8325 AND CHOOSE -0.2218
-1.8325 AND DATE 0.0000
-1.8325 AND GRADUATED? 0.0000
-1.8325 AND LAST -0.1761
-1.5315 AND SEASON -0.2430
-1.8325 AND TO -0.2978
-1.5315 AND WHAT -0.2805
-0.4901 AND YEAR -0.0386
-0.3010 ARCHITECTURE ? 0.0000
-1.2553 ARE SEVERAL 0.0000
-0.5563 ARE THE -0.2682
-0.9542 ARE YOU -0.2988
-1.2553 ARE YOUR -0.2948
-0.3010 AREAS WERE -0.0939
-0.4771 AROUND ? 0.0000
-0.7782 AROUND HANGZHOU? 0.0000
-0.3010 ARRIVE THERE -0.0580
-0.3010 AS THE -0.2971
-0.3010 ASIDE AND -0.2946
-0.3010 ASK YOUR -0.2948
-0.3010 ASKED YOU -0.2999
-0.3010 ASTONISHED BY 0.0000
-0.6435 AT ? 0.0000
-1.3424 AT KOREA? 0.0000
-1.3424 AT LAST -0.1761
-1.3424 AT MIDNIGHT 0.0000
-1.3424 AT SAUK 0.0000
-1.3424 AT THAT -0.2762
-1.3424 AT THE -0.2971
-0.3010 AT? </s> -0.3010
-0.3010 ATTRACTION DID -0.0542
-0.3010 BACHELOR DEGREE -0.2218
-0.3010 BANDS COME -0.2553
-0.3010 BATTLING ? 0.0000
-0.3010 BBQ STUFF 0.0000
-0.3010 BEACH DID -0.0542
-0.3010 BEAUTIFUL? </s> -0.3010
-0.4771 BEST FRIEND -0.2218
-0.7782 BEST PART -0.1761
-0.6021 BIG STEEP 0.0000
-0.6021 BIG WEDDING 0.0000
-0.7782 BIKE ? 0.0000
-0.7782 BIKE DID -0.0542
-0.7782 BIKE SEAT 0.0000
-0.3010 BIRTH DAY 0.0000
-0.3010 BIRTHDAY PRESENT? 0.0000
-0.3010 BOY BANDS 0.0000
-0.3010 BREAK ? 0.0000
-0.3010 BRING HIM 0.0000
-0.3010 BROUGHT THE -0.2971
-0.3010 BUY ? 0.0000
-0.3010 BY ? 0.0000
-0.3010 CALL YOU -0.2999
-0.3010 CAN WE -0.1761
-0.3010 CAR AFTER -0.2218
-0.3010 CARE OF -0.2858
-0.3010 CELEBRATE ? 0.0000
-0.7782 CHOOSE ? 0.0000
-0.7782 CHOOSE FIRST -0.2762
-0.7782 CHOOSE TO -0.2978
-0.3010 CITIES DID -0.0542
-1.4150 CITY ? 0.0000
-1.4150 CITY AND -0.2881
-0.7160 CITY DID -0.0542
-1.4150 CITY IS -0.2881
-1.4150 CITY THE -0.2971
-0.9379 CITY WAS -0.2503
-1.4150 CITY WERE -0.0939
-0.3010 CITY? </s> -0.3010
-0.3010 COLLEGES LOCATED 0.0000
-0.9031 COLOR BIKE -0.2218
-0.4260 COLOR WAS -0.1976
-1.0000 COME ? 0.0000
-1.0000 COME FROM? 0.0000
-0.5229 COME TO -0.2913
-0.3010 COMPETITION ? 0.0000
-0.3010 COMPLETE YOUR -0.2948
-0.3010 CONCERT ? 0.0000
-0.3010 COUNTRY WERE -0.0939
-0.3010 DATE IS -0.2881
-0.3010 DAY ? 0.0000
-0.3010 DAY, AND -0.1313
-0.3010 DAY? </s> -0.3010
-0.3979 DAYS DID -0.0542
-1.0000 DAYS IN -0.2906
-0.3010 DECIDE TO -0.2978
-0.4771 DEGREE ? 0.0000
-0.7782 DEGREE AND -0.2946
-0.3010 DESIGNED A -0.2852
-2.4997 DID CALL 0.0000
-2.4997 DID GO -0.1427
-2.0226 DID I -0.0969
-2.1987 DID IT -0.2762
-2.4997 DID LEARNED 0.0000
-2.4997 DID PROPOSE 0.0000
-2.0226 DID SHE -0.1963
-2.4997 DID TELL -0.1761
-2.4997 DID THE -0.2971
-2.0226 DID THIS -0.2304
-0.3630 DID YOU -0.0996
-1.8976 DID YOUR -0.2341
-0.3010 DIFFICULT TO -0.2946
-0.3010 DISCUSSING WHAT -0.3004
-0.5563 DO ? 0.0000
-1.2553 DO CONCERT 0.0000
-1.2553 DO FOR -0.2632
-0.9542 DO YOU -0.2977
-0.7782 DOING ? 0.0000
-0.4771 DOING EXCHANGE 0.0000
-0.3010 DRINKING ? 0.0000
-0.3010 DRIVE ? 0.0000
-0.3010 DROP IT -0.0872
-0.3010 EAT ? 0.0000
-0.3010 ELECTED MEMBERS 0.0000
-0.3010 EMAIL ADDRESS 0.0000
-0.3010 ENCOUNTER A -0.2852
-0.3010 END? </s> -0.3010
-0.3010 ENJOY IN -0.2906
-0.3010 ENTER TILL 0.0000
-0.3010 ENTRANCE? </s> -0.3010
-0.3010 EVENING TO -0.2978
-0.3010 EVENT ? 0.0000
-0.3010 EVER JOB -0.2430
-0.3010 EVERYTHING SEEM 0.0000
-0.3010 EXCELLENT FACULTY 0.0000
-0.3010 EXCHANGE PROGRAM 0.0000
-0.3010 EXCITED TO -0.2946
-0.3010 EXCITING MOMENT 0.0000
-0.3010 EXPERIENCE DID -0.0542
-0.3010 EXPO ? 0.0000
-0.3010 FACULTY MEMBER 0.0000
-0.9031 FAVORITE BOY 0.0000
-0.9031 FAVORITE CITY? 0.0000
-0.9031 FAVORITE GAME 0.0000
-0.9031 FAVORITE RIDE -0.1761
-0.3010 FINALLY ? 0.0000
-0.3010 FIND OUT -0.1761
-0.3010 FINISH YOUR -0.2948
-1.2553 FIRST ? 0.0000
-1.2553 FIRST AND -0.2946
-1.2553 FIRST EVER 0.0000
-1.2553 FIRST INTERNSHIP 0.0000
-0.7782 FIRST JOB -0.0969
-0.9542 FIRST TIME -0.0669
-0.9031 FOR ? 0.0000
-1.3802 FOR AROUND -0.1249
-1.3802 FOR AT -0.2808
-1.3802 FOR FURTHER 0.0000
-1.0792 FOR HER -0.2430
-1.0792 FOR THE -0.2849
-1.3802 FOR YOU -0.2954
-1.3802 FOR YOUR -0.2948
-0.3010 FOUND YOUR -0.2755
-1.0792 FRIEND ? 0.0000
-1.0792 FRIEND DID -0.0542
-0.7782 FRIEND USED 0.0000
-1.0792 FRIEND WHO -0.2984
-1.0792 FRIEND WITH -0.2742
-0.7782 FRIENDS IN -0.1402
-0.7782 FRIENDS MOST 0.0000
-0.7782 FRIENDS YOU -0.2999
-0.6021 FROM ? 0.0000
-0.9031 FROM AND -0.2946
-0.9031 FROM MY 0.0000
-0.3010 FROM? </s> -0.3010
-0.3010 FULL NAME -0.2747
-0.3010 FURTHER STUDY -0.0792
-0.3010 GAME ? 0.0000
-0.3010 GAVE YOU -0.2999
-0.6021 GET THERE? 0.0000
-0.9031 GET THIS -0.2788
-0.9031 GET TO -0.2814
-0.3010 GIRLFRIEND ON -0.2553
-1.8573 GO AFTER -0.2218
-1.8573 GO FINALLY 0.0000
-1.5563 GO FOR -0.2218
-1.8573 GO THERE -0.2688
-0.5149 GO TO -0.1761
-1.8573 GO TO? 0.0000
-1.8573 GO TOO 0.0000
-1.0122 GO WITH -0.1072
-0.3010 GOOD TIME -0.0669
-0.3010 GRADUATE ? 0.0000
-0.3010 GRADUATED? </s> -0.3010
-0.3010 GRADUATION TRIP -0.2041
-0.3010 GRANDMA'S NAME -0.2747
-0.3010 GREAT EVENING 0.0000
-0.4771 HAD A -0.2688
-0.7782 HAD EXCITING 0.0000
-0.3010 HALF PRICE, 0.0000
-0.3010 HANG OUT -0.1761
-0.3010 HANGZHOU? </s> -0.3010
-0.3010 HAPPEN ? 0.0000
-0.3010 HAPPEN? </s> -0.3010
-0.4260 HAPPENED TO -0.2679
-0.9031 HAPPENED WITH -0.2923
-0.3010 HARD FOR -0.2825
-0.6368 HAVE ? 0.0000
-0.8129 HAVE A -0.2341
-1.4150 HAVE AN -0.1761
-1.4150 HAVE WITH -0.1335
-1.4150 HAVE YOU -0.2999
-0.3010 HE AN -0.1761
-0.3010 HEADING TO -0.2357
-0.9031 HER ? 0.0000
-1.2041 HER BIRTH 0.0000
-1.2041 HER FRIENDS -0.2218
-1.2041 HER HUSBAND 0.0000
-0.9031 HER MASTER 0.0000
-1.2041 HER SON? 0.0000
-0.3010 HIGH SCHOOL -0.2499
-0.3010 HIKE FOR -0.2825
-0.3010 HIM ? 0.0000
-0.3010 HIRED TO -0.2978
-0.7782 HIS CAR 0.0000
-0.7782 HIS EMAIL 0.0000
-0.7782 HIS GIRLFRIEND 0.0000
-0.3010 HOLDING YOUR -0.2948
-0.3010 HOSPITAL WAS -0.2898
-0.3010 HOSTED THE -0.2971
-0.3010 HOTEL ? 0.0000
-0.3010 HOUR ? 0.0000
-0.6123 HOW </s> -0.3010
-1.9345 HOW EVERYTHING 0.0000
-1.0894 HOW LONG -0.0512
-1.0314 HOW MANY 0.0000
-1.1563 HOW OLD 0.0000
-0.3010 HUSBAND ? 0.0000
-0.9031 I ? 0.0000
-0.6021 I VISIT -0.2553
-0.9031 I WIN 0.0000
-0.5093 IN ? 0.0000
-1.6232 IN A -0.2852
-1.6232 IN AND -0.2946
-1.6232 IN HIS -0.2218
-1.6232 IN HOTEL 0.0000
-1.6232 IN SCHOOL? 0.0000
-1.6232 IN THAT -0.2762
-1.6232 IN THE -0.2971
-1.6232 IN US? 0.0000
-0.3010 IN? </s> -0.3010
-0.3010 INTERNSHIP INTERVIEW -0.1761
-0.3010 INTERSHIP AT -0.1891
-0.6021 INTERVIEW ? 0.0000
-0.9031 INTERVIEW IN -0.1402
-0.9031 INTERVIEW WITH -0.1335
-0.3010 INTERVIEWER SHARE 0.0000
-1.5315 IS HE 0.0000
-1.5315 IS HER -0.2730
-0.3854 IS THE -0.2328
-1.5315 IS UNIVERSITY -0.2688
-0.3010 ISI ? 0.0000
-0.4102 IT ? 0.0000
-1.5563 IT A -0.2852
-1.5563 IT HAVE -0.1871
-1.5563 IT REALLY -0.2218
-1.5563 IT TAKE -0.2109
-0.3010 IT? </s> -0.3010
-0.4260 JOB ? 0.0000
-0.9031 JOB INTERVIEW -0.2430
-0.3010 JOIN ISI 0.0000
-0.4260 KIND OF -0.2780
-0.9031 KIND TO -0.2913
-0.3010 KOREA ? 0.0000
-0.3010 KOREA? </s> -0.3010
-0.3010 LAS VEGAS? 0.0000
-0.6021 LAST ? 0.0000
-0.6021 LAST NAMES 0.0000
-0.5229 LEARN ? 0.0000
-1.0000 LEARN AT -0.2808
-1.0000 LEARN TO -0.2978
-0.3010 LEARNED TO -0.2946
-0.3010 LEARNING ? 0.0000
-0.3010 LIKED HER -0.2430
-0.3010 LINING FOR -0.2430
-0.6021 LIVE IN -0.1402
-0.6021 LIVE IN? 0.0000
-0.3010 LOCATED IN -0.2906
-0.3010 LOCATION ? 0.0000
-0.3590 LONG DID -0.0394
-1.2041 LONG TIME -0.0669
-0.3010 MADE ? 0.0000
-0.3010 MAINLY RESPONSIBLE 0.0000
-0.3010 MAKE ? 0.0000
-0.3010 MANAGER YOU -0.2999
-0.6021 MANY DAYS -0.0792
-1.2041 MANY DID -0.0542
-0.9031 MANY OF -0.2858
-1.2041 MANY YEARS 0.0000
-0.3010 MASTER DEGREE -0.1249
-1.0000 MEET 3 -0.1761
-0.5229 MEET ? 0.0000
-1.0000 MEET THERE -0.0580
-0.3010 MEET, BEST -0.1249
-0.3010 MEET? </s> -0.3010
-0.3010 MEMBER AT -0.1891
-0.3010 MEMBERS ? 0.0000
-0.3010 MIDNIGHT ? 0.0000
-0.3010 MODEL WAS -0.2420
-0.3010 MOM ? 0.0000
-0.3010 MOMENT ? 0.0000
-0.3010 MONTH AND -0.1217
-0.3010 MONTH, DAY, 0.0000
-0.3010 MORNING? </s> -0.3010
-0.3010 MOST FROM -0.1761
-0.6021 MOTHER TAKE -0.2109
-0.6021 MOTHER USE -0.1761
-0.6021 MOVE TO -0.2978
-0.6021 MOVE TO? 0.0000
-0.6021 MOVIE FROM -0.2430
-0.6021 MOVIE HAVE -0.2840
-0.3010 MY SCHOOL -0.2499
-1.2304 NAME ? 0.0000
-1.5315 NAME AARON 0.0000
-1.5315 NAME DID -0.0542
-0.4175 NAME OF -0.1711
-0.3010 NAMES OF -0.2619
-0.3010 NEW AREAS 0.0000
-0.6021 NEXT DAY? 0.0000
-0.6021 NEXT MORNING? 0.0000
-0.3010 NOT HAVE -0.2840
-1.4624 OF ? 0.0000
-1.7634 OF A -0.2852
-1.7634 OF ALL -0.2218
-1.2863 OF HER -0.2109
-1.7634 OF LIKED 0.0000
-1.7634 OF PERSON -0.2341
-1.7634 OF PET -0.1761
-1.7634 OF THAT -0.2762
-0.9853 OF THE -0.2725
-1.7634 OF THIS -0.2788
-1.7634 OF THREE -0.1249
-1.7634 OF TRIP -0.2553
-1.2863 OF TWO -0.1249
-1.4624 OF YOU -0.2977
-1.1614 OF YOUR -0.2483
-0.3010 OFF ? 0.0000
-0.7782 OLD WAS -0.2936
-0.6021 OLD WERE -0.0817
-1.0792 OLD YOUR -0.2884
-1.0000 ON ? 0.0000
-1.0000 ON THAT -0.2762
-1.0000 ON THIS -0.2788
-0.6990 ON YOUR -0.2884
-0.6021 OUT ? 0.0000
-0.6021 OUT HIS -0.2218
-0.3010 OVER ? 0.0000
-0.3010 PARENTS SAYING -0.1761
-0.3010 PARK DID -0.0542
-0.6021 PART ? 0.0000
-0.6021 PART IN -0.1402
-0.3010 PARTICIPATE THE -0.2971
-0.6021 PARTY ? 0.0000
-0.6021 PARTY AT -0.1891
-0.3010 PASSWORD OF -0.2858
-0.3010 PEAK WITH -0.1335
-1.0792 PEOPLE HAD -0.2218
-0.7782 PEOPLE THAT -0.2499
-1.0792 PEOPLE WENT -0.1761
-1.0792 PEOPLE WERE -0.2935
-1.0792 PEOPLE YOU -0.2920
-0.8451 PERSON TO -0.2913
-1.1461 PERSON TOOK 0.0000
-1.1461 PERSON WAS -0.2973
-1.1461 PERSON WHO -0.2984
-0.8451 PERSON YOU -0.2965
-0.6021 PET IN -0.2906
-0.6021 PET WAS -0.2973
-0.3010 PET? </s> -0.3010
-0.7782 PLACE ? 0.0000
-0.7782 PLACE THAT -0.2499
-0.7782 PLACE TO -0.2946
-0.3010 PLAY ? 0.0000
-0.3010 PLAY? </s> -0.3010
-0.3010 PLAYING WITH -0.1335
-0.3010 PLAYING? </s> -0.3010
-0.3010 PRACTICE? </s> -0.3010
-0.3010 PRESENT? </s> -0.3010
-0.3010 PRICE, ON -0.2553
-0.3010 PROFESSOR ? 0.0000
-0.3010 PROGRAM ? 0.0000
-0.3010 PROPOSE TO -0.2978
-0.3010 PROPOSED TO -0.2881
-0.7782 REALLY DIFFICULT 0.0000
-0.7782 REALLY ENJOY 0.0000
-0.7782 REALLY HARD 0.0000
-0.6021 RECEIVE A -0.2852
-0.6021 RECEIVE AT -0.2808
-0.3010 RECENTLY ? 0.0000
-0.3010 RELATIONSHIP OF -0.2452
-0.3010 RELATIONSHOP OF -0.2935
-0.4771 REMEMBER ? 0.0000
-0.7782 REMEMBER HOW -0.2960
-0.3010 RENT ? 0.0000
-0.3010 REPLY? </s> -0.3010
-0.3010 RESPONSIBLE ? 0.0000
-0.3010 RETREAT IN -0.1402
-0.6021 RIDE ? 0.0000
-0.6021 RIDE A -0.2852
-0.3010 RIDE? </s> -0.3010
-0.3010 RIDING ? 0.0000
-0.3010 RIVER? </s> -0.3010
-0.3010 ROAD WERE -0.0939
-0.3010 ROOM WERE -0.0939
-0.6021 RUN AFTER -0.2218
-0.6021 RUN OVER 0.0000
-0.3010 SAUK RIVER? 0.0000
-0.6021 SAYING ? 0.0000
-0.6021 SAYING YOU -0.2908
-0.9542 SCHOOL ? 0.0000
-0.9542 SCHOOL DID -0.0542
-0.9542 SCHOOL WAS -0.2377
-0.7782 SCHOOL WERE -0.0939
-0.3010 SCHOOL? </s> -0.3010
-0.4260 SEASON AND -0.1313
-1.2041 SEASON DID -0.0542
-1.2041 SEASON WAS -0.2420
-0.3010 SEAT ? 0.0000
-0.3010 SECOND DAY? 0.0000
-0.3010 SEEM IN -0.2906
-0.3010 SEEN ? 0.0000
-0.3010 SEVERAL FRIENDS -0.2218
-0.3010 SHANGHAI EXPO 0.0000
-0.3010 SHARE ? 0.0000
-1.1461 SHE BATTLING 0.0000
-0.8451 SHE COME -0.1461
-1.1461 SHE DO -0.1597
-0.8451 SHE IN? 0.0000
-1.1461 SHE TAKE -0.2109
-0.3010 SHE? </s> -0.3010
-0.3010 SISTER ? 0.0000
-0.3010 SIT ? 0.0000
-0.3010 SLOPE? </s> -0.3010
-0.3010 SON? </s> -0.3010
-0.3010 SPEND ? 0.0000
-0.3010 SPLENDID ARCHITECTURE 0.0000
-0.6021 START OFF 0.0000
-0.6021 START WORKING -0.1761
-0.3010 STARTED TO -0.2946
-0.3010 STATES DID -0.0542
-0.6021 STAY ? 0.0000
-0.6021 STAY AT -0.1627
-0.3010 STAY? </s> -0.3010
-0.3010 STEAL WATERMELON 0.0000
-0.3010 STEEP SLOPE? 0.0000
-0.3979 STUDY ? 0.0000
-1.0000 STUDY AT -0.1891
-0.3010 STUFF ? 0.0000
-0.3010 SUBJECT NAME -0.2881
-0.3010 SURFING ? 0.0000
-1.2041 TAKE CARE 0.0000
-1.2041 TAKE PART -0.1761
-0.9031 TAKE THERE -0.0580
-1.2041 TAKE TO -0.2978
-0.7270 TAKE YOU -0.2954
-0.6021 TAUGHT YOU -0.2908
-0.6021 TAUGHT YOU? 0.0000
-0.6021 TELL THAT -0.2499
-0.6021 TELL THE -0.2849
-0.3010 TENT, BBQ 0.0000
-1.2553 THAT ? 0.0000
-1.2553 THAT ALSO -0.2430
-1.2553 THAT CITY? 0.0000
-1.2553 THAT DAY? 0.0000
-1.2553 THAT PERSON -0.2341
-1.2553 THAT TIME -0.0669
-1.2553 THAT WENT -0.1761
-0.9542 THAT YOU -0.2988
-2.0414 THE BEST -0.2218
-2.0414 THE BIG -0.1761
-2.0414 THE CITY -0.2840
-2.0414 THE COMPETITION 0.0000
-2.0414 THE END? 0.0000
-2.0414 THE ENTRANCE? 0.0000
-1.5643 THE FIRST -0.2218
-1.7404 THE INTERVIEW -0.0969
-2.0414 THE INTERVIEWER 0.0000
-2.0414 THE LOCATION 0.0000
-2.0414 THE MOVIE -0.1761
-0.9274 THE NAME -0.0918
-1.4393 THE NAMES 0.0000
-1.7404 THE NEXT 0.0000
-1.7404 THE PARTY 0.0000
-2.0414 THE PASSWORD 0.0000
-2.0414 THE PEAK 0.0000
-1.4393 THE PERSON -0.1091
-2.0414 THE PET -0.1761
-2.0414 THE PET? 0.0000
-1.5643 THE PLACE 0.0000
-1.7404 THE RELATIONSHIP 0.0000
-2.0414 THE RELATIONSHOP 0.0000
-2.0414 THE RETREAT 0.0000
-2.0414 THE SCHOOL -0.2499
-2.0414 THE TENT, 0.0000
-2.0414 THE THREE -0.1249
-2.0414 THE VEHICLE 0.0000
-2.0414 THE WHOLE 0.0000
-0.3680 THERE ? 0.0000
-1.1461 THERE WITH -0.1335
-0.3010 THERE? </s> -0.3010
-0.3010 THESE COLLEGES 0.0000
-1.3010 THIS EVENT 0.0000
-1.3010 THIS HAPPEN 0.0000
-1.0000 THIS HAPPEN? 0.0000
-1.0000 THIS IN -0.1402
-1.3010 THIS PERSON -0.2341
-1.3010 THIS PET? 0.0000
-1.3010 THIS TO -0.2881
-1.3010 THIS TRIP -0.2041
-0.3010 THIS? </s> -0.3010
-0.7782 THREE CITIES 0.0000
-0.4771 THREE PEOPLE -0.1761
-0.3010 TILL A -0.2852
-0.3802 TIME ? 0.0000
-1.0792 TIME FROM -0.2430
-0.8548 TO ? 0.0000
-2.1335 TO AND -0.2946
-2.1335 TO BRING 0.0000
-2.1335 TO CELEBRATE 0.0000
-1.8325 TO DO -0.1249
-1.8325 TO DRIVE 0.0000
-2.1335 TO EAT 0.0000
-2.1335 TO FOR -0.2825
-1.6564 TO GET 0.0000
-2.1335 TO HIS -0.2218
-1.8325 TO KOREA 0.0000
-2.1335 TO LAS 0.0000
-1.8325 TO LEARN -0.0792
-2.1335 TO ON -0.2041
-2.1335 TO PARTICIPATE 0.0000
-2.1335 TO PLAY? 0.0000
-2.1335 TO PRACTICE? 0.0000
-2.1335 TO RIDE -0.1761
-2.1335 TO RIDE? 0.0000
-1.6564 TO STUDY -0.0792
-2.1335 TO SURFING 0.0000
-1.3554 TO THE -0.2553
-1.8325 TO US 0.0000
-2.1335 TO US? 0.0000
-2.1335 TO USC 0.0000
-2.1335 TO VEGAS 0.0000
-2.1335 TO WAS -0.2377
-2.1335 TO WITH -0.1335
-2.1335 TO WORK -0.2218
-1.5315 TO YOU -0.2874
-1.6564 TO YOU? 0.0000
-0.3010 TO? </s> -0.3010
-0.3010 TOLD YOU -0.2999
-0.3010 TOO ? 0.0000
-0.3010 TOOK YOU -0.2943
-0.3010 TOWN DID -0.0542
-0.3010 TOY DID -0.0542
-0.3010 TRANSPORTATION DID -0.0542
-0.3010 TRANSPORTATIONS DID -0.0542
-1.0000 TRAVEL AROUND -0.2218
-1.0000 TRAVEL FROM -0.1761
-0.5229 TRAVEL TO -0.2089
-0.3010 TRAVEL? </s> -0.3010
-0.6990 TRIP ? 0.0000
-0.6990 TRIP TO -0.2357
-1.0000 TRIP WAS -0.2898
-1.0792 TWO NEW 0.0000
-0.4771 TWO PEOPLE -0.0669
-1.0792 TWO TRANSPORTATIONS 0.0000
-0.3010 UNDERGRADUATE STUDY -0.2553
-0.5441 UNIVERSITY DID -0.0469
-1.1461 UNIVERSITY IN -0.1402
-1.1461 UNIVERSITY WAS -0.2377
-1.1461 UNIVERSITY WERE -0.0939
-0.3010 US FOR -0.2632
-0.3010 US? </s> -0.3010
-0.3010 USC ? 0.0000
-1.0792 USE ? 0.0000
-1.0792 USE AS 0.0000
-0.6021 USE TO -0.2881
-1.0792 USE WITHIN 0.0000
-0.3010 USED TO -0.2913
-0.3010 VEGAS ? 0.0000
-0.3010 VEGAS? </s> -0.3010
-0.3010 VEHICLE ? 0.0000
-0.6021 VERY BEAUTIFUL? 0.0000
-0.6021 VERY KIND -0.2430
-0.6990 VISIT ? 0.0000
-1.3010 VISIT HER -0.2430
-1.3010 VISIT IN -0.2906
-1.3010 VISIT SHANGHAI 0.0000
-1.0000 VISIT WITH -0.1335
-1.3010 VISIT WITH? 0.0000
-0.3010 VISIT? </s> -0.3010
-0.4771 VISITED ? 0.0000
-0.7782 VISITED YOU? 0.0000
-0.3010 VISITING? </s> -0.3010
-2.0719 WAS HALF 0.0000
-2.0719 WAS I -0.2430
-2.0719 WAS IN -0.1402
-0.8958 WAS IT -0.0458
-1.5948 WAS IT? 0.0000
-2.0719 WAS REALLY -0.2218
-1.5948 WAS SHE -0.1963
-2.0719 WAS SHE? 0.0000
-1.0719 WAS THE -0.2090
-1.5948 WAS THIS -0.2304
-2.0719 WAS THIS? 0.0000
-2.0719 WAS VERY -0.1761
-2.0719 WAS VISITING? 0.0000
-2.0719 WAS WITH -0.2742
-0.8678 WAS YOUR -0.1549
-0.6990 WATCH ? 0.0000
-1.0000 WATCH AT -0.2808
-1.0000 WATCH AT? 0.0000
-1.0000 WATCH THE -0.2931
-0.3010 WATERMELON FOR -0.2430
-0.6021 WE STEAL 0.0000
-0.6021 WE WOULD -0.2430
-0.3010 WEDDING ? 0.0000
-0.3010 WEEK WAS -0.2377
-1.0792 WENT FOR -0.2632
-1.0792 WENT THERE -0.0580
-1.0792 WENT TO -0.2946
-0.6021 WENT WITH -0.2455
-1.7634 WERE SAYING -0.1761
-1.7634 WERE THERE -0.0580
-1.7634 WERE THESE 0.0000
-1.7634 WERE VERY -0.1761
-1.7634 WERE WITH -0.2742
-0.4210 WERE YOU -0.2661
-1.7634 WERE YOU? 0.0000
-1.7634 WERE YOUR -0.2948
-0.6058 WHAT </s> -0.3010
-2.8414 WHAT ACTIVITIES 0.0000
-2.3642 WHAT ALSO -0.0969
-2.2393 WHAT ARE -0.1597
-2.8414 WHAT CAN 0.0000
-1.8414 WHAT CITY -0.0322
-2.2393 WHAT COLOR 0.0000
-2.8414 WHAT COUNTRY 0.0000
-2.8414 WHAT DAYS -0.2553
-1.3500 WHAT DID -0.0241
-2.5403 WHAT DO -0.2499
-2.8414 WHAT EXPERIENCE 0.0000
-2.2393 WHAT HAPPENED 0.0000
-2.8414 WHAT HOSPITAL 0.0000
-1.6952 WHAT IS -0.0706
-2.5403 WHAT KIND -0.0969
-2.5403 WHAT MODEL 0.0000
-1.6372 WHAT MONTH 0.0000
-2.8414 WHAT MONTH, 0.0000
-2.8414 WHAT MOVIE -0.1761
-2.8414 WHAT ROAD 0.0000
-2.8414 WHAT ROOM 0.0000
-2.3642 WHAT SCHOOL -0.0872
-2.0632 WHAT SEASON -0.0969
-2.8414 WHAT STATES 0.0000
-2.8414 WHAT SUBJECT 0.0000
-2.8414 WHAT TIME -0.2632
-2.8414 WHAT TOWN 0.0000
-2.8414 WHAT TOY 0.0000
-2.0632 WHAT TRANSPORTATION 0.0000
-2.3642 WHAT TWO 0.0000
-2.3642 WHAT UNIVERSITY -0.1091
-1.6109 WHAT WAS -0.0804
-2.8414 WHAT WE -0.1761
-2.0632 WHAT WERE -0.0817
-2.5403 WHAT WOULD -0.1761
-1.5191 WHAT YEAR 0.0000
-0.6532 WHEN </s> -0.3010
-0.7782 WHEN DID -0.0542
-1.2553 WHEN WAS -0.2420
-1.2553 WHEN YOU -0.2999
-0.6075 WHERE </s> -0.3010
-2.2095 WHERE ARE -0.2762
-0.7782 WHERE DID -0.0343
-2.2095 WHERE IS -0.2881
-2.2095 WHERE TO -0.2913
-1.3644 WHERE WAS -0.1156
-1.6075 WHERE WERE -0.0817
-1.8062 WHICH 3 -0.1761
-0.6021 WHICH </s> -0.3010
-1.8062 WHICH ATTRACTION 0.0000
-1.5051 WHICH BEACH 0.0000
-1.8062 WHICH CITIES 0.0000
-1.5051 WHICH CITY -0.1413
-1.8062 WHICH COUNTRY 0.0000
-1.8062 WHICH PARK 0.0000
-1.3291 WHICH SCHOOL -0.1597
-1.8062 WHICH THREE -0.2218
-1.3291 WHICH UNIVERSITY -0.1091
-0.6128 WHO </s> -0.3010
-1.7377 WHO ARE -0.0872
-2.2148 WHO BROUGHT 0.0000
-2.2148 WHO DESIGNED 0.0000
-0.9138 WHO DID -0.0419
-2.2148 WHO GAVE 0.0000
-2.2148 WHO HAD -0.1249
-2.2148 WHO HOSTED 0.0000
-2.2148 WHO PROPOSED 0.0000
-1.9138 WHO TAUGHT 0.0000
-2.2148 WHO TOLD 0.0000
-2.2148 WHO USED 0.0000
-1.9138 WHO VISITED 0.0000
-1.9138 WHO WAS -0.2335
-2.2148 WHO WENT -0.1761
-1.7377 WHO WERE -0.0691
-2.2148 WHO WOULD -0.2430
-0.3010 WHOLE DAY? 0.0000
-0.3010 WIN ? 0.0000
-0.4949 WITH ? 0.0000
-1.6990 WITH ON -0.2041
-1.6990 WITH THE -0.2971
-1.6990 WITH TO -0.2946
-1.2218 WITH YOU -0.2908
-1.2218 WITH YOU? 0.0000
-0.3010 WITH? </s> -0.3010
-0.3010 WITHIN THE -0.2971
-0.4771 WORK HOUR 0.0000
-0.7782 WORK ON -0.2553
-0.6021 WORKING ? 0.0000
-0.6021 WORKING WITH -0.1335
-0.9031 WOULD RUN -0.1761
-0.9031 WOULD SHE -0.2688
-0.9031 WOULD USE -0.2632
-0.9031 WOULD YOU -0.2999
-1.6335 YEAR AND -0.2881
-1.9345 YEAR ARE -0.2762
-0.5031 YEAR DID -0.0292
-0.8553 YEAR WAS -0.0804
-1.9345 YEAR WERE -0.0939
-0.3010 YEARS AGO 0.0000
-1.6346 YOU ? 0.0000
-2.2878 YOU ALL -0.1249
-2.5888 YOU ALMOST 0.0000
-2.5888 YOU ALWAYS 0.0000
-2.5888 YOU ARRIVE 0.0000
-2.5888 YOU ASIDE 0.0000
-2.5888 YOU ASK 0.0000
-2.5888 YOU ASTONISHED 0.0000
-2.5888 YOU AT -0.2808
-2.5888 YOU BREAK 0.0000
-2.5888 YOU BUY 0.0000
-2.5888 YOU CHOOSE -0.2218
-2.2878 YOU COME -0.0792
-2.5888 YOU COMPLETE 0.0000
-2.5888 YOU DECIDE 0.0000
-2.5888 YOU DISCUSSING 0.0000
-1.9868 YOU DO -0.1249
-2.1117 YOU DOING 0.0000
-2.5888 YOU DRINKING 0.0000
-2.5888 YOU DROP 0.0000
-2.5888 YOU ENCOUNTER 0.0000
-2.5888 YOU ENTER 0.0000
-2.5888 YOU EXCITED 0.0000
-2.5888 YOU FIND 0.0000
-2.5888 YOU FINISH 0.0000
-2.5888 YOU FOR -0.2825
-2.5888 YOU FOUND 0.0000
-2.5888 YOU GET -0.1761
-1.0448 YOU GO 0.0000
-2.5888 YOU GRADUATE 0.0000
-2.5888 YOU HAD -0.1249
-2.5888 YOU HANG 0.0000
-1.5888 YOU HAVE -0.0621
-2.5888 YOU HEADING 0.0000
-2.5888 YOU HIKE 0.0000
-2.5888 YOU HIRED 0.0000
-2.5888 YOU HOLDING 0.0000
-1.8107 YOU IN -0.1091
-2.2878 YOU IN? 0.0000
-2.5888 YOU JOIN 0.0000
-2.5888 YOU KIND -0.0969
-2.1117 YOU LEARN -0.0792
-2.5888 YOU LINING 0.0000
-2.2878 YOU LIVE 0.0000
-2.5888 YOU MADE 0.0000
-2.5888 YOU MAINLY 0.0000
-2.5888 YOU MAKE 0.0000
-1.8899 YOU MEET 0.0000
-2.5888 YOU MEET, 0.0000
-2.2878 YOU MEET? 0.0000
-2.2878 YOU MOVE 0.0000
-2.5888 YOU NAME -0.2881
-2.5888 YOU NOT 0.0000
-2.2878 YOU PLAY 0.0000
-2.5888 YOU PLAYING 0.0000
-2.5888 YOU PLAYING? 0.0000
-2.5888 YOU REALLY -0.2218
-2.2878 YOU RECEIVE 0.0000
-2.1117 YOU REMEMBER 0.0000
-2.5888 YOU RENT 0.0000
-2.5888 YOU RIDING 0.0000
-2.5888 YOU SEEN 0.0000
-2.5888 YOU SIT 0.0000
-2.5888 YOU SPEND 0.0000
-2.2878 YOU START 0.0000
-2.5888 YOU STARTED 0.0000
-1.9868 YOU STAY 0.0000
-2.2878 YOU STAY? 0.0000
-1.9868 YOU TAKE -0.1761
-2.5888 YOU TELL -0.1761
-2.5888 YOU THIS -0.2788
-1.8899 YOU TO -0.2319
-1.8899 YOU TRAVEL 0.0000
-2.5888 YOU TRAVEL? 0.0000
-1.9868 YOU USE -0.0669
-1.6857 YOU VISIT -0.0792
-2.5888 YOU VISIT? 0.0000
-2.5888 YOU VISITED -0.1249
-1.8899 YOU WATCH 0.0000
-2.2878 YOU WENT -0.2218
-2.5888 YOU WERE -0.2935
-2.5888 YOU WHERE -0.2983
-2.5888 YOU WIN 0.0000
-2.2878 YOU WITH -0.1335
-2.5888 YOU WORKING -0.1761
-0.3010 YOU? </s> -0.3010
-1.5441 YOUR AGE 0.0000
-1.8451 YOUR BACHELOR 0.0000
-1.8451 YOUR BEST -0.1249
-1.8451 YOUR BIKE -0.2218
-1.8451 YOUR BIRTHDAY 0.0000
-1.2430 YOUR FAVORITE 0.0000
-1.2430 YOUR FIRST -0.1919
-1.2430 YOUR FRIEND -0.1249
-1.8451 YOUR FRIENDS -0.2218
-1.8451 YOUR FULL 0.0000
-1.8451 YOUR GRANDMA'S 0.0000
-1.8451 YOUR HIGH 0.0000
-1.8451 YOUR INTERSHIP 0.0000
-1.8451 YOUR MANAGER 0.0000
-1.8451 YOUR MOM 0.0000
-1.5441 YOUR MOTHER 0.0000
-1.8451 YOUR PARENTS 0.0000
-1.5441 YOUR SECOND 0.0000
-1.5441 YOUR SISTER 0.0000
-1.8451 YOUR UNDERGRADUATE 0.0000
-1.5441 YOUR WORK -0.1249

\3-grams:
-0.3010 3 CITIES DID
-0.3010 3 OF HER
-0.6021 <s> AND </s>
-0.6021 <s> AND WHAT
-0.6021 <s> HOW </s>
-1.0792 <s> HOW LONG
-1.0212 <s> HOW MANY
-1.1461 <s> HOW OLD
-0.6021 <s> WHAT </s>
-2.8376 <s> WHAT ACTIVITIES
-2.3605 <s> WHAT ALSO
-2.2355 <s> WHAT ARE
-2.8376 <s> WHAT CAN
-1.8376 <s> WHAT CITY
-2.2355 <s> WHAT COLOR
-2.8376 <s> WHAT DAYS
-1.3605 <s> WHAT DID
-2.5366 <s> WHAT DO
-2.8376 <s> WHAT EXPERIENCE
-2.2355 <s> WHAT HAPPENED
-2.8376 <s> WHAT HOSPITAL
-1.6915 <s> WHAT IS
-2.5366 <s> WHAT KIND
-2.5366 <s> WHAT MODEL
-1.6335 <s> WHAT MONTH
-2.8376 <s> WHAT MONTH,
-2.8376 <s> WHAT MOVIE
-2.8376 <s> WHAT ROAD
-2.8376 <s> WHAT ROOM
-2.3605 <s> WHAT SCHOOL
-2.0594 <s> WHAT SEASON
-2.8376 <s> WHAT STATES
-2.8376 <s> WHAT SUBJECT
-2.8376 <s> WHAT TIME
-2.8376 <s> WHAT TOWN
-2.8376 <s> WHAT TOY
-2.0594 <s> WHAT TRANSPORTATION
-2.3605 <s> WHAT TWO
-2.3605 <s> WHAT UNIVERSITY
-1.6071 <s> WHAT WAS
-2.0594 <s> WHAT WERE
-2.5366 <s> WHAT WOULD
-1.5154 <s> WHAT YEAR
-0.6021 <s> WHEN </s>
-0.7270 <s> WHEN DID
-1.2041 <s> WHEN WAS
-0.6021 <s> WHERE </s>
-2.2041 <s> WHERE ARE
-0.7728 <s> WHERE DID
-2.2041 <s> WHERE IS
-1.3590 <s> WHERE WAS
-1.6021 <s> WHERE WERE
-1.8062 <s> WHICH 3
-0.6021 <s> WHICH </s>
-1.8062 <s> WHICH ATTRACTION
-1.5051 <s> WHICH BEACH
-1.8062 <s> WHICH CITIES
-1.5051 <s> WHICH CITY
-1.8062 <s> WHICH COUNTRY
-1.8062 <s> WHICH PARK
-1.3291 <s> WHICH SCHOOL
-1.8062 <s> WHICH THREE
-1.3291 <s> WHICH UNIVERSITY
-0.6021 <s> WHO </s>
-1.7270 <s> WHO ARE
-2.2041 <s> WHO BROUGHT
-2.2041 <s> WHO DESIGNED
-0.9031 <s> WHO DID
-2.2041 <s> WHO GAVE
-2.2041 <s> WHO HAD
-2.2041 <s> WHO HOSTED
-1.9031 <s> WHO TAUGHT
-2.2041 <s> WHO TOLD
-1.9031 <s> WHO VISITED
-1.9031 <s> WHO WAS
-2.2041 <s> WHO WENT
-1.7270 <s> WHO WERE
-2.2041 <s> WHO WOULD
-0.3010 A BIG STEEP
-0.3010 A BIKE ?
-0.3010 A FIRST EVER
-0.3010 A GOOD TIME
-0.3010 A GRADUATION TRIP
-0.3010 A GREAT EVENING
-0.3010 A LONG TIME
-0.3010 A PROFESSOR ?
-0.3010 A REPLY? </s>
-0.3010 A SPLENDID ARCHITECTURE
-0.6021 A TRIP ?
-0.6021 A TRIP TO
-0.3010 A WEDDING ?
-0.3010 A WEEK WAS
-0.3010 AARON ? </s>
-0.3010 ABOUT ? </s>
-0.3010 ACTIVITIES DID YOU
-0.3010 ADDRESS RECENTLY ?
-0.3010 ADVENTURE ? </s>
-0.3010 AFTER LEARNING ?
-0.3010 AFTER THAT ?
-0.3010 AFTER YOU HOLDING
-0.3010 AGE ABOUT ?
-0.3010 AGE WHEN YOU
-0.3010 AGO DID YOU
-0.3010 ALL ? </s>
-0.3010 ALL ELECTED MEMBERS
-0.3010 ALL TAKE TO
-0.3010 ALMOST RUN OVER
-0.3010 ALSO DID YOU
-0.3010 ALSO WENT THERE
-0.3010 ALWAYS CHOOSE TO
-0.3010 AMAZING ADVENTURE ?
-0.3010 AN AMAZING ADVENTURE
-0.3010 AN EXCELLENT FACULTY
-0.3010 AND AROUND ?
-0.3010 AND ASKED YOU
-0.3010 AND CHOOSE ?
-0.3010 AND DATE IS
-0.3010 AND GRADUATED? </s>
-0.3010 AND LAST NAMES
-0.6021 AND SEASON DID
-0.6021 AND SEASON WAS
-0.3010 AND TO WAS
-0.6021 AND WHAT COUNTRY
-0.6021 AND WHAT DID
-0.4130 AND YEAR DID
-0.9445 AND YEAR WAS
-0.3010 ARCHITECTURE ? </s>
-0.3010 ARE SEVERAL FRIENDS
-1.0000 ARE THE FIRST
-0.5229 ARE THE NAMES
-1.0000 ARE THE THREE
-0.3010 ARE YOU WITH
-0.3010 ARE YOUR FRIENDS
-0.3010 AREAS WERE YOU
-0.3010 AROUND ? </s>
-0.3010 AROUND HANGZHOU? </s>
-0.3010 ARRIVE THERE ?
-0.3010 AS THE PASSWORD
-0.3010 ASIDE AND ASKED
-0.3010 ASK YOUR MOM
-0.3010 ASKED YOU FOR
-0.3010 ASTONISHED BY ?
-0.3010 AT ? </s>
-0.3010 AT KOREA? </s>
-0.3010 AT LAST ?
-0.3010 AT MIDNIGHT ?
-0.3010 AT SAUK RIVER?
-0.3010 AT THAT TIME
-0.3010 AT THE ENTRANCE?
-0.3010 ATTRACTION DID YOU
-0.3010 BACHELOR DEGREE AND
-0.3010 BANDS COME ?
-0.3010 BATTLING ? </s>
-0.3010 BBQ STUFF ?
-0.3010 BEACH DID YOU
-0.6021 BEST FRIEND ?
-0.6021 BEST FRIEND DID
-0.3010 BEST PART ?
-0.3010 BIG STEEP SLOPE?
-0.3010 BIG WEDDING ?
-0.3010 BIKE ? </s>
-0.3010 BIKE DID YOU
-0.3010 BIKE SEAT ?
-0.3010 BIRTH DAY ?
-0.3010 BIRTHDAY PRESENT? </s>
-0.3010 BOY BANDS COME
-0.3010 BREAK ? </s>
-0.3010 BRING HIM ?
-0.3010 BROUGHT THE TENT,
-0.3010 BUY ? </s>
-0.3010 BY ? </s>
-0.3010 CALL YOU ASIDE
-0.3010 CAN WE STEAL
-0.3010 CAR AFTER LEARNING
-0.3010 CARE OF ?
-0.3010 CELEBRATE ? </s>
-0.3010 CHOOSE ? </s>
-0.3010 CHOOSE FIRST ?
-0.3010 CHOOSE TO PLAY?
-0.3010 CITIES DID YOU
-0.3010 CITY ? </s>
-0.3010 CITY AND WHAT
-0.3010 CITY DID YOU
-0.3010 CITY IS UNIVERSITY
-0.3010 CITY THE SCHOOL
-0.7782 CITY WAS SHE
-0.4771 CITY WAS THE
-0.3010 CITY WERE YOU
-0.3010 COLLEGES LOCATED IN
-0.3010 COLOR BIKE DID
-0.4771 COLOR WAS IT
-0.7782 COLOR WAS THE
-0.3010 COME ? </s>
-0.3010 COME FROM? </s>
-0.4771 COME TO US
-0.7782 COME TO USC
-0.3010 COMPETITION ? </s>
-0.3010 COMPLETE YOUR BACHELOR
-0.3010 CONCERT ? </s>
-0.3010 COUNTRY WERE YOU
-0.3010 DATE IS HER
-0.3010 DAY ? </s>
-0.3010 DAY, AND YEAR
-0.3010 DAYS DID YOU
-0.3010 DAYS IN A
-0.3010 DECIDE TO BRING
-0.3010 DEGREE ? </s>
-0.3010 DEGREE AND GRADUATED?
-0.3010 DESIGNED A SPLENDID
-0.3010 DID CALL YOU
-0.3010 DID GO TO
-0.4771 DID I VISIT
-0.7782 DID I WIN
-0.6021 DID IT HAVE
-0.6021 DID IT TAKE
-0.3010 DID LEARNED TO
-0.3010 DID PROPOSE TO
-0.4771 DID SHE COME
-0.7782 DID SHE TAKE
-0.3010 DID TELL THE
-0.3010 DID THE INTERVIEWER
-0.7782 DID THIS HAPPEN
-0.4771 DID THIS HAPPEN?
-2.4378 DID YOU ALL
-2.4378 DID YOU ALMOST
-2.4378 DID YOU ALWAYS
-2.4378 DID YOU ARRIVE
-2.4378 DID YOU BREAK
-2.4378 DID YOU BUY
-2.4378 DID YOU CHOOSE
-2.1367 DID YOU COME
-2.4378 DID YOU COMPLETE
-2.4378 DID YOU DECIDE
-1.8357 DID YOU DO
-2.4378 DID YOU DRINKING
-2.4378 DID YOU DROP
-2.4378 DID YOU ENCOUNTER
-2.4378 DID YOU ENTER
-2.4378 DID YOU FIND
-2.4378 DID YOU FINISH
-2.4378 DID YOU GET
-0.8937 DID YOU GO
-2.4378 DID YOU GRADUATE
-2.4378 DID YOU HANG
-1.4378 DID YOU HAVE
-2.4378 DID YOU HIKE
-2.4378 DID YOU JOIN
-1.9606 DID YOU LEARN
-2.4378 DID YOU LINING
-2.1367 DID YOU LIVE
-2.4378 DID YOU MAKE
-1.7388 DID YOU MEET
-2.4378 DID YOU MEET,
-2.1367 DID YOU MEET?
-2.1367 DID YOU MOVE
-2.4378 DID YOU NAME
-2.4378 DID YOU NOT
-2.1367 DID YOU PLAY
-2.4378 DID YOU REALLY
-2.1367 DID YOU RECEIVE
-2.4378 DID YOU RENT
-2.4378 DID YOU SIT
-2.4378 DID YOU SPEND
-2.1367 DID YOU START
-1.8357 DID YOU STAY
-2.1367 DID YOU STAY?
-1.8357 DID YOU TAKE
-2.4378 DID YOU TELL
-2.4378 DID YOU TO
-1.7388 DID YOU TRAVEL
-2.4378 DID YOU TRAVEL?
-1.8357 DID YOU USE
-1.5927 DID YOU VISIT
-2.4378 DID YOU VISIT?
-1.7388 DID YOU WATCH
-2.4378 DID YOU WENT
-2.4378 DID YOU WIN
-0.9031 DID YOUR FAVORITE
-0.9031 DID YOUR FRIEND
-0.6021 DID YOUR MOTHER
-0.3010 DIFFICULT TO DO
-0.3010 DISCUSSING WHAT WE
-0.3010 DO ? </s>
-0.3010 DO CONCERT ?
-0.3010 DO FOR THE
-0.3010 DO YOU REMEMBER
-0.3010 DOING ? </s>
-0.3010 DOING EXCHANGE PROGRAM
-0.3010 DRINKING ? </s>
-0.3010 DRIVE ? </s>
-0.3010 DROP IT ?
-0.3010 EAT ? </s>
-0.3010 ELECTED MEMBERS ?
-0.3010 EMAIL ADDRESS RECENTLY
-0.3010 ENCOUNTER A BIG
-0.3010 ENJOY IN HOTEL
-0.3010 ENTER TILL A
-0.3010 EVENING TO CELEBRATE
-0.3010 EVENT ? </s>
-0.3010 EVER JOB INTERVIEW
-0.3010 EVERYTHING SEEM IN
-0.3010 EXCELLENT FACULTY MEMBER
-0.3010 EXCHANGE PROGRAM ?
-0.3010 EXCITED TO LEARN
-0.3010 EXCITING MOMENT ?
-0.3010 EXPERIENCE DID YOU
-0.3010 EXPO ? </s>
-0.3010 FACULTY MEMBER AT
-0.3010 FAVORITE BOY BANDS
-0.3010 FAVORITE CITY? </s>
-0.3010 FAVORITE GAME ?
-0.3010 FAVORITE RIDE ?
-0.3010 FINALLY ? </s>
-0.3010 FIND OUT HIS
-0.3010 FINISH YOUR HIGH
-0.3010 FIRST ? </s>
-0.3010 FIRST AND LAST
-0.3010 FIRST EVER JOB
-0.3010 FIRST INTERNSHIP INTERVIEW
-0.3010 FIRST JOB ?
-0.3010 FIRST TIME ?
-0.3010 FOR ? </s>
-0.3010 FOR AROUND ?
-0.3010 FOR AT SAUK
-0.3010 FOR FURTHER STUDY
-0.3010 FOR HER MASTER
-0.6021 FOR THE FIRST
-0.6021 FOR THE MOVIE
-0.3010 FOR YOU TO
-0.3010 FOR YOUR FULL
-0.3010 FOUND YOUR FIRST
-0.3010 FRIEND ? </s>
-0.3010 FRIEND DID YOU
-0.3010 FRIEND USED TO
-0.3010 FRIEND WHO USED
-0.3010 FRIEND WITH YOU
-0.3010 FRIENDS IN ?
-0.3010 FRIENDS MOST FROM
-0.3010 FRIENDS YOU MADE
-0.3010 FROM ? </s>
-0.3010 FROM AND TO
-0.3010 FROM MY SCHOOL
-0.3010 FULL NAME ?
-0.3010 FURTHER STUDY ?
-0.3010 GAME ? </s>
-0.3010 GAVE YOU THIS
-0.3010 GET THERE? </s>
-0.3010 GET THIS PET?
-0.3010 GET TO THE
-0.3010 GIRLFRIEND ON THIS
-0.3010 GO AFTER THAT
-0.3010 GO FINALLY ?
-0.6021 GO FOR ?
-0.6021 GO FOR AT
-0.3010 GO THERE WITH
-0.6021 GO TO ?
-1.6435 GO TO AND
-1.6435 GO TO EAT
-1.6435 GO TO FOR
-1.6435 GO TO KOREA
-1.6435 GO TO ON
-1.6435 GO TO SURFING
-1.1663 GO TO THE
-1.6435 GO TO VEGAS
-1.6435 GO TO WITH
-0.3010 GO TO? </s>
-0.3010 GO TOO ?
-0.4472 GO WITH ?
-1.1461 GO WITH ON
-1.1461 GO WITH TO
-0.3010 GOOD TIME ?
-0.3010 GRADUATE ? </s>
-0.3010 GRADUATION TRIP TO
-0.3010 GRANDMA'S NAME ?
-0.3010 GREAT EVENING TO
-0.6021 HAD A FIRST
-0.6021 HAD A WEDDING
-0.3010 HAD EXCITING MOMENT
-0.3010 HALF PRICE, ON
-0.3010 HANG OUT ?
-0.3010 HAPPEN ? </s>
-0.7782 HAPPENED TO THE
-0.4771 HAPPENED TO YOU
-0.3010 HAPPENED WITH THE
-0.3010 HARD FOR YOU
-0.3010 HAVE ? </s>
-0.9031 HAVE A GOOD
-0.9031 HAVE A GRADUATION
-0.6021 HAVE A TRIP
-0.3010 HAVE AN AMAZING
-0.3010 HAVE WITH ?
-0.3010 HAVE YOU SEEN
-0.3010 HE AN EXCELLENT
-0.3010 HEADING TO ?
-0.3010 HER ? </s>
-0.3010 HER BIRTH DAY
-0.3010 HER FRIENDS IN
-0.3010 HER HUSBAND ?
-0.3010 HER MASTER DEGREE
-0.3010 HER SON? </s>
-0.3010 HIGH SCHOOL ?
-0.3010 HIKE FOR AROUND
-0.3010 HIM ? </s>
-0.3010 HIRED TO WORK
-0.3010 HIS CAR AFTER
-0.3010 HIS EMAIL ADDRESS
-0.3010 HIS GIRLFRIEND ON
-0.3010 HOLDING YOUR BIKE
-0.3010 HOSPITAL WAS SHE
-0.3010 HOSTED THE COMPETITION
-0.3010 HOTEL ? </s>
-0.3010 HOUR ? </s>
-0.3010 HOW EVERYTHING SEEM
-0.3010 HOW LONG DID
-0.6021 HOW MANY DAYS
-1.2041 HOW MANY DID
-0.9031 HOW MANY OF
-1.2041 HOW MANY YEARS
-0.7782 HOW OLD WAS
-0.6021 HOW OLD WERE
-1.0792 HOW OLD YOUR
-0.3010 HUSBAND ? </s>
-0.3010 I ? </s>
-0.3010 I VISIT WITH
-0.3010 I WIN ?
-0.3010 IN ? </s>
-0.3010 IN A WEEK
-0.3010 IN AND AROUND
-0.3010 IN HIS CAR
-0.3010 IN HOTEL ?
-0.3010 IN SCHOOL? </s>
-0.3010 IN THAT CITY?
-0.3010 IN THE END?
-0.3010 IN US? </s>
-0.3010 INTERNSHIP INTERVIEW ?
-0.3010 INTERSHIP AT ?
-0.3010 INTERVIEW ? </s>
-0.3010 INTERVIEW IN ?
-0.3010 INTERVIEW WITH ?
-0.3010 INTERVIEWER SHARE ?
-0.3010 IS HE AN
-0.3010 IS HER BIRTH
-0.4058 IS THE NAME
-1.1461 IS THE RELATIONSHIP
-1.4472 IS THE RELATIONSHOP
-0.3010 IS UNIVERSITY IN
-0.3010 ISI ? </s>
-0.3010 IT ? </s>
-0.3010 IT A GREAT
-0.3010 IT HAVE ?
-0.3010 IT REALLY DIFFICULT
-0.3010 IT TAKE YOU
-0.3010 JOB ? </s>
-0.3010 JOB INTERVIEW WITH
-0.3010 JOIN ISI ?
-0.7782 KIND OF LIKED
-0.7782 KIND OF PET
-0.7782 KIND OF TRIP
-0.3010 KIND TO YOU?
-0.3010 KOREA ? </s>
-0.3010 LAS VEGAS? </s>
-0.3010 LAST ? </s>
-0.3010 LAST NAMES OF
-0.3010 LEARN ? </s>
-0.3010 LEARN AT THAT
-0.3010 LEARN TO RIDE
-0.3010 LEARNED TO DRIVE
-0.3010 LEARNING ? </s>
-0.3010 LIKED HER ?
-0.3010 LINING FOR ?
-0.3010 LIVE IN ?
-0.3010 LIVE IN? </s>
-0.3010 LOCATED IN AND
-0.3010 LOCATION ? </s>
-1.1461 LONG DID IT
-0.4472 LONG DID YOU
-1.1461 LONG DID YOUR
-0.3010 LONG TIME ?
-0.3010 MADE ? </s>
-0.3010 MAINLY RESPONSIBLE ?
-0.3010 MAKE ? </s>
-0.3010 MANAGER YOU HAD
-0.3010 MANY DAYS DID
-0.3010 MANY DID YOU
-0.3010 MANY OF YOU
-0.3010 MANY YEARS AGO
-0.3010 MASTER DEGREE ?
-0.3010 MEET 3 OF
-0.3010 MEET ? </s>
-0.3010 MEET THERE ?
-0.3010 MEET, BEST FRIEND
-0.3010 MEMBER AT ?
-0.3010 MEMBERS ? </s>
-0.3010 MIDNIGHT ? </s>
-0.3010 MODEL WAS IT
-0.3010 MOM ? </s>
-0.3010 MOMENT ? </s>
-1.5051 MONTH AND DATE
-0.3291 MONTH AND YEAR
-0.3010 MONTH, DAY, AND
-0.3010 MOST FROM ?
-0.3010 MOTHER TAKE YOU
-0.3010 MOTHER USE TO
-0.3010 MOVE TO US?
-0.3010 MOVE TO? </s>
-0.3010 MOVIE FROM MY
-0.3010 MOVIE HAVE YOU
-0.3010 MY SCHOOL ?
-0.3010 NAME ? </s>
-0.3010 NAME AARON ?
-0.3010 NAME DID YOU
-1.4150 NAME OF A
-1.1139 NAME OF HER
-1.4150 NAME OF PERSON
-0.7160 NAME OF THE
-0.8129 NAME OF YOUR
-1.0000 NAMES OF ALL
-1.0000 NAMES OF THREE
-0.5229 NAMES OF TWO
-0.3010 NEW AREAS WERE
-0.3010 NEXT DAY? </s>
-0.3010 NEXT MORNING? </s>
-0.3010 NOT HAVE WITH
-0.3010 OF ? </s>
-0.3010 OF A PROFESSOR
-0.3010 OF ALL ELECTED
-0.7782 OF HER FRIENDS
-0.7782 OF HER HUSBAND
-0.7782 OF HER SON?
-0.3010 OF LIKED HER
-0.3010 OF PERSON YOU
-0.3010 OF PET WAS
-0.3010 OF THAT PERSON
-0.4771 OF THE PERSON
-0.7782 OF THE PLACE
-0.3010 OF THIS PERSON
-0.3010 OF THREE PEOPLE
-0.3010 OF TRIP WAS
-0.3010 OF TWO PEOPLE
-0.6021 OF YOU WENT
-0.6021 OF YOU WERE
-0.9031 OF YOUR BEST
-0.9031 OF YOUR FRIEND
-0.9031 OF YOUR MANAGER
-0.9031 OF YOUR SISTER
-0.3010 OFF ? </s>
-0.6021 OLD WAS I
-0.6021 OLD WAS SHE?
-0.4771 OLD WERE YOU
-0.7782 OLD WERE YOU?
-0.3010 OLD YOUR SISTER
-0.3010 ON ? </s>
-0.3010 ON THAT DAY?
-0.3010 ON THIS TRIP
-0.3010 ON YOUR SECOND
-0.3010 OUT ? </s>
-0.3010 OUT HIS EMAIL
-0.3010 OVER ? </s>
-0.3010 PARENTS SAYING ?
-0.3010 PARK DID YOU
-0.3010 PART ? </s>
-0.3010 PART IN ?
-0.3010 PARTICIPATE THE BIG
-0.3010 PARTY ? </s>
-0.3010 PARTY AT ?
-0.3010 PASSWORD OF ?
-0.3010 PEAK WITH ?
-0.3010 PEOPLE HAD EXCITING
-0.6021 PEOPLE THAT ALSO
-0.6021 PEOPLE THAT WENT
-0.3010 PEOPLE WENT WITH
-0.3010 PEOPLE WERE WITH
-0.3010 PEOPLE YOU VISIT
-0.3010 PERSON TO YOU?
-0.3010 PERSON TOOK YOU
-0.3010 PERSON WAS WITH
-0.3010 PERSON WHO PROPOSED
-0.6021 PERSON YOU REMEMBER
-0.6021 PERSON YOU VISITED
-0.3010 PET IN THE
-0.3010 PET WAS THIS?
-0.3010 PLACE ? </s>
-0.3010 PLACE THAT YOU
-0.3010 PLACE TO DO
-0.3010 PLAY ? </s>
-0.3010 PLAYING WITH ?
-0.3010 PRICE, ON THAT
-0.3010 PROFESSOR ? </s>
-0.3010 PROGRAM ? </s>
-0.3010 PROPOSE TO HIS
-0.3010 PROPOSED TO YOU
-0.3010 REALLY DIFFICULT TO
-0.3010 REALLY ENJOY IN
-0.3010 REALLY HARD FOR
-0.3010 RECEIVE A REPLY?
-0.3010 RECEIVE AT THE
-0.3010 RECENTLY ? </s>
-0.6021 RELATIONSHIP OF THAT
-0.6021 RELATIONSHIP OF THE
-0.3010 RELATIONSHOP OF THIS
-0.3010 REMEMBER ? </s>
-0.3010 REMEMBER HOW EVERYTHING
-0.3010 RENT ? </s>
-0.3010 RESPONSIBLE ? </s>
-0.3010 RETREAT IN ?
-0.3010 RIDE ? </s>
-0.3010 RIDE A BIKE
-0.3010 RIDING ? </s>
-0.3010 ROAD WERE YOU
-0.3010 ROOM WERE YOU
-0.3010 RUN AFTER YOU
-0.3010 RUN OVER ?
-0.3010 SAUK RIVER? </s>
-0.3010 SAYING ? </s>
-0.3010 SAYING YOU ?
-0.3010 SCHOOL ? </s>
-0.3010 SCHOOL DID YOU
-0.6021 SCHOOL WAS IN
-0.6021 SCHOOL WAS IT
-0.3010 SCHOOL WERE YOU
-0.3010 SEASON AND YEAR
-0.3010 SEASON DID YOU
-0.3010 SEASON WAS IT
-0.3010 SEAT ? </s>
-0.3010 SECOND DAY? </s>
-0.3010 SEEM IN US?
-0.3010 SEEN ? </s>
-0.3010 SEVERAL FRIENDS YOU
-0.3010 SHANGHAI EXPO ?
-0.3010 SHARE ? </s>
-0.3010 SHE BATTLING ?
-0.3010 SHE COME TO
-0.3010 SHE DO ?
-0.3010 SHE IN? </s>
-0.3010 SHE TAKE YOU
-0.3010 SISTER ? </s>
-0.3010 SIT ? </s>
-0.3010 SPEND ? </s>
-0.3010 SPLENDID ARCHITECTURE ?
-0.3010 START OFF ?
-0.3010 START WORKING ?
-0.3010 STARTED TO LEARN
-0.3010 STATES DID YOU
-0.3010 STAY ? </s>
-0.6021 STAY AT ?
-0.6021 STAY AT KOREA?
-0.3010 STEAL WATERMELON FOR
-0.3010 STEEP SLOPE? </s>
-0.3010 STUDY ? </s>
-0.3010 STUDY AT ?
-0.3010 STUFF ? </s>
-0.3010 SUBJECT NAME DID
-0.3010 SURFING ? </s>
-0.3010 TAKE CARE OF
-0.3010 TAKE PART IN
-0.3010 TAKE THERE ?
-0.3010 TAKE TO PARTICIPATE
-0.3010 TAKE YOU TO
-0.3010 TAUGHT YOU ?
-0.3010 TAUGHT YOU? </s>
-0.3010 TELL THAT YOU
-0.3010 TELL THE NAMES
-0.3010 TENT, BBQ STUFF
-0.3010 THAT ? </s>
-0.3010 THAT ALSO WENT
-0.3010 THAT CITY? </s>
-0.3010 THAT DAY? </s>
-0.3010 THAT PERSON TO
-0.3010 THAT TIME ?
-0.3010 THAT WENT WITH
-0.6021 THAT YOU FOUND
-0.6021 THAT YOU KIND
-0.3010 THE BEST PART
-0.3010 THE BIG WEDDING
-0.3010 THE CITY ?
-0.3010 THE COMPETITION ?
-0.3010 THE END? </s>
-0.3010 THE ENTRANCE? </s>
-0.7782 THE FIRST AND
-0.4771 THE FIRST TIME
-0.6021 THE INTERVIEW ?
-0.6021 THE INTERVIEW IN
-0.3010 THE INTERVIEWER SHARE
-0.3010 THE LOCATION ?
-0.3010 THE MOVIE FROM
-0.3010 THE NAME OF
-0.3010 THE NAMES OF
-0.6021 THE NEXT DAY?
-0.6021 THE NEXT MORNING?
-0.6021 THE PARTY ?
-0.6021 THE PARTY AT
-0.3010 THE PASSWORD OF
-0.3010 THE PEAK WITH
-0.9031 THE PERSON TOOK
-0.9031 THE PERSON WAS
-0.9031 THE PERSON WHO
-0.9031 THE PERSON YOU
-0.3010 THE PET IN
-0.3010 THE PET? </s>
-0.7782 THE PLACE ?
-0.7782 THE PLACE THAT
-0.7782 THE PLACE TO
-0.3010 THE RELATIONSHIP OF
-0.3010 THE RELATIONSHOP OF
-0.3010 THE RETREAT IN
-0.3010 THE SCHOOL WAS
-0.3010 THE TENT, BBQ
-0.3010 THE THREE PEOPLE
-0.3010 THE VEHICLE ?
-0.3010 THE WHOLE DAY?
-0.3010 THERE ? </s>
-0.3010 THERE WITH ?
-0.3010 THESE COLLEGES LOCATED
-0.3010 THIS EVENT ?
-0.3010 THIS HAPPEN ?
-0.3010 THIS HAPPEN? </s>
-0.3010 THIS IN ?
-0.3010 THIS PERSON TO
-0.3010 THIS PET? </s>
-0.3010 THIS TO YOU
-0.3010 THIS TRIP ?
-0.3010 THREE CITIES DID
-0.6021 THREE PEOPLE HAD
-0.6021 THREE PEOPLE THAT
-0.3010 TILL A LONG
-0.3010 TIME ? </s>
-0.3010 TIME FROM AND
-0.3010 TO ? </s>
-0.3010 TO AND CHOOSE
-0.3010 TO BRING HIM
-0.3010 TO CELEBRATE ?
-0.6021 TO DO ?
-0.6021 TO DO CONCERT
-0.3010 TO DRIVE ?
-0.3010 TO EAT ?
-0.3010 TO FOR FURTHER
-0.7782 TO GET THERE?
-0.7782 TO GET THIS
-0.7782 TO GET TO
-0.3010 TO HIS GIRLFRIEND
-0.3010 TO KOREA ?
-0.3010 TO LAS VEGAS?
-0.6021 TO LEARN ?
-0.6021 TO LEARN AT
-0.3010 TO ON YOUR
-0.3010 TO PARTICIPATE THE
-0.3010 TO PLAY? </s>
-0.3010 TO PRACTICE? </s>
-0.3010 TO RIDE A
-0.3010 TO RIDE? </s>
-0.3010 TO STUDY ?
-0.3010 TO SURFING ?
-1.0792 TO THE FIRST
-1.0792 TO THE NEXT
-1.0792 TO THE PEAK
-1.0792 TO THE PLACE
-1.0792 TO THE VEHICLE
-1.0792 TO THE WHOLE
-0.3010 TO US FOR
-0.3010 TO US? </s>
-0.3010 TO USC ?
-0.3010 TO VEGAS ?
-0.3010 TO WAS YOUR
-0.3010 TO WITH ?
-0.3010 TO WORK ON
-0.6021 TO YOU ?
-0.9031 TO YOU ALL
-0.9031 TO YOU AT
-0.3010 TO YOU? </s>
-0.3010 TOLD YOU WHERE
-0.3010 TOO ? </s>
-0.3010 TOOK YOU IN
-0.3010 TOWN DID YOU
-0.3010 TOY DID YOU
-0.3010 TRANSPORTATION DID YOU
-0.3010 TRANSPORTATIONS DID YOU
-0.3010 TRAVEL AROUND HANGZHOU?
-0.3010 TRAVEL FROM ?
-0.7782 TRAVEL TO ?
-0.7782 TRAVEL TO LAS
-0.7782 TRAVEL TO THE
-0.3010 TRIP ? </s>
-0.3010 TRIP TO ?
-0.3010 TRIP WAS IT?
-0.3010 TWO NEW AREAS
-0.9031 TWO PEOPLE THAT
-0.9031 TWO PEOPLE WENT
-0.9031 TWO PEOPLE WERE
-0.9031 TWO PEOPLE YOU
-0.3010 TWO TRANSPORTATIONS DID
-0.3010 UNDERGRADUATE STUDY AT
-0.9031 UNIVERSITY DID SHE
-0.4260 UNIVERSITY DID YOU
-0.3010 UNIVERSITY IN ?
-0.3010 UNIVERSITY WAS YOUR
-0.3010 UNIVERSITY WERE YOU
-0.3010 US FOR HER
-0.3010 USC ? </s>
-0.3010 USE ? </s>
-0.3010 USE AS THE
-0.4771 USE TO GET
-0.7782 USE TO RIDE?
-0.3010 USE WITHIN THE
-0.3010 USED TO STUDY
-0.3010 VEGAS ? </s>
-0.3010 VEHICLE ? </s>
-0.3010 VERY BEAUTIFUL? </s>
-0.3010 VERY KIND TO
-0.3010 VISIT ? </s>
-0.3010 VISIT HER ?
-0.3010 VISIT IN THAT
-0.3010 VISIT SHANGHAI EXPO
-0.3010 VISIT WITH ?
-0.3010 VISIT WITH? </s>
-0.3010 VISITED ? </s>
-0.3010 VISITED YOU? </s>
-0.3010 WAS HALF PRICE,
-0.3010 WAS I ?
-0.3010 WAS IN ?
-0.3632 WAS IT ?
-1.4771 WAS IT A
-1.4771 WAS IT REALLY
-0.3010 WAS IT? </s>
-0.3010 WAS REALLY HARD
-0.7782 WAS SHE BATTLING
-0.4771 WAS SHE IN?
-0.3010 WAS SHE? </s>
-1.3010 WAS THE BEST
-1.0000 WAS THE INTERVIEW
-1.3010 WAS THE LOCATION
-1.0000 WAS THE NAME
-1.0000 WAS THE PARTY
-1.3010 WAS THE PET?
-1.3010 WAS THE RETREAT
-0.7782 WAS THIS EVENT
-0.4771 WAS THIS IN
-0.3010 WAS THIS? </s>
-0.3010 WAS VERY BEAUTIFUL?
-0.3010 WAS VISITING? </s>
-0.3010 WAS WITH YOU?
-1.2041 WAS YOUR AGE
-1.5051 WAS YOUR BIRTHDAY
-1.0280 WAS YOUR FAVORITE
-1.0280 WAS YOUR FIRST
-1.2041 WAS YOUR FRIEND
-1.5051 WAS YOUR GRANDMA'S
-1.5051 WAS YOUR INTERSHIP
-1.5051 WAS YOUR UNDERGRADUATE
-1.2041 WAS YOUR WORK
-0.3010 WATCH ? </s>
-0.3010 WATCH AT MIDNIGHT
-0.3010 WATCH AT? </s>
-0.3010 WATCH THE NEXT
-0.3010 WATERMELON FOR ?
-0.3010 WE STEAL WATERMELON
-0.3010 WE WOULD USE
-0.3010 WEDDING ? </s>
-0.3010 WEEK WAS YOUR
-0.3010 WENT FOR THE
-0.3010 WENT THERE ?
-0.3010 WENT TO KOREA
-0.7782 WENT WITH YOU
-0.4771 WENT WITH YOU?
-0.3010 WERE SAYING YOU
-0.3010 WERE THERE ?
-0.3010 WERE THESE COLLEGES
-0.3010 WERE VERY KIND
-0.3010 WERE WITH YOU
-1.3424 WERE YOU ?
-1.6435 WERE YOU ASTONISHED
-1.6435 WERE YOU DISCUSSING
-1.1663 WERE YOU DOING
-1.6435 WERE YOU EXCITED
-1.6435 WERE YOU HEADING
-1.6435 WERE YOU HIRED
-0.9445 WERE YOU IN
-1.3424 WERE YOU IN?
-1.6435 WERE YOU MAINLY
-1.6435 WERE YOU PLAYING
-1.6435 WERE YOU PLAYING?
-1.6435 WERE YOU RIDING
-1.6435 WERE YOU WORKING
-0.3010 WERE YOU? </s>
-0.3010 WERE YOUR PARENTS
-0.3010 WHAT ACTIVITIES DID
-0.3010 WHAT ALSO DID
-0.3010 WHAT ARE THE
-0.3010 WHAT CAN WE
-1.3010 WHAT CITY AND
-0.6990 WHAT CITY DID
-1.3010 WHAT CITY IS
-1.3010 WHAT CITY THE
-1.0000 WHAT CITY WAS
-1.3010 WHAT CITY WERE
-0.9031 WHAT COLOR BIKE
-0.4260 WHAT COLOR WAS
-0.3010 WHAT COUNTRY WERE
-0.3010 WHAT DAYS IN
-1.7924 WHAT DID I
-1.7924 WHAT DID IT
-1.7924 WHAT DID LEARNED
-1.7924 WHAT DID PROPOSE
-1.7924 WHAT DID THE
-0.3945 WHAT DID YOU
-1.7924 WHAT DID YOUR
-0.3010 WHAT DO YOU
-0.3010 WHAT EXPERIENCE DID
-0.4260 WHAT HAPPENED TO
-0.9031 WHAT HAPPENED WITH
-0.3010 WHAT HOSPITAL WAS
-0.3010 WHAT IS THE
-0.3010 WHAT KIND OF
-0.3010 WHAT MODEL WAS
-0.3010 WHAT MONTH AND
-0.3010 WHAT MONTH, DAY,
-0.3010 WHAT MOVIE HAVE
-0.3010 WHAT ROAD WERE
-0.3010 WHAT ROOM WERE
-0.7782 WHAT SCHOOL DID
-0.7782 WHAT SCHOOL WAS
-0.7782 WHAT SCHOOL WERE
-0.3010 WHAT SEASON AND
-0.3010 WHAT STATES DID
-0.3010 WHAT SUBJECT NAME
-0.3010 WHAT TIME FROM
-0.3010 WHAT TOWN DID
-0.3010 WHAT TOY DID
-0.3010 WHAT TRANSPORTATION DID
-0.7782 WHAT TWO NEW
-0.7782 WHAT TWO PEOPLE
-0.7782 WHAT TWO TRANSPORTATIONS
-0.4771 WHAT UNIVERSITY DID
-0.7782 WHAT UNIVERSITY WERE
-1.5315 WHAT WAS HALF
-1.2304 WHAT WAS IT
-1.5315 WHAT WAS REALLY
-1.5315 WHAT WAS SHE
-1.0544 WHAT WAS THE
-1.5315 WHAT WAS VERY
-0.6284 WHAT WAS YOUR
-0.3010 WHAT WE WOULD
-0.3802 WHAT WERE YOU
-1.0792 WHAT WERE YOUR
-0.6021 WHAT WOULD SHE
-0.6021 WHAT WOULD YOU
-1.3222 WHAT YEAR AND
-1.6232 WHAT YEAR ARE
-0.6232 WHAT YEAR DID
-0.7782 WHAT YEAR WAS
-1.6232 WHAT YEAR WERE
-0.3010 WHEN DID YOU
-0.3010 WHEN WAS IT
-0.3010 WHEN YOU STARTED
-0.3010 WHERE ARE YOUR
-1.7324 WHERE DID GO
-1.7324 WHERE DID SHE
-0.3522 WHERE DID YOU
-1.7324 WHERE DID YOUR
-0.3010 WHERE IS HE
-0.3010 WHERE TO GET
-0.8451 WHERE WAS IT
-0.8451 WHERE WAS THE
-0.6690 WHERE WAS YOUR
-0.9031 WHERE WERE THESE
-0.4260 WHERE WERE YOU
-0.3010 WHICH 3 CITIES
-0.3010 WHICH ATTRACTION DID
-0.3010 WHICH BEACH DID
-0.3010 WHICH CITIES DID
-0.6021 WHICH CITY DID
-0.6021 WHICH CITY WAS
-0.3010 WHICH COUNTRY WERE
-0.3010 WHICH PARK DID
-0.7782 WHICH SCHOOL DID
-0.4771 WHICH SCHOOL WERE
-0.3010 WHICH THREE CITIES
-0.4771 WHICH UNIVERSITY DID
-0.7782 WHICH UNIVERSITY WAS
-0.7782 WHO ARE THE
-0.4771 WHO ARE YOU
-0.3010 WHO BROUGHT THE
-0.3010 WHO DESIGNED A
-1.6021 WHO DID CALL
-1.3010 WHO DID I
-1.6021 WHO DID TELL
-0.3979 WHO DID YOU
-0.3010 WHO GAVE YOU
-0.3010 WHO HAD A
-0.3010 WHO HOSTED THE
-0.3010 WHO PROPOSED TO
-0.6021 WHO TAUGHT YOU
-0.6021 WHO TAUGHT YOU?
-0.3010 WHO TOLD YOU
-0.3010 WHO USED TO
-0.6021 WHO VISITED ?
-0.6021 WHO VISITED YOU?
-0.6021 WHO WAS VISITING?
-0.6021 WHO WAS YOUR
-0.3010 WHO WENT WITH
-0.7782 WHO WERE SAYING
-0.7782 WHO WERE VERY
-0.7782 WHO WERE YOU
-0.3010 WHO WOULD RUN
-0.3010 WHOLE DAY? </s>
-0.3010 WIN ? </s>
-0.3010 WITH ? </s>
-0.3010 WITH ON YOUR
-0.3010 WITH THE PET
-0.3010 WITH TO DRIVE
-0.3010 WITH YOU ?
-0.3010 WITH YOU? </s>
-0.3010 WITHIN THE CITY
-0.3010 WORK HOUR ?
-0.3010 WORK ON ?
-0.3010 WORKING ? </s>
-0.3010 WORKING WITH ?
-0.3010 WOULD RUN AFTER
-0.3010 WOULD SHE DO
-0.3010 WOULD USE AS
-0.3010 WOULD YOU ASK
-0.3010 YEAR AND SEASON
-0.3010 YEAR ARE SEVERAL
-1.7324 YEAR DID SHE
-1.2553 YEAR DID THIS
-0.3900 YEAR DID YOU
-1.7324 YEAR DID YOUR
-0.7782 YEAR WAS IT
-1.0792 YEAR WAS IT?
-1.0792 YEAR WAS THE
-0.9031 YEAR WAS THIS
-1.3802 YEAR WAS YOUR
-0.3010 YEAR WERE YOU
-0.3010 YEARS AGO DID
-0.3010 YOU ? </s>
-0.6021 YOU ALL ?
-0.6021 YOU ALL TAKE
-0.3010 YOU ALMOST RUN
-0.3010 YOU ALWAYS CHOOSE
-0.3010 YOU ARRIVE THERE
-0.3010 YOU ASIDE AND
-0.3010 YOU ASK YOUR
-0.3010 YOU ASTONISHED BY
-0.3010 YOU AT LAST
-0.3010 YOU BREAK ?
-0.3010 YOU BUY ?
-0.3010 YOU CHOOSE FIRST
-0.6021 YOU COME FROM?
-0.6021 YOU COME TO
-0.3010 YOU COMPLETE YOUR
-0.3010 YOU DECIDE TO
-0.3010 YOU DISCUSSING WHAT
-0.4260 YOU DO ?
-0.9031 YOU DO FOR
-0.7782 YOU DOING ?
-0.4771 YOU DOING EXCHANGE
-0.3010 YOU DRINKING ?
-0.3010 YOU DROP IT
-0.3010 YOU ENCOUNTER A
-0.3010 YOU ENTER TILL
-0.3010 YOU EXCITED TO
-0.3010 YOU FIND OUT
-0.3010 YOU FINISH YOUR
-0.3010 YOU FOR YOUR
-0.3010 YOU FOUND YOUR
-0.3010 YOU GET THERE?
-1.8451 YOU GO AFTER
-1.8451 YOU GO FINALLY
-1.5441 YOU GO FOR
-1.8451 YOU GO THERE
-0.5229 YOU GO TO
-1.8451 YOU GO TO?
-1.8451 YOU GO TOO
-1.0000 YOU GO WITH
-0.3010 YOU GRADUATE ?
-0.3010 YOU HAD A
-0.3010 YOU HANG OUT
-0.6021 YOU HAVE ?
-0.6990 YOU HAVE A
-1.3010 YOU HAVE AN
-0.3010 YOU HEADING TO
-0.3010 YOU HIKE FOR
-0.3010 YOU HIRED TO
-0.3010 YOU HOLDING YOUR
-0.4771 YOU IN ?
-1.0792 YOU IN HIS
-1.0792 YOU IN SCHOOL?
-0.3010 YOU IN? </s>
-0.3010 YOU JOIN ISI
-0.3010 YOU KIND OF
-0.4771 YOU LEARN ?
-0.7782 YOU LEARN TO
-0.3010 YOU LINING FOR
-0.6021 YOU LIVE IN
-0.6021 YOU LIVE IN?
-0.3010 YOU MADE ?
-0.3010 YOU MAINLY RESPONSIBLE
-0.3010 YOU MAKE ?
-1.0000 YOU MEET 3
-0.5229 YOU MEET ?
-1.0000 YOU MEET THERE
-0.3010 YOU MEET, BEST
-0.3010 YOU MEET? </s>
-0.6021 YOU MOVE TO
-0.6021 YOU MOVE TO?
-0.3010 YOU NAME AARON
-0.3010 YOU NOT HAVE
-0.3010 YOU PLAY ?
-0.3010 YOU PLAYING WITH
-0.3010 YOU PLAYING? </s>
-0.3010 YOU REALLY ENJOY
-0.6021 YOU RECEIVE A
-0.6021 YOU RECEIVE AT
-0.4771 YOU REMEMBER ?
-0.7782 YOU REMEMBER HOW
-0.3010 YOU RENT ?
-0.3010 YOU RIDING ?
-0.3010 YOU SEEN ?
-0.3010 YOU SIT ?
-0.3010 YOU SPEND ?
-0.6021 YOU START OFF
-0.6021 YOU START WORKING
-0.3010 YOU STARTED TO
-0.6021 YOU STAY ?
-0.6021 YOU STAY AT
-0.3010 YOU STAY? </s>
-0.9031 YOU TAKE CARE
-0.9031 YOU TAKE PART
-0.6021 YOU TAKE THERE
-0.3010 YOU TELL THAT
-0.3010 YOU THIS TO
-0.3979 YOU TO ?
-1.0000 YOU TO PRACTICE?
-1.0000 YOU TRAVEL AROUND
-1.0000 YOU TRAVEL FROM
-0.5229 YOU TRAVEL TO
-0.3010 YOU TRAVEL? </s>
-0.9031 YOU USE ?
-0.6021 YOU USE TO
-0.9031 YOU USE WITHIN
-0.6021 YOU VISIT ?
-1.2041 YOU VISIT HER
-1.2041 YOU VISIT IN
-1.2041 YOU VISIT SHANGHAI
-1.2041 YOU VISIT WITH?
-0.3010 YOU VISIT? </s>
-0.3010 YOU VISITED ?
-0.6990 YOU WATCH ?
-1.0000 YOU WATCH AT
-1.0000 YOU WATCH AT?
-1.0000 YOU WATCH THE
-0.6021 YOU WENT FOR
-0.6021 YOU WENT TO
-0.3010 YOU WERE THERE
-0.3010 YOU WHERE TO
-0.3010 YOU WIN ?
-0.3010 YOU WITH ?
-0.3010 YOU WORKING WITH
-0.6021 YOUR AGE ABOUT
-0.6021 YOUR AGE WHEN
-0.3010 YOUR BACHELOR DEGREE
-0.3010 YOUR BEST FRIEND
-0.3010 YOUR BIKE SEAT
-0.3010 YOUR BIRTHDAY PRESENT?
-0.9031 YOUR FAVORITE BOY
-0.9031 YOUR FAVORITE CITY?
-0.9031 YOUR FAVORITE GAME
-0.9031 YOUR FAVORITE RIDE
-0.9031 YOUR FIRST INTERNSHIP
-0.4260 YOUR FIRST JOB
-0.6021 YOUR FRIEND USED
-0.9031 YOUR FRIEND WHO
-0.9031 YOUR FRIEND WITH
-0.3010 YOUR FRIENDS MOST
-0.3010 YOUR FULL NAME
-0.3010 YOUR GRANDMA'S NAME
-0.3010 YOUR HIGH SCHOOL
-0.3010 YOUR INTERSHIP AT
-0.3010 YOUR MANAGER YOU
-0.3010 YOUR MOM ?
-0.6021 YOUR MOTHER TAKE
-0.6021 YOUR MOTHER USE
-0.3010 YOUR PARENTS SAYING
-0.3010 YOUR SECOND DAY?
-0.3010 YOUR SISTER ?
-0.3010 YOUR UNDERGRADUATE STUDY
-0.3010 YOUR WORK HOUR

\end\
