Language model created by QuickLM on Sun Dec  7 18:44:03 EST 2014
Copyright (c) 1996-2010 Carnegie Mellon University and Alexander I. Rudnicky

The model is in standard ARPA format, designed by Doug Paul while he was at MITRE.

The code that was used to produce this language model is available in Open Source.
Please visit http://www.speech.cs.cmu.edu/tools/ for more information

The (fixed) discount mass is 0.5. The backoffs are computed using the ratio method.
This model based on a corpus of 75 sentences and 95 words

\data\
ngram 1=95
ngram 2=183
ngram 3=234

\1-grams:
-1.2778 </s> -0.3010
-1.2778 <s> -0.2759
-2.0390 ? -0.2775
-2.0390 ABOUT -0.2924
-3.1529 ABOUT? -0.2775
-3.1529 ACQUAITANCE -0.3007
-2.2498 ACTIVITY -0.2943
-3.1529 AFFECTED -0.3007
-3.1529 AFTER -0.2852
-2.1115 AND -0.2927
-2.0737 ARE -0.2911
-2.5508 AT -0.2852
-2.8519 ATTRACTIONS -0.2852
-3.1529 BEACH -0.2867
-3.1529 BY -0.2952
-3.1529 CHEERING -0.2852
-3.1529 CIRCLE -0.3007
-2.1987 CITY -0.2807
-2.4539 COUNTRY -0.2867
-2.8519 COUNTY -0.2867
-1.4901 DID -0.2687
-2.1529 DO -0.2852
-2.3747 DOING -0.2980
-2.8519 DOING? -0.2775
-2.8519 ELSE -0.2986
-3.1529 ENGAGED -0.3007
-2.3078 EVENT -0.2949
-2.4539 EVENT? -0.2775
-2.5508 FACT -0.2980
-2.8519 FAMILY? -0.2775
-2.1987 FIRST -0.2983
-3.1529 FRIEND -0.3004
-2.5508 HOW -0.2861
-3.1529 IN -0.2952
-3.1529 INTRODUCED -0.2852
-3.1529 IS -0.2911
-2.3078 IT? -0.2775
-3.1529 LAST? -0.2775
-2.5508 LEARN -0.2970
-3.1529 LEARN? -0.2775
-2.4539 LEARNED -0.2970
-2.5508 LEARNING -0.2946
-2.4539 LIVE? -0.2775
-2.8519 LOCATION -0.2842
-2.8519 LONG -0.2867
-2.3747 MEET -0.2970
-2.6758 MEET? -0.2775
-2.6758 MEETING -0.2949
-3.1529 MET -0.2992
-3.1529 MET? -0.2775
-2.0068 MONTH -0.2833
-2.8519 OCCASSION? -0.2775
-1.8519 OCCUR? -0.2775
-2.5508 OF -0.2930
-2.5508 ON -0.2995
-2.8519 OR -0.3001
-2.8519 OTHER -0.2998
-3.1529 OUT -0.2998
-2.4539 PEOPLE -0.2791
-2.1529 PERSON -0.2826
-2.8519 PERSON? -0.2775
-3.1529 PERSONALLY -0.3007
-2.8519 PLACES -0.2845
-3.1529 RELATIONSHIP -0.2998
-2.1529 REMEMBER -0.2939
-3.1529 SKILL -0.2970
-2.8519 SOMEONE -0.3004
-2.8519 STATE -0.2867
-3.1529 STAY? -0.2775
-3.1529 TALK -0.3007
-3.1529 TAUGHT -0.2852
-1.6477 THE -0.2864
-2.8519 THEIR -0.3004
-3.1529 THERE -0.3004
-1.8741 THIS -0.2924
-2.8519 TO -0.3001
-2.3747 TOWN -0.2842
-2.8519 TRANSPORTATION -0.2867
-2.6758 TRAVEL -0.2970
-2.5508 TRIP? -0.2775
-3.1529 TYPE -0.2998
-3.1529 TYPES -0.2998
-2.8519 USE? -0.2775
-2.5508 VISITED -0.2998
-3.1529 WANT -0.3004
-3.1529 WAS -0.3007
-2.2498 WERE -0.2836
-1.3747 WHAT -0.2720
-2.4539 WHEN -0.2807
-2.1115 WHO -0.2967
-2.8519 WITH -0.2852
-2.0068 YEAR -0.2867
-1.4453 YOU -0.2492
-2.8519 YOU? -0.2775
-2.4539 YOUR -0.2995

\2-grams:
-1.5740 <s> HOW 0.0000
-0.3979 <s> WHAT 0.0000
-2.1761 <s> WHEN -0.2553
-1.1761 <s> WHO -0.0378
-0.3010 ? </s> -0.3010
-0.5699 ABOUT IT? 0.0000
-1.1139 ABOUT THEIR 0.0000
-0.8129 ABOUT THIS -0.2398
-0.3010 ABOUT? </s> -0.3010
-0.3010 ACQUAITANCE CIRCLE 0.0000
-0.3590 ACTIVITY OCCUR? 0.0000
-1.2041 ACTIVITY WITH 0.0000
-0.3010 AFFECTED BY 0.0000
-0.3010 AFTER YOU -0.2792
-1.3424 AND COUNTRY 0.0000
-1.0414 AND COUNTY 0.0000
-1.3424 AND TOWN -0.2218
-0.4973 AND YEAR 0.0000
-0.3010 ARE THE -0.2109
-0.6021 AT THE -0.2872
-0.6021 AT THIS -0.2775
-0.3010 ATTRACTIONS YOU -0.2837
-0.3010 BEACH DID -0.1946
-0.3010 BY THIS -0.2653
-0.3010 CHEERING YOU -0.2881
-0.3010 CIRCLE WAS 0.0000
-0.6532 CITY AND -0.2139
-0.6532 CITY DID 0.0000
-1.2553 CITY WERE -0.1761
-0.3010 COUNTRY DID 0.0000
-0.3010 COUNTY DID -0.1568
-0.7333 DID THE -0.1669
-1.0095 DID THIS -0.1526
-0.6628 DID YOU -0.2062
-0.3010 DO YOU -0.2562
-1.0792 DOING AFTER 0.0000
-0.4771 DOING AT 0.0000
-1.0792 DOING WHEN -0.0792
-0.3010 DOING? </s> -0.3010
-0.6021 ELSE DOING -0.1249
-0.6021 ELSE DOING? 0.0000
-0.3010 ENGAGED IN 0.0000
-0.3010 EVENT OCCUR? 0.0000
-0.3010 EVENT? </s> -0.3010
-0.3010 FACT DO 0.0000
-0.3010 FAMILY? </s> -0.3010
-0.4771 FIRST MEET 0.0000
-0.7782 FIRST MEET? 0.0000
-0.3010 FRIEND OR -0.1761
-0.6021 HOW DID -0.1946
-0.6021 HOW LONG 0.0000
-0.3010 IN THIS -0.2398
-0.3010 INTRODUCED YOU -0.2968
-0.3010 IS THE -0.2942
-0.3010 IT? </s> -0.3010
-0.3010 LAST? </s> -0.3010
-0.3010 LEARN ABOUT -0.1648
-0.3010 LEARN? </s> -0.3010
-0.3010 LEARNED ABOUT -0.0621
-0.9031 LEARNING LAST? 0.0000
-0.4260 LEARNING OCCUR? 0.0000
-0.3010 LIVE? </s> -0.3010
-0.6021 LOCATION DID -0.1946
-0.6021 LOCATION WERE -0.2730
-0.3010 LONG DID -0.0776
-0.3010 MEET ? 0.0000
-0.3010 MEET? </s> -0.3010
-0.3010 MEETING OCCUR? 0.0000
-0.3010 MET DOING -0.1249
-0.3010 MET? </s> -0.3010
-0.6021 MONTH AND -0.1347
-0.6021 MONTH DID -0.0776
-0.3010 OCCASSION? </s> -0.3010
-0.3010 OCCUR? </s> -0.3010
-0.9031 OF THIS -0.2264
-0.6021 OF TRANSPORTATION 0.0000
-0.9031 OF YOUR -0.2553
-0.3010 ON YOUR -0.0792
-0.6021 OR ACQUAITANCE 0.0000
-0.6021 OR ATTRACTIONS 0.0000
-0.3010 OTHER FACT 0.0000
-0.3010 OUT OF -0.2430
-0.5229 PEOPLE WERE -0.2109
-1.0000 PEOPLE WHO -0.2808
-1.0000 PEOPLE YOU -0.2837
-1.3010 PERSON INTRODUCED 0.0000
-0.6021 PERSON LIVE? 0.0000
-1.3010 PERSON TO -0.1761
-0.8239 PERSON YOU -0.2881
-0.3010 PERSON? </s> -0.3010
-0.3010 PERSONALLY AFFECTED 0.0000
-0.6021 PLACES OR -0.1761
-0.6021 PLACES YOU -0.2837
-0.3010 RELATIONSHIP OF -0.2430
-0.6990 REMEMBER ABOUT -0.1871
-0.8239 REMEMBER DOING 0.0000
-1.3010 REMEMBER DOING? 0.0000
-1.0000 REMEMBER SOMEONE 0.0000
-0.3010 SKILL ? 0.0000
-0.3010 SOMEONE ELSE 0.0000
-0.3010 STATE DID -0.1366
-0.3010 STAY? </s> -0.3010
-0.3010 TALK ABOUT? 0.0000
-0.3010 TAUGHT YOU -0.2968
-1.3291 THE ACTIVITY -0.0512
-1.8062 THE ATTRACTIONS 0.0000
-0.9611 THE EVENT 0.0000
-1.5051 THE EVENT? 0.0000
-1.2041 THE LEARNING 0.0000
-1.3291 THE MEETING 0.0000
-1.1072 THE PEOPLE 0.0000
-1.2041 THE PERSON -0.2041
-1.5051 THE PLACES 0.0000
-1.8062 THE RELATIONSHIP 0.0000
-0.3010 THEIR FAMILY? 0.0000
-0.3010 THERE WITH 0.0000
-0.8808 THIS ACTIVITY 0.0000
-1.1027 THIS EVENT? 0.0000
-1.2788 THIS OCCASSION? 0.0000
-0.8016 THIS PERSON -0.1461
-1.2788 THIS PERSON? 0.0000
-1.5798 THIS SKILL 0.0000
-0.6021 TO TALK 0.0000
-0.6021 TO YOU? 0.0000
-0.4771 TOWN DID 0.0000
-0.7782 TOWN WERE -0.1761
-0.3010 TRANSPORTATION DID -0.1946
-0.3010 TRAVEL ? 0.0000
-0.3010 TRIP? </s> -0.3010
-0.3010 TYPE OF -0.1761
-0.3010 TYPES OF -0.1761
-0.3010 USE? </s> -0.3010
-0.3010 VISITED ON 0.0000
-0.3010 WANT TO -0.1761
-0.3010 WAS PERSONALLY 0.0000
-1.2041 WERE CHEERING 0.0000
-1.2041 WERE ENGAGED 0.0000
-1.2041 WERE THERE 0.0000
-0.6021 WERE YOU -0.2837
-1.2041 WERE YOU? 0.0000
-1.6021 WHAT ARE 0.0000
-2.0792 WHAT BEACH 0.0000
-1.1249 WHAT CITY 0.0000
-1.4771 WHAT COUNTRY 0.0000
-1.3010 WHAT DO 0.0000
-1.7782 WHAT FACT 0.0000
-2.0792 WHAT IS 0.0000
-1.7782 WHAT LOCATION 0.0000
-0.9331 WHAT MONTH 0.0000
-1.7782 WHAT OTHER 0.0000
-1.7782 WHAT STATE 0.0000
-1.3802 WHAT TOWN 0.0000
-2.0792 WHAT TYPE 0.0000
-2.0792 WHAT TYPES 0.0000
-2.0792 WHAT WERE -0.1761
-1.3010 WHAT YEAR 0.0000
-1.0000 WHEN YEAR 0.0000
-0.3979 WHEN YOU -0.2792
-0.3882 WHO ARE 0.0000
-1.3424 WHO OUT 0.0000
-1.3424 WHO TAUGHT 0.0000
-0.3010 WITH YOU -0.2881
-0.3010 YEAR DID -0.0776
-2.0086 YOU </s> -0.3010
-1.5315 YOU ? 0.0000
-2.0086 YOU DOING -0.1249
-1.0544 YOU FIRST 0.0000
-1.4065 YOU LEARN 0.0000
-2.0086 YOU LEARN? 0.0000
-1.3096 YOU LEARNED 0.0000
-2.0086 YOU MET 0.0000
-2.0086 YOU MET? 0.0000
-1.0086 YOU REMEMBER 0.0000
-2.0086 YOU STAY? 0.0000
-2.0086 YOU THIS -0.2894
-1.5315 YOU TRAVEL 0.0000
-1.7076 YOU USE? 0.0000
-1.4065 YOU VISITED 0.0000
-2.0086 YOU WANT 0.0000
-1.5315 YOU WHEN -0.0792
-0.3010 YOU? </s> -0.3010
-1.0000 YOUR FRIEND 0.0000
-0.3979 YOUR TRIP? 0.0000

\3-grams:
-0.6021 <s> HOW DID
-0.6021 <s> HOW LONG
-1.6021 <s> WHAT ARE
-2.0792 <s> WHAT BEACH
-1.1249 <s> WHAT CITY
-1.4771 <s> WHAT COUNTRY
-1.3010 <s> WHAT DO
-1.7782 <s> WHAT FACT
-2.0792 <s> WHAT IS
-1.7782 <s> WHAT LOCATION
-0.9331 <s> WHAT MONTH
-1.7782 <s> WHAT OTHER
-1.7782 <s> WHAT STATE
-1.3802 <s> WHAT TOWN
-2.0792 <s> WHAT TYPE
-2.0792 <s> WHAT TYPES
-2.0792 <s> WHAT WERE
-1.3010 <s> WHAT YEAR
-0.3010 <s> WHEN YEAR
-0.3468 <s> WHO ARE
-1.3010 <s> WHO OUT
-0.3010 ABOUT IT? </s>
-0.3010 ABOUT THEIR FAMILY?
-0.6021 ABOUT THIS EVENT?
-0.6021 ABOUT THIS PERSON?
-0.3010 ACQUAITANCE CIRCLE WAS
-0.3010 ACTIVITY OCCUR? </s>
-0.3010 ACTIVITY WITH YOU
-0.3010 AFFECTED BY THIS
-0.3010 AFTER YOU LEARNED
-0.3010 AND COUNTRY DID
-0.3010 AND COUNTY DID
-0.3010 AND TOWN WERE
-0.3010 AND YEAR DID
-1.3802 ARE THE ATTRACTIONS
-0.6812 ARE THE PEOPLE
-0.7782 ARE THE PERSON
-1.0792 ARE THE PLACES
-0.3010 AT THE EVENT?
-0.3010 AT THIS OCCASSION?
-0.3010 ATTRACTIONS YOU VISITED
-0.3010 BEACH DID YOU
-0.3010 BY THIS EVENT?
-0.3010 CHEERING YOU ?
-0.3010 CIRCLE WAS PERSONALLY
-0.9031 CITY AND COUNTRY
-0.6021 CITY AND COUNTY
-0.9031 CITY AND TOWN
-0.9031 CITY DID THE
-0.6021 CITY DID THIS
-0.9031 CITY DID YOU
-0.3010 CITY WERE YOU
-1.0000 COUNTRY DID THE
-0.5229 COUNTRY DID THIS
-1.0000 COUNTRY DID YOU
-0.6021 COUNTY DID THE
-0.6021 COUNTY DID THIS
-1.0544 DID THE ACTIVITY
-0.6864 DID THE EVENT
-0.9294 DID THE LEARNING
-1.0544 DID THE MEETING
-0.6532 DID THIS ACTIVITY
-0.5563 DID THIS PERSON
-0.6478 DID YOU FIRST
-1.0000 DID YOU LEARN
-1.6021 DID YOU LEARN?
-1.6021 DID YOU STAY?
-1.1249 DID YOU TRAVEL
-1.3010 DID YOU USE?
-0.3010 DO YOU REMEMBER
-0.3010 DOING AFTER YOU
-0.6021 DOING AT THE
-0.6021 DOING AT THIS
-0.3010 DOING WHEN YOU
-0.3010 ELSE DOING AT
-0.3010 ELSE DOING? </s>
-0.3010 ENGAGED IN THIS
-0.3010 EVENT OCCUR? </s>
-0.3010 FACT DO YOU
-0.3010 FIRST MEET ?
-0.3010 FIRST MEET? </s>
-0.3010 FRIEND OR ACQUAITANCE
-0.3010 HOW DID YOU
-0.3010 HOW LONG DID
-0.3010 IN THIS ACTIVITY
-0.3010 INTRODUCED YOU </s>
-0.3010 IS THE RELATIONSHIP
-0.3010 LEARN ABOUT IT?
-0.5229 LEARNED ABOUT IT?
-0.6990 LEARNED ABOUT THIS
-0.3010 LEARNING LAST? </s>
-0.3010 LEARNING OCCUR? </s>
-0.3010 LOCATION DID YOU
-0.3010 LOCATION WERE YOU?
-0.6021 LONG DID THE
-0.6021 LONG DID YOU
-0.3010 MEET ? </s>
-0.3010 MEETING OCCUR? </s>
-0.3010 MET DOING AT
-0.3010 MONTH AND YEAR
-0.5441 MONTH DID THE
-0.6690 MONTH DID YOU
-0.3010 OF THIS PERSON
-0.3010 OF TRANSPORTATION DID
-0.3010 OF YOUR FRIEND
-0.3010 ON YOUR TRIP?
-0.3010 OR ACQUAITANCE CIRCLE
-0.3010 OR ATTRACTIONS YOU
-0.3010 OTHER FACT DO
-0.3010 OUT OF YOUR
-0.7782 PEOPLE WERE CHEERING
-0.7782 PEOPLE WERE ENGAGED
-0.7782 PEOPLE WERE THERE
-0.3010 PEOPLE WHO TAUGHT
-0.3010 PEOPLE YOU VISITED
-0.3010 PERSON INTRODUCED YOU
-0.3010 PERSON LIVE? </s>
-0.3010 PERSON TO YOU?
-0.7782 PERSON YOU MET
-0.7782 PERSON YOU MET?
-0.7782 PERSON YOU WANT
-0.3010 PERSONALLY AFFECTED BY
-0.3010 PLACES OR ATTRACTIONS
-0.3010 PLACES YOU VISITED
-0.3010 RELATIONSHIP OF THIS
-0.6021 REMEMBER ABOUT THEIR
-0.6021 REMEMBER ABOUT THIS
-0.7782 REMEMBER DOING AFTER
-0.7782 REMEMBER DOING AT
-0.7782 REMEMBER DOING WHEN
-0.3010 REMEMBER DOING? </s>
-0.3010 REMEMBER SOMEONE ELSE
-0.3010 SKILL ? </s>
-0.6021 SOMEONE ELSE DOING
-0.6021 SOMEONE ELSE DOING?
-0.6021 STATE DID THIS
-0.6021 STATE DID YOU
-0.3010 TALK ABOUT? </s>
-0.3010 TAUGHT YOU THIS
-0.3010 THE ACTIVITY OCCUR?
-0.3010 THE ATTRACTIONS YOU
-0.3010 THE EVENT OCCUR?
-0.3010 THE EVENT? </s>
-0.9031 THE LEARNING LAST?
-0.4260 THE LEARNING OCCUR?
-0.3010 THE MEETING OCCUR?
-0.5229 THE PEOPLE WERE
-1.0000 THE PEOPLE WHO
-1.0000 THE PEOPLE YOU
-0.9031 THE PERSON INTRODUCED
-0.4260 THE PERSON YOU
-0.6021 THE PLACES OR
-0.6021 THE PLACES YOU
-0.3010 THE RELATIONSHIP OF
-0.3010 THEIR FAMILY? </s>
-0.3010 THERE WITH YOU
-0.3979 THIS ACTIVITY OCCUR?
-1.0000 THIS ACTIVITY WITH
-0.3010 THIS EVENT? </s>
-0.3010 THIS OCCASSION? </s>
-0.3802 THIS PERSON LIVE?
-1.0792 THIS PERSON TO
-0.3010 THIS PERSON? </s>
-0.3010 THIS SKILL ?
-0.3010 TO TALK ABOUT?
-0.3010 TO YOU? </s>
-0.9031 TOWN DID THE
-0.6021 TOWN DID THIS
-0.9031 TOWN DID YOU
-0.3010 TOWN WERE YOU
-0.3010 TRANSPORTATION DID YOU
-0.3010 TRAVEL ? </s>
-0.3010 TYPE OF TRANSPORTATION
-0.3010 TYPES OF TRANSPORTATION
-0.3010 VISITED ON YOUR
-0.3010 WANT TO TALK
-0.3010 WAS PERSONALLY AFFECTED
-0.3010 WERE CHEERING YOU
-0.3010 WERE ENGAGED IN
-0.3010 WERE THERE WITH
-0.9031 WERE YOU DOING
-0.4260 WERE YOU WHEN
-0.3010 WERE YOU? </s>
-0.3010 WHAT ARE THE
-0.3010 WHAT BEACH DID
-0.6532 WHAT CITY AND
-0.6532 WHAT CITY DID
-1.2553 WHAT CITY WERE
-0.3010 WHAT COUNTRY DID
-0.3010 WHAT DO YOU
-0.3010 WHAT FACT DO
-0.3010 WHAT IS THE
-0.6021 WHAT LOCATION DID
-0.6021 WHAT LOCATION WERE
-0.6021 WHAT MONTH AND
-0.6021 WHAT MONTH DID
-0.3010 WHAT OTHER FACT
-0.3010 WHAT STATE DID
-0.3979 WHAT TOWN DID
-1.0000 WHAT TOWN WERE
-0.3010 WHAT TYPE OF
-0.3010 WHAT TYPES OF
-0.3010 WHAT WERE YOU
-0.3010 WHAT YEAR DID
-0.3010 WHEN YEAR DID
-0.3010 WHEN YOU LEARNED
-0.3010 WHO ARE THE
-0.3010 WHO OUT OF
-0.3010 WHO TAUGHT YOU
-0.3010 WITH YOU ?
-0.5441 YEAR DID THE
-0.6690 YEAR DID YOU
-0.3010 YOU ? </s>
-0.3010 YOU DOING AT
-0.4771 YOU FIRST MEET
-0.7782 YOU FIRST MEET?
-0.3010 YOU LEARN ABOUT
-0.3010 YOU LEARN? </s>
-0.3010 YOU LEARNED ABOUT
-0.3010 YOU MET DOING
-0.3010 YOU MET? </s>
-0.6990 YOU REMEMBER ABOUT
-0.8239 YOU REMEMBER DOING
-1.3010 YOU REMEMBER DOING?
-1.0000 YOU REMEMBER SOMEONE
-0.3010 YOU STAY? </s>
-0.3010 YOU THIS SKILL
-0.3010 YOU TRAVEL ?
-0.3010 YOU USE? </s>
-0.3010 YOU VISITED ON
-0.3010 YOU WANT TO
-0.3010 YOU WHEN YOU
-0.3010 YOUR FRIEND OR
-0.3010 YOUR TRIP? </s>

\end\
