Language model created by QuickLM on Sun Dec  7 20:17:42 EST 2014
Copyright (c) 1996-2010 Carnegie Mellon University and Alexander I. Rudnicky

The model is in standard ARPA format, designed by Doug Paul while he was at MITRE.

The code that was used to produce this language model is available in Open Source.
Please visit http://www.speech.cs.cmu.edu/tools/ for more information

The (fixed) discount mass is 0.5. The backoffs are computed using the ratio method.
This model based on a corpus of 75 sentences and 86 words

\data\
ngram 1=86
ngram 2=171
ngram 3=224

\1-grams:
-1.2698 </s> -0.3010
-1.2698 <s> -0.2754
-1.9988 ABOUT -0.2677
-3.1449 ACQUAITANCE -0.3007
-2.2418 ACTIVITY -0.2941
-3.1449 AFFECTED -0.3007
-3.1449 AFTER -0.2842
-2.1035 AND -0.2925
-2.0657 ARE -0.2910
-2.5428 AT -0.2849
-2.8439 ATTRACTIONS -0.2842
-3.1449 BEACH -0.2865
-3.1449 BY -0.2951
-3.1449 CHEERING -0.2842
-3.1449 CIRCLE -0.3007
-2.1906 CITY -0.2803
-2.4459 COUNTRY -0.2865
-2.8439 COUNTY -0.2865
-1.4821 DID -0.2674
-2.1449 DO -0.2842
-2.2418 DOING -0.2737
-2.8439 ELSE -0.2985
-3.1449 ENGAGED -0.3007
-2.0657 EVENT -0.2704
-2.5428 FACT -0.2979
-2.8439 FAMILY -0.2770
-2.1906 FIRST -0.2982
-3.1449 FRIEND -0.3004
-2.5428 HOW -0.2858
-3.1449 IN -0.2951
-3.1449 INTRODUCED -0.2842
-3.1449 IS -0.2910
-2.2998 IT -0.2770
-3.1449 LAST -0.2770
-2.4459 LEARN -0.2724
-2.4459 LEARNED -0.2967
-2.5428 LEARNING -0.2944
-2.4459 LIVE -0.2770
-2.8439 LOCATION -0.2839
-2.8439 LONG -0.2865
-2.1906 MEET -0.2770
-2.6678 MEETING -0.2948
-2.8439 MET -0.2744
-1.9988 MONTH -0.2829
-2.8439 OCCASSION -0.2770
-1.8439 OCCUR -0.2770
-2.5428 OF -0.2929
-2.5428 ON -0.2995
-2.8439 OR -0.3001
-2.8439 OTHER -0.2998
-3.1449 OUT -0.2998
-2.4459 PEOPLE -0.2780
-2.0657 PERSON -0.2565
-3.1449 PERSONALLY -0.3007
-2.8439 PLACES -0.2836
-3.1449 RELATIONSHIP -0.2998
-2.1449 REMEMBER -0.2935
-3.1449 SKILL -0.2770
-2.8439 SOMEONE -0.3004
-2.8439 STATE -0.2865
-3.1449 STAY -0.2770
-3.1449 TALK -0.2967
-3.1449 TAUGHT -0.2842
-1.6397 THE -0.2855
-2.8439 THEIR -0.3004
-3.1449 THERE -0.3004
-1.8661 THIS -0.2900
-2.8439 TO -0.2839
-2.3667 TOWN -0.2839
-2.8439 TRANSPORTATION -0.2865
-2.6678 TRAVEL -0.2770
-2.5428 TRIP -0.2770
-3.1449 TYPE -0.2998
-3.1449 TYPES -0.2998
-2.8439 USE -0.2770
-2.5428 VISITED -0.2998
-3.1449 WANT -0.3004
-3.1449 WAS -0.3007
-2.2418 WERE -0.2832
-1.3667 WHAT -0.2714
-2.4459 WHEN -0.2797
-2.1035 WHO -0.2967
-2.8439 WITH -0.2842
-1.9988 YEAR -0.2865
-1.4206 YOU -0.2520
-2.4459 YOUR -0.2995

\2-grams:
-1.5740 <s> HOW 0.0000
-0.3979 <s> WHAT 0.0000
-2.1761 <s> WHEN -0.2553
-1.1761 <s> WHO -0.0378
-1.4472 ABOUT </s> -0.3010
-0.6021 ABOUT IT 0.0000
-1.1461 ABOUT THEIR 0.0000
-0.8451 ABOUT THIS -0.1526
-0.3010 ACQUAITANCE CIRCLE 0.0000
-0.3590 ACTIVITY OCCUR 0.0000
-1.2041 ACTIVITY WITH 0.0000
-0.3010 AFFECTED BY 0.0000
-0.3010 AFTER YOU -0.2800
-1.3424 AND COUNTRY 0.0000
-1.0414 AND COUNTY 0.0000
-1.3424 AND TOWN -0.2218
-0.4973 AND YEAR 0.0000
-0.3010 ARE THE -0.2109
-0.6021 AT THE -0.2352
-0.6021 AT THIS -0.2775
-0.3010 ATTRACTIONS YOU -0.2843
-0.3010 BEACH DID -0.1946
-0.3010 BY THIS -0.2653
-0.3010 CHEERING YOU -0.2757
-0.3010 CIRCLE WAS 0.0000
-0.6532 CITY AND -0.2139
-0.6532 CITY DID 0.0000
-1.2553 CITY WERE -0.1383
-0.3010 COUNTRY DID 0.0000
-0.3010 COUNTY DID -0.1568
-0.7333 DID THE -0.1481
-1.0095 DID THIS -0.1192
-0.6628 DID YOU -0.2102
-0.3010 DO YOU -0.2580
-0.9031 DOING </s> -0.3010
-1.2041 DOING AFTER 0.0000
-0.6021 DOING AT 0.0000
-1.2041 DOING WHEN -0.0792
-0.3010 ELSE DOING -0.0969
-0.3010 ENGAGED IN 0.0000
-0.6812 EVENT </s> -0.3010
-0.5351 EVENT OCCUR 0.0000
-0.3010 FACT DO 0.0000
-0.3010 FAMILY </s> -0.3010
-0.3010 FIRST MEET 0.0000
-0.3010 FRIEND OR -0.1761
-0.6021 HOW DID -0.1946
-0.6021 HOW LONG 0.0000
-0.3010 IN THIS -0.2398
-0.3010 INTRODUCED YOU -0.2757
-0.3010 IS THE -0.2942
-0.3010 IT </s> -0.3010
-0.3010 LAST </s> -0.3010
-1.0000 LEARN </s> -0.3010
-0.3979 LEARN ABOUT -0.1761
-0.3010 LEARNED ABOUT -0.0843
-0.9031 LEARNING LAST 0.0000
-0.4260 LEARNING OCCUR 0.0000
-0.3010 LIVE </s> -0.3010
-0.6021 LOCATION DID -0.1946
-0.6021 LOCATION WERE -0.1383
-0.3010 LONG DID -0.0776
-0.3010 MEET </s> -0.3010
-0.3010 MEETING OCCUR 0.0000
-0.6021 MET </s> -0.3010
-0.6021 MET DOING -0.1761
-0.6021 MONTH AND -0.1347
-0.6021 MONTH DID -0.0776
-0.3010 OCCASSION </s> -0.3010
-0.3010 OCCUR </s> -0.3010
-0.9031 OF THIS -0.1984
-0.6021 OF TRANSPORTATION 0.0000
-0.9031 OF YOUR -0.2553
-0.3010 ON YOUR -0.0792
-0.6021 OR ACQUAITANCE 0.0000
-0.6021 OR ATTRACTIONS 0.0000
-0.3010 OTHER FACT 0.0000
-0.3010 OUT OF -0.2430
-0.5229 PEOPLE WERE -0.2109
-1.0000 PEOPLE WHO -0.2808
-1.0000 PEOPLE YOU -0.2843
-1.0792 PERSON </s> -0.3010
-1.3802 PERSON INTRODUCED 0.0000
-0.6812 PERSON LIVE 0.0000
-1.3802 PERSON TO -0.1761
-0.9031 PERSON YOU -0.2886
-0.3010 PERSONALLY AFFECTED 0.0000
-0.6021 PLACES OR -0.1761
-0.6021 PLACES YOU -0.2843
-0.3010 RELATIONSHIP OF -0.2430
-0.6990 REMEMBER ABOUT -0.1963
-0.6990 REMEMBER DOING 0.0000
-1.0000 REMEMBER SOMEONE 0.0000
-0.3010 SKILL </s> -0.3010
-0.3010 SOMEONE ELSE 0.0000
-0.3010 STATE DID -0.1366
-0.3010 STAY </s> -0.3010
-0.3010 TALK ABOUT -0.2852
-0.3010 TAUGHT YOU -0.2969
-1.3291 THE ACTIVITY -0.0512
-1.8062 THE ATTRACTIONS 0.0000
-0.8519 THE EVENT 0.0000
-1.2041 THE LEARNING 0.0000
-1.3291 THE MEETING 0.0000
-1.1072 THE PEOPLE 0.0000
-1.2041 THE PERSON -0.2218
-1.5051 THE PLACES 0.0000
-1.8062 THE RELATIONSHIP 0.0000
-0.3010 THEIR FAMILY 0.0000
-0.3010 THERE WITH 0.0000
-0.8808 THIS ACTIVITY 0.0000
-1.1027 THIS EVENT -0.1996
-1.2788 THIS OCCASSION 0.0000
-0.6767 THIS PERSON -0.1249
-1.5798 THIS SKILL 0.0000
-0.6021 TO TALK 0.0000
-0.6021 TO YOU -0.2757
-0.4771 TOWN DID 0.0000
-0.7782 TOWN WERE -0.1383
-0.3010 TRANSPORTATION DID -0.1946
-0.3010 TRAVEL </s> -0.3010
-0.3010 TRIP </s> -0.3010
-0.3010 TYPE OF -0.1761
-0.3010 TYPES OF -0.1761
-0.3010 USE </s> -0.3010
-0.3010 VISITED ON 0.0000
-0.3010 WANT TO -0.1761
-0.3010 WAS PERSONALLY 0.0000
-1.2041 WERE CHEERING 0.0000
-1.2041 WERE ENGAGED 0.0000
-1.2041 WERE THERE 0.0000
-0.5051 WERE YOU -0.2580
-1.6021 WHAT ARE 0.0000
-2.0792 WHAT BEACH 0.0000
-1.1249 WHAT CITY 0.0000
-1.4771 WHAT COUNTRY 0.0000
-1.3010 WHAT DO 0.0000
-1.7782 WHAT FACT 0.0000
-2.0792 WHAT IS 0.0000
-1.7782 WHAT LOCATION 0.0000
-0.9331 WHAT MONTH 0.0000
-1.7782 WHAT OTHER 0.0000
-1.7782 WHAT STATE 0.0000
-1.3802 WHAT TOWN 0.0000
-2.0792 WHAT TYPE 0.0000
-2.0792 WHAT TYPES 0.0000
-2.0792 WHAT WERE -0.1383
-1.3010 WHAT YEAR 0.0000
-1.0000 WHEN YEAR 0.0000
-0.3979 WHEN YOU -0.2800
-0.3882 WHO ARE 0.0000
-1.3424 WHO OUT 0.0000
-1.3424 WHO TAUGHT 0.0000
-0.3010 WITH YOU -0.2757
-0.3010 YEAR DID -0.0776
-1.2472 YOU </s> -0.3010
-2.0253 YOU DOING -0.1761
-1.0711 YOU FIRST 0.0000
-1.3263 YOU LEARN 0.0000
-1.3263 YOU LEARNED 0.0000
-1.7243 YOU MET 0.0000
-1.0253 YOU REMEMBER 0.0000
-2.0253 YOU STAY 0.0000
-2.0253 YOU THIS -0.2894
-1.5482 YOU TRAVEL 0.0000
-1.7243 YOU USE 0.0000
-1.4232 YOU VISITED 0.0000
-2.0253 YOU WANT 0.0000
-1.5482 YOU WHEN -0.0792
-1.0000 YOUR FRIEND 0.0000
-0.3979 YOUR TRIP 0.0000

\3-grams:
-0.6021 <s> HOW DID
-0.6021 <s> HOW LONG
-1.6021 <s> WHAT ARE
-2.0792 <s> WHAT BEACH
-1.1249 <s> WHAT CITY
-1.4771 <s> WHAT COUNTRY
-1.3010 <s> WHAT DO
-1.7782 <s> WHAT FACT
-2.0792 <s> WHAT IS
-1.7782 <s> WHAT LOCATION
-0.9331 <s> WHAT MONTH
-1.7782 <s> WHAT OTHER
-1.7782 <s> WHAT STATE
-1.3802 <s> WHAT TOWN
-2.0792 <s> WHAT TYPE
-2.0792 <s> WHAT TYPES
-2.0792 <s> WHAT WERE
-1.3010 <s> WHAT YEAR
-0.3010 <s> WHEN YEAR
-0.3468 <s> WHO ARE
-1.3010 <s> WHO OUT
-0.3010 ABOUT IT </s>
-0.3010 ABOUT THEIR FAMILY
-0.6021 ABOUT THIS EVENT
-0.6021 ABOUT THIS PERSON
-0.3010 ACQUAITANCE CIRCLE WAS
-0.3010 ACTIVITY OCCUR </s>
-0.3010 ACTIVITY WITH YOU
-0.3010 AFFECTED BY THIS
-0.3010 AFTER YOU LEARNED
-0.3010 AND COUNTRY DID
-0.3010 AND COUNTY DID
-0.3010 AND TOWN WERE
-0.3010 AND YEAR DID
-1.3802 ARE THE ATTRACTIONS
-0.6812 ARE THE PEOPLE
-0.7782 ARE THE PERSON
-1.0792 ARE THE PLACES
-0.3010 AT THE EVENT
-0.3010 AT THIS OCCASSION
-0.3010 ATTRACTIONS YOU VISITED
-0.3010 BEACH DID YOU
-0.3010 BY THIS EVENT
-0.3010 CHEERING YOU </s>
-0.3010 CIRCLE WAS PERSONALLY
-0.9031 CITY AND COUNTRY
-0.6021 CITY AND COUNTY
-0.9031 CITY AND TOWN
-0.9031 CITY DID THE
-0.6021 CITY DID THIS
-0.9031 CITY DID YOU
-0.3010 CITY WERE YOU
-1.0000 COUNTRY DID THE
-0.5229 COUNTRY DID THIS
-1.0000 COUNTRY DID YOU
-0.6021 COUNTY DID THE
-0.6021 COUNTY DID THIS
-1.0544 DID THE ACTIVITY
-0.6864 DID THE EVENT
-0.9294 DID THE LEARNING
-1.0544 DID THE MEETING
-0.6532 DID THIS ACTIVITY
-0.5563 DID THIS PERSON
-0.6478 DID YOU FIRST
-0.9031 DID YOU LEARN
-1.6021 DID YOU STAY
-1.1249 DID YOU TRAVEL
-1.3010 DID YOU USE
-0.3010 DO YOU REMEMBER
-0.3010 DOING AFTER YOU
-0.6021 DOING AT THE
-0.6021 DOING AT THIS
-0.3010 DOING WHEN YOU
-0.6021 ELSE DOING </s>
-0.6021 ELSE DOING AT
-0.3010 ENGAGED IN THIS
-0.3010 EVENT OCCUR </s>
-0.3010 FACT DO YOU
-0.3010 FIRST MEET </s>
-0.3010 FRIEND OR ACQUAITANCE
-0.3010 HOW DID YOU
-0.3010 HOW LONG DID
-0.3010 IN THIS ACTIVITY
-0.3010 INTRODUCED YOU </s>
-0.3010 IS THE RELATIONSHIP
-0.3010 LEARN ABOUT IT
-0.5229 LEARNED ABOUT IT
-0.6990 LEARNED ABOUT THIS
-0.3010 LEARNING LAST </s>
-0.3010 LEARNING OCCUR </s>
-0.3010 LOCATION DID YOU
-0.3010 LOCATION WERE YOU
-0.6021 LONG DID THE
-0.6021 LONG DID YOU
-0.3010 MEETING OCCUR </s>
-0.3010 MET DOING AT
-0.3010 MONTH AND YEAR
-0.5441 MONTH DID THE
-0.6690 MONTH DID YOU
-0.3010 OF THIS PERSON
-0.3010 OF TRANSPORTATION DID
-0.3010 OF YOUR FRIEND
-0.3010 ON YOUR TRIP
-0.3010 OR ACQUAITANCE CIRCLE
-0.3010 OR ATTRACTIONS YOU
-0.3010 OTHER FACT DO
-0.3010 OUT OF YOUR
-0.7782 PEOPLE WERE CHEERING
-0.7782 PEOPLE WERE ENGAGED
-0.7782 PEOPLE WERE THERE
-0.3010 PEOPLE WHO TAUGHT
-0.3010 PEOPLE YOU VISITED
-0.3010 PERSON INTRODUCED YOU
-0.3010 PERSON LIVE </s>
-0.3010 PERSON TO YOU
-0.4771 PERSON YOU MET
-0.7782 PERSON YOU WANT
-0.3010 PERSONALLY AFFECTED BY
-0.3010 PLACES OR ATTRACTIONS
-0.3010 PLACES YOU VISITED
-0.3010 RELATIONSHIP OF THIS
-0.6021 REMEMBER ABOUT THEIR
-0.6021 REMEMBER ABOUT THIS
-0.9031 REMEMBER DOING </s>
-0.9031 REMEMBER DOING AFTER
-0.9031 REMEMBER DOING AT
-0.9031 REMEMBER DOING WHEN
-0.3010 REMEMBER SOMEONE ELSE
-0.3010 SOMEONE ELSE DOING
-0.6021 STATE DID THIS
-0.6021 STATE DID YOU
-0.3010 TALK ABOUT </s>
-0.3010 TAUGHT YOU THIS
-0.3010 THE ACTIVITY OCCUR
-0.3010 THE ATTRACTIONS YOU
-0.9542 THE EVENT </s>
-0.4102 THE EVENT OCCUR
-0.9031 THE LEARNING LAST
-0.4260 THE LEARNING OCCUR
-0.3010 THE MEETING OCCUR
-0.5229 THE PEOPLE WERE
-1.0000 THE PEOPLE WHO
-1.0000 THE PEOPLE YOU
-0.9031 THE PERSON INTRODUCED
-0.4260 THE PERSON YOU
-0.6021 THE PLACES OR
-0.6021 THE PLACES YOU
-0.3010 THE RELATIONSHIP OF
-0.3010 THEIR FAMILY </s>
-0.3010 THERE WITH YOU
-0.3979 THIS ACTIVITY OCCUR
-1.0000 THIS ACTIVITY WITH
-0.3010 THIS EVENT </s>
-0.3010 THIS OCCASSION </s>
-0.9031 THIS PERSON </s>
-0.5051 THIS PERSON LIVE
-1.2041 THIS PERSON TO
-0.3010 THIS SKILL </s>
-0.3010 TO TALK ABOUT
-0.3010 TO YOU </s>
-0.9031 TOWN DID THE
-0.6021 TOWN DID THIS
-0.9031 TOWN DID YOU
-0.3010 TOWN WERE YOU
-0.3010 TRANSPORTATION DID YOU
-0.3010 TYPE OF TRANSPORTATION
-0.3010 TYPES OF TRANSPORTATION
-0.3010 VISITED ON YOUR
-0.3010 WANT TO TALK
-0.3010 WAS PERSONALLY AFFECTED
-0.3010 WERE CHEERING YOU
-0.3010 WERE ENGAGED IN
-0.3010 WERE THERE WITH
-1.0000 WERE YOU </s>
-1.0000 WERE YOU DOING
-0.5229 WERE YOU WHEN
-0.3010 WHAT ARE THE
-0.3010 WHAT BEACH DID
-0.6532 WHAT CITY AND
-0.6532 WHAT CITY DID
-1.2553 WHAT CITY WERE
-0.3010 WHAT COUNTRY DID
-0.3010 WHAT DO YOU
-0.3010 WHAT FACT DO
-0.3010 WHAT IS THE
-0.6021 WHAT LOCATION DID
-0.6021 WHAT LOCATION WERE
-0.6021 WHAT MONTH AND
-0.6021 WHAT MONTH DID
-0.3010 WHAT OTHER FACT
-0.3010 WHAT STATE DID
-0.3979 WHAT TOWN DID
-1.0000 WHAT TOWN WERE
-0.3010 WHAT TYPE OF
-0.3010 WHAT TYPES OF
-0.3010 WHAT WERE YOU
-0.3010 WHAT YEAR DID
-0.3010 WHEN YEAR DID
-0.3010 WHEN YOU LEARNED
-0.3010 WHO ARE THE
-0.3010 WHO OUT OF
-0.3010 WHO TAUGHT YOU
-0.3010 WITH YOU </s>
-0.5441 YEAR DID THE
-0.6690 YEAR DID YOU
-0.3010 YOU DOING AT
-0.3010 YOU FIRST MEET
-1.0000 YOU LEARN </s>
-0.3979 YOU LEARN ABOUT
-0.3010 YOU LEARNED ABOUT
-0.6021 YOU MET </s>
-0.6021 YOU MET DOING
-0.6990 YOU REMEMBER ABOUT
-0.6990 YOU REMEMBER DOING
-1.0000 YOU REMEMBER SOMEONE
-0.3010 YOU STAY </s>
-0.3010 YOU THIS SKILL
-0.3010 YOU TRAVEL </s>
-0.3010 YOU USE </s>
-0.3010 YOU VISITED ON
-0.3010 YOU WANT TO
-0.3010 YOU WHEN YOU
-0.3010 YOUR FRIEND OR
-0.3010 YOUR TRIP </s>

\end\
