Language model created by QuickLM on Thu Dec 11 20:15:52 EST 2014
Copyright (c) 1996-2010 Carnegie Mellon University and Alexander I. Rudnicky

The model is in standard ARPA format, designed by Doug Paul while he was at MITRE.

The code that was used to produce this language model is available in Open Source.
Please visit http://www.speech.cs.cmu.edu/tools/ for more information

The (fixed) discount mass is 0.5. The backoffs are computed using the ratio method.
This model based on a corpus of 1831 sentences and 3942 words

\data\
ngram 1=3942
ngram 2=9818
ngram 3=11796

\1-grams:
-4.5789 ! -0.3000
-4.5789 "I'LL -0.3009
-4.5789 #1 -0.2795
-4.5789 #477 -0.2795
-4.5789 $1 -0.2999
-4.5789 $85 -0.3010
-4.2779 & -0.3010
-3.4649 ' -0.2792
-2.6295 '' -0.2688
-4.2779 'LL -0.3010
-2.4328 'S -0.2523
-4.2779 'T -0.3009
-2.6012 , -0.2313
-3.9768 - -0.2848
-3.1639 . -0.2785
-4.5789 .COM -0.2795
-4.5789 .DBF -0.2795
-4.5789 0 -0.3010
-4.5789 000-A-YEAR -0.3010
-3.6758 1 -0.2781
-4.5789 1-CENT -0.3010
-4.5789 10- -0.2953
-4.5789 101 -0.3010
-4.5789 103 -0.3010
-4.1018 11 -0.2794
-4.5789 118 -0.2999
-4.5789 11TH -0.2795
-4.2779 12 -0.2795
-4.5789 12-HOUR -0.3010
-4.5789 12-YEAR-OLD -0.3010
-4.5789 126 -0.2999
-4.1018 13 -0.3010
-4.5789 134 -0.2999
-4.5789 14-MILE -0.3010
-4.5789 142 -0.2999
-4.2779 15 -0.2999
-4.5789 158 -0.2999
-4.5789 167 -0.2999
-4.5789 16TH -0.3008
-4.5789 177 -0.2999
-4.5789 1797-185 -0.2999
-4.5789 1832 -0.2795
-4.5789 1866 -0.2795
-4.5789 1872 -0.3010
-4.5789 187S -0.3010
-4.5789 1893 -0.2795
-4.5789 1896 -0.3010
-4.2779 1899 -0.2795
-4.2779 19 -0.2795
-4.5789 1904 -0.3010
-4.2779 1920S -0.2795
-4.5789 1926 -0.2999
-4.5789 1929 -0.2795
-4.5789 193 -0.2994
-4.5789 1932 -0.2795
-4.5789 1939 -0.3008
-4.5789 1941 -0.2994
-4.5789 1942 -0.2795
-4.1018 1948 -0.2784
-4.5789 195 -0.2795
-4.5789 1958 -0.2795
-4.5789 1960 -0.2994
-4.2779 1964 -0.2981
-4.2779 1965 -0.3008
-4.5789 1966 -0.3010
-4.2779 1967 -0.2795
-4.5789 1968 -0.2795
-4.2779 1969 -0.2793
-4.5789 197 -0.2996
-4.5789 1972 -0.2795
-4.2779 1973 -0.3010
-4.5789 1978 -0.2795
-4.5789 1979 -0.2795
-4.2779 1980 -0.2983
-4.2779 1981 -0.2667
-4.5789 1982 -0.2994
-4.5789 1983 -0.2994
-4.2779 1984 -0.2795
-4.5789 1985 -0.2795
-4.5789 1989 -0.2795
-4.2779 1990S -0.2795
-4.1018 1991 -0.2795
-4.5789 1992 -0.3010
-4.2779 1993 -0.3000
-4.2779 1994 -0.2795
-4.5789 1998 -0.2795
-4.5789 1999 -0.2795
-4.5789 19TH -0.3010
-4.2779 19TH-CENTURY -0.3010
-4.5789 1ST -0.3007
-3.7338 2 -0.2970
-4.5789 2-FOOT-SQUARE -0.3010
-4.5789 2000 -0.2795
-4.5789 2002 -0.2795
-4.2779 2003 -0.2795
-4.2779 2004 -0.2996
-4.5789 2005 -0.3010
-4.1018 2006 -0.3010
-4.5789 2007 -0.3010
-4.2779 2008 -0.3010
-4.5789 2009 -0.3010
-3.9768 2010 -0.2795
-4.2779 2011 -0.2795
-4.5789 2012 -0.3010
-4.5789 21 -0.2999
-4.5789 219 -0.3009
-4.2779 22 -0.3009
-4.5789 22ND -0.3008
-4.5789 24-HOUR -0.3010
-4.5789 26 -0.2999
-4.5789 28 -0.3010
-4.5789 280 -0.3010
-4.5789 3 -0.3010
-4.1018 30 -0.2795
-4.2779 4 -0.2999
-4.5789 401 -0.2999
-4.5789 42.3 -0.3010
-4.5789 468-POUND -0.3010
-4.5789 49 -0.3010
-3.8799 5 -0.2941
-4.2779 500 -0.2973
-4.5789 52 -0.3010
-4.5789 55 -0.3010
-4.5789 5TH -0.2999
-4.2779 6 -0.2989
-4.2779 6TH -0.3010
-4.5789 7 -0.3010
-4.5789 7-MINUTE -0.3010
-4.2779 8 -0.3010
-4.5789 84 -0.3010
-4.5789 86ED -0.3000
-4.5789 9/11 -0.2795
-4.5789 98 -0.2795
-3.3484 : -0.2992
-4.5789 ; -0.3010
-1.3162 </s> -0.3010
-1.3162 <s> -0.2467
-2.2267 A -0.2910
-4.5789 A.G. -0.2953
-4.5789 A75 -0.3003
-4.5789 AA -0.3010
-4.5789 AARON -0.3010
-4.1018 ABBEY -0.2735
-4.5789 ABBREVIATED -0.3010
-3.9768 ABBREVIATION -0.2938
-4.5789 ABNORMAL -0.3010
-4.5789 ABOMINABLE -0.3010
-3.1018 ABOUT -0.2644
-4.5789 ABREVIATION -0.2996
-4.5789 ABUSED -0.2795
-4.5789 ABUSING -0.3010
-4.2779 ACADEMY -0.3008
-4.5789 ACCENT -0.3010
-4.5789 ACCESS -0.2795
-4.5789 ACCESSORY -0.2983
-4.5789 ACCIDENTS -0.2795
-4.5789 ACCOMPANYING -0.2876
-4.5789 ACCORDING -0.2996
-4.5789 ACCOUNT -0.2795
-4.5789 ACETYLSALICYLIC -0.3010
-4.2779 ACID -0.2780
-4.5789 ACQUAITANCE -0.3010
-4.5789 ACREAGE -0.2953
-4.5789 ACT -0.2953
-4.5789 ACTED -0.3007
-3.6758 ACTIVITY -0.3004
-3.6758 ACTOR -0.2983
-4.5789 ACTORS -0.2987
-3.9768 ACTRESS -0.2955
-4.5789 ACTUAL -0.3010
-4.2779 AD -0.3010
-4.5789 ADAMS -0.3007
-4.5789 ADAPTATIONS -0.2953
-4.5789 ADAPTED -0.3005
-4.5789 ADDING -0.3010
-3.5789 ADDRESS -0.2729
-4.5789 ADDRESSES -0.2953
-4.5789 ADMIRAL -0.2953
-4.5789 ADMIT -0.2996
-4.5789 ADMONITION -0.3008
-4.5789 ADOLF -0.3010
-4.5789 ADRIENNE -0.3010
-4.5789 ADS -0.2999
-4.5789 ADULT -0.2795
-4.5789 ADVANCED -0.3010
-4.5789 ADVENTURE -0.3009
-4.5789 ADVENTURES -0.2953
-4.5789 ADVERTISE -0.2996
-4.5789 ADVERTISED -0.3007
-4.5789 ADVERTIZING -0.2996
-4.5789 AEROSMITH -0.2795
-4.2779 AFFECTED -0.3006
-4.5789 AFFECTIONATE -0.3009
-4.5789 AFGHANISTAN -0.2973
-3.7338 AFRICA -0.2778
-3.7338 AFTER -0.2637
-4.5789 AGAINST -0.2876
-4.1018 AGE -0.2780
-4.5789 AGED -0.2795
-4.5789 AGENCY -0.2952
-4.5789 AGNOSTIC -0.3010
-4.5789 AGO -0.2986
-4.5789 AHEAD -0.2953
-4.5789 AHOY -0.3010
-4.5789 AIDS -0.3009
-4.5789 AIM-54C -0.3010
-3.8007 AIR -0.2794
-4.5789 AIRBORNE -0.3000
-4.5789 AIRED -0.2795
-4.5789 AIRLINES -0.2952
-3.6758 AIRPORT -0.2657
-4.5789 AIRPORTS -0.2795
-4.5789 AIRSPEED -0.3010
-4.5789 AIRWAVES -0.3007
-4.5789 AKERS -0.3000
-4.5789 AKITA -0.2795
-4.5789 AL-FARRI -0.2795
-4.5789 ALABAMA -0.3010
-4.5789 ALAN -0.3010
-3.9768 ALBERTSON -0.3001
-4.2779 ALBUM -0.2795
-4.2779 ALBUMS -0.2979
-4.5789 ALCOHOL -0.2952
-4.5789 ALDRIDGE'S -0.3008
-4.5789 ALDRIN -0.3010
-4.5789 ALI -0.3010
-4.5789 ALIVE -0.3000
-4.5789 ALKALINE -0.3010
-3.8007 ALL -0.2869
-4.5789 ALLAH -0.2795
-4.5789 ALLEY -0.2795
-4.5789 ALLIANCE -0.2795
-4.5789 ALLOWED -0.2996
-3.9768 ALMIGHTY -0.2795
-4.5789 ALMOST -0.3010
-4.5789 ALONE -0.2795
-4.5789 ALPHABET -0.3009
-4.2779 ALSO -0.3008
-4.5789 ALTA -0.3010
-4.5789 ALTERNATOR -0.2795
-4.5789 ALTITUDE -0.2953
-4.5789 ALVIN -0.2994
-4.5789 ALWAYS -0.3009
-4.5789 ALYSSA -0.3010
-4.2779 AM -0.3010
-3.8007 AMENDMENT -0.2770
-3.6758 AMERICA -0.2731
-3.2365 AMERICAN -0.2960
-4.2779 AMERICANS -0.3009
-4.5789 AMERICAS -0.2795
-4.5789 AMHERST -0.2795
-4.5789 AMISH -0.3010
-4.5789 AMPHIBIANS -0.2795
-3.1810 AN -0.3006
-4.5789 ANALYSIS -0.2795
-2.5746 AND -0.2741
-4.5789 ANDERSSEN -0.3007
-4.2779 ANDREW -0.2998
-4.5789 ANDREWS -0.3010
-4.2779 ANGELES -0.2795
-4.5789 ANGELINA -0.3010
-3.9768 ANGELS -0.2783
-4.5789 ANGLES -0.2987
-3.7338 ANIMAL -0.2665
-3.8799 ANIMALS -0.2964
-4.5789 ANNA -0.3010
-4.2779 ANNIVERSARY -0.2795
-4.5789 ANNOTATED -0.3010
-4.5789 ANNOUNCED -0.2996
-4.5789 ANNUALLY -0.2795
-4.5789 ANNUNCIATION -0.2795
-4.5789 ANOPHELES -0.3010
-4.2779 ANOTHER -0.2788
-4.2779 ANSWERS -0.2996
-4.2779 ANSWERS.COM -0.2994
-4.1018 ANTARCTICA -0.2795
-4.5789 ANTE -0.3010
-4.2779 ANTHONY -0.3000
-4.5789 ANTIDISESTABLISHMENTARIANISM -0.3000
-4.5789 ANTILLES -0.2795
-4.5789 ANY -0.3010
-4.5789 ANZUS -0.3010
-4.5789 AOL -0.3010
-4.1018 APOLLO -0.3006
-4.5789 APPAREL -0.2795
-4.2779 APPEAR -0.2756
-4.5789 APPEARED -0.2973
-4.1018 APPLE -0.2789
-4.5789 APPLE, -0.3010
-4.5789 APPLES -0.2996
-4.1018 APPLIED -0.2996
-4.5789 APPROACHES -0.2953
-4.5789 APPROACHING -0.2997
-4.5789 APRICOT -0.3009
-4.5789 APRIL -0.3010
-4.5789 ARABIAN -0.3010
-4.2779 ARABIC -0.2987
-4.5789 ARCH -0.3006
-4.5789 ARCH-ENEMY -0.2795
-4.2779 ARCHITECTS -0.2795
-4.5789 ARCHITECTURAL -0.3010
-4.5789 ARCHITECTURE -0.3010
-4.5789 ARCHY -0.2999
-4.5789 ARCTIC -0.3010
-2.2671 ARE -0.2792
-3.4649 AREA -0.2719
-4.1018 AREAS -0.2730
-4.5789 ARIGNAR -0.3010
-4.5789 ARKANSAS -0.2999
-4.2779 ARMA -0.2996
-4.5789 ARMORY -0.3009
-4.5789 ARMS -0.2953
-4.2779 ARMSTRONG -0.3007
-4.2779 ARMY -0.2975
-4.5789 ARNOLD -0.3010
-4.5789 ARNOLD! -0.3009
-4.5789 AROMETHERAPY -0.2795
-4.2779 AROUND -0.2876
-3.8799 ART -0.2767
-4.1018 ARTICLES -0.2929
-4.5789 ARTIFICIAL -0.3010
-4.1018 ARTIST -0.2941
-4.1018 ARTISTS -0.2770
-4.2779 ARTS -0.2951
-3.0604 AS -0.2605
-4.5789 ASCAP -0.3008
-4.5789 ASIA -0.2795
-4.2779 ASIAN -0.3006
-4.2779 ASK -0.2984
-4.5789 ASPIRIN -0.3010
-4.2779 ASSASSINATED -0.2795
-4.5789 ASSASSINATION -0.2795
-4.5789 ASSOCIATED -0.3007
-4.5789 ASSOCIATES -0.3009
-4.5789 ASSOCIATION -0.3010
-4.5789 ASTAIRE -0.2973
-4.5789 ASTRONAUT -0.2996
-4.1018 ASTRONAUTS -0.2972
-4.5789 ASTRONOMICAL -0.3010
-3.1639 AT -0.2503
-4.5789 ATARI -0.3010
-4.5789 ATHLETE -0.3009
-4.5789 ATHLETES -0.3003
-4.1018 ATLANTIC -0.3003
-4.5789 ATOMIC -0.3008
-4.1018 ATTACK -0.2784
-4.5789 ATTACKED -0.2973
-4.5789 ATTACKS -0.2876
-4.5789 ATTEMPTS -0.2996
-3.8799 ATTEND -0.2638
-4.5789 ATTENDANT -0.2795
-3.9768 ATTENDED -0.2795
-4.5789 ATTIC -0.3000
-4.1018 ATTRACTIONS -0.2958
-4.5789 ATTRACTS -0.3010
-4.5789 AUBERGE -0.2973
-4.2779 AUGUST -0.2794
-3.9768 AUSTRALIA -0.2775
-4.2779 AUSTRALIAN -0.3010
-3.8799 AUTHOR -0.2928
-4.5789 AUTO -0.3010
-4.2779 AUTOBIOGRAPHY -0.2952
-4.5789 AUTOIMMUNE -0.3010
-4.5789 AUTOMOBILE -0.3007
-4.5789 AUTOMOBILES -0.2795
-3.7338 AVERAGE -0.2998
-3.5375 AWARD -0.2699
-3.6246 AWARDS -0.2747
-4.5789 AWAY -0.3000
-4.5789 AYKROYD -0.2999
-4.5789 B12 -0.2795
-4.5789 BABAR -0.2795
-3.9768 BABY -0.2972
-4.5789 BABYSITTER -0.2795
-4.5789 BACALL -0.2994
-4.1018 BACK -0.2995
-4.5789 BACK" -0.2795
-4.5789 BACKGROUND -0.3010
-4.5789 BAGGINS -0.3007
-4.5789 BAKING -0.3010
-4.2779 BALANCE -0.2735
-3.8799 BALL -0.2779
-4.5789 BALLCOCK -0.2999
-4.5789 BALLOTS -0.2973
-4.5789 BALLS -0.2795
-4.5789 BALTIMORE -0.3010
-3.9768 BAND -0.2780
-4.5789 BANK -0.2795
-4.5789 BANKS -0.2953
-4.5789 BANNED -0.3010
-4.5789 BAR -0.2795
-4.5789 BARACK -0.3010
-4.5789 BARBADOS -0.2795
-4.5789 BARBARA -0.3010
-4.5789 BARNEY -0.3010
-4.5789 BAROSAURUS -0.3008
-4.5789 BARREMIAN -0.3010
-4.5789 BARROOM -0.3010
-4.5789 BARRY -0.3010
-4.5789 BARS -0.2795
-3.8007 BASEBALL -0.2761
-4.2779 BASED -0.2973
-4.5789 BASKERVILLES -0.2795
-4.5789 BASOPHOBIC -0.3009
-4.5789 BASQUE -0.3006
-4.5789 BASTILLE -0.3009
-4.5789 BATH -0.3010
-4.5789 BATMAN -0.3010
-4.2779 BATTERY -0.2795
-3.8799 BATTLE -0.2949
-4.5789 BAUHAUS -0.3010
-4.5789 BAY -0.2795
-4.5789 BAYER -0.3010
-3.4028 BE -0.2847
-4.1018 BEACH -0.2767
-4.5789 BEANIE -0.3010
-4.1018 BEAR -0.2938
-4.2779 BEARS -0.2794
-4.5789 BEAT -0.2973
-4.1018 BEATLES -0.2783
-4.2779 BEAVER -0.2990
-4.5789 BECAME -0.3000
-4.2779 BECAUSE -0.2999
-4.5789 BECKETT -0.3009
-3.7338 BECOME -0.2611
-4.5789 BEDS -0.2996
-4.2779 BEE -0.3010
-3.4328 BEEN -0.2601
-4.2779 BEER -0.2952
-4.5789 BEER-PRODUCING -0.3004
-3.9768 BEERS -0.2760
-4.5789 BEES -0.2795
-4.5789 BEETHOVEN -0.3009
-4.1018 BEFORE -0.3009
-4.5789 BEGAN -0.3010
-4.1018 BEGIN -0.2795
-4.5789 BEGINS -0.3008
-4.5789 BEHIND -0.2876
-3.7338 BEING -0.2999
-4.5789 BELGIUM -0.2795
-4.2779 BELIEVE -0.2756
-4.5789 BELLY -0.2795
-3.8799 BELONG -0.2996
-4.5789 BELONGS -0.2996
-4.2779 BELT -0.2915
-4.5789 BELUSHI -0.3010
-4.2779 BEN -0.3010
-4.5789 BENDS -0.2987
-4.5789 BENELUX -0.3009
-4.5789 BENGALI -0.3010
-4.5789 BERGKAMP -0.3007
-4.2779 BERLIN -0.2994
-4.5789 BERT -0.3010
-4.5789 BERTRAND -0.3010
-4.5789 BESIDES -0.3010
-4.5789 BESS -0.3002
-3.4028 BEST -0.2941
-4.5789 BEST-SELLER -0.2953
-4.5789 BET -0.3010
-4.5789 BETSY -0.3010
-4.5789 BETTING -0.3000
-4.2779 BETTY -0.3010
-3.7338 BETWEEN -0.2848
-4.2779 BEYONCE -0.2999
-4.5789 BEYOND -0.3010
-4.5789 BIANCHI -0.3010
-4.1018 BIBLE -0.2786
-4.5789 BIBLES -0.2987
-4.5789 BIBLIOGRAPHY -0.2795
-4.5789 BIC -0.2996
-4.5789 BICORNATE -0.3010
-4.5789 BICYCLE -0.2952
-4.1018 BIG -0.3010
-3.9768 BIGGEST -0.3009
-4.5789 BIKE -0.2795
-4.5789 BILBO -0.3010
-3.9768 BILL -0.2953
-4.5789 BILLIE -0.3008
-4.5789 BILLY -0.3010
-4.5789 BINDING -0.2795
-4.5789 BING -0.2795
-4.5789 BINGO -0.2795
-3.9768 BIRD -0.2734
-4.5789 BIRDS -0.2973
-3.9768 BIRTH -0.2795
-4.1018 BIRTHDAY -0.2795
-4.5789 BIRTHSTONE -0.2795
-4.5789 BITE -0.3010
-4.5789 BJORN -0.3010
-3.8007 BLACK -0.2653
-4.5789 BLACK-AND-WHITE -0.3010
-4.5789 BLACKHAWK -0.3010
-4.5789 BLACKS -0.2795
-4.5789 BLADERUNNER -0.2795
-4.5789 BLASS -0.3010
-4.5789 BLEACH -0.3000
-4.2779 BLIND -0.2996
-4.5789 BLOBBO -0.2795
-4.5789 BLOCK -0.3010
-3.9768 BLOG -0.2769
-4.5789 BLOGS -0.2987
-4.5789 BLOGTALKRADIO -0.3010
-4.2779 BLOOD -0.2985
-4.5789 BLOOM -0.3009
-4.5789 BLUE -0.3010
-4.5789 BLUES -0.3007
-4.5789 BLUSH -0.2795
-4.5789 BMW -0.2795
-4.5789 BMW'S -0.3010
-3.9768 BOARD -0.2792
-4.5789 BOARDS -0.3009
-4.5789 BOARDWALK -0.2795
-4.1018 BOASTS -0.2876
-4.5789 BOAT -0.3009
-4.5789 BOATS -0.2996
-4.5789 BOB -0.3010
-3.6758 BODY -0.2646
-4.5789 BOG -0.2795
-4.5789 BOGS -0.2795
-4.5789 BOHEME -0.2795
-4.5789 BOILING -0.3010
-4.1018 BOMB -0.2795
-4.5789 BOMBAY -0.3010
-4.5789 BOMBING -0.2953
-4.2779 BOND -0.2756
-4.5789 BONE -0.3009
-4.5789 BONES -0.3003
-4.5789 BOOB -0.3010
-3.4997 BOOK -0.2722
-3.8799 BOOKS -0.2969
-4.5789 BOOP -0.2994
-4.5789 BOOTH -0.2999
-4.5789 BORDER -0.3010
-4.1018 BORDERS -0.3008
-4.5789 BORG -0.3008
-4.5789 BORIS -0.3010
-3.3748 BORN -0.2756
-4.5789 BORN-CHILD -0.2973
-4.5789 BOSON -0.3010
-3.9768 BOSTON -0.3010
-4.5789 BOTTLE -0.2795
-4.5789 BOTTLES -0.3000
-4.5789 BOTTOM -0.2953
-4.2779 BOUGHT -0.2969
-4.2779 BOUNTY -0.3010
-4.5789 BOW -0.2795
-4.1018 BOWL -0.3009
-4.1018 BOWLING -0.3009
-4.5789 BOWLS -0.2795
-4.5789 BOX -0.3010
-4.2779 BOXING -0.3009
-4.5789 BOY -0.2795
-4.5789 BOYFRIEND -0.2795
-4.5789 BOYS -0.3007
-4.5789 BPH -0.2795
-4.5789 BRA -0.2795
-4.5789 BRANCHED -0.3005
-4.2779 BRANCHES -0.2994
-4.5789 BRANDENBURG -0.3010
-4.5789 BRANDS -0.2996
-4.5789 BRAUN -0.2795
-4.2779 BRAZIL -0.2795
-4.5789 BREAST -0.3009
-4.5789 BREED -0.2953
-4.5789 BREED, -0.2999
-4.5789 BREEDING -0.3010
-4.5789 BREEDS -0.2987
-4.5789 BREWS -0.3010
-4.5789 BRICKS -0.3005
-3.8799 BRIDGE -0.2673
-4.5789 BRIE -0.3010
-4.5789 BRIGHAM -0.3010
-4.5789 BRIGHTEST -0.3009
-4.5789 BRING -0.3010
-3.9768 BRITISH -0.2755
-4.5789 BRITNEY -0.3010
-4.2779 BROADCAST -0.2794
-4.2779 BROADCASTING -0.2756
-4.5789 BROADCASTS -0.2996
-4.2779 BROADWAY -0.3009
-3.9768 BROKEN -0.2793
-4.5789 BRONTOSAURUSES -0.3010
-4.5789 BRONZE -0.3010
-4.5789 BROOKS -0.3010
-4.2779 BROTHERS -0.2795
-4.5789 BROTHER’S -0.3010
-4.5789 BROUGHT -0.3010
-3.8007 BROWN -0.2777
-4.2779 BROWNS -0.2795
-4.5789 BROWSER -0.3010
-3.8799 BRUCE -0.3009
-4.5789 BRUT -0.2795
-4.5789 BUDGET -0.2996
-4.5789 BUDWEIS -0.2795
-4.5789 BUFFALO -0.3007
-4.5789 BUG -0.2795
-4.2779 BUILD -0.2984
-4.1018 BUILDING -0.2810
-4.5789 BUILDINGS -0.3005
-3.8799 BUILT -0.2609
-4.5789 BULGARICUS -0.2996
-4.5789 BULL -0.3010
-4.5789 BULLETIN -0.2953
-4.2779 BULLS -0.2795
-4.5789 BUREAU -0.2953
-4.1018 BURIED -0.2756
-4.5789 BURNED -0.2973
-4.5789 BUS -0.3010
-4.2779 BUSES -0.2781
-4.5789 BUSH -0.2795
-4.5789 BUSIEST -0.3010
-4.5789 BUSINESS -0.2795
-3.9768 BUT -0.2980
-4.5789 BUTANE -0.2795
-4.5789 BUTCH -0.3010
-4.5789 BUY -0.3010
-4.5789 BUZZ -0.3010
-3.0474 BY -0.2578
-4.5789 C -0.3010
-4.5789 C. -0.2795
-4.5789 CABLE-MODEM -0.3010
-4.5789 CAESAR -0.2795
-4.5789 CAFFEINATED -0.3010
-4.5789 CAFFEINE -0.2795
-4.5789 CAGE -0.2795
-4.5789 CAIRO -0.2996
-4.5789 CAJUN -0.3010
-4.5789 CALCIUM -0.3010
-4.5789 CALCULATOR -0.2973
-4.5789 CALDERA -0.2795
-3.9768 CALIFORNIA -0.2778
-3.8799 CALL -0.2974
-3.3236 CALLED -0.2642
-4.2779 CALLOSUM -0.2734
-4.5789 CALLUSES -0.2795
-4.5789 CALORIES -0.2987
-4.2779 CAMARO -0.2793
-4.2779 CAME -0.3001
-4.2779 CAMERAS -0.2985
-4.5789 CAMP -0.3010
-4.5789 CAMPS -0.3009
-3.0107 CAN -0.2730
-4.1018 CANADA -0.2780
-4.5789 CANADIAN -0.3010
-4.5789 CANADIENS -0.2795
-4.5789 CANAL -0.2795
-4.5789 CANASTA -0.2795
-3.7338 CANCER -0.2729
-4.5789 CANFIELD -0.2999
-4.1018 CANON -0.3010
-4.2779 CAPACITY -0.2953
-4.5789 CAPE -0.3010
-4.1018 CAPITAL -0.2727
-4.5789 CAPRI -0.3010
-4.5789 CAPTAIN -0.3010
-3.3748 CAR -0.2624
-3.8799 CARD -0.2754
-4.5789 CARDINALS -0.2795
-4.5789 CARDIOLOGY -0.2795
-3.8799 CARDS -0.2759
-4.5789 CARE -0.3010
-3.8799 CAREER -0.2795
-4.5789 CARIBBEAN -0.2795
-4.5789 CARL -0.3010
-4.5789 CARLISLE -0.3010
-4.5789 CARNEGIE -0.3010
-4.5789 CAROLINA -0.2795
-4.5789 CARRIER -0.2876
-4.2779 CARS -0.2987
-4.5789 CARTOON -0.3009
-4.5789 CARTOONS -0.3008
-4.5789 CASCADE -0.2795
-4.2779 CASE -0.2943
-4.5789 CASES -0.3003
-4.2779 CASH -0.3009
-4.5789 CASH-CONSCIOUS -0.3010
-4.5789 CASINOS -0.2987
-4.5789 CASSIDEY -0.2999
-4.5789 CAST -0.3010
-4.5789 CASTING -0.3010
-4.5789 CASTLE -0.2795
-4.5789 CAT -0.2795
-4.5789 CAT-BEAR -0.2795
-4.5789 CATAN -0.2795
-4.5789 CATCHER -0.2973
-4.2779 CATEGORY -0.2938
-4.5789 CATHERINE -0.2795
-4.5789 CATHOLIC -0.3010
-4.5789 CATHOLICISM -0.2795
-4.5789 CATHY -0.3010
-4.5789 CATS -0.2795
-4.5789 CAUSE -0.3010
-4.1018 CAUSED -0.2875
-3.8799 CAUSES -0.2816
-4.5789 CAUSING -0.2984
-4.5789 CAVE -0.3010
-4.1018 CBS -0.3010
-4.5789 CC -0.3010
-4.2779 CD -0.3007
-4.5789 CDS -0.3003
-4.5789 CELEBRATED -0.2973
-4.1018 CELEBRITIES -0.3002
-4.5789 CELLO -0.2795
-4.2779 CELLS -0.2987
-4.5789 CEMENT -0.3000
-3.9768 CENTER -0.2728
-4.5789 CENTERS -0.2987
-4.2779 CENTRAL -0.3008
-4.5789 CENTS -0.3007
-4.2779 CENTURY -0.2780
-4.5789 CEO -0.2953
-4.5789 CERATOPSIA -0.3003
-4.2779 CERTIFIED -0.3006
-4.5789 CERVANTES -0.2994
-4.5789 CESSNA -0.3010
-4.5789 CHAIRBOUND -0.3010
-4.5789 CHAIRMAN -0.2953
-4.5789 CHAIRS -0.2795
-4.5789 CHALLENGERS -0.2953
-4.5789 CHAMPION -0.2795
-4.2779 CHAMPIONS -0.2795
-4.5789 CHAMPIONSHIP -0.2795
-4.5789 CHANCERY -0.3003
-4.5789 CHAPEL -0.2795
-4.5789 CHAPMAN -0.2994
-4.5789 CHAPPELLET -0.3010
-4.2779 CHAPTER -0.2953
-3.6246 CHARACTER -0.2641
-3.7338 CHARACTERS -0.2917
-4.5789 CHARACTERSTICS -0.2953
-4.5789 CHARGE -0.2953
-4.5789 CHARGED -0.3007
-4.5789 CHARLES -0.3009
-3.9768 CHARLIE -0.2993
-4.1018 CHARLIE_S -0.3010
-4.5789 CHECKMATE -0.2795
-4.5789 CHEEKS -0.2997
-4.5789 CHEERING -0.2996
-4.2779 CHEESE -0.2795
-4.2779 CHEMICAL -0.3009
-4.2779 CHEMICALS -0.2985
-4.5789 CHESAPEAKE -0.3010
-4.5789 CHESSBOARD -0.2795
-4.5789 CHEST -0.3010
-4.5789 CHI -0.3010
-3.9768 CHICAGO -0.2972
-4.2779 CHICKEN -0.3008
-4.5789 CHICKENS -0.3003
-4.5789 CHICKS -0.2795
-4.5789 CHIEF -0.3010
-4.5789 CHIHUAHUAS -0.3009
-3.6246 CHILD -0.2764
-3.6246 CHILDHOOD -0.3007
-4.5789 CHILDREN -0.2994
-4.2779 CHINESE -0.3006
-4.5789 CHIPS -0.3010
-4.5789 CHIVINGTON -0.3010
-4.2779 CHOCOLATE -0.2794
-4.5789 CHOCOLATES -0.3005
-4.5789 CHOMPER -0.2795
-4.5789 CHOOSE -0.3010
-4.5789 CHOPS -0.2795
-4.5789 CHRIS -0.3010
-4.5789 CHRISTIAN -0.3010
-4.2779 CHRISTOPHER -0.3010
-4.5789 CHROMOSOME -0.3008
-4.5789 CHRONIC -0.3010
-4.5789 CHRONICLE -0.2795
-4.5789 CHUAN -0.2795
-4.5789 CHURCH -0.2999
-4.5789 CHURCHILL -0.2984
-4.5789 CIGARETTE -0.3000
-4.5789 CINCINNATI -0.3010
-4.5789 CINDERSLUT -0.2999
-4.1018 CIRCLE -0.2726
-4.5789 CIRCULATED -0.2795
-4.5789 CIRCUMCISION -0.2953
-4.5789 CIRRUS -0.3010
-4.5789 CITATION -0.3010
-4.1018 CITIES -0.2951
-2.8080 CITY -0.2451
-4.5789 CITY, -0.3008
-4.5789 CITY/TOWN/VILLAGE -0.2795
-4.5789 CIVIC -0.3010
-4.5789 CIVIL -0.3009
-4.5789 CIVILIZATION -0.3002
-4.5789 CLAIM -0.2996
-4.5789 CLAIMED -0.3009
-4.5789 CLAIMS -0.3009
-4.5789 CLARIS -0.3010
-3.8007 CLASS -0.2672
-4.2779 CLASSIC -0.3000
-4.1018 CLASSICAL -0.3009
-4.5789 CLASSIFIED -0.3010
-4.5789 CLAUS -0.3010
-4.5789 CLEAN -0.2795
-4.2779 CLEVELAND -0.3009
-4.5789 CLIMB -0.2973
-4.5789 CLINIC -0.3009
-4.5789 CLINTON -0.3010
-4.5789 CLIP -0.2795
-4.5789 CLITORIS -0.3010
-4.1018 CLOCK -0.2784
-4.5789 CLOCKWISE -0.3008
-4.5789 CLOSE -0.2795
-4.5789 CLOSED -0.2795
-4.5789 CLOSEST -0.3010
-4.5789 CLOSET -0.3004
-4.5789 CLOSING -0.3010
-4.2779 CLOTHES -0.2771
-4.1018 CLOTHING -0.2986
-4.2779 CLOUDS -0.2795
-4.1018 CLUB -0.2756
-3.9768 CNN -0.2950
-3.8799 COACH -0.2695
-4.5789 COACHED -0.2795
-4.5789 COACHES -0.2876
-4.2779 COAL -0.2793
-4.5789 COBIA -0.2795
-4.2779 COCAINE -0.2795
-4.5789 COCKROACHES -0.3008
-4.2779 COCKTAIL -0.2999
-3.6246 CODE -0.2780
-4.5789 CODONS -0.2953
-4.5789 COGNAC -0.2795
-4.5789 COHOST -0.2973
-4.5789 COIN -0.2795
-4.5789 COINED -0.2876
-4.5789 COLBY -0.3010
-4.5789 COLD -0.3010
-4.2779 COLIN -0.3010
-4.5789 COLLABRATIVE -0.2795
-4.1018 COLLECT -0.2795
-4.2779 COLLECTION -0.2756
-4.5789 COLLECTIONS -0.2986
-3.5789 COLLEGE -0.2709
-4.5789 COLLEGES -0.2987
-4.5789 COLLINS -0.3010
-4.5789 COLONEL -0.3010
-4.5789 COLONIES -0.3005
-3.4328 COLOR -0.2674
-4.5789 COLORADO -0.2795
-4.2779 COLORED -0.2795
-3.9768 COLORS -0.2771
-4.5789 COLT -0.2795
-4.5789 COLUMBIA -0.3010
-4.2779 COLUMBUS -0.2994
-4.5789 COMANECI -0.3009
-4.5789 COMBINATIONS -0.2795
-4.5789 COMBUSTION -0.3010
-3.5789 COME -0.2955
-4.5789 COMEDIENNES -0.2994
-4.5789 COMEDY -0.3009
-4.5789 COMES -0.3005
-3.9768 COMIC -0.3009
-4.5789 COMICS -0.3007
-4.2779 COMMAND -0.2795
-4.5789 COMMANDERS -0.3005
-4.2779 COMMERCIAL -0.3010
-4.5789 COMMERCIALLY -0.3006
-4.5789 COMMITTED -0.2795
-4.5789 COMMITTEE -0.3007
-4.5789 COMMODITY -0.3010
-3.8799 COMMON -0.2997
-4.5789 COMMONLY-SPOKEN -0.3009
-4.5789 COMMUNE -0.2795
-4.2779 COMMUNITY -0.2994
-4.2779 COMPANIES -0.2986
-4.2779 COMPANION -0.2988
-3.5375 COMPANY -0.2637
-4.5789 COMPETITOR -0.2953
-4.5789 COMPLETE -0.3010
-4.5789 COMPOSED -0.2876
-4.5789 COMPOSER -0.2994
-4.5789 COMPREHENSIVE -0.2795
-4.5789 COMPRISED -0.2876
-3.7338 COMPUTER -0.2780
-4.5789 CONCENTRATION -0.3010
-4.2779 CONCERT -0.2996
-4.5789 CONCOCT -0.3007
-4.5789 CONCORDE -0.2795
-4.5789 CONDIMENT -0.2983
-4.2779 CONDITIONING -0.2783
-4.2779 CONDITIONS -0.2958
-4.5789 CONDOR -0.2795
-4.5789 CONEY -0.3010
-4.5789 CONFEDERATE -0.3010
-4.5789 CONFERENCE -0.2953
-4.1018 CONFERENCES -0.2985
-4.2779 CONFIGURATION -0.2735
-4.5789 CONFLICTS -0.2986
-4.5789 CONGRESS -0.2996
-4.5789 CONGRESSMAN -0.3010
-4.5789 CONNECTICUT -0.2994
-4.5789 CONRAD -0.3010
-4.5789 CONSECUTIVELY -0.2795
-4.2779 CONSIDERED -0.2861
-3.9768 CONSIST -0.2953
-3.9768 CONSTITUTION -0.2792
-4.5789 CONSTRUCTION -0.2953
-4.5789 CONTACT -0.3007
-3.8007 CONTAINS -0.2845
-4.5789 CONTEMPTIBLE -0.3010
-4.5789 CONTENTS -0.2953
-4.5789 CONTEST -0.3000
-4.5789 CONTESTANT -0.3010
-4.5789 CONTRACT -0.3010
-4.5789 CONVENTION -0.3010
-4.5789 CONVENTIONS -0.3003
-4.5789 CONVICTED -0.2953
-4.5789 COOK -0.3000
-4.5789 COOKIE -0.3009
-4.2779 COOLER -0.2952
-4.5789 COOPER -0.3008
-4.5789 COPIER -0.3009
-4.5789 COPIES -0.2996
-4.5789 COPPERTOP -0.3000
-4.5789 COPYRIGHT -0.3010
-4.5789 CORDON -0.3010
-4.2779 CORK -0.3004
-4.5789 CORNER -0.3002
-4.5789 CORONADO -0.2795
-4.5789 CORONET -0.3010
-4.5789 CORPORAL -0.2795
-4.2779 CORPORATION -0.3006
-4.2779 CORPUS -0.3010
-4.2779 CORRECT -0.2996
-4.5789 CORRECTLY -0.3009
-4.5789 CORRESPONDENT -0.2996
-3.8007 COST -0.2751
-4.5789 COSTA -0.3010
-4.5789 COSTLIEST -0.3010
-4.5789 COSTNER -0.3007
-4.5789 COSTS -0.3007
-4.5789 COSTUME -0.3010
-4.5789 COSTUMED -0.3010
-4.5789 COTTON -0.2795
-4.5789 COULD -0.3010
-4.2779 COUNCIL -0.2792
-4.5789 COUNTERCLOCKWISE -0.2795
-3.4028 COUNTRIES -0.2687
-3.0348 COUNTRY -0.2506
-3.7338 COUNTY -0.2696
-4.1018 COURSE -0.2756
-3.9768 COURT -0.2953
-4.5789 COUSIN'S -0.3002
-4.5789 COUSINS -0.2795
-3.7338 COVER -0.2671
-4.5789 COVREFEU -0.2999
-4.2779 COWBOY -0.2794
-4.5789 COWS -0.2795
-4.5789 CRACKERS -0.3009
-3.9768 CRAFT -0.2749
-4.2779 CRAIG -0.2795
-4.5789 CRANBERRY -0.3010
-4.5789 CREATE -0.2973
-3.5375 CREATED -0.2652
-4.5789 CREATORS -0.2953
-4.5789 CREATURE -0.3010
-4.2779 CREDIT -0.3010
-4.5789 CREEK -0.3000
-4.5789 CREEPS -0.3010
-4.5789 CRETACEOUS -0.3010
-4.5789 CREW -0.3010
-4.5789 CRICKET -0.3007
-4.5789 CRIMINAL -0.3010
-4.5789 CRIMINOLOGIST -0.3010
-4.5789 CROAKER -0.3010
-4.5789 CROONER -0.3010
-4.5789 CROP -0.3010
-4.1018 CROSS -0.2592
-4.5789 CROSSWORD -0.3008
-4.5789 CRUCIFIXION -0.2795
-4.5789 CRUSADERS -0.3010
-4.5789 CRUSH -0.2795
-4.5789 CRUST -0.2795
-4.5789 CRY -0.3008
-4.5789 CUBA -0.2795
-4.2779 CUBE -0.2997
-4.5789 CUCKOO -0.2994
-4.2779 CUCUMBER -0.3010
-4.5789 CUISINE -0.2795
-3.9768 CUP -0.2795
-4.5789 CURIES -0.2795
-4.5789 CURLY -0.3010
-3.6758 CURRENCY -0.2794
-3.9768 CURRENT -0.3009
-3.8007 CURRENTLY -0.2995
-4.5789 CUSHMAN -0.2999
-4.5789 CYBERSPACE -0.3000
-4.5789 CYCLIST -0.3010
-4.5789 CYLINDER -0.3010
-4.5789 D-DAY -0.2795
-4.5789 D.B. -0.3010
-4.5789 DA -0.3010
-4.5789 DABBLE -0.3010
-4.5789 DAD'S -0.3002
-4.2779 DADDY -0.3010
-4.5789 DAILY -0.3010
-4.2779 DAKOTA -0.3006
-4.5789 DAMAGES -0.2986
-4.5789 DAME -0.3009
-4.5789 DAN -0.3010
-4.5789 DANCED -0.3009
-4.5789 DANE -0.3000
-4.5789 DANGLES -0.3010
-4.5789 DANGO -0.2795
-4.5789 DANISH -0.3010
-3.8007 DANNY -0.3010
-4.2779 DANUBE -0.2794
-4.5789 DANZA -0.2795
-4.5789 DARE -0.3006
-4.5789 DAS -0.3010
-4.5789 DATA -0.3010
-4.5789 DATABASE -0.3010
-3.8007 DATE -0.2707
-4.2779 DAUGHTER -0.2946
-4.5789 DAUGHTERS -0.2795
-4.5789 DAVE -0.3010
-4.5789 DAVID -0.3010
-4.5789 DAVIES -0.2999
-4.5789 DAWSON -0.2994
-3.4328 DAY -0.2605
-4.2779 DAYCARE -0.3010
-4.5789 DAYS -0.3010
-4.2779 DC -0.3009
-3.8799 DE -0.3009
-4.2779 DEAD -0.3008
-4.5789 DEADLIEST -0.2795
-4.5789 DEADWOOD -0.2999
-4.2779 DEAL -0.3007
-4.5789 DEALING -0.3007
-4.5789 DEALT -0.2795
-3.9768 DEATH -0.2792
-4.5789 DEBATE -0.3007
-4.2779 DEBUT -0.2795
-4.5789 DECADE -0.2795
-4.2779 DECEMBER -0.3010
-4.5789 DECK -0.2953
-4.5789 DECLARED -0.3008
-4.5789 DECO -0.2795
-4.5789 DEDICATE -0.2996
-4.5789 DEDICATED -0.2795
-4.5789 DEEPEST -0.3009
-4.5789 DEER -0.2795
-4.5789 DEFECTS -0.2795
-4.5789 DEFENSIVE -0.3010
-4.5789 DEFINE -0.2876
-3.9768 DEFINITION -0.2943
-4.5789 DEGAS -0.2795
-4.2779 DEGREE -0.3004
-4.2779 DEGREES -0.3010
-4.5789 DEITIES -0.2953
-4.1018 DELAWARE -0.2792
-4.5789 DELILAH -0.3000
-4.5789 DELIVERED -0.3009
-4.5789 DEMOCRATIC -0.3010
-4.5789 DENA -0.3010
-4.2779 DENNIS -0.2876
-4.5789 DENTAL -0.3010
-4.5789 DENTIST -0.3010
-4.5789 DENVER -0.3010
-4.5789 DEPARTMENT -0.3010
-4.5789 DEPRECIATES -0.3000
-4.2779 DEPRESSION -0.2962
-4.1018 DESERT -0.2788
-3.9768 DESIGN -0.2707
-4.5789 DESIGNATE -0.3010
-4.5789 DESIGNATED -0.3007
-3.6758 DESIGNED -0.2654
-4.5789 DESIGNER -0.2996
-4.5789 DESIGNING -0.2996
-4.5789 DESIGNS -0.2996
-4.2779 DESMOND -0.2999
-4.5789 DESTROYED -0.2973
-4.5789 DETECT -0.3010
-4.5789 DETECTIVE -0.3010
-4.5789 DETERMINE -0.3010
-4.5789 DETERMINED -0.2795
-4.5789 DETROIT -0.3010
-4.5789 DEVELOP -0.2973
-4.1018 DEVELOPED -0.2654
-4.5789 DEVELOPER -0.2953
-4.5789 DEVELOPMENTAL -0.3010
-4.5789 DEVEOPMENT -0.2953
-4.5789 DEVICES -0.3005
-3.8007 DEVITO -0.2984
-4.5789 DEW -0.3010
-4.5789 DIAGNOSE -0.3010
-4.5789 DIALECTS -0.2953
-4.5789 DIALOGUE -0.3010
-4.5789 DIAMETER -0.3010
-4.5789 DIANE -0.3010
-4.5789 DIARY -0.2973
-4.5789 DICTATOR -0.3003
-2.2526 DID -0.2560
-4.5789 DIDN'T -0.3010
-3.5375 DIE -0.2735
-3.7338 DIED -0.2900
-4.2779 DIEGO -0.3009
-4.5789 DIET -0.2986
-3.9768 DIFFERENCE -0.3009
-3.8007 DIFFERENT -0.3003
-4.2779 DIGITAL -0.3010
-3.9768 DIGITS -0.2953
-4.5789 DIMENSIONS -0.2953
-4.5789 DIMINUTIVE -0.3008
-4.2779 DINOSAUR -0.3009
-4.5789 DINOSAURS -0.3005
-4.5789 DIPLOMACY -0.2795
-4.2779 DIRECT -0.2785
-3.9768 DIRECTED -0.2997
-4.5789 DIRECTIONS -0.3000
-3.9768 DIRECTOR -0.2900
-4.5789 DIRECTORIAL -0.3010
-4.5789 DISABILITIES -0.3010
-4.2779 DISASTER -0.2654
-4.5789 DISC -0.3010
-4.5789 DISCOVER -0.2999
-4.1018 DISCOVERED -0.2795
-4.5789 DISCOVERY -0.2795
-3.8799 DISEASE -0.2669
-4.1018 DISEASES -0.2734
-4.5789 DISHES -0.2795
-4.5789 DISKETTES -0.2795
-4.2779 DISNEYLAND -0.2734
-4.5789 DISPOSABLE -0.3010
-4.5789 DISTINCT -0.3010
-4.5789 DISTRIBUTE -0.2795
-4.5789 DISTRIBUTIONS -0.2795
-4.5789 DISTRIBUTORS -0.2996
-4.5789 DISTRICT -0.2953
-4.1018 DIVISION -0.2759
-4.5789 DIVISIONS -0.2953
-4.5789 DIVORCE -0.3010
-4.2779 DNA -0.3010
-2.6151 DO -0.2518
-4.5789 DO-RIGHT -0.2994
-4.5789 DOCTOR -0.2795
-4.5789 DOCTORATE -0.2973
-4.2779 DOCTORS -0.2795
-4.5789 DOCUMENTARIES -0.2987
-4.5789 DODGERS -0.2795
-2.4785 DOES -0.2803
-4.5789 DOESN -0.3010
-3.7338 DOG -0.2762
-4.5789 DOGS -0.3009
-4.5789 DOGSLEDDING -0.2795
-4.5789 DOGTOWN -0.2973
-3.6246 DOING -0.2777
-3.8007 DOLLAR -0.2793
-4.5789 DOLPHINS -0.3007
-4.5789 DOMAIN -0.3010
-4.5789 DOMESTIC -0.3010
-4.5789 DOMESTICA -0.3009
-4.5789 DOMESTICATED -0.3010
-4.5789 DOMINICA -0.2999
-4.5789 DOMINOES -0.3000
-4.5789 DON -0.3010
-4.2779 DONE -0.2792
-4.5789 DONOVAN -0.3010
-4.5789 DOOLING -0.3007
-4.5789 DOOM -0.3003
-4.2779 DOONESBURY -0.2794
-4.5789 DOOR -0.2996
-4.5789 DORITOS -0.2795
-4.5789 DORSETS -0.2999
-4.5789 DOTS -0.3009
-4.5789 DOUBLE -0.3010
-4.5789 DOUBLE-WORD-SCORE -0.3010
-4.5789 DOUGHBOYS -0.3000
-4.5789 DOW -0.3002
-4.1018 DOWN -0.2974
-4.5789 DOWNEY -0.3010
-4.5789 DOWNHILL -0.3010
-4.5789 DOXAT -0.2996
-4.5789 DOYLE -0.2795
-4.5789 DR. -0.3010
-4.5789 DRAKE -0.2876
-4.5789 DRAMA -0.3008
-4.5789 DRAVIDIAN -0.3009
-4.5789 DRAW -0.2984
-4.5789 DRAWS -0.3010
-3.8799 DREAM -0.2950
-4.5789 DREAMED -0.3007
-4.5789 DRILL -0.2795
-4.5789 DRILLS -0.2996
-3.8799 DRINK -0.2760
-4.5789 DRIVE -0.3009
-4.5789 DRIVER'S -0.3010
-4.5789 DRIVING -0.3010
-4.5789 DROPPED -0.3010
-4.5789 DROPPING -0.3009
-4.5789 DROPS -0.3010
-4.1018 DRY -0.3010
-4.5789 DS -0.2795
-4.1018 DT -0.3008
-4.5789 DUBAI -0.3010
-4.1018 DUBBED -0.2865
-4.5789 DUCK -0.2795
-4.5789 DUDLEY -0.3010
-4.5789 DUKE -0.2953
-4.5789 DUMBO -0.2994
-4.5789 DUMMY -0.3010
-3.6246 DURING -0.2715
-4.5789 DWARF -0.2996
-4.5789 DX3000 -0.3003
-4.5789 DYE -0.3010
-4.2779 E-MAIL -0.3009
-4.5789 EACH -0.3010
-4.2779 EAGLE -0.2778
-4.5789 EAGLES -0.2795
-4.5789 EARLY -0.3010
-4.5789 EARN -0.2984
-4.5789 EARNED -0.3007
-4.5789 EARNS -0.3009
-4.2779 EARS -0.2999
-3.7338 EARTH -0.2778
-4.5789 EAST -0.3000
-4.5789 EASTER -0.3010
-4.5789 EASY -0.3010
-4.1018 EAT -0.2795
-4.5789 ECONOMISTS -0.3000
-4.2779 ECONOMY -0.2953
-4.5789 EDBERG -0.2994
-4.1018 EDUCATION -0.2999
-4.2779 EDWARD -0.3010
-4.5789 EDWIN -0.3010
-4.5789 EENTY -0.3008
-4.5789 EFFECTS -0.2953
-4.5789 EFFICIENT -0.2973
-4.2779 EGG -0.2793
-4.5789 EGYPT -0.3010
-4.2779 EIFFEL -0.3010
-4.5789 EINSTEIN -0.2994
-4.5789 EITHER -0.3009
-4.5789 EJACULATION -0.2795
-4.1018 EL -0.3010
-4.5789 ELDEST -0.2953
-4.5789 ELECT -0.3009
-4.2779 ELECTED -0.2793
-4.1018 ELECTION -0.2735
-4.1018 ELECTRIC -0.3010
-4.5789 ELECTRICITY -0.2795
-4.1018 ELEMENT -0.3000
-4.2779 ELEMENTARY -0.3008
-4.2779 ELEMENTS -0.2756
-4.5789 ELEPHANT -0.2795
-4.5789 ELEVATION -0.3007
-4.5789 ELICIT -0.2876
-4.5789 ELIZABETH -0.3010
-4.5789 ELK -0.3009
-4.5789 ELM -0.3009
-4.2779 ELSE -0.3009
-4.5789 EMAIL -0.3009
-4.5789 EMBASSY -0.2795
-4.5789 EMBEDDED -0.2973
-4.5789 EMIL -0.3010
-4.2779 EMPEROR -0.2795
-4.5789 EMPIRE -0.3010
-4.2779 EMPLOY -0.2795
-4.5789 EMPLOYEE -0.2953
-4.5789 EMPLOYER -0.2795
-4.5789 ENCLOSE -0.3010
-4.5789 ENCYCLOPEDIA -0.3010
-4.5789 END -0.2795
-4.5789 ENERGY -0.3009
-4.2779 ENGAGED -0.2756
-3.9768 ENGINE -0.2752
-4.5789 ENGINEERING -0.2795
-4.5789 ENGINES -0.3003
-4.2779 ENGLAND -0.2795
-3.8007 ENGLISH -0.2792
-4.5789 ENLIST -0.3010
-4.5789 ENOUGH -0.2996
-4.5789 ENTEBBE -0.3010
-4.2779 ENTER -0.2849
-4.5789 ENTERED -0.2876
-4.5789 ENTERS -0.2984
-4.5789 ENZYMES -0.2795
-4.1018 EPISODE -0.2952
-4.2779 EPISODES -0.2780
-4.5789 EPSILON -0.2795
-4.2779 EQUAL -0.2984
-4.5789 EQUALS -0.3007
-4.5789 EQUATOR -0.3008
-4.5789 EQUIPMENT -0.3007
-4.5789 EQUITY -0.3010
-4.1018 EQUIVALENT -0.2982
-4.5789 ERA -0.2795
-4.5789 ERECTED -0.2795
-4.5789 ERIKSEN -0.2795
-4.5789 ERUPT -0.2795
-4.5789 ERUPTION -0.2795
-4.5789 ESKIMO -0.3008
-4.5789 ESPIONAGE -0.3000
-4.5789 ESTATE -0.3000
-4.5789 ETERNITY -0.2795
-4.5789 ETHEL -0.3010
-4.5789 ETHOLOGY -0.2795
-4.5789 ETTA -0.3009
-4.5789 EUCHRE -0.2795
-4.5789 EUNICE -0.2795
-4.5789 EURO -0.3009
-4.5789 EUROPE -0.2795
-3.8799 EUROPEAN -0.2997
-4.5789 EUROS -0.2795
-4.5789 EVAPORATE -0.2795
-4.2779 EVENING -0.3010
-3.4328 EVENT -0.2731
-3.9768 EVENTS -0.2694
-3.9768 EVER -0.2794
-4.2779 EVEREST -0.2766
-4.5789 EVERYTHING -0.2952
-4.5789 EVIDENCE -0.2996
-4.5789 EXAMPLE -0.2953
-4.5789 EXAMPLES -0.2953
-4.5789 EXCLUDED -0.3005
-4.5789 EXCUSE -0.2986
-4.5789 EXECUTED -0.2973
-4.5789 EXECUTION -0.2795
-4.2779 EXHIBIT -0.3004
-4.5789 EXHIBITED -0.2795
-4.2779 EXHIBITIONS -0.2996
-4.2779 EXHIBITS -0.2980
-4.2779 EXIST -0.2962
-4.5789 EXPANSION -0.3010
-4.5789 EXPECTANT -0.3010
-4.5789 EXPENSIVE -0.3010
-4.5789 EXPLORER -0.2983
-4.5789 EXPLORERS -0.3010
-4.1018 EXPORT -0.2795
-4.2779 EXPRESSION -0.2985
-4.5789 EXTANT -0.3010
-4.5789 EXTENDED -0.3010
-4.5789 EXTENSION -0.3010
-4.5789 EXTINCT -0.3007
-4.2779 EYE -0.3008
-4.1018 EYES -0.2785
-4.1018 F -0.3009
-4.5789 F-5 -0.3010
-3.8799 F. -0.3009
-4.5789 F.C. -0.3005
-4.5789 FA -0.3010
-4.5789 FABER -0.3010
-4.5789 FACED -0.2795
-4.2779 FACIAL -0.3010
-4.5789 FACILITIES -0.3003
-4.2779 FACILITY -0.2795
-3.9768 FACT -0.3000
-4.5789 FACTS -0.2999
-4.5789 FAILURE -0.3010
-4.5789 FAIRGROUND -0.3009
-4.5789 FAITH -0.2999
-4.5789 FALLINGWATER -0.2795
-4.5789 FALLS -0.2795
-4.5789 FALWELL -0.2795
-3.8799 FAME -0.2723
-3.9768 FAMILY -0.2795
-4.5789 FAMINE -0.2795
-3.7338 FAMOUS -0.2995
-4.5789 FANS -0.3010
-4.5789 FANTASY -0.3009
-4.2779 FAR -0.2996
-4.5789 FARE -0.3005
-4.2779 FARGO -0.2992
-3.9768 FAST -0.2936
-4.5789 FASTENER -0.2986
-4.5789 FASTER -0.2795
-3.9768 FASTEST -0.2793
-4.5789 FAT -0.2795
-4.5789 FATAL -0.3008
-4.5789 FATHER -0.3008
-4.5789 FATHOM -0.2795
-4.5789 FATIGUE -0.2984
-4.5789 FATS -0.2999
-3.1987 FAVORITE -0.2993
-4.5789 FAWLTY -0.3010
-3.4997 FEAR -0.2735
-4.5789 FEATURE -0.3010
-4.5789 FEATURED -0.2876
-4.1018 FEATURES -0.2875
-4.5789 FEDERAL -0.3010
-4.5789 FEDOR -0.3010
-3.9768 FEET -0.2703
-4.5789 FEIN -0.2795
-4.5789 FELICITY -0.3000
-4.5789 FELT -0.3009
-4.1018 FEMALE -0.3010
-4.5789 FENCES -0.3009
-4.5789 FERDINAND -0.3010
-4.5789 FERGIE -0.3009
-4.5789 FERRARI -0.3010
-4.5789 FESTIVAL -0.2973
-4.5789 FEYNMAN -0.3009
-4.2779 FICTION -0.3010
-4.2779 FICTIONAL -0.3008
-4.2779 FIELD -0.2794
-4.2779 FIFA -0.3007
-3.9768 FIFTH -0.3009
-4.5789 FIGHT -0.2996
-4.5789 FIGHTER -0.2795
-4.5789 FIGURES -0.2795
-4.2779 FILE -0.3003
-4.5789 FILES -0.3005
-4.5789 FILLION -0.3010
-3.3236 FILM -0.2703
-4.5789 FILMMAKERS -0.3010
-3.9768 FILMS -0.2969
-4.5789 FILTHIEST -0.3006
-3.8799 FINAL -0.2795
-3.2365 FIND -0.2805
-4.5789 FINDS -0.2876
-4.5789 FINGERS -0.2987
-4.1018 FINISH -0.2795
-3.8799 FIRE -0.2754
-4.5789 FIRED -0.3010
-4.5789 FIREFLY -0.2795
-4.5789 FIREPLACE -0.2795
-4.5789 FIREWALL -0.2795
-2.7097 FIRST -0.2924
-4.5789 FIT -0.2795
-3.9768 FIVE -0.3005
-4.5789 FIVEPIN -0.3010
-4.5789 FIXED -0.2973
-4.2779 FLAGS -0.2794
-4.5789 FLAME -0.3010
-4.5789 FLATFISH -0.3010
-4.5789 FLAVOR -0.2795
-4.5789 FLEECE -0.2795
-4.5789 FLEET -0.3010
-4.5789 FLICKR -0.2795
-4.5789 FLIES -0.2973
-4.1018 FLIGHT -0.2795
-4.2779 FLINTSTONES -0.2998
-4.5789 FLOAT -0.3010
-4.5789 FLOODS -0.2795
-4.5789 FLOOR -0.3009
-4.5789 FLOORS -0.2996
-4.2779 FLORENCE -0.2795
-4.5789 FLOURISH -0.2795
-4.5789 FLOW -0.3009
-4.5789 FLOWN -0.2795
-4.5789 FLOYD -0.3010
-4.5789 FOCUS -0.2953
-4.5789 FODOR -0.2994
-4.5789 FOGS -0.2795
-4.5789 FOLIC -0.3010
-4.5789 FOLK -0.3010
-4.1018 FOLLOWED -0.2875
-3.9768 FOLLOWING -0.2847
-4.5789 FONDNESS -0.2996
-4.1018 FOOD -0.2779
-4.5789 FOOLS -0.2795
-4.5789 FOOTWEAR -0.2987
-2.4751 FOR -0.2401
-4.5789 FORCE -0.2973
-3.9768 FORD -0.3002
-4.5789 FOREHAND -0.2795
-4.1018 FOREST -0.2795
-3.7338 FORM -0.2735
-4.1018 FORMATIONS -0.2982
-4.5789 FORMATS -0.3010
-4.2779 FORMED -0.2972
-4.1018 FORMER -0.3007
-4.5789 FORMS -0.2996
-4.5789 FORMULA -0.2996
-4.5789 FORT -0.3010
-4.1018 FORTUNE -0.2784
-4.5789 FORUNE -0.3010
-4.5789 FOSSILS -0.3009
-3.9768 FOUGHT -0.2740
-4.5789 FOUL -0.3010
-3.8799 FOUND -0.2756
-3.3484 FOUNDED -0.2649
-4.5789 FOUNDER -0.2953
-4.5789 FOUNDERS -0.2953
-4.5789 FOUNDING -0.3010
-3.8799 FOUR -0.3008
-4.5789 FOURNIE -0.3010
-4.5789 FOURTEENTH -0.3010
-4.5789 FOURTH -0.2795
-4.5789 FOWL -0.3010
-4.5789 FOX -0.2795
-4.5789 FOXES -0.3010
-4.5789 FRACTION -0.2953
-4.1018 FRANCE -0.2795
-4.5789 FRANCESCO -0.3010
-4.1018 FRANCISCO -0.2794
-4.2779 FRANK -0.3010
-4.5789 FRAZIER -0.3010
-4.2779 FRED -0.3010
-3.9768 FREE -0.2795
-4.1018 FREEBASE -0.2795
-4.5789 FREEDOM -0.3010
-3.9768 FRENCH -0.2795
-4.5789 FRESH -0.3000
-4.5789 FRIDA -0.3010
-4.1018 FRIEND -0.2793
-4.5789 FRITO-LAY -0.2795
-2.9161 FROM -0.2556
-4.5789 FRONTIER -0.3010
-4.5789 FRY -0.2795
-3.8007 FUEL -0.2995
-4.5789 FUJI -0.3008
-4.5789 FULHAM -0.3010
-4.1018 FULL -0.2998
-4.2779 FUNCTION -0.2938
-4.2779 FUNGAL -0.3010
-4.2779 FURIOUS -0.2795
-4.5789 G. -0.3010
-4.5789 G.H. -0.3010
-4.5789 G.M.T. -0.3009
-4.5789 G2 -0.3010
-4.5789 GAINED -0.3010
-4.5789 GALAPAGOS -0.3010
-4.5789 GALILEO -0.3010
-4.5789 GALL -0.3010
-4.1018 GAMBLE -0.2795
-3.3001 GAME -0.2641
-3.7338 GAMES -0.2698
-4.5789 GAMING -0.3010
-4.5789 GANDHI -0.2795
-4.5789 GAP, -0.3010
-4.5789 GARCIA -0.3010
-4.5789 GARDEN -0.2953
-4.5789 GARRY -0.3010
-4.2779 GARTER -0.2979
-4.5789 GARTH -0.3010
-3.9768 GATE -0.3010
-4.5789 GATES -0.2953
-4.5789 GATO -0.3010
-4.5789 GATORADE -0.2994
-4.5789 GATSBY -0.2795
-4.5789 GAULLE -0.3010
-4.5789 GAY -0.3010
-4.5789 GEESE -0.2795
-4.5789 GEHRIG -0.3003
-4.5789 GENE -0.3010
-4.2779 GENERAL -0.2953
-4.1018 GENERATION -0.2952
-4.5789 GENERATIONS -0.2953
-4.5789 GENERATOR -0.2999
-4.5789 GENESIS -0.3009
-3.8799 GENRE -0.2646
-4.1018 GENRES -0.2755
-4.1018 GEORGE -0.3010
-4.5789 GEORGETOWN -0.3000
-4.2779 GERMAN -0.2795
-4.5789 GERMANY -0.3010
-3.2779 GET -0.2699
-4.5789 GETTING -0.3010
-4.5789 GETTYSBURG -0.3009
-4.5789 GIANTS -0.3010
-4.5789 GIBSON -0.2994
-4.5789 GILLETTE -0.2795
-4.5789 GILLIGAN_S -0.3010
-4.5789 GINA -0.3008
-4.5789 GIRARDI -0.3010
-3.9768 GIRL -0.2777
-4.1018 GIVE -0.2956
-4.5789 GIVEN -0.3007
-4.5789 GLAND -0.2973
-3.8799 GLASS -0.2944
-4.5789 GLITTERS -0.2952
-4.5789 GLOBAL -0.3010
-4.5789 GLOBE -0.3009
-4.5789 GLOSTER -0.3010
-4.5789 GLOWSTICKS -0.2795
-4.5789 GLS -0.3010
-4.5789 GLUTAMINE -0.2795
-4.5789 GM -0.3008
-3.6758 GO -0.2769
-4.5789 GOALIE -0.3009
-4.5789 GOALKEEPERS -0.2795
-4.5789 GOBLET -0.2953
-4.2779 GOD -0.2795
-4.5789 GOD-SULLEN -0.2999
-4.5789 GODDAMN -0.3010
-4.5789 GODDESS -0.2795
-4.5789 GODIVA -0.3010
-4.5789 GODS -0.3010
-3.9768 GOING -0.2986
-3.8007 GOLD -0.2782
-3.8007 GOLDEN -0.3009
-4.5789 GOLDFUS -0.2795
-4.5789 GOLDIE -0.3010
-3.9768 GOLF -0.3009
-4.1018 GOLFER -0.2989
-4.5789 GOLFERS -0.3010
-4.5789 GOLFING -0.3010
-4.2779 GONE -0.2996
-3.9768 GOOD -0.2995
-4.5789 GOODALL -0.3008
-4.5789 GOOGLE -0.3010
-4.5789 GOPHER -0.3010
-4.2779 GOT -0.2875
-4.2779 GOTHAM -0.2788
-4.5789 GOTTEN -0.3007
-4.5789 GOULD -0.3010
-4.5789 GOVERNMENT -0.3008
-4.5789 GOVERNMENTAL -0.3010
-4.2779 GOVERNOR -0.3010
-4.5789 GRABS -0.2876
-4.5789 GRACED -0.2876
-3.9768 GRADE -0.2795
-4.5789 GRADER -0.2795
-4.5789 GRADERS -0.3010
-4.5789 GRADUAL -0.3010
-4.5789 GRADUATED -0.3005
-4.5789 GRAEME -0.3010
-4.2779 GRAMMY -0.3008
-4.5789 GRAND -0.3010
-4.5789 GRANDFATHER'S -0.3010
-4.5789 GRANDFATHER’S -0.3010
-4.5789 GRANDMOTHER -0.3008
-4.2779 GRANDMOTHER'S -0.3009
-4.5789 GRANT -0.3000
-4.5789 GRANTED -0.3010
-4.5789 GRASS -0.3010
-4.5789 GRAY -0.2999
-3.9768 GREAT -0.3009
-4.5789 GREATEST -0.3010
-4.2779 GREEK -0.3010
-3.9768 GREEN -0.2795
-4.5789 GRENADA -0.2994
-4.5789 GREW -0.3009
-4.5789 GRINGO -0.3008
-4.5789 GROHL -0.2994
-4.5789 GROPIUS' -0.3010
-4.5789 GROSS -0.3010
-4.5789 GROUND -0.3005
-4.1018 GROUP -0.2915
-4.5789 GROUPS -0.3010
-4.5789 GROVER -0.3010
-4.2779 GROW -0.2875
-4.5789 GROWING -0.3008
-4.5789 GRUTA -0.3010
-4.2779 GSUSA -0.2795
-4.5789 GUARANTEE -0.3007
-4.2779 GUARDIAN -0.3002
-4.5789 GUIDEBOOKS -0.2987
-4.5789 GUITAR -0.3010
-4.5789 GUITARIST -0.2953
-4.5789 GULF -0.2795
-4.5789 GULL -0.3009
-4.5789 GUMMED -0.3010
-4.5789 GUNPOWDER -0.3010
-4.5789 GUSTAV -0.3010
-4.5789 GUTENBERG -0.3010
-4.5789 GUYS -0.3003
-4.5789 GYMNAST -0.3010
-4.5789 GYMNOPHOBIA -0.2795
-4.5789 H&R -0.3010
-4.5789 HACKERS -0.3008
-3.5375 HAD -0.2557
-3.8799 HAIR -0.2793
-4.5789 HAIRS -0.2795
-4.5789 HAJO -0.3000
-3.8799 HALL -0.2926
-4.5789 HALLOWEEN -0.2994
-4.5789 HALO: -0.3010
-4.5789 HALPER -0.3003
-4.5789 HAMBLEN -0.3010
-4.5789 HAMBURGERS -0.3010
-4.5789 HANA -0.3010
-4.5789 HAND -0.2795
-4.5789 HANDHELD -0.3010
-4.5789 HANDLE -0.2876
-4.2779 HANDS -0.2996
-4.5789 HANK -0.3010
-3.9768 HAPPENED -0.2972
-4.2779 HARBOR -0.2795
-4.5789 HARD -0.3010
-4.5789 HARDEST -0.3010
-4.5789 HARDIN -0.3010
-4.5789 HARDWARE -0.3010
-4.5789 HARLOW -0.2973
-4.5789 HARNESS -0.2973
-4.5789 HARRIET -0.3010
-4.1018 HARRY -0.2795
-2.8007 HAS -0.2824
-4.5789 HASTINGS -0.2795
-4.5789 HATE -0.3007
-4.5789 HATS -0.2795
-4.5789 HAUNTED -0.3010
-2.7865 HAVE -0.2533
-4.5789 HAVOC -0.3007
-4.5789 HAWK -0.2795
-4.5789 HAWKER -0.3010
-4.5789 HAWN -0.2994
-4.1018 HAYDEN -0.3008
-4.5789 HAYDN -0.2795
-4.5789 HAYWORTH -0.2795
-4.5789 HAZMAT -0.3010
-3.6758 HE -0.2963
-4.1018 HEAD -0.3010
-4.2779 HEADQUARTERED -0.2756
-3.9768 HEADQUARTERS -0.2732
-4.5789 HEALTHY -0.3010
-4.5789 HEARD -0.3007
-4.5789 HEARING -0.3009
-4.2779 HEART -0.3010
-4.5789 HEARTS -0.2996
-4.5789 HEATHROW -0.3009
-4.5789 HEATING -0.3010
-4.5789 HEAVEN -0.2795
-4.5789 HEAVIER -0.3010
-4.5789 HEAVILY -0.3010
-4.5789 HEAVY -0.3010
-4.5789 HEDGEHOG -0.3003
-4.5789 HEIGHT -0.3010
-3.9768 HELD -0.2654
-4.5789 HELEN -0.3008
-4.5789 HEMISPHERE -0.2795
-4.2779 HENRY -0.3010
-3.8799 HER -0.3008
-4.5789 HERALD -0.3002
-4.5789 HERB -0.2999
-4.5789 HERE -0.2996
-4.5789 HERITAGE -0.3010
-4.5789 HERM -0.2795
-4.5789 HERMITAGE -0.3010
-4.5789 HERMITS -0.3000
-3.9768 HERO -0.2783
-4.5789 HERO: -0.3010
-4.5789 HERRESHOFF -0.3009
-4.5789 HEY -0.3010
-4.5789 HIDING -0.3010
-4.5789 HIGGINS -0.3009
-3.6246 HIGH -0.2949
-3.6246 HIGHEST -0.3008
-3.9768 HIGHWAY -0.3008
-4.5789 HIJACKED -0.2973
-4.5789 HILLARY -0.3010
-4.5789 HILLS -0.2999
-4.5789 HIM -0.3010
-4.5789 HIMSELF -0.2876
-4.5789 HINDUISM -0.2795
-4.5789 HIROHITO -0.3009
-3.4649 HIS -0.3006
-4.1018 HISTORICAL -0.3008
-3.8799 HISTORY -0.2719
-4.2779 HIT -0.2984
-4.5789 HITLER -0.3009
-4.5789 HITS -0.2876
-4.2779 HITTING -0.2874
-4.5789 HIVES -0.3000
-4.5789 HOBBIT -0.3010
-4.5789 HOBBY -0.2795
-4.5789 HOCKEY -0.3010
-4.2779 HOLD -0.2793
-4.5789 HOLDS -0.2984
-4.5789 HOLE -0.3000
-4.5789 HOLES -0.2987
-4.5789 HOLIDAY -0.3010
-4.5789 HOLIDAYS -0.2987
-4.5789 HOLLYWOOD -0.3009
-4.2779 HOLY -0.3010
-3.6758 HOME -0.2779
-4.5789 HOMER -0.2994
-4.5789 HOMES -0.2795
-4.2779 HOMETOWN -0.2795
-4.2779 HONDA -0.3010
-4.5789 HONEYMOON -0.2795
-4.5789 HONOR -0.3007
-4.5789 HONORARY -0.3010
-4.5789 HOOK -0.3010
-4.5789 HOOLIGANS -0.2795
-4.5789 HOPKINS -0.3007
-3.8007 HORSE -0.2752
-4.5789 HORSES -0.2795
-4.5789 HORSESHOES -0.3010
-4.2779 HOSPITAL -0.2992
-4.5789 HOSPITALS -0.3010
-3.9768 HOST -0.2735
-4.5789 HOSTAGES -0.3005
-4.2779 HOSTED -0.2876
-4.5789 HOSTS -0.2953
-4.5789 HOTEL -0.3010
-4.5789 HOUDINI -0.2994
-4.5789 HOUND -0.2953
-3.8799 HOUSE -0.2712
-4.5789 HOUSEHOLD -0.3010
-4.5789 HOUSES -0.2876
-4.5789 HOUSEWIFE -0.3010
-2.1061 HOW -0.2808
-4.5789 HOYA -0.3000
-4.5789 HUB -0.2996
-4.5789 HUBBLE -0.3009
-4.5789 HUDSON -0.3010
-4.5789 HUGH -0.3010
-4.2779 HUGO -0.2794
-4.5789 HULK -0.3000
-4.5789 HULL -0.3009
-4.5789 HUMAN -0.3010
-4.5789 HUMANS -0.3007
-4.5789 HUMBERT -0.2973
-4.5789 HUNTER -0.2953
-4.5789 HUNTING -0.2987
-3.8007 HURRICANE -0.3009
-4.5789 HUSBAND -0.2795
-4.5789 HYATT -0.3000
-4.5789 HYBRID -0.2795
-4.5789 HYDROGEN -0.3010
-4.5789 HYENAS -0.3008
-4.5789 HYUNDAI -0.3010
-2.9161 I -0.2982
-4.5789 IBERIA -0.2994
-4.5789 IBM-COMPATIBLE -0.3010
-4.5789 ICE -0.2795
-4.5789 ICEMAN -0.3000
-4.5789 ID -0.2795
-4.1018 IF -0.2991
-4.5789 IGNEOUS -0.3009
-4.5789 IGUANA -0.2795
-3.9768 II -0.2793
-4.2779 III -0.2972
-4.2779 ILLINOIS -0.2781
-4.5789 ILLUMINATED -0.3009
-4.2779 IMAGE -0.2795
-4.5789 IMMORTAL -0.3008
-4.5789 IMMORTALS -0.3000
-4.5789 IMPORT -0.2999
-4.5789 IMPORTER -0.2953
-2.0643 IN -0.2331
-4.2779 INC. -0.2795
-4.2779 INCH -0.2953
-4.5789 INCHES -0.3010
-4.5789 INCLUDE -0.3010
-4.5789 INCLUDES -0.2876
-4.5789 INCLUDING -0.3009
-4.5789 INCOME -0.2795
-4.5789 INCOMPETENT -0.2795
-4.5789 INCREASE -0.2876
-4.5789 INCREDIBLE -0.3010
-4.1018 INDEPENDENCE -0.2999
-4.2779 INDIA -0.2795
-3.9768 INDIAN -0.3008
-4.1018 INDIANS -0.2998
-4.5789 INDIES -0.2996
-4.5789 INDIVIDUALS -0.3007
-4.5789 INDONESIAN -0.3010
-4.1018 INDUCTED -0.3009
-4.5789 INDUSTRIES -0.2996
-4.2779 INDUSTRY -0.2788
-4.1018 INFECTION -0.2734
-4.5789 INFECTIOUS -0.3010
-4.5789 INFLUENCE -0.2795
-3.9768 INFLUENCED -0.3006
-3.8007 INFORMATION -0.2992
-4.5789 INGREDIENTS -0.2987
-4.5789 INHABIT -0.3009
-4.5789 INJECTION -0.2795
-4.5789 INJECTORS -0.3009
-4.5789 INJURY -0.3010
-4.5789 INNINGS -0.2987
-4.5789 INRI -0.3009
-4.2779 INSIDE -0.2953
-4.5789 INSPECTOR -0.3010
-4.1018 INSPIRED -0.2870
-4.5789 INSTANT -0.3010
-4.5789 INSTEAD -0.2953
-4.5789 INSTITUTE -0.2953
-4.5789 INSTITUTIONS -0.2983
-3.9768 INSTRUMENT -0.2869
-4.5789 INSURANCE -0.3010
-4.5789 INSURED -0.2996
-4.5789 INTAKE -0.2953
-4.5789 INTELLIGENCE -0.2795
-4.5789 INTERCOURSE -0.2795
-4.5789 INTERESTING -0.3010
-4.5789 INTERNAL -0.3010
-3.8007 INTERNATIONAL -0.2997
-3.8799 INTERNET -0.2791
-4.5789 INTERRUPTED -0.3006
-4.5789 INTERSTATE -0.3010
-4.5789 INTESTINE -0.2795
-3.6246 INTO -0.2622
-4.5789 INTRACTABLE -0.3010
-3.5789 INTRODUCED -0.2780
-4.5789 INUIT -0.2999
-3.7338 INVENTED -0.2874
-4.5789 INVENTOR -0.2953
-4.5789 INVERTIGO -0.3010
-4.5789 INVESTIGATION -0.2795
-4.5789 INVISIBLE -0.3009
-4.5789 INVOLVED -0.2973
-4.5789 IOWA -0.2795
-4.5789 IP -0.3009
-4.2779 IPHONE -0.2795
-4.5789 IPOD -0.2987
-4.2779 IQ -0.2795
-4.2779 IRELAND -0.2795
-4.1018 IRISH -0.3010
-4.5789 IRKUTSK -0.2999
-4.5789 IRON -0.3010
-1.8730 IS -0.2679
-4.5789 ISIS -0.2876
-4.5789 ISLAM -0.2795
-3.8007 ISLAND -0.2747
-3.9768 ISLANDS -0.2769
-4.5789 ISOLDE -0.2795
-4.5789 ISOSCELES -0.3010
-4.5789 ISPS -0.3010
-4.5789 ISRAEL -0.3005
-3.8799 ISSUE -0.2708
-4.2779 ISSUES -0.2929
-4.5789 ISTHMUS -0.2795
-3.1639 IT -0.2643
-4.1018 ITALIAN -0.3010
-4.5789 ITALIANS -0.3010
-4.5789 ITALY -0.2952
-3.5789 ITS -0.2985
-4.5789 ITSELF -0.2795
-4.5789 IVAN -0.2795
-4.5789 J. -0.3010
-4.5789 J.R.R. -0.3010
-3.8007 JACK -0.3000
-4.5789 JACKSON -0.3009
-3.8007 JAMES -0.3009
-4.5789 JAN. -0.3010
-4.5789 JANE -0.3010
-4.5789 JANELLE -0.3000
-4.5789 JANUARY -0.3010
-4.2779 JAPAN -0.2795
-4.1018 JAPANESE -0.3004
-4.5789 JAVA -0.3009
-4.1018 JAWS -0.3000
-4.5789 JAY -0.3010
-4.5789 JAYNE -0.3010
-4.2779 JCPENNEY -0.2992
-4.5789 JEAN -0.3010
-4.5789 JEEP -0.3010
-4.5789 JEFFERSON -0.3000
-4.5789 JELLICLE -0.3010
-3.6758 JERRY -0.3009
-4.2779 JESSICA -0.3010
-4.2779 JESUS -0.2794
-4.2779 JEWISH -0.3010
-4.5789 JEWS -0.3005
-4.5789 JIM -0.3010
-4.5789 JIMMY -0.3010
-4.5789 JJ -0.3007
-3.9768 JOB -0.2791
-4.5789 JOCKEY -0.3000
-4.2779 JOE -0.3010
-4.5789 JOEL -0.2795
-4.5789 JOGGING -0.2973
-4.5789 JOGIS -0.2984
-3.4997 JOHN -0.3008
-4.5789 JOHNNIE -0.3010
-4.2779 JOHNNY -0.3010
-4.5789 JOHNSON -0.2795
-4.5789 JOIN -0.2876
-4.5789 JOINED -0.2876
-4.5789 JOLIE'S -0.3010
-4.5789 JONATHAN -0.3010
-4.5789 JONES -0.2994
-4.5789 JONI -0.3010
-4.5789 JORDAN -0.2795
-4.5789 JOSE -0.3010
-4.5789 JOSEPH -0.3010
-4.1018 JOURNAL -0.2735
-4.5789 JOURNALS -0.2795
-4.5789 JOYCE -0.2996
-4.5789 JR -0.3010
-4.5789 JRR -0.3010
-4.2779 JUDAISM -0.2985
-4.1018 JUDE -0.3010
-4.2779 JUDGE -0.3008
-4.5789 JUDGES -0.3003
-4.5789 JUDICIARY -0.2795
-4.5789 JUDITH -0.3010
-4.5789 JUDO -0.2795
-4.5789 JUDSON -0.3010
-4.5789 JULIEN -0.3010
-4.5789 JULY -0.3010
-4.5789 JUN -0.3010
-4.5789 JUNE -0.3010
-4.5789 JUPITER -0.2795
-4.5789 JURISDICTION -0.2795
-4.5789 JUST -0.3009
-4.5789 JUSTICE -0.3009
-4.5789 JUSTIN -0.3000
-4.2779 K -0.2989
-4.5789 KA -0.2795
-4.5789 KAHLO -0.3010
-4.5789 KAHN -0.3009
-4.5789 KALAHARI -0.3010
-4.5789 KAMCHATKA -0.2795
-4.5789 KANSAS -0.3010
-4.5789 KARL -0.3010
-4.5789 KARSH -0.3010
-4.5789 KASHMIR -0.3010
-4.5789 KASPAROV -0.3009
-4.5789 KATIE -0.2795
-4.5789 KATRINA -0.2795
-4.5789 KEATON -0.2795
-4.5789 KEEP -0.2876
-4.5789 KELLY -0.2795
-3.8007 KENNEDY -0.2968
-4.5789 KENNEL -0.3010
-4.2779 KENPO -0.2795
-4.2779 KENTUCKY -0.2795
-4.5789 KEPLER -0.3010
-4.5789 KEPT -0.2876
-4.5789 KERATOMA -0.3000
-4.2779 KEVIN -0.3010
-4.5789 KEYBOARD -0.2795
-4.5789 KEYON -0.3010
-4.5789 KHYBER -0.3010
-4.1018 KID -0.2756
-4.5789 KIDS -0.3010
-4.5789 KID_S -0.3010
-4.5789 KIFM -0.3010
-4.2779 KILL -0.2768
-3.8007 KILLED -0.2831
-4.5789 KILLER -0.3010
-4.5789 KILLING -0.2795
-4.5789 KILROY -0.3010
-4.5789 KIMPO -0.3010
-3.5789 KIND -0.2953
-4.5789 KINDS -0.2953
-3.9768 KING -0.2999
-4.5789 KINGDA -0.3010
-4.2779 KINGDOM -0.2793
-4.5789 KIRKSTALL -0.3010
-4.5789 KISS -0.2795
-4.5789 KITTY -0.3010
-4.5789 KLONDIKE -0.2999
-4.5789 KNICKERBOCKERS -0.2795
-4.5789 KNIGHTS -0.2953
-4.5789 KNOCK -0.3010
-4.2779 KNOW -0.3007
-3.3236 KNOWN -0.2988
-4.5789 KNOWPOST.COM -0.2795
-4.5789 KNOX -0.2973
-4.5789 KOERTZEN -0.3010
-4.5789 KOREAN -0.3004
-4.5789 KRONA -0.2795
-4.5789 KRONER -0.2952
-4.5789 KWAK -0.2795
-4.5789 L. -0.3010
-4.5789 L.A. -0.3010
-4.2779 LA -0.3010
-4.2779 LABEL -0.2996
-3.9768 LABELS -0.2962
-4.5789 LABIANCA -0.3000
-4.5789 LACTOBACILLUS -0.3010
-4.5789 LAGOON -0.2999
-4.5789 LAKES -0.2795
-4.5789 LAMARCUS -0.3010
-4.5789 LAMBEAU -0.3010
-4.5789 LANDED -0.2984
-4.5789 LANDERS -0.3010
-4.2779 LANDING -0.2999
-4.5789 LANDMARK -0.3009
-3.5789 LANGUAGE -0.2631
-3.7338 LANGUAGES -0.2914
-4.5789 LANTERN -0.2994
-4.5789 LAOS -0.2795
-3.4328 LARGEST -0.2959
-4.5789 LARRY -0.3010
-4.5789 LAS -0.3010
-4.5789 LASER -0.3008
-3.3001 LAST -0.2770
-4.5789 LATER -0.2795
-3.9768 LATIN -0.2779
-4.2779 LATITUDE -0.2999
-4.5789 LAUGH-IN -0.2795
-4.1018 LAUNCHED -0.2795
-4.5789 LAUREN -0.3010
-4.5789 LAURIE -0.3009
-3.8799 LAW -0.2795
-4.5789 LAWSUIT -0.3008
-4.1018 LAWYER -0.2766
-4.5789 LAYERS -0.2953
-4.2779 LEAD -0.3010
-4.2779 LEADER -0.2982
-3.9768 LEADING -0.3009
-4.2779 LEAFS -0.2795
-4.2779 LEAGUE -0.2951
-3.8799 LEARN -0.2792
-3.8799 LEARNED -0.3007
-3.8799 LEARNING -0.2790
-4.2779 LEAST -0.3007
-4.5789 LEAVE -0.3010
-4.1018 LEE -0.2795
-4.5789 LEFT-HANDED -0.3010
-4.5789 LEGAL -0.3010
-4.5789 LEGS -0.2996
-4.5789 LENO -0.2999
-4.5789 LENO'S -0.3008
-4.5789 LEONARDO -0.3010
-4.5789 LEPTON -0.3010
-4.5789 LESS -0.3010
-4.5789 LET -0.2994
-4.5789 LETHAL -0.3010
-4.1018 LETTER -0.2951
-4.2779 LEUKEMIA -0.2795
-4.2779 LEVEL -0.2953
-4.5789 LEVERKUSEN -0.2999
-4.5789 LEWIS -0.3010
-4.5789 LIBERTY -0.3010
-3.8799 LIBRARY -0.2748
-4.5789 LICE -0.2795
-4.2779 LICENSE -0.3008
-4.5789 LIE -0.3009
-4.2779 LIFE -0.2734
-4.5789 LIFESAVER -0.3010
-4.5789 LIFTING -0.2795
-4.5789 LIGHT -0.2795
-4.5789 LIGHTHOUSE -0.3009
-4.5789 LIGHTNIN' -0.3010
-4.5789 LIGURIAN -0.3010
-3.7338 LIKE -0.2776
-4.1018 LIKED -0.3006
-4.5789 LIKELY -0.2996
-4.5789 LIL -0.3010
-4.5789 LIMA -0.3010
-4.5789 LIMITED -0.2795
-4.5789 LINCOLN -0.3010
-4.5789 LINCOLNS -0.2999
-4.5789 LINDSEY -0.3010
-3.9768 LINE -0.2781
-4.5789 LINEBACKERS -0.3000
-4.5789 LINER -0.2983
-4.2779 LINES -0.2995
-4.5789 LISA -0.2795
-4.1018 LIST -0.2953
-4.5789 LISTED -0.3007
-4.5789 LITE -0.2795
-4.5789 LITERARY -0.3010
-4.5789 LITERATURE -0.2999
-3.8007 LITTLE -0.3002
-3.2365 LIVE -0.2719
-3.9768 LIVED -0.2969
-4.5789 LIVER -0.3010
-4.5789 LIVERPOOL -0.3010
-4.1018 LIVES -0.2754
-4.5789 LIVING -0.3010
-4.5789 LLOYD -0.3010
-4.5789 LO-O-OVE -0.3009
-4.5789 LOBSTER -0.3003
-3.6246 LOCATED -0.2745
-4.2779 LOCATION -0.2981
-4.5789 LOCATIONS -0.2987
-4.5789 LOCKERBIE -0.2999
-4.5789 LOCOMOTIVE -0.3010
-4.5789 LODGES -0.2987
-4.5789 LOG -0.3000
-4.1018 LOGAN -0.3009
-4.5789 LOGO -0.2952
-4.5789 LOHAN -0.3010
-4.5789 LOHENGRIN -0.2973
-3.9768 LONDON -0.2795
-3.4649 LONG -0.2888
-3.8007 LONGEST -0.3005
-4.5789 LONGEST-LIVED -0.2996
-4.5789 LONGEST-RUNNING -0.3010
-4.2779 LONGITUDE -0.2953
-4.5789 LONGTIME -0.3008
-4.2779 LOOK -0.3009
-4.5789 LOOP -0.2795
-4.5789 LORD -0.2953
-4.2779 LOS -0.3010
-4.5789 LOSE -0.2795
-4.1018 LOSS -0.2942
-4.5789 LOSSES -0.3003
-4.5789 LOST -0.3009
-4.5789 LOU -0.3010
-4.2779 LOUIE -0.2989
-3.9768 LOUIS -0.2795
-4.1018 LOVE -0.2978
-4.5789 LOVED -0.2795
-4.5789 LOVERS -0.2999
-4.2779 LOW -0.3009
-4.5789 LOWELL -0.3010
-4.5789 LOWEST -0.3010
-4.5789 LP -0.3009
-4.5789 LSE -0.3009
-4.5789 LUCK -0.2795
-4.5789 LUCKY -0.3010
-4.5789 LUIS -0.3010
-4.5789 LUKE -0.3010
-4.5789 LUNCH -0.2795
-4.5789 LUNG -0.3010
-4.5789 LUTHER -0.3010
-4.5789 LUX -0.3010
-4.5789 LYNMOUTH -0.3010
-4.2779 LYRICS -0.3010
-4.5789 M16 -0.3010
-4.5789 MAC -0.2795
-4.5789 MACHINES -0.3007
-4.5789 MACINTOSH -0.3009
-4.5789 MACY -0.2994
-3.4649 MADE -0.2919
-4.5789 MADILYN -0.3010
-4.5789 MADONNA -0.3010
-4.5789 MADRID -0.2984
-4.1018 MAGIC -0.2784
-4.5789 MAGICIAN_S -0.3010
-4.5789 MAID -0.2953
-4.5789 MAID-RITES -0.2795
-4.1018 MAIDEN -0.2999
-3.9768 MAIN -0.3009
-4.1018 MAJOR -0.3009
-4.5789 MAJOR-LEAGUE -0.3010
-3.6758 MAKE -0.2932
-4.5789 MAKE-UP -0.2795
-4.2779 MAKER -0.2952
-3.6246 MAKES -0.2818
-4.5789 MAKEUP -0.3010
-4.5789 MALICK -0.2795
-4.5789 MALL -0.2795
-4.5789 MALLS -0.2996
-4.5789 MALTA -0.2795
-4.5789 MAMA -0.2795
-4.5789 MAMMAL -0.2953
-4.5789 MAMMOTH -0.3010
-3.4997 MAN -0.2745
-4.5789 MANAGE -0.2795
-4.5789 MANAGED -0.3010
-4.5789 MANAGER -0.2795
-4.5789 MANAGES -0.3010
-4.5789 MANAGING -0.3010
-4.5789 MANATEES -0.3010
-4.5789 MANDRAKE -0.3010
-4.5789 MANDY -0.3010
-4.2779 MANHATTAN -0.3010
-4.2779 MANNED -0.3009
-4.5789 MANSFIELD -0.3009
-4.5789 MANSION -0.3010
-4.5789 MANUFACTURED -0.2876
-4.5789 MANUFACTURER -0.2952
-4.1018 MANUFACTURES -0.2876
-4.5789 MANUFACTURING -0.3010
-2.2844 MANY -0.2951
-4.5789 MAO -0.2994
-4.2779 MAPLE -0.3010
-4.5789 MARBELLA -0.2795
-4.5789 MARBLES -0.3000
-4.2779 MARCH -0.2972
-4.5789 MARE -0.3010
-4.5789 MARGIELA -0.3009
-4.5789 MARIA -0.3010
-4.5789 MARINA -0.3010
-4.5789 MARION -0.3010
-4.2779 MARK -0.3010
-4.5789 MARKED -0.3010
-3.9768 MARKET -0.2734
-4.5789 MARKET-FRANKFORD -0.3010
-4.5789 MARKETS -0.2795
-4.5789 MARKS -0.3010
-4.5789 MARLEY -0.2795
-4.5789 MARLIN -0.3010
-4.5789 MARLOWE -0.2795
-4.5789 MARQUESAS -0.3010
-3.8799 MARRIED -0.2779
-4.5789 MARSHALL -0.3010
-4.5789 MARTHA -0.3010
-4.2779 MARTIAL -0.3010
-4.1018 MARTIN -0.2999
-4.5789 MARTYRS -0.3007
-4.5789 MARVIN -0.3009
-4.2779 MARX -0.2795
-4.5789 MARYLAND -0.2795
-3.9768 MASCOT -0.2720
-4.5789 MASS -0.2953
-4.2779 MASSACHUSETTS -0.2756
-4.5789 MASSACRE -0.2795
-4.5789 MASSIVE -0.3010
-4.2779 MASTER -0.2953
-4.5789 MASTERS -0.2795
-4.5789 MATCH -0.2984
-4.5789 MATERNAL -0.3010
-4.5789 MATHEMATICS -0.2987
-4.5789 MATRIX -0.3010
-4.5789 MATSUMOTO -0.3007
-4.5789 MATTEL -0.3009
-4.5789 MATTER -0.2952
-4.5789 MATTHEW -0.3010
-4.5789 MAURITANIA -0.2795
-4.1018 MAURIZIO -0.3010
-4.1018 MAX -0.3010
-4.5789 MAXIMO -0.3000
-4.5789 MAXIMUM -0.3010
-4.2779 MAY -0.3010
-4.5789 MAYOR -0.2953
-4.5789 MAZE -0.2953
-4.5789 MCCARREN -0.3009
-4.5789 MCKINLEY -0.3010
-4.5789 MCKINNEY -0.3008
-4.5789 MCLEAN -0.3010
-4.5789 MCNABB -0.3007
-4.5789 MCQUEEN -0.2999
-3.7338 ME -0.2834
-3.3236 MEAN -0.2747
-3.8007 MEANING -0.2942
-4.5789 MEANT -0.3000
-4.5789 MEASURED -0.2973
-4.1018 MEDAL -0.2730
-4.5789 MEDIAN -0.2999
-4.2779 MEDICAL -0.3008
-4.5789 MEDICINE -0.2795
-4.5789 MEDIUM -0.2952
-3.3001 MEET -0.2641
-4.1018 MEETING -0.3008
-4.5789 MEHITABEL -0.2795
-4.5789 MEL -0.3010
-4.5789 MELANCHOLY -0.3010
-4.5789 MELLON -0.3010
-4.5789 MELTING -0.3010
-3.9768 MEMBER -0.2953
-4.1018 MEMBERS -0.2953
-4.1018 MEMORABLE -0.3009
-4.5789 MEMPHIS -0.3010
-4.2779 MEN -0.2980
-4.5789 MENACE -0.2795
-4.5789 MEN_S -0.3010
-4.5789 MERCHANDISE -0.3010
-4.5789 MERCURY -0.3010
-4.5789 MERLIN -0.2795
-4.5789 MESSENGER -0.2795
-4.1018 MET -0.2784
-4.5789 METAL -0.3010
-4.5789 METAMORPHIC -0.3009
-4.5789 METEOR -0.2795
-4.2779 MEXICAN -0.3010
-4.5789 MEYER -0.3010
-4.5789 MIAMI -0.3010
-4.5789 MICHAEL -0.3010
-4.2779 MICHELANGELO -0.2991
-4.5789 MICHIGAN -0.2795
-4.5789 MICRO -0.2795
-4.1018 MICROSOFT -0.2993
-3.8799 MIDDLE -0.2997
-4.5789 MIDEAST -0.3009
-4.5789 MIDWIFE -0.2795
-4.5789 MIGHT -0.3010
-4.5789 MIKE -0.3010
-4.5789 MILANO -0.3010
-4.5789 MILE -0.3010
-4.2779 MILES -0.2928
-4.1018 MILITARY -0.3010
-4.5789 MILK -0.2795
-4.5789 MILL -0.2973
-4.5789 MILLENNIUM -0.3010
-4.1018 MILLER -0.3009
-4.2779 MILLION -0.2784
-4.5789 MILO -0.2795
-4.5789 MINIMUM -0.3010
-4.5789 MINING -0.3010
-4.2779 MINISTER -0.2735
-4.2779 MINOR -0.2795
-4.5789 MINUTE -0.3010
-4.5789 MINUTES -0.2795
-4.1018 MISS -0.3009
-4.2779 MISSION -0.2795
-3.6758 MISSISSIPPI -0.2777
-4.2779 MISSOURI -0.2795
-4.2779 MITCHELL -0.3009
-4.5789 MIXABLE -0.3000
-4.5789 MOCKINGBIRD -0.2795
-4.5789 MODE -0.2795
-4.1018 MODEL -0.2925
-4.5789 MOJAVE -0.3010
-4.5789 MOLASSES -0.3010
-4.5789 MOLYBDENUM -0.2795
-4.5789 MONA -0.3010
-4.5789 MONARCH -0.2953
-4.5789 MONET -0.2999
-3.7338 MONEY -0.2564
-4.5789 MONGOL -0.3010
-4.5789 MONKEY -0.2795
-4.1018 MONOPOLY -0.2795
-4.5789 MONORAIL -0.3009
-4.5789 MONSANTO -0.3010
-3.3236 MONTH -0.2915
-4.1018 MONTHS -0.2958
-4.5789 MONTREAL -0.3010
-3.9768 MOON -0.2781
-4.5789 MOONS -0.2953
-4.5789 MOORED -0.2795
-4.5789 MORE -0.3010
-4.5789 MORMONS -0.3010
-4.5789 MORPHINE -0.2795
-4.5789 MORTEM -0.3008
-4.5789 MOSAIC -0.2795
-4.5789 MOSCOW -0.3010
-4.2779 MOSQUITO -0.2778
-3.0226 MOST -0.2959
-4.5789 MOSTLY -0.3010
-3.8007 MOTHER -0.2710
-4.2779 MOTHER'S -0.3001
-4.5789 MOTION -0.3010
-4.5789 MOTOR -0.3010
-4.5789 MOTOROLA -0.3003
-4.5789 MOTORS -0.3009
-4.1018 MOTTO -0.2720
-3.9768 MOUNT -0.3009
-3.6246 MOUNTAIN -0.2745
-4.5789 MOUNTAINS -0.3010
-4.5789 MOURNING -0.2973
-4.5789 MOVEMENT -0.2973
-3.4028 MOVIE -0.2635
-3.9768 MOVIES -0.2994
-4.5789 MOZAMBIQUE -0.3009
-4.5789 MOZART -0.3010
-4.2779 MRS. -0.3010
-3.4028 MUCH -0.2876
-4.5789 MUFFINS -0.2795
-4.2779 MUHAMMAD -0.3008
-4.5789 MULTICOLORED -0.3008
-4.5789 MULTIPLAYER -0.3010
-4.5789 MUMM -0.3010
-4.5789 MUNCHING -0.3000
-4.5789 MURDER -0.2973
-4.5789 MURDERED -0.3010
-4.5789 MUSCA -0.3010
-4.5789 MUSCLE -0.2795
-4.1018 MUSEUM -0.2795
-3.8799 MUSIC -0.2947
-3.8007 MUSICAL -0.2981
-4.5789 MUSLIM -0.3006
-4.5789 MUSLIMS -0.2795
-4.5789 MUSSOLINI -0.3010
-4.5789 MUST -0.2984
-4.5789 MUSTANG -0.2795
-4.5789 MUSTARD -0.2795
-4.5789 MUTANT -0.3010
-4.5789 MUTINY -0.3009
-3.5789 MY -0.3007
-4.2779 MYRTLE -0.3010
-4.5789 MYTH -0.2953
-4.5789 MYTHOLOGICAL -0.3009
-4.1018 N'T -0.2996
-4.5789 NABOKOV -0.3010
-4.5789 NADIA -0.3010
-4.5789 NAFTA -0.3009
-4.5789 NAILS -0.3000
-4.5789 NAKED -0.2999
-2.5703 NAME -0.2338
-4.5789 NAME, -0.3010
-3.9768 NAMED -0.2780
-3.4649 NAMES -0.2606
-4.5789 NANOMETER -0.2795
-4.5789 NARRAGANSETT -0.3010
-4.5789 NASDAQ -0.3009
-4.2779 NATHAN -0.3010
-4.5789 NATHANAEL -0.3010
-3.9768 NATIONAL -0.3009
-4.1018 NATIONS -0.2791
-4.5789 NATIVE -0.3006
-4.5789 NATO -0.3006
-4.1018 NATURE -0.2936
-4.5789 NAUTILUS -0.2795
-4.2779 NAVY -0.3009
-4.5789 NAZI -0.3010
-4.5789 NAZIS -0.3010
-4.2779 NEANDERTHAL -0.3008
-4.5789 NEAR -0.2876
-4.5789 NEAREST -0.3010
-4.5789 NEBRASKA -0.2994
-4.5789 NECESSARILY -0.3010
-4.1018 NEED -0.2996
-4.2779 NEIGHBORS -0.2785
-4.5789 NELSON -0.2795
-4.5789 NEOCLASSICAL -0.3010
-4.5789 NEON -0.2795
-4.5789 NEPAL -0.2795
-4.5789 NEPHEW -0.2795
-4.5789 NERVE -0.3010
-4.5789 NET -0.3010
-4.5789 NETFLIX -0.2795
-4.2779 NETWORK -0.2766
-4.5789 NEUROLOGICAL -0.3010
-4.5789 NEUROMANCER -0.3000
-4.5789 NEURON -0.3010
-4.5789 NEVADA -0.3010
-4.5789 NEVER -0.3008
-3.4997 NEW -0.3008
-4.5789 NEWLY -0.3010
-4.1018 NEWS -0.2794
-4.5789 NEWSCAST -0.3000
-4.5789 NEWSCASTER -0.2973
-3.9768 NEWSPAPER -0.2756
-4.5789 NEWSPAPERS -0.2996
-4.5789 NEXT -0.3010
-4.5789 NHL -0.2795
-4.5789 NIAGARA -0.3010
-4.5789 NICHOLAS -0.3010
-4.5789 NICKLAUS -0.3010
-3.6758 NICKNAME -0.2709
-4.2779 NICKNAMED -0.2876
-4.2779 NICKNAMES -0.2981
-4.5789 NICOIS -0.3008
-3.9768 NIGHT -0.2912
-4.5789 NIGHTINGALE -0.3010
-4.5789 NIGHTMARE -0.3000
-4.5789 NIHILIST -0.3010
-4.5789 NILE -0.3009
-4.5789 NINE -0.3010
-4.5789 NINJA -0.3010
-4.5789 NINO -0.2795
-4.5789 NINTENDO -0.3010
-4.5789 NIPSY -0.3010
-4.5789 NIVEA -0.2795
-4.5789 NIXON -0.2994
-4.5789 NJ -0.2795
-3.4997 NN -0.3005
-3.8799 NNP -0.2997
-4.5789 NNS -0.2973
-4.5789 NO.1 -0.3010
-4.1018 NOBEL -0.3010
-4.5789 NOISE -0.2973
-4.2779 NOMINATED -0.2996
-4.1018 NOMINATIONS -0.2770
-4.5789 NOMINEE -0.2973
-4.5789 NONAGGRESSION -0.3010
-4.5789 NONCHLORINE -0.3010
-4.5789 NORA -0.3010
-4.5789 NORDIC -0.3010
-4.2779 NORMAL -0.3010
-3.6758 NORTH -0.2734
-4.5789 NORTHEAST -0.3010
-4.5789 NORTHERNMOST -0.3010
-4.5789 NORTHWESTERN -0.3009
-4.5789 NOSTRUM -0.2795
-3.8007 NOT -0.3006
-4.5789 NOTABLE -0.3010
-4.5789 NOTHING -0.2795
-4.5789 NOTRE -0.3010
-3.8799 NOVEL -0.2764
-4.5789 NOVELIST -0.3010
-4.2779 NOVEMBER -0.2983
-4.5789 NOW-DEFUNCT -0.3010
-4.5789 NUCLEAR -0.3010
-3.3748 NUMBER -0.2626
-4.2779 NUMBERS -0.2795
-4.5789 NUMERALS -0.2795
-4.5789 NUN -0.2795
-4.5789 NURSE -0.3010
-3.9768 NUTTY -0.3009
-4.5789 NYSE -0.2795
-4.5789 O -0.3000
-4.5789 O'NEAL -0.3003
-4.5789 OAKS -0.3010
-4.5789 OAT -0.3010
-4.5789 OBAMA -0.3009
-4.2779 OBJECTS -0.2795
-4.5789 OBSERVATORY -0.3003
-4.2779 OCCASSION -0.2795
-4.2779 OCCUPATION -0.2953
-4.5789 OCCUPY -0.2996
-3.2365 OCCUR -0.2755
-4.1018 OCEAN -0.2734
-4.2779 OCEANS -0.2771
-4.5789 OCTOPUS -0.3003
-4.5789 ODDSMAKER -0.3010
-1.8817 OF -0.2354
-4.1018 OFF -0.2971
-4.5789 OFFENCES -0.3003
-4.1018 OFFICE -0.2892
-4.5789 OFFICES -0.3005
-4.2779 OFFICIAL -0.3008
-4.5789 OFFS -0.2996
-4.2779 OFTEN -0.2996
-4.5789 OFTENTIMES -0.3010
-4.1018 OHIO -0.2790
-4.2779 OIL -0.2999
-3.8799 OLD -0.2780
-3.5789 OLDEST -0.3008
-4.5789 OLESTRA -0.2795
-4.5789 OLSEN -0.3000
-3.9768 OLYMPIC -0.3008
-3.8007 OLYMPICS -0.2788
-3.9768 OMARION -0.2990
-2.6295 ON -0.2366
-4.2779 ON-LINE -0.2795
-4.1018 ONCE -0.3009
-3.9768 ONE -0.2971
-4.5789 ONE-BRAND -0.3010
-4.2779 ONLINE -0.2795
-3.5375 ONLY -0.2998
-4.1018 OPEN -0.2795
-4.5789 OPENED -0.2795
-4.1018 OPERA -0.2958
-4.5789 OPERANT -0.3010
-4.5789 OPERAS -0.2987
-4.5789 OPERATE -0.2795
-4.5789 OPERATES -0.2876
-4.2779 OPERATING -0.3009
-4.5789 OPERATORS -0.3010
-4.5789 OPPENHEIMER'S -0.3010
-3.3484 OR -0.2842
-4.5789 ORACLE -0.3009
-4.5789 ORBITAL -0.3010
-4.5789 ORCA -0.3007
-3.8799 ORDER -0.2925
-4.5789 ORDERS -0.2986
-4.5789 OREO -0.3010
-4.1018 ORGANIZATION -0.2963
-4.5789 ORGANIZED -0.3007
-4.2779 ORIENTATION -0.2795
-3.5375 ORIGIN -0.2941
-4.1018 ORIGINAL -0.3008
-4.1018 ORIGINATE -0.2756
-4.5789 ORIGINATED -0.2973
-4.5789 ORINOCO -0.2795
-4.5789 OSBOURNE -0.3008
-4.1018 OSCAR -0.2995
-3.4328 OTHER -0.2778
-4.5789 OUIJA -0.3010
-3.5375 OUT -0.2441
-4.5789 OUTER -0.3009
-4.2779 OUTSIDE -0.2795
-3.8007 OVER -0.2741
-4.5789 OVERALL -0.2952
-4.5789 OVERFLOW -0.3010
-4.5789 OVERGROUND -0.3010
-4.5789 OWE -0.3009
-3.8799 OWN -0.2794
-3.9768 OWNED -0.2768
-4.5789 OWNER -0.2953
-4.2779 OWNS -0.3010
-4.1018 OXFORD -0.2786
-4.5789 OXFORDS -0.2999
-4.5789 OXIDATION -0.3010
-4.5789 OZ -0.2795
-4.5789 OZZIE -0.2999
-4.5789 OZZY -0.3010
-4.5789 PABLO -0.3010
-4.2779 PACIFIC -0.2795
-4.5789 PACKIN -0.3010
-4.5789 PACKS -0.2996
-4.5789 PACT -0.3007
-4.5789 PAGE -0.3007
-4.5789 PAGEANT -0.2795
-4.2779 PAID -0.2973
-4.5789 PAINT -0.2952
-4.5789 PAINTBALL -0.2795
-3.9768 PAINTED -0.2875
-4.5789 PAINTER -0.3009
-4.5789 PAINTERS -0.3010
-4.2779 PAINTING -0.2999
-4.5789 PAIRS -0.2953
-4.5789 PALATE -0.2795
-4.5789 PALEOZOIC -0.3010
-4.5789 PAN -0.3010
-4.1018 PANASONIC -0.3010
-4.2779 PANETTIERE -0.3000
-4.2779 PAPER -0.3000
-4.5789 PARACETAMOL -0.2795
-4.5789 PARADE -0.2795
-4.5789 PARASITES -0.2795
-4.2779 PARENT -0.3009
-3.8007 PARENTS -0.2732
-4.5789 PARENTS’ -0.3010
-4.5789 PARIS -0.2795
-3.7338 PARK -0.2690
-4.5789 PARKER -0.3010
-4.5789 PARKER'S -0.3010
-4.5789 PARKS -0.3007
-3.8799 PART -0.2928
-4.5789 PARTICIPATE -0.2973
-4.2779 PARTICIPATED -0.2973
-4.2779 PARTICLES -0.2987
-4.5789 PARTNER -0.2996
-3.9768 PARTY -0.2956
-4.5789 PASO -0.2999
-4.1018 PASS -0.2654
-4.2779 PASSENGER -0.3010
-4.5789 PASSING -0.3009
-4.5789 PASTERNAK -0.3009
-4.2779 PATENT -0.2973
-4.2779 PATENTED -0.2872
-4.5789 PATIENT -0.3009
-4.5789 PAUWEL -0.3010
-4.5789 PAYNE -0.3010
-4.5789 PEA-SOUP -0.3010
-4.5789 PEABODY -0.3009
-4.5789 PEACE -0.3010
-4.5789 PEACHY -0.3010
-4.2779 PEAK -0.2972
-4.5789 PEANUT -0.3010
-4.5789 PEANUTS -0.2795
-4.2779 PEARL -0.3010
-4.5789 PEARLS -0.3007
-4.5789 PECAN -0.2999
-4.5789 PECOS -0.2795
-4.1018 PELLEGRIN -0.2999
-4.5789 PENCIL -0.3010
-4.5789 PENN -0.2994
-4.2779 PENNSYLVANIA -0.3008
-2.9991 PEOPLE -0.2561
-4.5789 PER -0.3006
-4.2779 PERCENT -0.3010
-4.1018 PERCENTAGE -0.2953
-4.5789 PERFECT -0.3010
-4.1018 PERFORMANCES -0.2971
-4.2779 PERFORMED -0.2795
-4.5789 PERFUME -0.3010
-3.9768 PERIOD -0.2709
-4.5789 PERIODICALS -0.3000
-4.5789 PERMANENT -0.2999
-4.5789 PERMITTED -0.2996
-4.5789 PERPETUALLY -0.3009
-3.3484 PERSON -0.2744
-4.5789 PERSONALLY -0.3010
-4.5789 PERSONAS -0.2953
-4.5789 PESO -0.2795
-4.5789 PET -0.2795
-4.2779 PETER -0.3010
-4.5789 PETRIFIED -0.3010
-4.5789 PETS -0.2986
-4.5789 PHENOMENON -0.3010
-4.5789 PHEONIX -0.3010
-4.5789 PHI -0.3010
-3.9768 PHILADELPHIA -0.2783
-4.5789 PHILIP -0.3010
-4.5789 PHILLIES -0.3007
-4.5789 PHOENIX -0.2795
-4.2779 PHONE -0.3008
-4.5789 PHONOGRAPH -0.2795
-4.5789 PHOTOGRAPHER -0.3010
-4.5789 PHYSICAL -0.3010
-4.5789 PHYSICS -0.2795
-4.5789 PIANO -0.3009
-4.5789 PICASSO -0.2795
-4.5789 PICKED -0.2984
-4.5789 PICKING -0.3009
-4.5789 PICTORIAL -0.3010
-4.5789 PICTURES -0.2795
-4.5789 PIECE -0.3000
-4.5789 PIERCE -0.3009
-4.5789 PIG-THE -0.3009
-4.2779 PIGGY -0.2795
-4.5789 PILOT -0.2795
-4.5789 PILSNER -0.3010
-4.5789 PINK -0.3010
-4.5789 PIRATE -0.3009
-4.5789 PISSARRO -0.2999
-4.5789 PISTA -0.2795
-4.5789 PISTOL -0.3010
-4.2779 PISTON -0.3010
-4.5789 PITCHER -0.2983
-4.5789 PITTSBURGH -0.3010
-3.4997 PLACE -0.2642
-4.2779 PLACES -0.2994
-4.5789 PLAN -0.2795
-4.2779 PLANT -0.2945
-4.5789 PLANTAR -0.3010
-4.5789 PLANTED -0.3007
-4.2779 PLANTS -0.2792
-4.5789 PLASTIC -0.2795
-4.5789 PLASTIKI -0.3010
-4.5789 PLATE -0.2953
-3.1639 PLAY -0.2583
-4.5789 PLAYABLE -0.2973
-3.8799 PLAYED -0.2613
-4.5789 PLAYER -0.2953
-3.8799 PLAYERS -0.2983
-4.2779 PLAYING -0.2780
-4.2779 PLAYS -0.2993
-4.5789 PLO -0.2795
-4.5789 PLURAL -0.2953
-4.5789 PNEUMONIA -0.2795
-4.1018 POEM -0.2995
-4.1018 POET -0.2938
-3.8799 POINT -0.2684
-4.5789 POINTS -0.3009
-4.5789 POKEMON -0.2795
-4.5789 POKER -0.3008
-4.5789 POLARIS -0.2795
-4.5789 POLE -0.3008
-4.5789 POLICE -0.3010
-4.5789 POLIO -0.3010
-4.5789 POLLEN -0.3010
-4.5789 POLLUTION -0.2987
-4.5789 POLYNESIAN -0.3006
-4.5789 POND -0.3009
-4.5789 POOP -0.3010
-4.5789 POORLY -0.2795
-4.5789 POP -0.2795
-4.5789 POPCORN -0.3010
-4.5789 POPE -0.3010
-4.5789 POPEYE -0.3010
-4.1018 POPULAR -0.2794
-3.8007 POPULATION -0.2692
-4.5789 PORGY -0.2999
-4.5789 PORTLY -0.3010
-3.8799 PORTRAYED -0.2999
-3.8799 POSITION -0.2958
-4.5789 POSITON -0.2996
-4.5789 POSITRON -0.2795
-4.5789 POST -0.3009
-4.5789 POTENTIAL -0.3010
-4.2779 POTTER -0.2783
-4.5789 POUND -0.2795
-4.5789 POUNDS -0.2973
-4.2779 POWELL -0.2794
-4.5789 POWER -0.2996
-4.5789 POWERFUL -0.3010
-4.2779 POWERS -0.2984
-4.2779 POWERSHOT -0.3010
-4.5789 POWHATAN -0.3007
-4.5789 PRACTICES -0.2953
-4.5789 PRACTITIONERS -0.2953
-4.5789 PRAIRIE -0.3009
-4.5789 PREDATORS -0.3010
-4.5789 PREFERRED -0.3010
-4.5789 PREFIX -0.2973
-4.2779 PREGNANCY -0.2997
-4.5789 PREHISTORIC -0.3010
-4.5789 PRELUDE -0.2973
-4.5789 PREPARED -0.3010
-4.5789 PRESENT -0.2795
-4.2779 PRESENTED -0.2654
-4.2779 PRESIDED -0.3006
-3.3484 PRESIDENT -0.2700
-4.5789 PRESIDENT-TO-BE -0.2983
-4.1018 PRESIDENTIAL -0.3009
-4.5789 PRESS -0.2795
-4.5789 PRESSURE -0.3010
-4.5789 PREWITT -0.3007
-4.1018 PRICE -0.2953
-4.5789 PRIDE -0.2953
-4.5789 PRIMAL -0.3010
-4.2779 PRIME -0.3010
-4.5789 PRINCE -0.3010
-4.5789 PRINCETOWN -0.3010
-4.2779 PRIVATE -0.2795
-3.9768 PRIZE -0.2740
-4.5789 PROCESS -0.2795
-4.5789 PROCESSOR -0.2986
-4.1018 PROCTER -0.2998
-3.9768 PRODUCE -0.2795
-3.6246 PRODUCED -0.2645
-4.2779 PRODUCER -0.2938
-4.5789 PRODUCERS -0.2999
-4.2779 PRODUCES -0.3008
-3.8799 PRODUCT -0.2902
-4.5789 PRODUCTION -0.2795
-4.5789 PRODUCTIONS -0.2986
-3.9768 PRODUCTS -0.2987
-4.2779 PROFESSION -0.2795
-4.5789 PROFESSIONAL -0.3010
-3.6758 PROFESSOR -0.2772
-4.5789 PROFICIENT -0.3007
-4.5789 PROFITS -0.2953
-4.2779 PROGRAM -0.2734
-4.2779 PROGRAMMING -0.2795
-4.5789 PROGRAMS -0.3003
-4.1018 PROJECT -0.2792
-4.2779 PROMOTE -0.2783
-4.5789 PROMOTERS -0.3010
-4.5789 PROPELLED -0.2795
-4.5789 PROPERTIES -0.3010
-4.5789 PROPHET -0.2953
-4.5789 PROPOSED -0.2876
-4.5789 PROPOSITION -0.3010
-4.1018 PROSTATE -0.3009
-4.5789 PROSTHETIC -0.3010
-4.5789 PROTANOPIA -0.2795
-4.5789 PROTECTED -0.3009
-4.2779 PROTEIN -0.2952
-4.5789 PROTON -0.2795
-4.5789 PROVIDE -0.3009
-4.2779 PROVIDER -0.3008
-4.5789 PROVINCE, -0.2999
-4.5789 PRYDE -0.3002
-4.5789 PSI -0.3009
-4.5789 PSYCHIATRIST -0.2795
-4.2779 PSYCHOLOGY -0.2795
-3.8799 PUBLIC -0.3008
-4.2779 PUBLISH -0.2795
-3.9768 PUBLISHED -0.2795
-4.5789 PUBLISHES -0.2876
-4.5789 PUCCINI -0.2994
-4.5789 PUDDING -0.3009
-4.5789 PUERTA -0.3010
-4.5789 PULASKI -0.2999
-4.5789 PULLS -0.2876
-4.5789 PUNCTUATION -0.3010
-4.5789 PURCHASE -0.2984
-4.2779 PURPOSE -0.2938
-4.5789 PUT -0.2876
-4.2779 PUTTY -0.2795
-4.5789 PYM -0.3007
-4.2779 QIGONG -0.3009
-4.5789 QUALIFICATION -0.2996
-4.5789 QUANTITY -0.2953
-4.5789 QUARK -0.2795
-4.5789 QUARTERBACKS -0.2795
-4.5789 QUARTERS -0.3010
-4.5789 QUARTZITE -0.2795
-3.9768 QUEEN -0.2952
-4.5789 QUESTION -0.2999
-4.5789 QUESTIONS -0.2795
-4.5789 QUINOA -0.2795
-4.5789 QUINTILLION -0.3010
-4.5789 QUIT -0.3010
-4.5789 QUIXOTE -0.2795
-4.5789 RABBIT -0.3008
-4.5789 RACE -0.2983
-4.5789 RACES -0.3008
-4.5789 RACISM -0.2795
-4.5789 RACOON -0.2952
-4.1018 RADIO -0.2795
-4.5789 RAID -0.2795
-4.5789 RAIL -0.3010
-4.2779 RAILROAD -0.2972
-4.1018 RAILWAY -0.2795
-4.1018 RAIN -0.2783
-4.5789 RAINBOW -0.3009
-4.5789 RAINFALL -0.2795
-4.5789 RAISE -0.2999
-4.5789 RAM -0.2795
-3.9768 RANDY -0.3010
-4.5789 RANGE -0.2952
-4.5789 RANGER -0.2984
-4.2779 RANK -0.2962
-4.5789 RAREST -0.3010
-4.1018 RASCALS -0.3000
-4.5789 RATE -0.2953
-4.5789 RATED -0.2795
-4.5789 RATES -0.2996
-4.2779 RATIFIED -0.2795
-4.5789 RAVENS -0.2795
-4.5789 RAWHIDE -0.2795
-4.2779 RAY -0.3010
-4.5789 RAZOR -0.3007
-4.2779 REACH -0.2795
-4.5789 READ -0.2795
-4.5789 READING -0.3010
-3.9768 REAL -0.2997
-4.5789 REASON -0.2996
-4.5789 RECAPTURE -0.3005
-4.1018 RECEIVE -0.2834
-4.1018 RECEIVED -0.2873
-4.5789 RECEPTION -0.2983
-4.5789 RECORD -0.3010
-4.2779 RECORDED -0.2795
-4.1018 RECORDS -0.2865
-4.5789 RECRUITED -0.2996
-4.5789 RECYCLED -0.3010
-4.2779 RED -0.3010
-4.5789 REDFORD -0.2994
-4.5789 REDNESS -0.2973
-4.5789 REED -0.2876
-4.5789 REFEREED -0.2795
-4.5789 REFEREES -0.3009
-4.5789 REGARDING -0.3010
-4.5789 REGENERATE -0.3010
-4.5789 REGIONS -0.2996
-4.5789 REGISTER -0.3009
-4.5789 REGULATION -0.3010
-4.2779 REHAB -0.3010
-4.5789 REIGN -0.3010
-4.2779 REIMS -0.2795
-4.1018 RELATIONSHIP -0.2949
-4.5789 RELATIVE -0.2953
-4.5789 RELEASE -0.3010
-3.8799 RELEASED -0.2795
-4.5789 RELEVANT -0.3008
-3.8007 RELIGION -0.2741
-4.2779 RELIGIONS -0.3010
-4.5789 RELIGIOUS -0.3010
-4.5789 RELOADED -0.3010
-3.5789 REMEMBER -0.3005
-4.2779 REMOVE -0.2876
-4.5789 RENAISSANCE -0.3010
-4.5789 RENOIR -0.2999
-4.5789 RENOWN -0.2996
-4.5789 RENT-A-CARS -0.2795
-4.5789 REPEALED -0.3010
-4.5789 REPLACED -0.3010
-4.5789 REPORT -0.2795
-4.5789 REPRESENT -0.2795
-4.5789 REPRESENTATIVES -0.2795
-4.5789 REPRESENTED -0.3010
-4.5789 REPUBLIC -0.2999
-4.5789 REQUIREMENT -0.2953
-4.5789 REQUIREMENTS -0.2996
-4.5789 RESIDENT -0.3010
-4.5789 RESOURCE -0.2795
-4.5789 RESPONSIBLE -0.2996
-4.5789 RESTAURANTS -0.2795
-4.5789 RESTING -0.3010
-4.5789 RESTORATION -0.2953
-4.5789 RESTRICTION -0.3000
-4.5789 RETAIL -0.3010
-4.5789 RETIRE -0.2795
-4.5789 RETRIEVERS -0.3009
-4.5789 RETURN -0.3007
-4.5789 REUTER -0.2999
-4.5789 REV. -0.3009
-4.5789 REVENUE -0.2795
-4.5789 REVIEW -0.2953
-4.2779 REVOLUTION -0.2795
-4.5789 REVOLUTIONS -0.2996
-4.5789 REVOLVE -0.3010
-4.5789 REY -0.3009
-4.5789 RHINE -0.3010
-4.5789 RHODE -0.3010
-4.5789 RHODES -0.3010
-4.5789 RHOMBOIDEUS -0.3010
-4.5789 RIBAVIRIN -0.3010
-4.5789 RICA -0.2973
-4.5789 RICE-DAVIES -0.2795
-4.5789 RICH -0.2795
-4.2779 RICHARD -0.3010
-4.5789 RICK -0.3010
-4.1018 RIDE -0.2651
-4.5789 RIDES -0.3007
-4.2779 RIGHT -0.2939
-4.2779 RIGHTS -0.2780
-4.5789 RIJKSMUSEUM -0.3010
-4.5789 RING -0.2795
-4.5789 RINGO -0.3010
-4.5789 RINGS -0.3000
-4.5789 RIOTS -0.3008
-4.5789 RIPPING -0.3010
-4.5789 RITA -0.3010
-4.5789 RITES -0.3010
-4.5789 RITZ -0.3010
-4.5789 RIVAL -0.2795
-3.5789 RIVER -0.2631
-4.5789 RIVERS -0.2795
-4.5789 RNA -0.3010
-4.2779 ROAD -0.2795
-4.5789 ROASTS -0.2999
-3.8799 ROBERT -0.3010
-4.5789 ROBIN -0.3010
-4.2779 ROBINSON -0.2997
-4.5789 ROBSON -0.2795
-3.7338 ROCK -0.2908
-4.2779 ROCKS -0.3009
-4.5789 ROCOCO -0.3010
-4.5789 RODE -0.3010
-4.5789 ROE -0.3010
-4.5789 ROGERS -0.3009
-4.1018 ROLE -0.2973
-4.5789 ROLES -0.2986
-4.5789 ROLFE -0.2795
-4.5789 ROLL -0.3010
-4.5789 ROLLER -0.3010
-4.2779 ROLLING -0.3010
-4.5789 ROLLS -0.3010
-4.2779 ROLLS-ROYCE -0.2795
-4.1018 ROMAN -0.3010
-4.5789 ROMANS -0.3010
-4.5789 ROMANTICISM -0.3010
-3.9768 RON -0.3010
-4.5789 ROOMMATE -0.2795
-4.5789 ROOT -0.3010
-4.5789 ROSANNA-DANA -0.3000
-4.5789 ROSANNE -0.3010
-4.2779 ROSE -0.3005
-4.5789 ROSEMARY -0.3010
-4.5789 ROSS -0.3009
-4.5789 ROSSNER -0.3010
-4.5789 ROSTROPOVICH -0.2795
-4.5789 ROUGE -0.3010
-4.5789 ROUTE -0.3010
-4.5789 ROW -0.3010
-4.5789 ROWAN -0.2999
-4.5789 ROY -0.3010
-3.9768 ROYAL -0.3009
-4.5789 ROYCE -0.3010
-4.5789 RUBBLE -0.3009
-4.5789 RUBIK -0.2994
-4.5789 RUDI -0.3010
-4.5789 RULE -0.2795
-4.5789 RULES -0.2996
-4.2779 RUM -0.2950
-4.1018 RUN -0.2795
-4.5789 RUNAWAYS -0.3010
-4.5789 RUNNING -0.2795
-4.2779 RUNS -0.2976
-4.2779 RUNTIME -0.2780
-4.5789 RUNWAYS -0.2996
-4.2779 RUPEE -0.2795
-4.5789 RUPIAH -0.2795
-4.5789 RUSH -0.2795
-4.2779 RUSSELL -0.3009
-4.2779 RUSSIA -0.2795
-3.8799 RUSSIAN -0.3003
-4.5789 RYE -0.3002
-4.5789 S.O.S. -0.3009
-4.5789 SABATINI -0.3009
-4.2779 SACRED -0.3009
-4.5789 SAFE -0.3005
-3.8799 SAID -0.2887
-4.5789 SAINT -0.2795
-4.5789 SALE -0.2973
-4.5789 SALES -0.2795
-4.5789 SAMSON -0.2994
-4.5789 SAMUEL -0.3010
-3.6758 SAN -0.3009
-4.5789 SANDMAN -0.2952
-4.5789 SANG -0.2795
-4.5789 SANTA -0.3010
-4.5789 SARA -0.3010
-4.2779 SARAH -0.3010
-4.5789 SARGE -0.3010
-4.5789 SATISFACTORY -0.2795
-4.2779 SATURDAY -0.3010
-4.5789 SAVEALOT -0.3008
-4.2779 SAW -0.2849
-3.7338 SAY -0.2858
-4.5789 SAYS -0.3010
-4.5789 SCAR-FACED -0.3010
-4.5789 SCARES -0.3006
-4.5789 SCARLETT -0.3009
-4.5789 SCARS -0.2795
-4.5789 SCHOLAR -0.2795
-3.3748 SCHOOL -0.2719
-3.8799 SCHOOLS -0.2941
-4.5789 SCHWARZENEGGER -0.2795
-3.9768 SCIENCE -0.2734
-4.5789 SCIENTIFIC -0.2999
-4.5789 SCIENTOLOGY -0.2795
-4.5789 SCISSORHANDS -0.2795
-4.5789 SCOBLE -0.3009
-4.5789 SCOPE -0.3009
-4.5789 SCORE -0.2795
-4.5789 SCORED -0.2973
-4.5789 SCOTLAND -0.2999
-4.5789 SCOUNDREL -0.3010
-4.5789 SCOUTS -0.2953
-4.2779 SCRABBLE -0.2795
-4.5789 SCREAM -0.3000
-4.5789 SCREENING -0.3010
-4.5789 SCREENPLAY -0.2996
-4.5789 SCREENSAVER -0.2795
-4.5789 SCRIPT -0.2795
-4.5789 SCROOGE -0.2795
-4.5789 SDHC -0.3010
-4.1018 SEA -0.2982
-4.5789 SEABISCUIT -0.2795
-4.5789 SEAN -0.3010
-4.5789 SEAPORT -0.3003
-4.5789 SEAS -0.2999
-3.9768 SEASON -0.2795
-4.5789 SEASONS -0.2953
-4.5789 SEATTLE -0.3009
-4.1018 SECOND -0.2998
-4.5789 SECOND-LARGEST -0.3010
-4.5789 SECOND-MOST-USED -0.3010
-4.5789 SECRETARIAT -0.3009
-4.5789 SECRETARY -0.3010
-4.5789 SECURITIES -0.2795
-3.9768 SECURITY -0.3008
-4.5789 SEDAN -0.2973
-4.2779 SEE -0.3005
-4.5789 SEED -0.2795
-4.5789 SEES -0.2876
-3.8007 SEINFELD -0.2766
-4.2779 SEISHINDO -0.3010
-4.5789 SEIZED -0.2876
-4.5789 SELECT -0.3010
-4.5789 SELLS -0.2876
-4.5789 SENATE -0.3010
-4.5789 SENATORS -0.2953
-4.5789 SENSITIVE -0.2795
-4.5789 SENSOR -0.2795
-4.5789 SENTENCE -0.2953
-4.5789 SEPTEMBER -0.3010
-4.5789 SERFDOM -0.3010
-4.5789 SERGE -0.3009
-3.5789 SERIES -0.2600
-4.1018 SERVE -0.2795
-3.8007 SERVED -0.2999
-4.5789 SERVER -0.2795
-4.5789 SERVING -0.3010
-3.6758 SESAME -0.3009
-4.2779 SET -0.2785
-4.2779 SETTING -0.2938
-4.5789 SETTLEMENT -0.2999
-4.5789 SETTLERS -0.2953
-4.5789 SEVEN -0.3010
-4.5789 SEVERAL -0.3009
-4.5789 SEXUAL -0.3010
-4.5789 SHADOWS -0.2795
-4.5789 SHAG -0.3010
-4.5789 SHAKEN -0.2795
-4.2779 SHAKESPEARE -0.3008
-4.5789 SHALL -0.3010
-4.5789 SHAN -0.3010
-4.5789 SHAQUILLE -0.3010
-4.5789 SHARE -0.2876
-4.5789 SHARK -0.2987
-4.2779 SHARKS -0.2771
-4.5789 SHARON -0.3010
-4.2779 SHARP -0.3010
-4.5789 SHAWN -0.3008
-4.5789 SHE -0.3009
-4.5789 SHEA -0.2999
-4.5789 SHEATH -0.3007
-4.5789 SHEEN -0.3010
-4.2779 SHEEP -0.3009
-4.5789 SHEIKA -0.3010
-4.5789 SHEPARD -0.3010
-4.5789 SHIEST -0.3009
-3.9768 SHIP -0.2951
-4.5789 SHIPMENT -0.2973
-4.2779 SHIPS -0.2998
-4.5789 SHIPYARD -0.3010
-4.5789 SHIVER -0.2973
-4.5789 SHOOTING -0.3010
-4.5789 SHORN -0.2795
-4.5789 SHORTEST -0.2999
-4.5789 SHOSTAKOVICH -0.3009
-4.2779 SHOT -0.2973
-4.5789 SHOTS -0.3006
-4.1018 SHOULD -0.2983
-4.5789 SHOULDER -0.2795
-4.5789 SHOUTS -0.3008
-3.6758 SHOW -0.2776
-4.5789 SHOWED -0.2984
-4.5789 SHOWER -0.2795
-3.8007 SHOWS -0.2822
-4.5789 SHRUBS -0.3006
-4.5789 SHUTTLE -0.3010
-4.5789 SIBLING -0.3008
-4.5789 SIBLING'S -0.3010
-4.5789 SIBLING’S -0.3010
-4.5789 SIDE -0.3010
-4.5789 SIDES -0.2999
-4.5789 SIDS -0.3009
-4.5789 SIGMA -0.3010
-4.5789 SIGMOD -0.3008
-4.2779 SIGN -0.2951
-4.5789 SIGNATURE -0.2795
-4.1018 SIGNIFICANT -0.3008
-4.5789 SIKHISM -0.2795
-4.5789 SILENT -0.3009
-4.5789 SILICON -0.2795
-4.5789 SILK -0.3010
-4.2779 SILLY -0.3010
-4.5789 SILVER -0.3009
-4.5789 SIMILAR -0.2996
-4.5789 SIMPLE -0.3010
-4.5789 SIMS -0.3003
-4.5789 SINATRA -0.3010
-4.2779 SINCE -0.2997
-4.5789 SING -0.3010
-4.5789 SINGAPORE -0.3010
-3.9768 SINGING -0.2972
-4.5789 SINGLE -0.3010
-4.2779 SINGLES -0.2795
-4.2779 SINGS -0.2876
-4.5789 SINK -0.2795
-4.5789 SINKING -0.2953
-4.5789 SINN -0.3010
-4.2779 SIOUX -0.2795
-4.5789 SISLEY -0.2999
-4.2779 SISTER -0.2788
-4.5789 SISTERS -0.2996
-4.5789 SISTINE -0.3010
-4.2779 SITCOM -0.3006
-4.2779 SITE -0.2795
-4.5789 SITES -0.2973
-3.9768 SIX -0.3008
-4.5789 SIX-FOOTED -0.3010
-4.5789 SIXTH -0.3010
-4.2779 SIZE -0.2735
-4.5789 SIZES -0.2996
-4.5789 SKATEBOARDING -0.2795
-4.5789 SKEIN -0.2953
-4.2779 SKI -0.3009
-4.5789 SKILL -0.2795
-4.5789 SKIN -0.3009
-4.5789 SKYWALKER -0.3008
-4.5789 SLEEP -0.2795
-4.5789 SLEEPLESS -0.2973
-4.5789 SLIGHTLY -0.3010
-4.5789 SLOGAN -0.2953
-4.5789 SLOWEST -0.3010
-4.5789 SMALL -0.3010
-4.5789 SMALLEST -0.3006
-4.5789 SMARTPHONES -0.2795
-4.5789 SMITH -0.3009
-4.5789 SNAKE -0.2973
-4.5789 SNAP -0.2876
-4.5789 SNOOGANS -0.3000
-4.5789 SNOOPY -0.2994
-4.5789 SNOW -0.3010
-4.5789 SNOWMAN -0.3010
-4.5789 SNOWSHOE -0.3009
-4.5789 SNYDER -0.2795
-4.5789 SO -0.3000
-4.5789 SOAKER -0.2795
-4.2779 SOAP -0.2982
-4.1018 SOCCER -0.3007
-3.9768 SOCIAL -0.3009
-4.5789 SOCRATES -0.2795
-3.9768 SOFT -0.3010
-4.5789 SOFTBALL -0.3008
-4.2779 SOFTWARE -0.3003
-3.9768 SOLD -0.2791
-4.2779 SOLDIERS -0.2973
-4.5789 SOLO -0.2795
-4.5789 SOLVE -0.3000
-3.2172 SOME -0.2947
-4.1018 SOMEONE -0.3010
-4.1018 SOMETIMES -0.3005
-4.5789 SOMME -0.3010
-3.6758 SONG -0.2567
-3.8007 SONGS -0.2712
-4.2779 SONIC -0.2876
-4.5789 SONNETS -0.2986
-4.5789 SONS -0.2953
-4.5789 SOPRANO -0.2973
-4.5789 SORT -0.2953
-4.5789 SOUL -0.3010
-4.5789 SOURCE -0.3010
-3.8007 SOUTH -0.3007
-4.5789 SOUTHDOWNS -0.2795
-4.5789 SOUTHERN -0.3010
-4.1018 SOVIET -0.3010
-4.2779 SOX -0.2795
-3.6246 SPACE -0.2732
-4.2779 SPACECRAFT -0.3010
-4.5789 SPACES -0.2987
-4.5789 SPACEWALK -0.2795
-3.8799 SPANISH -0.2779
-4.5789 SPEAK -0.3010
-4.5789 SPEAKING -0.3010
-4.5789 SPEAKS -0.2996
-4.5789 SPEARS' -0.3010
-4.5789 SPECIALIZE -0.2973
-4.5789 SPECIALIZED -0.3010
-4.5789 SPECIALIZING -0.2973
-3.7338 SPECIES -0.2869
-4.5789 SPECTRUM -0.3010
-4.5789 SPEECH -0.3010
-3.8007 SPEED -0.2953
-4.2779 SPEEDS -0.2958
-4.5789 SPELLING -0.2999
-4.5789 SPEND -0.2973
-4.5789 SPENT -0.3010
-4.5789 SPERM -0.3010
-4.5789 SPERMOLOGER -0.3010
-4.5789 SPICE -0.3010
-4.5789 SPIDER -0.2795
-4.5789 SPIDER-MAN -0.2994
-4.5789 SPIELBERG -0.3010
-4.2779 SPIN -0.2953
-4.5789 SPLASH -0.3009
-4.5789 SPOCK -0.2795
-3.8007 SPOKEN -0.2747
-4.5789 SPONSOR -0.2795
-4.5789 SPONSORS -0.2795
-3.6758 SPORT -0.2631
-4.5789 SPORTING -0.3010
-4.1018 SPORTS -0.3007
-4.5789 SPOTLIGHT -0.3009
-4.1018 SPOUSE -0.2793
-4.5789 SPRAWLING -0.3008
-4.5789 SPRAYED -0.3007
-4.1018 SPUMANTE -0.2795
-4.5789 SPURS -0.3007
-4.1018 SPY -0.3009
-3.8007 ST. -0.3010
-4.2779 STADIUM -0.3000
-4.5789 STAGE -0.2795
-4.5789 STAGECOACH -0.2795
-4.2779 STAGES -0.2953
-4.5789 STALLED -0.3008
-4.5789 STAMP -0.3009
-3.5789 STAND -0.2982
-3.9768 STANDARD -0.3007
-4.5789 STANDS -0.2996
-4.5789 STANFORD -0.3009
-3.6758 STAR -0.2914
-4.5789 STARBUCKS -0.3008
-4.5789 STARDOM -0.3007
-4.5789 STARDUST -0.3000
-3.9768 STARRED -0.2973
-3.9768 STARRING -0.3008
-4.2779 STARS -0.2735
-3.6246 START -0.2707
-4.5789 STARTED -0.2795
-3.2567 STATE -0.2533
-3.7338 STATES -0.2792
-4.5789 STATION -0.2795
-4.5789 STATUE -0.2953
-4.5789 STATUES -0.2986
-4.5789 STAY -0.2795
-4.5789 STEAKBURGERS -0.2795
-4.2779 STEEL -0.3008
-4.5789 STEELERS -0.2795
-4.5789 STEFAN -0.3010
-4.5789 STEIN -0.3010
-4.5789 STEPHEN -0.3010
-4.5789 STEPS -0.2795
-4.2779 STEREO -0.2795
-4.5789 STEVE -0.3010
-4.2779 STEVEN -0.3010
-4.5789 STEWART -0.3008
-4.5789 STILL -0.3010
-4.5789 STIRRED-NOT -0.3010
-4.5789 STIRRERS -0.2795
-4.2779 STOCK -0.3010
-4.5789 STOCKS -0.3009
-4.2779 STOLE -0.2876
-4.5789 STONE -0.2999
-4.5789 STONES -0.3010
-4.5789 STONES' -0.3010
-3.6758 STOP -0.2794
-4.5789 STOPPED -0.3000
-4.5789 STOPS -0.2973
-4.5789 STORIES -0.3003
-4.5789 STORM -0.2973
-4.5789 STORMS -0.3005
-4.5789 STORY -0.2953
-4.5789 STOVE -0.3009
-4.5789 STRAIGHT -0.2999
-4.5789 STRAIGHT-4 -0.3010
-4.5789 STRANGER -0.3009
-4.5789 STRATUS -0.3010
-3.4328 STREET -0.2652
-4.5789 STRETCH -0.3010
-4.5789 STRINGS -0.2999
-4.5789 STRODE -0.3003
-4.2779 STROKE -0.2795
-4.5789 STRONG -0.3010
-4.5789 STRONGEST -0.3010
-4.5789 STRUCTURES -0.2986
-4.5789 STUART -0.3010
-4.5789 STUBBORN -0.3010
-4.2779 STUDENT -0.3009
-4.1018 STUDENTS -0.2734
-4.5789 STUDIED -0.3010
-4.5789 STUDIOS -0.3010
-4.5789 STUFFED -0.3009
-4.5789 STUFFING -0.3009
-4.5789 STUMPJUMPER -0.2795
-4.5789 STYLE -0.2795
-4.5789 STYLIST -0.2795
-4.5789 STYLOID -0.3010
-4.2779 SUB-TYPES -0.2953
-4.5789 SUBCLASSES -0.2953
-4.5789 SUBDISCIPLINES -0.2953
-4.2779 SUBJECT -0.2953
-4.5789 SUBMARINE -0.2795
-4.5789 SUBMARINES -0.2795
-4.5789 SUBSTANCE -0.2795
-4.5789 SUBSTANCS -0.3003
-4.5789 SUBWAY -0.3010
-4.5789 SUCCESS -0.2795
-4.5789 SUCCESSFUL -0.2952
-4.5789 SUCH -0.3010
-4.2779 SUFFER -0.3005
-4.5789 SUFFRAGE -0.3010
-4.5789 SUITE -0.3000
-4.1018 SUMMER -0.3010
-4.2779 SUN -0.2792
-4.5789 SUN-BLASTED -0.2999
-4.5789 SUNDANCE -0.3010
-4.5789 SUNDAY -0.2994
-4.5789 SUNNI -0.3010
-4.5789 SUNNYSIDE -0.2795
-3.9768 SUPER -0.3009
-4.5789 SUPERMAN -0.2795
-4.5789 SUPERSTAR -0.2973
-4.5789 SUPPLIER -0.2795
-4.5789 SUPPORTED -0.3006
-4.2779 SUPPOSED -0.2996
-4.5789 SUPREME -0.3010
-4.5789 SURNAME -0.2953
-4.5789 SURNAMES -0.2795
-4.5789 SURROUNDS -0.3010
-4.2779 SURVIVAL -0.3010
-4.5789 SURVIVED -0.2876
-4.5789 SWEDISH -0.3010
-4.5789 SWEET -0.3010
-4.2779 SWIMMER -0.2756
-4.1018 SWIMMING -0.2795
-4.5789 SWISS -0.3010
-4.5789 SYDNEY -0.2973
-3.9768 SYMBOL -0.2780
-4.5789 SYMPTOM -0.2953
-4.2779 SYMPTOMS -0.2953
-4.5789 SYNDROME -0.3010
-4.1018 SYPHILIS -0.2795
-3.8007 SYSTEM -0.2663
-4.5789 SYSTEMS -0.3010
-4.5789 T -0.3010
-4.5789 T-38 -0.3010
-4.5789 T.V. -0.3009
-4.5789 TABS -0.2996
-4.5789 TABULATES -0.2876
-4.5789 TAEKWONDO -0.3010
-4.5789 TAGLIABLOG -0.2973
-4.5789 TAHINA -0.2795
-4.5789 TAI -0.3010
-4.5789 TAILS -0.2987
-3.4997 TAKE -0.2616
-4.5789 TAKES -0.3009
-4.5789 TALE -0.3010
-4.2779 TALK -0.2792
-4.5789 TALKING -0.3000
-3.8007 TALL -0.2913
-4.1018 TALLEST -0.3009
-4.5789 TALON -0.2795
-4.5789 TAMAGAWA -0.3010
-4.5789 TAMORA -0.3010
-4.1018 TARGET -0.2992
-4.5789 TASTE -0.3009
-4.5789 TAUGHT -0.2996
-4.2779 TEA -0.2734
-4.2779 TEACHER -0.2795
-4.5789 TEACHER'S -0.3009
-3.5789 TEAM -0.2724
-4.1018 TEAMS -0.2979
-4.5789 TECHNICAL -0.3010
-4.2779 TECHNIQUE -0.2996
-4.5789 TECHVIBES -0.3010
-4.5789 TEDDY -0.3000
-4.5789 TEE -0.3010
-4.5789 TEENAGE -0.3010
-4.5789 TEENAGER -0.3002
-4.2779 TELEPHONE -0.3008
-4.5789 TELESCOPE -0.2795
-4.5789 TELESCOPES -0.2996
-3.9768 TELEVISION -0.3008
-4.5789 TEMPELHOF -0.3010
-4.1018 TEMPERATURE -0.2900
-4.5789 TEMPERATURES -0.2795
-4.2779 TEMPLE -0.3007
-4.5789 TEN -0.3006
-4.5789 TEND -0.2876
-4.5789 TENNESSEE -0.2999
-4.2779 TENNIS -0.3007
-4.5789 TENPIN -0.3010
-4.5789 TENT -0.2999
-3.8007 TERM -0.2956
-4.5789 TERRENCE -0.3010
-4.5789 TERRIFIC -0.3009
-4.5789 TERRITORIES -0.2953
-4.5789 TERRITORY -0.2795
-4.5789 TERRORIST -0.3010
-4.5789 TEST -0.3010
-4.2779 TEXAS -0.2788
-4.5789 TEXTILES -0.2987
-4.5789 TEXTURE -0.2953
-4.1018 THAN -0.2837
-4.5789 THANKSGIVING -0.3010
-3.1018 THAT -0.2723
-4.2779 THATCHER -0.3009
-1.5156 THE -0.2562
-4.5789 THEATER -0.2795
-3.5375 THEIR -0.3005
-4.2779 THEM -0.2785
-4.2779 THEME -0.2952
-4.5789 THEMES -0.2996
-4.5789 THEN -0.3010
-4.5789 THEN-DEROGATORY -0.3010
-4.5789 THERAPY -0.3010
-2.8799 THERE -0.2693
-4.5789 THESE -0.3010
-4.2779 THEY -0.2984
-4.5789 THINE -0.3010
-4.5789 THING -0.3010
-4.5789 THINK -0.3007
-4.5789 THINKER -0.3009
-4.1018 THIRD -0.3010
-3.2567 THIS -0.3005
-4.5789 THOMAS -0.3010
-4.5789 THORPE -0.3007
-4.2779 THOUSAND -0.3010
-3.7338 THREE -0.2794
-4.5789 THRONES -0.3010
-4.2779 THROUGH -0.2876
-4.2779 THUNDER -0.2795
-4.5789 TICKET -0.3010
-4.5789 TIE -0.3010
-4.2779 TIGER -0.3003
-3.4028 TIME -0.2628
-3.8799 TIMES -0.2728
-4.5789 TIPS -0.2996
-4.5789 TIRANA -0.2795
-3.7338 TITANIC -0.2776
-4.5789 TITANIUM -0.2795
-3.8799 TITLE -0.2941
-4.1018 TITLED -0.3009
-2.4890 TO -0.2408
-4.5789 TOES -0.2973
-4.5789 TOKENS -0.2973
-4.5789 TOKYU -0.3010
-4.5789 TOLD -0.3009
-4.5789 TOLKEIN -0.3009
-4.5789 TOLKIEN -0.3009
-4.5789 TOLL -0.2973
-4.5789 TOM -0.3010
-4.5789 TOMKAT -0.2795
-4.5789 TONGUE -0.3005
-4.2779 TONY -0.2876
-4.5789 TOOK -0.3010
-4.5789 TOOTHBRUSH -0.2795
-4.5789 TOOTSIE -0.3008
-3.6758 TOP -0.2951
-4.2779 TOPICS -0.2987
-4.5789 TOPOPHOBIC -0.3009
-4.2779 TORNADO -0.3010
-4.5789 TORNADOES -0.2795
-4.1018 TORONTO -0.3009
-4.5789 TORRES -0.3009
-4.5789 TOSTITOS -0.3009
-4.5789 TOTAL -0.3010
-4.1018 TOUR -0.2734
-4.5789 TOURISM -0.2795
-4.5789 TOURIST -0.3010
-4.5789 TOURISTS -0.2996
-4.5789 TOUT -0.3010
-4.5789 TOUTED -0.3007
-4.1018 TOWER -0.2795
-4.5789 TOWERS -0.3010
-3.6758 TOWN -0.2953
-4.1018 TOY -0.2794
-4.5789 TRACKING -0.2984
-4.5789 TRACKS -0.3003
-4.2779 TRADED -0.3006
-4.5789 TRADITION -0.2953
-4.5789 TRAGIC -0.3010
-4.5789 TRAIN -0.2983
-4.5789 TRAINS -0.2795
-4.5789 TRANS -0.3010
-4.5789 TRANSFORMERS -0.3010
-4.5789 TRANSISTOR -0.2795
-4.5789 TRANSMISSION -0.2953
-4.2779 TRANSMITTED -0.2791
-4.5789 TRANSPORT -0.3010
-4.2779 TRANSPORTATION -0.2986
-3.8007 TRAVEL -0.2755
-4.5789 TRAVELS -0.3007
-4.5789 TRAVERSED -0.3006
-4.5789 TREAT -0.2795
-4.5789 TREATMENTS -0.2987
-4.5789 TREEHOUSE -0.2795
-4.5789 TRIANGLE -0.2795
-4.5789 TRIBE -0.2952
-4.5789 TRIBES -0.2973
-4.5789 TRIED -0.2996
-4.5789 TRILOGY -0.2953
-4.5789 TRINIDAD -0.2795
-3.8799 TRIP -0.2795
-4.5789 TRISTAN -0.2999
-4.5789 TROOP -0.3010
-4.5789 TROOPS -0.2973
-4.5789 TROPICAL -0.3010
-4.5789 TRUE -0.2953
-4.5789 TRY -0.2996
-4.5789 TRYPTOPHAN -0.2795
-4.2779 TUBE -0.2795
-4.5789 TULIP -0.3010
-4.5789 TUNGSTEN -0.2973
-4.1018 TURN -0.2782
-4.5789 TURNED -0.3010
-4.5789 TURTLES -0.2795
-4.5789 TUTANKHAMUN -0.3009
-4.5789 TUTU -0.2795
-3.4997 TV -0.2988
-3.4997 TWO -0.2729
-4.5789 TWO-PENNY -0.3010
-4.5789 TX1 -0.3010
-3.6246 TYPE -0.2953
-3.5789 TYPES -0.2938
-4.5789 TYPEWRITER -0.3010
-4.5789 TYPICALLY -0.3010
-4.5789 TYUTIN -0.3007
-4.5789 U.K. -0.2795
-3.1987 U.S. -0.2773
-4.5789 UEFA -0.2795
-4.5789 UK -0.3009
-4.5789 ULTIMATE -0.3010
-4.5789 ULURU -0.3009
-4.5789 ULYSSES -0.2795
-4.5789 UNACCOUNTED -0.2996
-3.8799 UNDER -0.2653
-4.5789 UNDERGRADUATE -0.3009
-4.5789 UNESCO -0.3007
-4.5789 UNFORTUNATE -0.3010
-4.5789 UNIFORM -0.2795
-3.9768 UNION -0.2794
-3.5789 UNITED -0.3009
-4.2779 UNITS -0.2996
-4.2779 UNIVERSAL -0.3010
-3.6758 UNIVERSITY -0.2735
-4.5789 UNIVERSITY'S -0.3010
-4.5789 UNKNOWN -0.2795
-4.5789 UNTAMED -0.2795
-3.7338 UP -0.2581
-4.5789 UPON -0.3010
-4.5789 URQUELL -0.3009
-3.5789 US -0.2780
-4.2779 USA -0.3008
-4.5789 USA_S -0.3009
-3.3748 USE -0.2532
-3.5375 USED -0.2706
-4.5789 USING -0.2876
-3.8799 USS -0.3009
-4.5789 USUALLY -0.3009
-4.5789 UTAH -0.2795
-4.5789 V -0.3010
-4.2779 V. -0.3010
-3.8799 VACATION -0.2792
-4.5789 VACCINE -0.2795
-4.5789 VACUUM -0.3010
-4.5789 VALENTINE -0.2994
-4.5789 VALLEY -0.2952
-4.5789 VALUABLE -0.3010
-4.5789 VANCOUVER -0.3010
-4.5789 VARIAN -0.3010
-4.5789 VARIATIONS -0.3008
-4.5789 VARIOUS -0.3010
-4.5789 VBP -0.3009
-4.5789 VEAL -0.3010
-4.5789 VEGAS -0.3010
-4.5789 VEHICLE -0.2795
-4.5789 VENTURA -0.3009
-4.5789 VENUS -0.3010
-4.5789 VERMOUTH -0.2795
-4.5789 VERSES -0.2795
-4.2779 VERY -0.3002
-4.5789 VESSEL -0.3009
-4.5789 VETERANS -0.3009
-4.5789 VIA -0.2795
-4.5789 VICE -0.3008
-4.5789 VICENTE -0.2795
-4.5789 VICEROY -0.2999
-4.2779 VICTORIA -0.2994
-4.2779 VIDEO -0.3006
-4.5789 VIDEO-GAME -0.3010
-4.5789 VIDEOTAPE -0.3010
-4.1018 VIETNAM -0.3009
-4.5789 VIETNAMESE -0.3005
-4.5789 VII -0.3010
-4.5789 VILLI -0.2987
-4.5789 VINCI -0.2795
-4.5789 VINEYARD -0.2795
-4.5789 VIRGINIA -0.3010
-4.5789 VIRTUAL -0.3010
-4.5789 VIRTUES -0.2795
-4.5789 VISCOSITY -0.2795
-4.5789 VISIBLE -0.3005
-3.9768 VISIT -0.2650
-3.9768 VISITED -0.3000
-4.5789 VISITORS -0.2996
-4.5789 VISITS -0.2996
-4.5789 VLADIMIR -0.3010
-4.2779 VOICE -0.2915
-4.5789 VOLTAGE -0.2953
-4.5789 VOTING -0.2996
-4.5789 VOWEL -0.2973
-4.5789 VOYAGE -0.3007
-4.5789 VS. -0.3010
-4.5789 W -0.3000
-4.5789 W.B. -0.3010
-4.5789 WADE -0.3007
-4.5789 WAGE -0.2973
-4.5789 WAKEFIELD -0.3008
-4.5789 WALDEN -0.3010
-4.5789 WALKER -0.3010
-4.1018 WALL -0.2793
-4.5789 WALLPAPER -0.2795
-4.5789 WALMART -0.3010
-4.5789 WALTER -0.3010
-4.5789 WANDER -0.2795
-4.5789 WANNA-GO-HOME -0.3010
-4.1018 WANT -0.2996
-3.4997 WAR -0.2701
-4.5789 WARNED -0.3008
-2.1969 WAS -0.2804
-4.2779 WASH -0.3006
-3.9768 WASHINGTON -0.2997
-4.5789 WATCH -0.3003
-4.5789 WATCHERS -0.2795
-3.8799 WATER -0.2780
-4.5789 WATERFALL -0.2973
-4.2779 WATERGATE -0.2756
-4.1018 WAY -0.2769
-4.5789 WAYS -0.2953
-4.5789 WBA -0.3007
-4.5789 WE -0.3010
-4.5789 WEAKNESS -0.2795
-4.5789 WEAKNESSES -0.2953
-4.5789 WEALTHIEST -0.3006
-4.5789 WEAPON -0.2952
-4.1018 WEAR -0.2757
-4.5789 WEARS -0.3000
-4.1018 WEB -0.2995
-4.1018 WEBSITE -0.2903
-3.9768 WEDDING -0.2735
-4.2779 WEEK -0.2795
-4.2779 WEIGHT -0.3010
-4.5789 WELL -0.2999
-4.5789 WELLAND -0.2795
-4.2779 WELLS -0.3010
-4.5789 WENCESLAS -0.3010
-4.5789 WENT -0.3010
-2.9454 WERE -0.2801
-4.5789 WEREWOLF -0.2795
-3.9768 WEST -0.2732
-4.5789 WESTERN -0.3010
-4.5789 WESTMINSTER -0.3010
-4.5789 WHALE -0.3009
-1.5569 WHAT -0.2419
-4.5789 WHAT'S -0.2876
-4.5789 WHEEL -0.2953
-2.5144 WHEN -0.2654
-2.6151 WHERE -0.2794
-3.0737 WHICH -0.2869
-4.5789 WHILE -0.3010
-4.5789 WHIP -0.2795
-4.5789 WHISKY -0.2999
-4.5789 WHITCOMB -0.3010
-3.9768 WHITE -0.3009
-2.2191 WHO -0.2808
-4.5789 WHOEVER -0.3010
-4.2779 WHOM -0.2927
-4.5789 WHORES -0.2999
-4.1018 WHOSE -0.3001
-3.3484 WHY -0.2859
-4.5789 WIDE -0.3010
-4.5789 WIDELY -0.3009
-4.5789 WIFE -0.3010
-4.5789 WIGGINS -0.2999
-4.5789 WILBUR -0.3010
-4.5789 WILDER -0.2795
-4.2779 WILL -0.3008
-3.9768 WILLIAM -0.3009
-4.5789 WILLIAMS -0.3009
-4.2779 WILSON -0.2795
-3.4997 WIN -0.2584
-4.5789 WIN- -0.3005
-4.5789 WIND -0.3010
-4.5789 WIND-UP -0.3010
-4.5789 WINDOWS -0.3010
-4.2779 WINDSOR -0.2795
-4.2779 WINE -0.2951
-4.5789 WINES -0.3009
-4.5789 WINGSPAN -0.2953
-4.5789 WINNERS -0.2987
-4.5789 WINNING -0.3010
-4.2779 WINS -0.2978
-4.5789 WINSLOW -0.3010
-4.5789 WINSTON -0.3010
-4.2779 WINTER -0.3009
-4.5789 WIRE -0.2795
-4.5789 WISE -0.2999
-3.1165 WITH -0.2605
-4.5789 WITHIN -0.3009
-4.5789 WITHOUT -0.3010
-4.5789 WITNESSES -0.2996
-4.5789 WIVES -0.2986
-4.5789 WIZARD -0.2953
-4.5789 WIZARDS -0.2795
-4.5789 WOLFMAN -0.3010
-4.5789 WOLFSHEIM -0.3010
-3.8799 WOMAN -0.2793
-4.5789 WOMEN -0.2994
-3.5375 WON -0.2652
-4.5789 WONDER -0.3010
-4.5789 WONDERFUL -0.3010
-4.5789 WOOD -0.2795
-4.5789 WOOD-PUSHER -0.3000
-4.2779 WOODROW -0.3010
-4.5789 WOODY -0.3010
-4.5789 WOOL -0.2996
-4.5789 WOP -0.2795
-3.4649 WORD -0.2713
-4.5789 WORDS -0.2795
-3.6758 WORK -0.2760
-4.2779 WORKED -0.3000
-4.5789 WORKING -0.3000
-3.9768 WORKS -0.2762
-3.0604 WORLD -0.2685
-4.5789 WORMS -0.2795
-4.5789 WORSHIP -0.3010
-4.1018 WORST -0.3007
-3.9768 WORTH -0.2784
-3.5789 WOULD -0.2965
-4.5789 WRANGLER -0.3009
-4.5789 WREAKS -0.3010
-4.5789 WRESTLING -0.3009
-4.5789 WRIGHT -0.3010
-4.5789 WRINKLE -0.2973
-3.6758 WRITE -0.2610
-4.2779 WRITER -0.3009
-4.5789 WRITES -0.2876
-4.2779 WRITTEN -0.2974
-3.7338 WROTE -0.2846
-4.5789 WWI -0.3008
-4.5789 WWII -0.2795
-4.5789 WWW.ANSWERS.COM -0.3003
-4.5789 WWW.QUESTIONS.COM -0.3010
-4.5789 WXPN -0.2795
-4.5789 WYOMING -0.2795
-4.5789 X -0.2795
-4.1018 X-MEN -0.2787
-4.5789 YA -0.3010
-4.2779 YAHOO -0.2984
-4.5789 YAKUTSK -0.2999
-4.5789 YANKEES -0.2795
-4.5789 YBARRA -0.3005
-2.9991 YEAR -0.2588
-3.8007 YEARS -0.2857
-4.5789 YEAT -0.2994
-4.1018 YELLOW -0.3000
-4.2779 YEN -0.2795
-4.5789 YES -0.3005
-4.5789 YESTERDAYS -0.2795
-4.5789 YET -0.2996
-4.5789 YIP -0.3009
-4.5789 YOGI -0.3010
-4.5789 YORI -0.3010
-3.9768 YORK -0.2788
-4.5789 YOSEMITE -0.3010
-2.4785 YOU -0.2675
-4.5789 YOUKILIS -0.3000
-4.2779 YOUNG -0.3003
-4.5789 YOUNGEST -0.2953
-2.5746 YOUR -0.2975
-4.5789 YOUSUF -0.3010
-4.5789 Z -0.2973
-4.2779 ZEALAND -0.2795
-4.5789 ZENGER -0.3007
-4.5789 ZODIACAL -0.3010
-4.5789 ZONE -0.2952
-4.5789 ZONES -0.2999
-4.5789 ZOO -0.2795
-4.5789 ZOOLOGICAL -0.3009
-4.5789 ZORRO -0.3010
-3.7338 ` -0.3009
-2.6295 `` -0.2779
-4.5789 ﻿WHO -0.2952

\2-grams:
-0.3010 ! '' -0.1370
-0.3010 "I'LL BE -0.2863
-0.3010 #1 </s> -0.3010
-0.3010 #477 </s> -0.3010
-0.3010 $1 , -0.2987
-0.3010 $85 MILLION -0.1761
-0.3010 & GAMBLE -0.1249
-0.6368 ' </s> -0.3010
-1.4150 ' CROSS -0.2218
-1.4150 ' REAL -0.2430
-1.4150 ' RECORDS -0.2218
-1.4150 ' SOCIAL -0.2430
-1.4150 ' STAND -0.0414
-1.4150 ' TAILS 0.0000
-1.4150 ' VACUUM 0.0000
-1.9494 '' . -0.0474
-0.5022 '' </s> -0.3010
-2.2504 '' AN -0.2923
-1.9494 '' AND -0.2967
-2.2504 '' BATTERY 0.0000
-2.2504 '' BEEN -0.2852
-2.2504 '' BOOKS -0.2553
-2.2504 '' BY -0.2946
-2.2504 '' CARTOON 0.0000
-2.2504 '' COME -0.1761
-2.2504 '' DOES -0.2993
-1.9494 '' DOG -0.1549
-2.2504 '' DURING -0.2762
-2.2504 '' HOLDS 0.0000
-1.7733 '' IN -0.2903
-2.2504 '' IT -0.2926
-2.2504 '' KNOWN -0.1761
-1.4053 '' MEAN -0.0669
-2.2504 '' ON -0.2238
-2.2504 '' PLAY -0.2926
-2.2504 '' PROMOTE -0.1761
-2.2504 '' SCREENSAVER 0.0000
-2.2504 '' TAKE -0.2218
-0.6021 'LL NEVER 0.0000
-0.6021 'LL WIN- 0.0000
-2.4472 'S 1872 0.0000
-2.1461 'S </s> -0.3010
-2.4472 'S A -0.3001
-2.1461 'S ADDRESS -0.1139
-2.4472 'S AN -0.2923
-2.4472 'S ANGELS -0.2430
-2.4472 'S APPROACHING 0.0000
-2.4472 'S ARCH-ENEMY 0.0000
-2.1461 'S AREA -0.2285
-2.4472 'S ASSASSINATION 0.0000
-2.4472 'S AUTOBIOGRAPHY 0.0000
-2.4472 'S BIRTHDAY 0.0000
-2.4472 'S BIRTHSTONE 0.0000
-2.4472 'S BITE 0.0000
-2.4472 'S BLUE 0.0000
-2.4472 'S BOARD -0.2430
-2.4472 'S BODY -0.2730
-2.4472 'S BRANDENBURG 0.0000
-2.4472 'S BROTHERS 0.0000
-2.1461 'S CAPITAL -0.1249
-2.4472 'S CHARACTERS -0.2688
-2.4472 'S COLORS -0.0969
-2.4472 'S CREEK 0.0000
-2.4472 'S CRUST 0.0000
-2.4472 'S CUBE -0.1761
-2.4472 'S CURRENT -0.2430
-2.4472 'S DATE -0.2632
-2.4472 'S DAUGHTER -0.1761
-2.4472 'S DAY -0.2852
-2.4472 'S DEAD -0.1761
-2.4472 'S DEADLIEST 0.0000
-2.4472 'S DEATH -0.1761
-2.4472 'S DIRECTORIAL 0.0000
-2.4472 'S DOG -0.1549
-2.4472 'S DON 0.0000
-2.4472 'S EARS -0.1761
-2.4472 'S EGG -0.1761
-1.9700 'S FIRST -0.2921
-2.4472 'S FOUR -0.2553
-2.4472 'S FROM -0.2963
-2.4472 'S GET -0.2900
-2.4472 'S HAIR -0.2553
-2.4472 'S HIGHEST -0.2762
-2.4472 'S HISTORY -0.2553
-2.4472 'S HORSE -0.2632
-2.4472 'S INDUSTRY -0.1761
-2.4472 'S IQ 0.0000
-2.4472 'S LANDING -0.1761
-2.1461 'S LARGEST -0.2688
-2.4472 'S LAST -0.2264
-2.4472 'S LAUGH-IN 0.0000
-2.4472 'S LAWYER -0.2218
-2.4472 'S LIFE -0.1761
-2.4472 'S LOGO 0.0000
-2.4472 'S LONGEST -0.2632
-2.4472 'S LONGEST-LIVED 0.0000
-2.4472 'S MAIN -0.2430
-2.4472 'S MAJOR -0.2218
-2.4472 'S MOST -0.2950
-2.1461 'S MUSICAL -0.2218
-2.1461 'S NAME -0.2747
-2.4472 'S NATIONAL -0.2430
-2.4472 'S NATIVE 0.0000
-2.4472 'S NATURE -0.2218
-2.4472 'S NEWSPAPER -0.0969
-2.4472 'S NICKNAME -0.1761
-2.4472 'S NO.1 0.0000
-2.4472 'S NORTHERNMOST 0.0000
-2.4472 'S OFFICES 0.0000
-2.4472 'S OPERA -0.2218
-2.4472 'S OPERATING -0.1761
-2.4472 'S ORIGINAL -0.2218
-2.4472 'S PEOPLE -0.2894
-2.4472 'S PILOT 0.0000
-2.4472 'S PLACE -0.2825
-2.4472 'S POEM -0.2218
-2.4472 'S PRELUDE 0.0000
-2.4472 'S PUBLISH 0.0000
-2.4472 'S PURPOSE -0.1761
-2.4472 'S RANK -0.1761
-2.1461 'S RELIGION -0.1761
-2.4472 'S RING 0.0000
-2.4472 'S RUNTIME -0.1761
-2.4472 'S SECOND -0.2218
-2.4472 'S SISTER -0.1761
-2.4472 'S ST. -0.1249
-2.4472 'S STATE -0.2906
-2.4472 'S SUFFRAGE 0.0000
-2.4472 'S SUPPLIER 0.0000
-2.4472 'S SYNDROME 0.0000
-2.4472 'S TALE 0.0000
-2.4472 'S TEMPLE -0.1761
-2.4472 'S THANKSGIVING 0.0000
-0.9700 'S THE -0.2675
-2.4472 'S TITLE -0.2553
-2.4472 'S TWO -0.2825
-2.4472 'S WATER -0.2553
-2.4472 'S WEB -0.2218
-2.4472 'S WINDOWS 0.0000
-2.4472 'S WORST -0.2218
-2.4472 'S YOU -0.2993
-0.6021 'T STOP -0.2730
-0.6021 'T WWW.ANSWERS.COM 0.0000
-2.2788 , $85 0.0000
-2.2788 , 0 0.0000
-2.2788 , 000-A-YEAR 0.0000
-2.2788 , 126 0.0000
-2.2788 , 134 0.0000
-2.2788 , 14-MILE 0.0000
-2.2788 , 142 0.0000
-2.2788 , 15 -0.1761
-2.2788 , 158 0.0000
-2.2788 , 167 0.0000
-2.2788 , 177 0.0000
-2.2788 , 1797-185 0.0000
-2.2788 , 1978 0.0000
-2.2788 , 1980 -0.1761
-2.2788 , 1981 -0.1761
-2.2788 , 1982 0.0000
-2.2788 , 280 0.0000
-1.8016 , </s> -0.3010
-2.2788 , ACCORDING 0.0000
-2.2788 , AD 0.0000
-1.3245 , AND -0.2812
-1.9777 , BABY -0.1761
-2.2788 , BALLCOCK 0.0000
-2.2788 , BURIED -0.1249
-1.9777 , CD 0.0000
-2.2788 , CINDERSLUT 0.0000
-2.2788 , COMPANION -0.1761
-2.2788 , DC -0.1761
-2.2788 , DECEMBER -0.1761
-2.2788 , DIAMETER 0.0000
-2.2788 , DT -0.1249
-2.2788 , EL -0.2218
-2.2788 , FROM -0.2563
-2.2788 , HOW -0.1260
-1.5006 , IN -0.2957
-2.2788 , INDEPENDENCE -0.2218
-2.2788 , IS -0.3006
-2.2788 , JJ 0.0000
-2.2788 , K -0.1761
-2.2788 , KLONDIKE 0.0000
-2.2788 , LINCOLNS 0.0000
-2.2788 , LOUIE -0.1761
-2.2788 , MAGIC -0.2218
-2.2788 , MANNED -0.1761
-2.2788 , MARION 0.0000
-2.2788 , MAURIZIO 0.0000
-2.2788 , MEANING -0.2632
-2.2788 , MISSOURI -0.1761
-2.2788 , NJ 0.0000
-2.2788 , ON -0.2238
-2.2788 , OXFORDS 0.0000
-2.2788 , PENNSYLVANIA -0.1761
-2.2788 , PISSARRO 0.0000
-2.2788 , PLAN 0.0000
-2.2788 , RENOIR 0.0000
-2.2788 , SCOTLAND 0.0000
-2.2788 , SECRETARY 0.0000
-2.2788 , SISLEY 0.0000
-2.2788 , SOUTH -0.2632
-2.2788 , TEXAS -0.1761
-1.6767 , THE -0.3003
-2.2788 , THOMAS 0.0000
-2.2788 , WASH -0.1761
-2.2788 , WEIGHT -0.1761
-2.2788 , WEST -0.2430
-2.2788 , WHAT -0.2933
-1.8016 , WITH -0.2536
-2.2788 , YAKUTSK 0.0000
-1.5798 , `` -0.2707
-0.9031 - A -0.2991
-0.9031 - CLOCKWISE 0.0000
-0.9031 - THE -0.3007
-0.9031 - THREE -0.2688
-1.2389 . '' -0.1334
-0.3543 . </s> -0.3010
-0.3010 .COM </s> -0.3010
-0.3010 .DBF </s> -0.3010
-0.3010 0 COPIES 0.0000
-0.3010 000-A-YEAR CONTRACT 0.0000
-1.2041 1 , -0.2964
-1.2041 1 : -0.2881
-0.7270 1 </s> -0.3010
-1.2041 1 FEET -0.2430
-1.2041 1 FOUND -0.0792
-1.2041 1 SINGLES -0.1761
-0.3010 1-CENT STAMP 0.0000
-0.3010 10- OF -0.2993
-0.3010 101 BELONG 0.0000
-0.3010 103 OVER -0.2632
-0.7782 11 </s> -0.3010
-0.7782 11 FAMOUS -0.2688
-0.7782 11 MISSION 0.0000
-0.3010 118 , -0.2987
-0.3010 11TH </s> -0.3010
-0.6021 12 </s> -0.3010
-0.6021 12 MISSION 0.0000
-0.3010 12-HOUR CLOCK -0.2218
-0.3010 12-YEAR-OLD GIRL -0.2430
-0.3010 126 , -0.2987
-0.3010 13 GOING -0.0969
-0.3010 134 , -0.2987
-0.3010 14-MILE WIDE 0.0000
-0.3010 142 , -0.2987
-0.6021 15 , -0.2987
-0.6021 15 POKEMON 0.0000
-0.3010 158 , -0.2987
-0.3010 167 , -0.2987
-0.3010 16TH PRESIDENT -0.2009
-0.3010 177 , -0.2800
-0.3010 1797-185 , -0.2941
-0.3010 1832 </s> -0.3010
-0.3010 1866 </s> -0.3010
-0.3010 1872 PAINTING -0.1761
-0.3010 187S IRISH -0.2218
-0.3010 1893 </s> -0.3010
-0.3010 1896 SUMMER 0.0000
-0.3010 1899 </s> -0.3010
-0.6021 19 </s> -0.3010
-0.6021 19 CENTS 0.0000
-0.3010 1904 TORONTO -0.2218
-0.6021 1920S </s> -0.3010
-0.6021 1920S COWBOY -0.1761
-0.3010 1926 AND -0.2989
-0.3010 1929 </s> -0.3010
-0.3010 193 'S -0.2979
-0.3010 1932 </s> -0.3010
-0.3010 1939 FILM -0.2888
-0.3010 1941 'S -0.2995
-0.3010 1942 </s> -0.3010
-0.7782 1948 </s> -0.3010
-0.7782 1948 ON -0.2961
-0.7782 1948 SUMMER 0.0000
-0.3010 195 </s> -0.3010
-0.3010 1958 </s> -0.3010
-0.3010 1960 'S -0.2979
-0.6021 1964 UNITED -0.1461
-0.6021 1964 WAS -0.3001
-0.6021 1965 BEST -0.2863
-0.6021 1965 BROADWAY -0.1761
-0.3010 1966 BOOB 0.0000
-0.6021 1967 </s> -0.3010
-0.6021 1967 ISSUE -0.2041
-0.3010 1968 </s> -0.3010
-0.6021 1969 : -0.1498
-0.6021 1969 </s> -0.3010
-0.3010 197 TO -0.2993
