Language model created by QuickLM on Mon Dec  8 20:14:06 EST 2014
Copyright (c) 1996-2010 Carnegie Mellon University and Alexander I. Rudnicky

The model is in standard ARPA format, designed by Doug Paul while he was at MITRE.

The code that was used to produce this language model is available in Open Source.
Please visit http://www.speech.cs.cmu.edu/tools/ for more information

The (fixed) discount mass is 0.5. The backoffs are computed using the ratio method.
This model based on a corpus of 831 sentences and 1760 words

\data\
ngram 1=1760
ngram 2=3794
ngram 3=4540

\1-grams:
-4.1992 "I'LL -0.3009
-4.1992 #477 -0.2776
-3.0231 'S -0.3000
-3.7220 1 -0.2775
-4.1992 101 -0.3009
-4.1992 11 -0.3010
-4.1992 11TH -0.2776
-4.1992 12 -0.3010
-3.7220 13 -0.3009
-4.1992 1896 -0.3009
-4.1992 1904 -0.3009
-3.8981 1948 -0.2998
-4.1992 1964 -0.3009
-4.1992 1967 -0.3009
-4.1992 1968 -0.2776
-4.1992 1973 -0.3010
-4.1992 1981 -0.2888
-4.1992 1990S -0.2776
-4.1992 1992 -0.3010
-4.1992 1993 -0.2999
-4.1992 1ST -0.3009
-3.5971 2 -0.3009
-4.1992 2000 -0.2776
-4.1992 2002 -0.2776
-3.8981 2003 -0.2776
-3.8981 2004 -0.3000
-4.1992 2005 -0.3010
-3.7220 2006 -0.3009
-4.1992 2007 -0.3010
-3.8981 2008 -0.3009
-4.1992 2009 -0.3010
-3.5971 2010 -0.2776
-3.8981 2011 -0.2775
-4.1992 2012 -0.3010
-4.1992 22ND -0.3009
-4.1992 28 -0.3010
-3.7220 30 -0.2776
-4.1992 4 -0.3010
-3.5971 5 -0.2951
-3.8981 500 -0.2982
-4.1992 52 -0.3010
-4.1992 6 -0.2999
-4.1992 8 -0.3010
-4.1992 9/11 -0.2776
-1.2796 </s> -0.3010
-1.2796 <s> -0.2621
-2.4749 A -0.2976
-4.1992 A75 -0.2997
-4.1992 AA -0.3010
-4.1992 AARON -0.3010
-3.7220 ABBEY -0.2715
-4.1992 ABNORMAL -0.3010
-2.8769 ABOUT -0.2765
-4.1992 ABREVIATION -0.2997
-4.1992 ABUSED -0.2776
-4.1992 ABUSING -0.3010
-4.1992 ACADEMY -0.3008
-4.1992 ACCENT -0.3010
-4.1992 ACQUAITANCE -0.3010
-3.2961 ACTIVITY -0.3004
-4.1992 ACTORS -0.2977
-4.1992 ADAMS -0.3005
-4.1992 ADAPTATIONS -0.2952
-4.1992 ADAPTED -0.3008
-3.5971 ADDRESS -0.2715
-4.1992 ADOLF -0.3010
-4.1992 ADRIENNE -0.3010
-4.1992 ADVENTURE -0.3007
-4.1992 AEROSMITH -0.2776
-3.8981 AFFECTED -0.3006
-3.5971 AFRICA -0.2772
-3.8981 AFTER -0.2860
-4.1992 AGE -0.3000
-4.1992 AGNOSTIC -0.3010
-4.1992 AHOY -0.3010
-3.8981 AIR -0.2775
-4.1992 AIRED -0.2776
-4.1992 AIRLINES -0.2953
-3.7220 AIRPORT -0.2982
-4.1992 AIRSPEED -0.3009
-4.1992 AKERS -0.2999
-4.1992 ALABAMA -0.3009
-4.1992 ALAN -0.3010
-3.5971 ALBERTSON -0.2993
-4.1992 ALBUM -0.2776
-3.8981 ALBUMS -0.2963
-4.1992 ALCOHOL -0.2953
-4.1992 ALDRIDGE'S -0.3008
-4.1992 ALI -0.3010
-4.1992 ALKALINE -0.3010
-4.1992 ALL -0.3007
-3.5971 ALMIGHTY -0.2774
-4.1992 ALPHABET -0.3008
-4.1992 ALSO -0.3009
-4.1992 ALTA -0.3010
-4.1992 ALTITUDE -0.2952
-3.8981 AMENDMENT -0.2776
-3.5971 AMERICA -0.2776
-3.8981 AMERICAN -0.3010
-3.4210 AN -0.3008
-2.6940 AND -0.2858
-4.1992 ANDERSSEN -0.3005
-4.1992 ANDREW -0.3009
-4.1992 ANGELES -0.3010
-4.1992 ANGELINA -0.3010
-3.7220 ANGELS -0.2992
-3.8981 ANIMAL -0.2776
-4.1992 ANIMALS -0.2977
-4.1992 ANNA -0.3010
-3.8981 ANNIVERSARY -0.2776
-4.1992 ANNUALLY -0.2776
-4.1992 ANNUNCIATION -0.2776
-3.8981 ANTARCTICA -0.2776
-4.1992 ANTHONY -0.3010
-4.1992 ANTILLES -0.2776
-4.1992 AOL -0.3010
-3.8981 APOLLO -0.3010
-3.8981 APPEAR -0.2746
-3.7220 APPLE -0.2774
-4.1992 APPLE, -0.3010
-3.8981 APPLIED -0.3000
-3.8981 ARABIC -0.2976
-3.8981 ARCHITECTS -0.2776
-4.1992 ARCHITECTURAL -0.3010
-2.1128 ARE -0.2832
-3.1578 AREA -0.2695
-4.1992 AREAS -0.3003
-4.1992 ARIGNAR -0.3010
-4.1992 ARMORY -0.3010
-3.8981 ARMSTRONG -0.3005
-4.1992 ARMY -0.2997
-4.1992 ARNOLD! -0.3009
-3.7220 ART -0.2997
-4.1992 ARTICLES -0.2977
-4.1992 ARTIST -0.2952
-3.8981 ARTISTS -0.2976
-3.8981 ARTS -0.2952
-3.1578 AS -0.2758
-4.1992 ASCAP -0.3008
-4.1992 ASIA -0.2776
-4.1992 ASPIRIN -0.3010
-4.1992 ASTRONAUTS -0.2982
-2.9439 AT -0.2476
-4.1992 ATHLETES -0.2997
-3.8981 ATLANTIC -0.3009
-4.1992 ATOMIC -0.3008
-3.8981 ATTACK -0.2775
-3.5971 ATTEND -0.2762
-3.5971 ATTENDED -0.2775
-3.8981 ATTRACTIONS -0.2985
-4.1992 AUGUST -0.2776
-3.8981 AUSTRALIA -0.2772
-3.8981 AUSTRALIAN -0.3009
-4.1992 AUTHOR -0.2952
-4.1992 AUTOMOBILES -0.2776
-4.1992 AVERAGE -0.3010
-3.1992 AWARD -0.2702
-3.2961 AWARDS -0.2949
-4.1992 B12 -0.2776
-4.1992 BABYSITTER -0.2776
-4.1992 BACK" -0.2776
-4.1992 BALTIMORE -0.3010
-3.7220 BAND -0.2984
-4.1992 BARACK -0.3010
-4.1992 BAROSAURUS -0.3008
-4.1992 BARREMIAN -0.3009
-4.1992 BARRY -0.3010
-4.1992 BASKERVILLES -0.2776
-4.1992 BATH -0.3010
-4.1992 BATMAN -0.3010
-4.1992 BATTERY -0.2776
-4.1992 BATTLE -0.2952
-4.1992 BAUHAUS -0.3010
-3.7220 BE -0.3000
-4.1992 BEACH -0.2971
-4.1992 BEARS -0.2776
-4.1992 BEAVER -0.3007
-4.1992 BECKETT -0.3008
-4.1992 BEDS -0.2994
-3.2449 BEEN -0.2599
-4.1992 BEER -0.2953
-3.8981 BEERS -0.2740
-3.8981 BEGIN -0.2776
-4.1992 BEING -0.3010
-4.1992 BELLY -0.2776
-3.5971 BELONG -0.3000
-4.1992 BELONGS -0.3000
-4.1992 BELT -0.2982
-4.1992 BEN -0.3010
-4.1992 BENGALI -0.3010
-4.1992 BERGKAMP -0.3005
-4.1992 BERTRAND -0.3010
-4.1992 BESS -0.2999
-3.4210 BEST -0.3006
-4.1992 BETTY -0.3009
-4.1992 BETWEEN -0.2886
-3.8981 BEYONCE -0.3004
-4.1992 BEYOND -0.3010
-4.1992 BIANCHI -0.3010
-4.1992 BICYCLE -0.2953
-3.8981 BIG -0.3010
-4.1992 BIKE -0.2776
-4.1992 BILL -0.3010
-4.1992 BINDING -0.2776
-4.1992 BING -0.2776
-3.7220 BIRD -0.2951
-3.8981 BIRTH -0.2776
-3.7220 BIRTHDAY -0.2776
-4.1992 BLACK -0.3010
-4.1992 BLASS -0.3010
-4.1992 BLOCK -0.3010
-3.5971 BLOG -0.2747
-4.1992 BLOGS -0.2977
-4.1992 BLOGTALKRADIO -0.3010
-4.1992 BLUES -0.3005
-4.1992 BMW -0.2776
-4.1992 BMW'S -0.3010
-4.1992 BOATS -0.2994
-4.1992 BOILING -0.3010
-4.1992 BOND -0.2982
-4.1992 BONES -0.2997
-3.5002 BOOK -0.2766
-3.7220 BOOKS -0.2954
-3.8981 BORDERS -0.3006
-3.0852 BORN -0.2746
-4.1992 BOSON -0.3009
-3.5971 BOSTON -0.3009
-4.1992 BOWLING -0.3010
-4.1992 BRANCHED -0.3008
-3.8981 BRANCHES -0.2991
-4.1992 BRANDS -0.2994
-4.1992 BREAST -0.3009
-4.1992 BREED, -0.3002
-4.1992 BREEDS -0.2977
-4.1992 BREWS -0.3010
-3.8981 BRIDGE -0.2776
-4.1992 BRIE -0.3010
-3.8981 BRITISH -0.3009
-4.1992 BRITNEY -0.3010
-3.8981 BROADCAST -0.2775
-4.1992 BROADCASTS -0.2994
-4.1992 BROKEN -0.2776
-4.1992 BROTHER’S -0.3009
-3.7220 BROWN -0.2774
-3.5002 BRUCE -0.3009
-4.1992 BRUT -0.2776
-4.1992 BUDGET -0.2997
-4.1992 BUILDINGS -0.3003
-3.7220 BUILT -0.2639
-4.1992 BULLS -0.2776
-4.1992 BURIED -0.2776
-4.1992 BUS -0.3010
-4.1992 BUSES -0.3000
-3.8981 BUT -0.2970
-4.1992 BUTANE -0.2776
-2.9687 BY -0.2605
-4.1992 C. -0.2776
-4.1992 CAJUN -0.3010
-3.8981 CALIFORNIA -0.2776
-3.8981 CAMERAS -0.2976
-4.1992 CAN -0.3005
-4.1992 CANADIAN -0.3009
-4.1992 CANADIENS -0.2776
-4.1992 CANASTA -0.2776
-3.5002 CANCER -0.2738
-3.7220 CANON -0.3009
-3.8981 CAPACITY -0.2952
-4.1992 CAPE -0.3010
-4.1992 CAPRI -0.3010
-3.2961 CAR -0.2748
-3.7220 CARD -0.2776
-4.1992 CARDINALS -0.2776
-4.1992 CARDIOLOGY -0.2776
-4.1992 CARDS -0.3005
-3.5971 CAREER -0.2775
-4.1992 CARLISLE -0.3009
-4.1992 CARNEGIE -0.3010
-4.1992 CARS -0.2977
-4.1992 CASES -0.2997
-4.1992 CAST -0.3010
-4.1992 CASTING -0.3009
-4.1992 CATAN -0.2776
-4.1992 CATCHER -0.2982
-3.8981 CATEGORY -0.2936
-4.1992 CATHOLICISM -0.2776
-4.1992 CATHY -0.3010
-4.1992 CATS -0.2776
-4.1992 CAUSE -0.3010
-3.8981 CAUSES -0.2952
-4.1992 CAVE -0.3010
-3.8981 CBS -0.3010
-3.8981 CELEBRITIES -0.2997
-4.1992 CELLO -0.2776
-3.8981 CENTER -0.2776
-4.1992 CENTERS -0.2977
-4.1992 CENTURY -0.2776
-4.1992 CEO -0.2952
-4.1992 CERATOPSIA -0.2997
-4.1992 CERTIFIED -0.3007
-4.1992 CESSNA -0.3010
-4.1992 CHAMPION -0.2776
-4.1992 CHAMPIONS -0.2776
-4.1992 CHANCERY -0.2997
-4.1992 CHAPTER -0.2952
-3.8981 CHARACTER -0.2977
-3.4210 CHARACTERS -0.2894
-4.1992 CHARGE -0.2952
-4.1992 CHARGED -0.3009
-3.8981 CHARLIE -0.3009
-3.7220 CHARLIE_S -0.3009
-4.1992 CHEERING -0.2985
-3.8981 CHEESE -0.2776
-3.8981 CHEMICAL -0.3008
-4.1992 CHI -0.3010
-3.8981 CHICAGO -0.3010
-3.2961 CHILD -0.2737
-3.2449 CHILDHOOD -0.3006
-4.1992 CHIPS -0.3010
-4.1992 CHRISTOPHER -0.3010
-4.1992 CHRONICLE -0.2776
-4.1992 CHUAN -0.2776
-4.1992 CIRCLE -0.2977
-4.1992 CIRCULATED -0.2776
-4.1992 CIRRUS -0.3010
-4.1992 CITATION -0.3010
-4.1992 CITIES -0.2994
-2.7520 CITY -0.2587
-4.1992 CITY, -0.3009
-4.1992 CITY/TOWN/VILLAGE -0.2776
-4.1992 CIVIC -0.3010
-4.1992 CIVIL -0.3010
-4.1992 CIVILIZATION -0.2999
-4.1992 CLARIS -0.3009
-3.4210 CLASS -0.2652
-4.1992 CLEVELAND -0.3009
-4.1992 CLINIC -0.3008
-4.1992 CLINTON -0.3009
-4.1992 CLOSE -0.2776
-4.1992 CLOSET -0.3003
-4.1992 CLOTHING -0.2977
-3.8981 CLOUDS -0.2776
-4.1992 CLUB -0.2776
-3.5971 COACH -0.2684
-4.1992 COACHED -0.2776
-4.1992 COACHES -0.2886
-4.1992 COAL -0.2776
-4.1992 COBIA -0.2776
-4.1992 COCAINE -0.2776
-3.2449 CODE -0.2762
-4.1992 CODONS -0.2952
-4.1992 COHOST -0.2982
-4.1992 COLBY -0.3010
-3.8981 COLLECT -0.2776
-4.1992 COLLECTION -0.2776
-4.1992 COLLECTIONS -0.2971
-3.2961 COLLEGE -0.2712
-4.1992 COLLINS -0.3009
-3.4210 COLOR -0.2669
-4.1992 COLORADO -0.2776
-4.1992 COLORED -0.2776
-4.1992 COLORS -0.2776
-4.1992 COLUMBIA -0.3010
-4.1992 COMBUSTION -0.3009
-3.7220 COME -0.2981
-4.1992 COMEDY -0.3009
-3.7220 COMIC -0.3009
-4.1992 COMMAND -0.2776
-4.1992 COMMANDERS -0.3003
-4.1992 COMMITTED -0.2776
-3.8981 COMPANIES -0.2976
-4.1992 COMPANION -0.2999
-4.1992 COMPANY -0.2952
-4.1992 COMPOSED -0.2886
-4.1992 COMPREHENSIVE -0.2776
-3.8981 COMPUTER -0.3009
-3.8981 CONCERT -0.2985
-4.1992 CONDITIONS -0.2994
-4.1992 CONFERENCE -0.2952
-3.7220 CONFERENCES -0.2980
-3.8981 CONFIGURATION -0.2715
-4.1992 CONFLICTS -0.2971
-3.7220 CONSIST -0.2952
-4.1992 CONSTITUTION -0.3009
-4.1992 CONSTRUCTION -0.2952
-4.1992 CONVENTION -0.3009
-4.1992 CONVENTIONS -0.3002
-4.1992 COOKIE -0.3008
-4.1992 CORDON -0.3010
-4.1992 CORNER -0.2999
-4.1992 CORONET -0.3010
-3.8981 CORPORATION -0.3005
-3.7220 COST -0.2743
-4.1992 COSTUME -0.3010
-4.1992 COTTON -0.2776
-3.2961 COUNTRIES -0.2915
-3.1992 COUNTRY -0.2886
-3.5971 COUNTY -0.2724
-3.5971 COURT -0.2952
-4.1992 COUSIN'S -0.2999
-4.1992 COUSINS -0.2776
-3.5971 COVER -0.2774
-4.1992 CRACKERS -0.3008
-3.8981 CRAIG -0.2776
-3.4210 CREATED -0.2641
-4.1992 CREATORS -0.2952
-3.8981 CREDIT -0.3009
-4.1992 CRETACEOUS -0.3009
-4.1992 CRICKET -0.3009
-4.1992 CROAKER -0.3009
-4.1992 CROSS -0.2952
-4.1992 CRUSH -0.2776
-4.1992 CUISINE -0.2776
-3.5971 CUP -0.2774
-4.1992 CURLY -0.3010
-3.2961 CURRENCY -0.2773
-3.8981 CURRENT -0.3010
-3.4210 CURRENTLY -0.2991
-4.1992 CYLINDER -0.3009
-4.1992 DA -0.3010
-4.1992 DABBLE -0.3009
-4.1992 DAD'S -0.2999
-3.8981 DADDY -0.3009
-4.1992 DAMAGES -0.2971
-4.1992 DANGO -0.2776
-4.1992 DANISH -0.3010
-3.4210 DANNY -0.3009
-4.1992 DAS -0.3010
-3.7220 DATE -0.2930
-4.1992 DAVE -0.3010
-4.1992 DAVID -0.3010
-3.7220 DAY -0.2912
-4.1992 DAYS -0.3010
-4.1992 DE -0.3009
-4.1992 DEATH -0.3009
-4.1992 DEBUT -0.2776
-4.1992 DECO -0.2776
-4.1992 DEDICATE -0.3000
-4.1992 DEDICATED -0.2776
-4.1992 DEGREE -0.3010
-4.1992 DEITIES -0.2952
-4.1992 DELAWARE -0.2776
-4.1992 DENNIS -0.3010
-4.1992 DENVER -0.3010
-3.7220 DESIGN -0.2753
-4.1992 DESIGNATED -0.3007
-3.2961 DESIGNED -0.2644
-4.1992 DESIGNER -0.2997
-4.1992 DESIGNING -0.2997
-4.1992 DESIGNS -0.2997
-4.1992 DESTROYED -0.2982
-4.1992 DETROIT -0.3009
-3.7220 DEVELOPED -0.2644
-4.1992 DEVELOPER -0.2952
-3.4210 DEVITO -0.2987
-4.1992 DIALECTS -0.2952
-2.0408 DID -0.2781
-4.1992 DIDN'T -0.3009
-3.3541 DIE -0.2715
-4.1992 DIED -0.2982
-4.1992 DIET -0.2971
-4.1992 DIFFERENT -0.3010
-3.8981 DIGITAL -0.3010
-3.5971 DIGITS -0.2952
-4.1992 DIMENSIONS -0.2952
-3.8981 DINOSAUR -0.3009
-4.1992 DINOSAURS -0.3003
-4.1992 DIRECT -0.2776
-3.7220 DIRECTED -0.3003
-3.7220 DIRECTOR -0.2910
-4.1992 DISASTER -0.2776
-4.1992 DISCOVERED -0.3010
-4.1992 DISCOVERY -0.2776
-3.8981 DISEASE -0.2715
-3.8981 DISEASES -0.2953
-4.1992 DISHES -0.2776
-3.8981 DISNEYLAND -0.2715
-4.1992 DISTRIBUTE -0.2776
-4.1992 DISTRIBUTORS -0.2997
-4.1992 DISTRICT -0.2952
-3.8981 DIVISION -0.2971
-4.1992 DIVISIONS -0.2952
-4.1992 DNA -0.3010
-2.8769 DO -0.2617
-4.1992 DOCTOR -0.2776
-4.1992 DOCTORS -0.2776
-4.1992 DOCUMENTARIES -0.2977
-4.1992 DODGERS -0.2776
-2.4283 DOES -0.2819
-4.1992 DOG -0.2776
-3.2961 DOING -0.2747
-3.5002 DOLLAR -0.2773
-4.1992 DOMAIN -0.3009
-4.1992 DONOVAN -0.3010
-4.1992 DOOLING -0.3005
-4.1992 DOOM -0.2997
-4.1992 DOONESBURY -0.2776
-4.1992 DORITOS -0.2776
-4.1992 DOWN -0.3010
-4.1992 DOWNEY -0.3010
-4.1992 DRAMA -0.3008
-4.1992 DRAVIDIAN -0.3009
-3.5002 DREAM -0.2948
-4.1992 DRIVER'S -0.3010
-4.1992 DRIVING -0.3009
-4.1992 DRY -0.3010
-4.1992 DS -0.2776
-4.1992 DUBAI -0.3010
-3.5971 DURING -0.2758
-4.1992 DX3000 -0.2997
-4.1992 EAGLE -0.2776
-4.1992 EAGLES -0.2776
-3.8981 EARTH -0.2772
-4.1992 EASY -0.3010
-3.8981 ECONOMY -0.2952
-4.1992 EDWARD -0.3010
-4.1992 EFFECTS -0.2952
-4.1992 EGYPT -0.3010
-4.1992 EIFFEL -0.3010
-4.1992 ELDEST -0.2952
-4.1992 ELECTION -0.2776
-4.1992 ELECTRIC -0.3010
-3.8981 ELEMENTARY -0.3007
-4.1992 ELEVATION -0.3005
-4.1992 ELIZABETH -0.3009
-4.1992 ELK -0.3009
-3.8981 ELSE -0.3008
-4.1992 EMPLOY -0.2776
-4.1992 EMPLOYER -0.2776
-3.8981 ENGAGED -0.2746
-3.5971 ENGINE -0.2742
-4.1992 ENGINEERING -0.2776
-4.1992 ENGINES -0.2997
-4.1992 ENGLISH -0.3010
-4.1992 ENTER -0.2886
-3.7220 EPISODE -0.2951
-3.8981 EPISODES -0.2759
-4.1992 EPSILON -0.2776
-3.8981 EQUIVALENT -0.3000
-4.1992 ERUPT -0.2776
-4.1992 EURO -0.3009
-4.1992 EUROPEAN -0.3010
-4.1992 EUROS -0.2776
-3.8981 EVENING -0.3010
-3.1200 EVENT -0.2770
-3.8981 EVENTS -0.2746
-4.1992 EVEREST -0.2776
-4.1992 EVERYTHING -0.2953
-4.1992 EXAMPLES -0.2952
-3.8981 EXHIBIT -0.3000
-4.1992 EXHIBITED -0.2776
-3.8981 EXHIBITIONS -0.2989
-3.8981 EXHIBITS -0.2964
-4.1992 EXPANSION -0.3010
-4.1992 EYES -0.2776
-3.8981 F -0.3010
-4.1992 F-5 -0.3010
-4.1992 F. -0.3010
-4.1992 F.C. -0.3008
-4.1992 FA -0.3009
-4.1992 FACILITIES -0.3002
-4.1992 FACILITY -0.2776
-3.5971 FACT -0.3005
-4.1992 FALLINGWATER -0.2776
-4.1992 FALLS -0.2776
-3.8981 FAME -0.2776
-3.7220 FAMILY -0.2776
-4.1992 FAMOUS -0.3010
-4.1992 FANTASY -0.3008
-3.8981 FARGO -0.3002
-3.8981 FAST -0.3009
-4.1992 FATHER -0.3005
-4.1992 FATIGUE -0.2996
-2.8189 FAVORITE -0.2989
-4.1992 FAWLTY -0.3010
-4.1992 FEDERAL -0.3009
-4.1992 FEDOR -0.3010
-4.1992 FERDINAND -0.3009
-4.1992 FERRARI -0.3010
-4.1992 FICTION -0.3010
-4.1992 FICTIONAL -0.3009
-3.8981 FIFA -0.3009
-3.8981 FIFTH -0.3009
-4.1992 FIGHTER -0.2776
-4.1992 FIGURES -0.2776
-4.1992 FILE -0.3010
-4.1992 FILLION -0.3010
-3.2449 FILM -0.2765
-3.8981 FILMS -0.2966
-3.5002 FINAL -0.2775
-3.8981 FINISH -0.2776
-3.8981 FIRE -0.3007
-4.1992 FIREFLY -0.2776
-2.5864 FIRST -0.2966
-4.1992 FIT -0.2776
-3.8981 FIVE -0.3009
-4.1992 FLAGS -0.3009
-4.1992 FLEECE -0.2776
-4.1992 FLEET -0.3010
-4.1992 FLICKR -0.2776
-4.1992 FLOOR -0.3009
-4.1992 FLOORS -0.2994
-4.1992 FLOWN -0.2776
-4.1992 FOCUS -0.2952
-4.1992 FOOLS -0.2776
-4.1992 FOOTWEAR -0.2977
-2.5271 FOR -0.2465
-3.5971 FORD -0.2996
-3.7220 FORM -0.2776
-3.7220 FORMATIONS -0.2969
-4.1992 FORMATS -0.3010
-3.8981 FORMED -0.2981
-4.1992 FORMULA -0.2997
-4.1992 FORTUNE -0.3010
-4.1992 FORUNE -0.3010
-4.1992 FOUGHT -0.2982
-3.7220 FOUND -0.2776
-3.0530 FOUNDED -0.2775
-4.1992 FOURNIE -0.3009
-4.1992 FOXES -0.3009
-4.1992 FRANCESCO -0.3010
-3.8981 FRANCISCO -0.2775
-3.8981 FRANK -0.3010
-4.1992 FRAZIER -0.3009
-4.1992 FREE -0.3010
-3.7220 FREEBASE -0.2776
-4.1992 FREEDOM -0.3010
-3.8981 FRENCH -0.3010
-4.1992 FRIDA -0.3010
-3.7220 FRIEND -0.2774
-3.3541 FROM -0.2773
-4.1992 FRONTIER -0.3010
-4.1992 FRY -0.2776
-3.5971 FUEL -0.2994
-4.1992 FUJI -0.3006
-4.1992 FULHAM -0.3010
-3.8981 FURIOUS -0.2776
-4.1992 G.H. -0.3010
-4.1992 GALILEO -0.3010
-4.1992 GALL -0.3010
-3.5971 GAME -0.2715
-3.5971 GAMES -0.2929
-4.1992 GAP, -0.3010
-4.1992 GARCIA -0.3010
-4.1992 GARRY -0.3010
-3.8981 GARTER -0.2958
-3.8981 GATE -0.3010
-4.1992 GATO -0.3009
-4.1992 GATORADE -0.3006
-3.7220 GENERATION -0.2951
-4.1992 GENERATIONS -0.2952
-3.5002 GENRE -0.2610
-3.7220 GENRES -0.2717
-3.8981 GERMAN -0.2775
-3.5971 GET -0.2981
-4.1992 GETTYSBURG -0.3009
-4.1992 GIANTS -0.3010
-4.1992 GILLIGAN_S -0.3010
-4.1992 GIRARDI -0.3009
-4.1992 GIRL -0.3010
-3.5971 GLASS -0.2972
-4.1992 GLOBE -0.3008
-4.1992 GLOSTER -0.3010
-4.1992 GLS -0.3010
-4.1992 GLUTAMINE -0.2776
-3.5971 GO -0.2999
-4.1992 GOALKEEPERS -0.2776
-4.1992 GOBLET -0.2952
-4.1992 GOD -0.2776
-3.7220 GOING -0.2999
-3.5971 GOLD -0.2775
-3.5971 GOLDEN -0.3009
-3.8981 GONE -0.3000
-4.1992 GOOGLE -0.3010
-4.1992 GOT -0.2886
-4.1992 GOTHAM -0.3003
-4.1992 GOTTEN -0.3009
-3.5971 GRADE -0.2775
-4.1992 GRADUATED -0.3008
-4.1992 GRAEME -0.3009
-3.8981 GRAMMY -0.3005
-4.1992 GRAND -0.3010
-4.1992 GRANDFATHER'S -0.3009
-4.1992 GRANDFATHER’S -0.3009
-4.1992 GRANDMOTHER -0.3007
-3.8981 GRANDMOTHER'S -0.3009
-4.1992 GREATEST -0.3010
-4.1992 GREEN -0.3010
-4.1992 GREW -0.3010
-4.1992 GROHL -0.3006
-4.1992 GROPIUS' -0.3010
-4.1992 GROSS -0.3010
-4.1992 GROUP -0.2952
-4.1992 GROVER -0.3010
-4.1992 GRUTA -0.3010
-3.8981 GSUSA -0.2775
-3.8981 GUARDIAN -0.2999
-4.1992 GUIDEBOOKS -0.2977
-4.1992 GUITAR -0.3010
-4.1992 GUITARIST -0.2952
-4.1992 GULL -0.3008
-4.1992 GUNPOWDER -0.3010
-4.1992 H&R -0.3010
-3.5971 HAD -0.2719
-3.8981 HAIR -0.3008
-3.5971 HALL -0.2936
-4.1992 HALO: -0.3010
-4.1992 HALPER -0.2997
-4.1992 HANA -0.3010
-4.1992 HANK -0.3010
-4.1992 HAPPENED -0.2982
-4.1992 HARDIN -0.3010
-3.8981 HARRY -0.2776
-2.7368 HAS -0.2875
-4.1992 HATS -0.2776
-4.1992 HAUNTED -0.3010
-2.5271 HAVE -0.2540
-4.1992 HAWK -0.2776
-4.1992 HAWKER -0.3010
-3.7220 HAYDEN -0.3007
-4.1992 HAYDN -0.2776
-3.8981 HEAD -0.3009
-4.1992 HEADQUARTERED -0.2776
-4.1992 HEADQUARTERS -0.2776
-4.1992 HEARD -0.3005
-4.1992 HEART -0.3010
-4.1992 HEATHROW -0.3009
-4.1992 HEAVY -0.3010
-4.1992 HEDGEHOG -0.2997
-4.1992 HEIGHT -0.3010
-3.5971 HELD -0.2644
-4.1992 HENRY -0.3010
-4.1992 HER -0.3010
-4.1992 HERALD -0.2999
-4.1992 HERITAGE -0.3010
-4.1992 HERM -0.2776
-4.1992 HERO -0.2776
-4.1992 HERO: -0.3010
-4.1992 HERRESHOFF -0.3008
-4.1992 HEY -0.3010
-4.1992 HIGGINS -0.3009
-3.2961 HIGH -0.2949
-3.8981 HIGHEST -0.3010
-3.7220 HIGHWAY -0.3008
-4.1992 HILLARY -0.3010
-4.1992 HINDUISM -0.2776
-3.8981 HIS -0.3009
-4.1992 HISTORY -0.3010
-4.1992 HOBBIT -0.3010
-4.1992 HOBBY -0.2776
-4.1992 HOCKEY -0.3009
-4.1992 HOLY -0.3010
-3.8981 HOME -0.2776
-3.8981 HOMETOWN -0.2776
-3.8981 HONDA -0.3010
-4.1992 HONEYMOON -0.2776
-4.1992 HONOR -0.3005
-4.1992 HOPKINS -0.3005
-4.1992 HORSE -0.2776
-3.8981 HOSPITAL -0.2972
-4.1992 HOSPITALS -0.3010
-4.1992 HOST -0.2776
-3.8981 HOSTED -0.2886
-4.1992 HOSTS -0.2952
-4.1992 HOUND -0.2952
-3.8981 HOUSE -0.2972
-1.9764 HOW -0.2865
-4.1992 HUB -0.2997
-4.1992 HUBBLE -0.3009
-4.1992 HUGH -0.3010
-4.1992 HUGO -0.3008
-4.1992 HULL -0.3008
-3.5002 HURRICANE -0.3009
-4.1992 HYBRID -0.2776
-4.1992 HYUNDAI -0.3010
-4.1992 I -0.3009
-4.1992 ICEMAN -0.2999
-4.1992 ID -0.2776
-4.1992 IGNEOUS -0.3008
-3.5971 II -0.2772
-4.1992 III -0.3010
-4.1992 ILLINOIS -0.2776
-4.1992 ILLUMINATED -0.3008
-3.8981 IMAGE -0.2776
-4.1992 IMMORTAL -0.3009
-2.1863 IN -0.2393
-3.8981 INC. -0.2776
-4.1992 INCLUDING -0.3007
-4.1992 INCOME -0.2776
-4.1992 INDEPENDENCE -0.3009
-4.1992 INDIAN -0.3010
-4.1992 INDONESIAN -0.3010
-3.8981 INDUCTED -0.3010
-4.1992 INDUSTRIES -0.2994
-4.1992 INDUSTRY -0.2776
-4.1992 INFECTION -0.2953
-4.1992 INFLUENCE -0.2776
-3.5971 INFLUENCED -0.3005
-4.1992 INGREDIENTS -0.2977
-4.1992 INSTANT -0.3010
-4.1992 INSTITUTE -0.2952
-4.1992 INSTITUTIONS -0.2977
-4.1992 INSTRUMENT -0.2971
-4.1992 INTERNAL -0.3010
-3.8981 INTERNATIONAL -0.3009
-4.1992 INTERSTATE -0.3009
-3.8981 INTO -0.2886
-3.2961 INTRODUCED -0.2749
-4.1992 INVENTED -0.3010
-4.1992 INVERTIGO -0.3010
-4.1992 INVISIBLE -0.3010
-4.1992 IOWA -0.2776
-3.8981 IPHONE -0.2776
-4.1992 IPOD -0.2977
-4.1992 IRON -0.3009
-1.8811 IS -0.2784
-4.1992 ISLAM -0.2776
-4.1992 ISLAND -0.2999
-4.1992 ISLANDS -0.2977
-4.1992 ISOLDE -0.2776
-3.5971 ISSUE -0.2911
-3.8981 ISSUES -0.2918
-3.2961 IT -0.2741
-4.1992 ITALIAN -0.3010
-4.1992 IVAN -0.2776
-3.5971 JACK -0.3009
-4.1992 JACKSON -0.3009
-3.8981 JAMES -0.3009
-4.1992 JAPAN -0.3010
-4.1992 JAPANESE -0.3010
-4.1992 JAVA -0.3009
-4.1992 JAY -0.3010
-3.8981 JCPENNEY -0.3002
-4.1992 JEEP -0.3010
-3.3541 JERRY -0.3008
-3.8981 JESSICA -0.3010
-4.1992 JIM -0.3010
-3.5971 JOB -0.2773
-3.8981 JOE -0.3010
-3.8981 JOHN -0.3010
-4.1992 JOLIE'S -0.3010
-4.1992 JONATHAN -0.3009
-4.1992 JONI -0.3010
-4.1992 JOSE -0.3010
-4.1992 JOSEPH -0.3010
-4.1992 JOURNAL -0.2952
-4.1992 JOURNALS -0.2776
-4.1992 JR -0.3010
-4.1992 JRR -0.3010
-4.1992 JUDAISM -0.2977
-4.1992 JUDGE -0.3010
-4.1992 JUDGES -0.3002
-4.1992 JUDO -0.2776
-4.1992 JULIEN -0.3010
-4.1992 JULY -0.3010
-4.1992 JUN -0.3010
-4.1992 JUNE -0.3009
-4.1992 JUPITER -0.2776
-4.1992 JURISDICTION -0.2776
-4.1992 JUSTICE -0.3009
-4.1992 KA -0.2776
-4.1992 KAHLO -0.3010
-4.1992 KARL -0.3010
-4.1992 KASPAROV -0.3008
-4.1992 KATRINA -0.2776
-4.1992 KELLY -0.2776
-3.8981 KENNEDY -0.3007
-4.1992 KENNEL -0.3010
-3.8981 KENPO -0.2776
-4.1992 KEPLER -0.3010
-4.1992 KEVIN -0.3010
-4.1992 KEYON -0.3010
-4.1992 KIDS -0.3010
-4.1992 KID_S -0.3010
-4.1992 KIFM -0.3010
-4.1992 KILL -0.2996
-4.1992 KIND -0.2952
-4.1992 KINDS -0.2952
-4.1992 KINGDA -0.3010
-4.1992 KINGDOM -0.3009
-4.1992 KIRKSTALL -0.3009
-4.1992 KISS -0.2776
-4.1992 KITTY -0.3010
-4.1992 KNICKERBOCKERS -0.2776
-4.1992 KNIGHTS -0.2952
-3.4210 KNOWN -0.3003
-4.1992 KOERTZEN -0.3010
-4.1992 KRONA -0.2776
-4.1992 KRONER -0.2953
-4.1992 KWAK -0.2776
-4.1992 LABEL -0.2994
-3.8981 LABELS -0.2961
-4.1992 LAMARCUS -0.3010
-4.1992 LAMBEAU -0.3010
-4.1992 LANDERS -0.3010
-4.1992 LANDMARK -0.3009
-3.5002 LANGUAGE -0.2653
-3.4210 LANGUAGES -0.2957
-4.1992 LARRY -0.3009
-3.0530 LAST -0.2756
-4.1992 LATER -0.2776
-4.1992 LATITUDE -0.3002
-3.7220 LAUNCHED -0.2776
-4.1992 LAURIE -0.3009
-4.1992 LEAD -0.3010
-4.1992 LEADING -0.3010
-3.8981 LEAFS -0.2776
-4.1992 LEAGUE -0.2953
-3.5002 LEARN -0.2770
-3.5002 LEARNED -0.3005
-3.5971 LEARNING -0.3001
-4.1992 LEAST -0.3004
-3.8981 LEE -0.2775
-4.1992 LEGAL -0.3010
-4.1992 LENO'S -0.3008
-4.1992 LEONARDO -0.3010
-4.1992 LEPTON -0.3009
-4.1992 LETTER -0.3010
-3.8981 LEUKEMIA -0.2776
-4.1992 LEWIS -0.3009
-3.5002 LIBRARY -0.2732
-3.8981 LICENSE -0.3008
-4.1992 LIFE -0.2776
-4.1992 LIGHTHOUSE -0.3008
-4.1992 LIGHTNIN' -0.3010
-3.5002 LIKE -0.2765
-3.8981 LIKED -0.3007
-4.1992 LIL -0.3010
-4.1992 LIMA -0.3009
-4.1992 LIMITED -0.2776
-4.1992 LINDSEY -0.3010
-3.8981 LINE -0.2774
-4.1992 LINEBACKERS -0.2999
-3.8981 LINES -0.2992
-4.1992 LISA -0.2776
-4.1992 LISTED -0.3007
-4.1992 LITE -0.2776
-3.2449 LIVE -0.2764
-4.1992 LIVED -0.2982
-4.1992 LIVERPOOL -0.3010
-4.1992 LLOYD -0.3010
-3.5971 LOCATED -0.2764
-3.8981 LOCATION -0.2963
-4.1992 LOCATIONS -0.2977
-4.1992 LOCOMOTIVE -0.3009
-4.1992 LODGES -0.2977
-4.1992 LOHAN -0.3010
-4.1992 LOHENGRIN -0.2982
-3.7220 LONDON -0.3009
-3.2449 LONG -0.2878
-4.1992 LONGITUDE -0.2952
-4.1992 LOOK -0.3009
-4.1992 LOS -0.3010
-4.1992 LOSE -0.2776
-4.1992 LOSSES -0.3002
-4.1992 LOST -0.3008
-3.8981 LOUIS -0.3010
-4.1992 LOVE -0.3000
-4.1992 LOWELL -0.3010
-4.1992 LSE -0.3009
-4.1992 LUKE -0.3010
-4.1992 LUTHER -0.3009
-4.1992 LUX -0.3010
-4.1992 MACINTOSH -0.3008
-3.3541 MADE -0.2949
-4.1992 MADRID -0.2996
-4.1992 MAGIC -0.3010
-4.1992 MAGICIAN_S -0.3010
-4.1992 MAID -0.2952
-3.8981 MAIDEN -0.3000
-3.7220 MAIN -0.3007
-3.7220 MAJOR -0.3008
-4.1992 MAKE -0.3002
-3.8981 MAKES -0.2994
-4.1992 MAKEUP -0.3010
-4.1992 MALL -0.2776
-4.1992 MALLS -0.2994
-4.1992 MAMMOTH -0.3010
-3.8981 MAN -0.2776
-4.1992 MANAGE -0.2776
-4.1992 MANAGED -0.3010
-4.1992 MANAGER -0.2776
-4.1992 MANAGES -0.3010
-3.8981 MANHATTAN -0.3010
-4.1992 MANSION -0.3010
-4.1992 MANUFACTURED -0.2886
-3.8981 MANUFACTURES -0.2886
-4.1992 MANUFACTURING -0.3010
-2.0593 MANY -0.2934
-3.8981 MAPLE -0.3010
-4.1992 MARGIELA -0.3009
-4.1992 MARINA -0.3010
-3.8981 MARK -0.3010
-4.1992 MARKET-FRANKFORD -0.3010
-4.1992 MARRIED -0.2776
-4.1992 MARSHALL -0.3009
-3.8981 MARTIAL -0.3010
-3.8981 MARTIN -0.3010
-4.1992 MARX -0.2776
-3.7220 MASCOT -0.2715
-4.1992 MASS -0.2952
-4.1992 MASSIVE -0.3010
-4.1992 MASTER -0.2952
-4.1992 MATERNAL -0.3010
-4.1992 MATHEMATICS -0.2977
-4.1992 MATRIX -0.3010
-4.1992 MATSUMOTO -0.3005
-4.1992 MATTEL -0.3008
-4.1992 MATTER -0.2953
-4.1992 MATTHEW -0.3009
-4.1992 MAURITANIA -0.2776
-3.7220 MAX -0.3009
-4.1992 MAXIMUM -0.3010
-3.8981 MAY -0.3009
-4.1992 MCKINNEY -0.3007
-4.1992 MCLEAN -0.3010
-4.1992 MCNABB -0.3005
-3.7220 MEDAL -0.2704
-2.9204 MEET -0.2617
-3.7220 MEETING -0.3005
-4.1992 MELLON -0.3010
-4.1992 MELTING -0.3010
-4.1992 MEMBER -0.2952
-3.8981 MEMBERS -0.2952
-3.7220 MEMORABLE -0.3006
-4.1992 MEN_S -0.3010
-4.1992 MERLIN -0.2776
-4.1992 MESSENGER -0.2776
-3.8981 MET -0.2774
-4.1992 METAMORPHIC -0.3008
-4.1992 METEOR -0.2776
-3.8981 MEXICAN -0.3010
-4.1992 MICHAEL -0.3010
-4.1992 MICROSOFT -0.3008
-3.5971 MIDDLE -0.3000
-4.1992 MIKE -0.3009
-4.1992 MILE -0.3009
-3.7220 MILITARY -0.3009
-3.7220 MILLER -0.3009
-4.1992 MINUTE -0.3009
-3.8981 MISSION -0.2776
-4.1992 MISSISSIPPI -0.3010
-3.8981 MITCHELL -0.3008
-4.1992 MOCKINGBIRD -0.2776
-4.1992 MODE -0.2776
-3.8981 MODEL -0.2952
-4.1992 MOLASSES -0.3010
-4.1992 MONA -0.3010
-3.7220 MONEY -0.2744
-4.1992 MONOPOLY -0.2776
-4.1992 MONORAIL -0.3008
-4.1992 MONSANTO -0.3010
-2.9439 MONTH -0.2904
-4.1992 MONTREAL -0.3010
-3.8981 MOON -0.2776
-4.1992 MOONS -0.2952
-4.1992 MOORED -0.2776
-4.1992 MORPHINE -0.2776
-3.1200 MOST -0.2978
-3.8981 MOTHER -0.2998
-3.8981 MOTHER'S -0.2998
-4.1992 MOTION -0.3010
-4.1992 MOTOR -0.3010
-4.1992 MOTOROLA -0.2997
-4.1992 MOTTO -0.2952
-3.8981 MOUNT -0.3010
-3.5971 MOUNTAIN -0.2745
-3.5971 MOVIE -0.2714
-3.7220 MOVIES -0.3001
-4.1992 MOZART -0.3010
-3.4210 MUCH -0.2966
-4.1992 MUHAMMAD -0.3010
-4.1992 MULTIPLAYER -0.3010
-4.1992 MUMM -0.3010
-3.8981 MUSEUM -0.2776
-3.5971 MUSIC -0.2946
-3.7220 MUSICAL -0.3007
-4.1992 MUSSOLINI -0.3010
-4.1992 MUSTANG -0.2776
-4.1992 MUTANT -0.3010
-3.8981 MY -0.3009
-2.6194 NAME -0.2674
-4.1992 NAME, -0.3010
-3.4210 NAMES -0.2919
-3.8981 NATHAN -0.3010
-4.1992 NATHANAEL -0.3010
-3.8981 NATIONAL -0.3009
-3.8981 NATIONS -0.3005
-4.1992 NAUTILUS -0.2776
-3.8981 NAVY -0.3008
-4.1992 NEANDERTHAL -0.3009
-4.1992 NEAREST -0.3010
-4.1992 NEED -0.3000
-4.1992 NEIGHBORS -0.2776
-4.1992 NEON -0.2776
-4.1992 NEPHEW -0.2776
-4.1992 NET -0.3010
-4.1992 NETFLIX -0.2776
-3.8981 NETWORK -0.2741
-4.1992 NEURON -0.3010
-3.7220 NEW -0.3009
-3.8981 NEWS -0.2776
-4.1992 NEWSCASTER -0.2982
-4.1992 NEWSPAPER -0.2776
-4.1992 NEWSPAPERS -0.2994
-4.1992 NHL -0.2776
-4.1992 NIAGARA -0.3010
-3.7220 NICKNAME -0.2776
-3.8981 NICKNAMES -0.2981
-4.1992 NINJA -0.3010
-4.1992 NINTENDO -0.3010
-4.1992 NIVEA -0.2776
-3.8981 NOMINATED -0.2997
-3.8981 NOMINATIONS -0.2971
-3.7220 NORTH -0.3009
-4.1992 NOT -0.3009
-4.1992 NOTABLE -0.3010
-4.1992 NOVEL -0.2776
-3.2449 NUMBER -0.2617
-3.5971 NUTTY -0.3009
-4.1992 NYSE -0.2776
-4.1992 O'NEAL -0.2997
-4.1992 OAKS -0.3010
-4.1992 OBAMA -0.3008
-4.1992 OBSERVATORY -0.2997
-3.8981 OCCASSION -0.2776
-2.8981 OCCUR -0.2776
-1.8769 OF -0.2537
-4.1992 OFFENCES -0.3002
-4.1992 OFFICE -0.2953
-4.1992 OFFICIAL -0.3009
-4.1992 OFFS -0.2994
-4.1992 OFTEN -0.2994
-4.1992 OLD -0.3005
-3.3541 OLDEST -0.3007
-4.1992 OLYMPIC -0.3009
-3.5002 OLYMPICS -0.2768
-3.5971 OMARION -0.3000
-2.5971 ON -0.2445
-4.1992 ONCE -0.3010
-4.1992 ONLY -0.3008
-3.8981 OPEN -0.2776
-4.1992 OPENED -0.2776
-4.1992 OPERA -0.2971
-4.1992 OPERAS -0.2977
-4.1992 OPERATE -0.2776
-4.1992 OPERATES -0.2886
-4.1992 OPERATING -0.3010
-4.1992 OPERATORS -0.3010
-4.1992 OPPENHEIMER'S -0.3010
-3.2961 OR -0.3006
-4.1992 ORACLE -0.3008
-4.1992 ORBITAL -0.3009
-3.5971 ORDER -0.2952
-4.1992 ORDERS -0.2971
-4.1992 OREO -0.3010
-3.8981 ORIENTATION -0.2776
-4.1992 ORIGIN -0.2952
-3.8981 ORIGINAL -0.3008
-4.1992 ORIGINATE -0.2776
-4.1992 ORIGINATED -0.2982
-4.1992 OSCAR -0.3009
-3.2449 OTHER -0.2773
-3.5971 OUT -0.2715
-3.8981 OVER -0.2887
-4.1992 OVERALL -0.2953
-4.1992 OVERGROUND -0.3010
-3.5971 OWN -0.2776
-3.7220 OWNED -0.2776
-4.1992 OWNER -0.2952
-3.8981 OWNS -0.3010
-3.7220 OXFORD -0.2764
-4.1992 OZ -0.2776
-4.1992 PABLO -0.3010
-4.1992 PACKS -0.2994
-4.1992 PAINTED -0.2886
-3.7220 PANASONIC -0.3009
-3.8981 PANETTIERE -0.2999
-3.8981 PARENT -0.3008
-3.4210 PARENTS -0.2713
-4.1992 PARENTS’ -0.3009
-4.1992 PARIS -0.2776
-3.5971 PARK -0.2714
-4.1992 PARKER -0.3010
-4.1992 PARKER'S -0.3010
-4.1992 PART -0.2952
-4.1992 PARTICIPATE -0.2982
-3.8981 PARTICIPATED -0.2982
-3.8981 PARTICLES -0.2977
-4.1992 PARTNER -0.2997
-3.8981 PARTY -0.2967
-4.1992 PASS -0.2776
-4.1992 PASSENGER -0.3010
-4.1992 PATIENT -0.3008
-4.1992 PAUWEL -0.3010
-4.1992 PAYNE -0.3010
-4.1992 PEABODY -0.3008
-4.1992 PEAK -0.3010
-4.1992 PEANUTS -0.2776
-2.9439 PEOPLE -0.2900
-4.1992 PER -0.3004
-4.1992 PERCENT -0.3010
-3.7220 PERFORMANCES -0.2954
-3.8981 PERFORMED -0.2775
-3.5971 PERIOD -0.2672
-4.1992 PERIODICALS -0.2999
-3.1200 PERSON -0.2734
-4.1992 PERSONALLY -0.3010
-4.1992 PESO -0.2776
-4.1992 PET -0.2776
-4.1992 PETS -0.2971
-4.1992 PHI -0.3010
-3.7220 PHILADELPHIA -0.2775
-4.1992 PHILLIES -0.3005
-4.1992 PHONE -0.3008
-4.1992 PICASSO -0.2776
-4.1992 PICTURES -0.2776
-4.1992 PIERCE -0.3010
-4.1992 PILSNER -0.3010
-4.1992 PISTA -0.2776
-3.8981 PISTON -0.3010
-4.1992 PITTSBURGH -0.3010
-3.5002 PLACE -0.2677
-3.8981 PLACES -0.2983
-4.1992 PLANTS -0.2776
-4.1992 PLASTIKI -0.3010
-4.1992 PLATE -0.2952
-2.9439 PLAY -0.2719
-4.1992 PLAYABLE -0.2982
-3.8981 PLAYED -0.2982
-3.5971 PLAYERS -0.2970
-4.1992 PLAYING -0.2997
-4.1992 PLAYS -0.2997
-3.8981 POINT -0.2952
-4.1992 POLARIS -0.2776
-4.1992 POLIO -0.3010
-4.1992 POND -0.3009
-3.7220 POPULATION -0.2924
-4.1992 PORGY -0.3002
-4.1992 PORTRAYED -0.3010
-3.7220 POSITION -0.2994
-4.1992 POSITON -0.2994
-4.1992 POSITRON -0.2776
-4.1992 POST -0.3009
-4.1992 POTTER -0.3002
-4.1992 POWERS -0.2994
-3.8981 POWERSHOT -0.3010
-4.1992 PRACTICES -0.2952
-4.1992 PRACTITIONERS -0.2952
-4.1992 PRAIRIE -0.3010
-4.1992 PREFERRED -0.3009
-4.1992 PRESENT -0.2776
-3.8981 PRESENTED -0.2644
-4.1992 PRESIDED -0.3010
-3.7220 PRESIDENT -0.2704
-4.1992 PRESIDENTIAL -0.3010
-4.1992 PRESS -0.2776
-3.8981 PRICE -0.2952
-4.1992 PRINCETOWN -0.3010
-4.1992 PRIVATE -0.2776
-4.1992 PROCESSOR -0.2971
-3.5971 PRODUCE -0.2776
-3.3541 PRODUCED -0.2636
-4.1992 PRODUCER -0.2997
-4.1992 PRODUCES -0.3005
-4.1992 PRODUCTION -0.2776
-4.1992 PRODUCTIONS -0.2971
-3.8981 PRODUCTS -0.2986
-3.4210 PROFESSOR -0.2755
-3.8981 PROGRAM -0.2715
-3.8981 PROGRAMMING -0.2774
-4.1992 PROGRAMS -0.3002
-3.8981 PROJECT -0.2770
-4.1992 PROPELLED -0.2776
-4.1992 PROPERTIES -0.3009
-4.1992 PROPOSED -0.2886
-3.7220 PROSTATE -0.3009
-4.1992 PROSTHETIC -0.3010
-4.1992 PROTECTED -0.3009
-4.1992 PROTEIN -0.2953
-4.1992 PROTON -0.2776
-4.1992 PROVINCE, -0.3002
-4.1992 PRYDE -0.2999
-4.1992 PSYCHIATRIST -0.2776
-3.8981 PSYCHOLOGY -0.2776
-3.5002 PUBLIC -0.3007
-4.1992 PUBLISH -0.2776
-3.8981 PUBLISHED -0.2776
-4.1992 PUBLISHES -0.2886
-4.1992 PUERTA -0.3010
-4.1992 QUALIFICATION -0.2994
-4.1992 QUARK -0.2776
-4.1992 QUARTZITE -0.2776
-4.1992 QUEEN -0.3010
-4.1992 QUINOA -0.2776
-3.8981 RADIO -0.3009
-3.8981 RAILWAY -0.2776
-3.8981 RANK -0.2971
-4.1992 RATED -0.2776
-4.1992 RATES -0.2997
-4.1992 RATIFIED -0.2776
-4.1992 RAVENS -0.2776
-4.1992 RAY -0.3010
-4.1992 REACH -0.2776
-4.1992 REAL -0.3010
-3.8981 RECEIVE -0.2977
-4.1992 RECEPTION -0.2977
-4.1992 RECORD -0.3010
-4.1992 RECORDED -0.2776
-3.8981 RED -0.3010
-4.1992 REFEREED -0.2776
-4.1992 REGIONS -0.2994
-3.8981 REHAB -0.3010
-4.1992 RELATIONSHIP -0.2952
-4.1992 RELEASE -0.3009
-3.5002 RELEASED -0.2776
-3.5971 RELIGION -0.2699
-3.8981 RELIGIONS -0.3010
-4.1992 RELIGIOUS -0.3009
-4.1992 RELOADED -0.3010
-3.1992 REMEMBER -0.3002
-4.1992 RENAISSANCE -0.3010
-4.1992 REPORT -0.2776
-4.1992 REPRESENT -0.2776
-4.1992 RESTAURANTS -0.2776
-4.1992 RESTORATION -0.2952
-4.1992 RESTRICTION -0.2999
-4.1992 RETAIL -0.3010
-4.1992 RETIRE -0.2776
-4.1992 REVENUE -0.2776
-4.1992 RICK -0.3010
-3.8981 RIDE -0.2881
-4.1992 RIDES -0.3005
-4.1992 RIGHT -0.3000
-4.1992 RIJKSMUSEUM -0.3010
-4.1992 RITZ -0.3010
-4.1992 RIVAL -0.2776
-4.1992 RIVER -0.2776
-4.1992 RNA -0.3010
-4.1992 ROAD -0.3010
-3.7220 ROBERT -0.3009
-4.1992 ROBIN -0.3010
-4.1992 ROBSON -0.2776
-3.3541 ROCK -0.2896
-4.1992 ROE -0.3010
-3.8981 ROLE -0.2982
-4.1992 ROLES -0.2971
-4.1992 ROLL -0.3009
-4.1992 ROLLER -0.3010
-3.8981 ROLLING -0.3010
-4.1992 ROLLS -0.3010
-4.1992 ROLLS-ROYCE -0.3010
-4.1992 ROMAN -0.3010
-3.5971 RON -0.3009
-4.1992 ROOMMATE -0.2776
-4.1992 ROUGE -0.3010
-4.1992 ROUTE -0.3010
-4.1992 ROY -0.3010
-3.7220 ROYAL -0.3009
-4.1992 ROYCE -0.3010
-4.1992 RUDI -0.3010
-4.1992 RUN -0.3010
-4.1992 RUNAWAYS -0.3009
-4.1992 RUNNING -0.2776
-3.8981 RUNTIME -0.2762
-4.1992 RUNWAYS -0.2994
-4.1992 RUPEE -0.2776
-4.1992 RUPIAH -0.2776
-4.1992 RUSH -0.2776
-4.1992 RUSSELL -0.3008
-4.1992 RYE -0.2999
-4.1992 SABATINI -0.3009
-4.1992 SACRED -0.3010
-4.1992 SAMUEL -0.3010
-3.5971 SAN -0.3009
-4.1992 SANDMAN -0.2953
-4.1992 SARA -0.3010
-3.8981 SARAH -0.3010
-4.1992 SAVEALOT -0.3006
-4.1992 SAYS -0.3010
-3.1578 SCHOOL -0.2703
-3.7220 SCHOOLS -0.2964
-3.5971 SCIENCE -0.2714
-4.1992 SCIENTIFIC -0.3000
-4.1992 SCISSORHANDS -0.2776
-4.1992 SCOBLE -0.3010
-4.1992 SCOPE -0.3008
-4.1992 SCORED -0.2982
-4.1992 SCOUTS -0.2952
-4.1992 SCRABBLE -0.2776
-4.1992 SCREENPLAY -0.2997
-4.1992 SCRIPT -0.2776
-4.1992 SDHC -0.3009
-4.1992 SEA -0.3010
-4.1992 SEABISCUIT -0.2776
-4.1992 SEAN -0.3009
-3.7220 SEASON -0.2776
-4.1992 SEASONS -0.2952
-4.1992 SECOND -0.3009
-4.1992 SECRETARIAT -0.3008
-4.1992 SECURITY -0.3008
-4.1992 SEDAN -0.2982
-4.1992 SEE -0.3010
-3.4210 SEINFELD -0.2751
-3.8981 SEISHINDO -0.3010
-4.1992 SENATORS -0.2952
-4.1992 SENSOR -0.2776
-4.1992 SEPTEMBER -0.3010
-4.1992 SERGE -0.3008
-3.2961 SERIES -0.2546
-4.1992 SERVE -0.2776
-3.2961 SESAME -0.3007
-3.8981 SET -0.2764
-4.1992 SETTING -0.2952
-4.1992 SETTLERS -0.2952
-4.1992 SEXUAL -0.3010
-4.1992 SHAKESPEARE -0.3007
-4.1992 SHAQUILLE -0.3010
-4.1992 SHARKS -0.2776
-4.1992 SHEEN -0.3010
-4.1992 SHEPARD -0.3010
-3.8981 SHIP -0.2951
-3.8981 SHIPS -0.2995
-3.8981 SHOW -0.3007
-3.5002 SHOWS -0.2937
-4.1992 SHUTTLE -0.3010
-4.1992 SIBLING -0.3008
-4.1992 SIBLING'S -0.3009
-4.1992 SIBLING’S -0.3009
-4.1992 SIDE -0.3010
-4.1992 SIGMA -0.3010
-4.1992 SIGMOD -0.3006
-4.1992 SIGNIFICANT -0.3008
-4.1992 SIKHISM -0.2776
-4.1992 SILICON -0.2776
-4.1992 SILVER -0.3010
-4.1992 SIMS -0.2997
-4.1992 SINATRA -0.3010
-3.8981 SINCE -0.2989
-4.1992 SING -0.3010
-4.1992 SINGAPORE -0.3009
-4.1992 SINGING -0.3009
-4.1992 SINGLE -0.3010
-4.1992 SINGLES -0.3010
-4.1992 SINKING -0.2952
-4.1992 SITE -0.2776
-4.1992 SITES -0.2982
-4.1992 SIX -0.3010
-4.1992 SIXTH -0.3009
-4.1992 SIZES -0.2994
-3.8981 SKI -0.3007
-4.1992 SKILL -0.2776
-4.1992 SKYWALKER -0.3007
-4.1992 SLOGAN -0.2952
-4.1992 SMARTPHONES -0.2776
-4.1992 SMITH -0.3008
-4.1992 SNOWSHOE -0.3009
-4.1992 SOAKER -0.2776
-4.1992 SOCCER -0.3009
-4.1992 SOCIAL -0.3010
-4.1992 SOCRATES -0.2776
-3.8981 SOFTWARE -0.3002
-4.1992 SOLD -0.2776
-4.1992 SOLO -0.2776
-3.0231 SOME -0.3003
-3.8981 SOMEONE -0.3010
-3.7220 SONG -0.2714
-3.8981 SONGS -0.2975
-3.8981 SONIC -0.2886
-4.1992 SOPRANO -0.2982
-4.1992 SOUL -0.3010
-4.1992 SOURCE -0.3010
-3.8981 SOX -0.2776
-3.5002 SPACE -0.2713
-3.8981 SPACECRAFT -0.3009
-4.1992 SPEARS' -0.3010
-4.1992 SPECIALIZE -0.2982
-4.1992 SPECIALIZED -0.3010
-3.5971 SPECIES -0.2919
-4.1992 SPEECH -0.3010
-3.7220 SPEED -0.2952
-3.8981 SPEEDS -0.2966
-4.1992 SPEND -0.2982
-3.8981 SPIN -0.2952
-4.1992 SPLASH -0.3009
-4.1992 SPOCK -0.2776
-3.5971 SPOKEN -0.2740
-4.1992 SPONSOR -0.2776
-4.1992 SPONSORS -0.2776
-3.7220 SPORT -0.2746
-4.1992 SPORTING -0.3010
-4.1992 SPORTS -0.3008
-3.7220 SPOUSE -0.2774
-4.1992 SPURS -0.3005
-3.7220 ST. -0.3009
-4.1992 STADIUM -0.3005
-4.1992 STAGES -0.2952
-4.1992 STANDARD -0.3007
-4.1992 STAR -0.3010
-4.1992 STARBUCKS -0.3006
-4.1992 STARRING -0.3008
-3.5971 START -0.3009
-4.1992 STARTED -0.2776
-3.5002 STATE -0.2967
-4.1992 STATES -0.3010
-4.1992 STAY -0.2776
-4.1992 STEELERS -0.2776
-4.1992 STEPHEN -0.3010
-4.1992 STIRRERS -0.2776
-4.1992 STONES -0.3010
-4.1992 STONES' -0.3010
-3.5002 STOP -0.2775
-4.1992 STORIES -0.3002
-4.1992 STORM -0.2982
-4.1992 STORMS -0.3003
-4.1992 STORY -0.2952
-4.1992 STOVE -0.3010
-4.1992 STRAIGHT -0.3002
-4.1992 STRAIGHT-4 -0.3010
-4.1992 STRATUS -0.3010
-3.1578 STREET -0.2663
-4.1992 STRODE -0.2997
-4.1992 STROKE -0.2776
-4.1992 STRONGEST -0.3010
-4.1992 STRUCTURES -0.2971
-4.1992 STUDENT -0.3010
-4.1992 STUDENTS -0.2952
-4.1992 STUDIED -0.3010
-4.1992 STUDIOS -0.3010
-4.1992 STUFFED -0.3010
-4.1992 STUFFING -0.3008
-4.1992 STUMPJUMPER -0.2776
-4.1992 STYLE -0.2776
-4.1992 STYLIST -0.2776
-3.8981 SUB-TYPES -0.2952
-4.1992 SUBCLASSES -0.2952
-4.1992 SUBDISCIPLINES -0.2952
-3.8981 SUBJECT -0.2952
-4.1992 SUBMARINE -0.2776
-4.1992 SUBMARINES -0.2776
-4.1992 SUBSTANCS -0.3002
-3.7220 SUMMER -0.3009
-4.1992 SUN -0.2776
-4.1992 SUNNI -0.3010
-4.1992 SUPERMAN -0.2776
-4.1992 SUPPLIER -0.2776
-4.1992 SUPPORTED -0.3006
-4.1992 SUPPOSED -0.3000
-4.1992 SUPREME -0.3009
-3.8981 SURVIVAL -0.3009
-4.1992 SURVIVED -0.2886
-4.1992 SWEDISH -0.3010
-4.1992 SYDNEY -0.2982
-4.1992 SYMBOL -0.2997
-4.1992 SYMPTOM -0.2952
-3.8981 SYMPTOMS -0.2952
-3.7220 SYPHILIS -0.2776
-4.1992 SYSTEM -0.2994
-4.1992 T -0.3009
-4.1992 T-38 -0.3010
-4.1992 TAEKWONDO -0.3010
-4.1992 TAGLIABLOG -0.2982
-4.1992 TAHINA -0.2776
-4.1992 TAI -0.3010
-3.7220 TAKE -0.2773
-3.8981 TALK -0.2770
-3.4210 TALL -0.2913
-4.1992 TALON -0.2776
-4.1992 TAMAGAWA -0.3010
-4.1992 TAMORA -0.3010
-3.7220 TARGET -0.3002
-4.1992 TAUGHT -0.2985
-3.8981 TEA -0.2715
-3.8981 TEACHER -0.2776
-4.1992 TEACHER'S -0.3009
-3.3541 TEAM -0.2711
-3.7220 TEAMS -0.2962
-4.1992 TECHNIQUE -0.2994
-4.1992 TECHVIBES -0.3010
-4.1992 TEENAGE -0.3010
-4.1992 TELESCOPE -0.2776
-4.1992 TELESCOPES -0.2994
-4.1992 TELEVISION -0.3009
-4.1992 TEMPELHOF -0.3010
-3.8981 TEMPERATURE -0.2924
-4.1992 TENNIS -0.3005
-4.1992 TEST -0.3009
-4.1992 TEXTILES -0.2977
-4.1992 TEXTURE -0.2952
-1.5488 THE -0.2631
-4.1992 THEATER -0.2776
-3.7220 THEIR -0.3009
-4.1992 THEME -0.3009
-2.6806 THERE -0.2711
-4.1992 THINKER -0.3008
-3.8981 THIRD -0.3009
-2.9204 THIS -0.3001
-4.1992 THORPE -0.3005
-3.8981 THOUSAND -0.3010
-4.1992 THREE -0.3010
-4.1992 THRONES -0.3010
-3.1578 TIME -0.2621
-4.1992 TIMES -0.2776
-3.5002 TITANIC -0.2767
-3.5971 TITLE -0.2943
-2.6428 TO -0.2585
-4.1992 TOKYU -0.3010
-4.1992 TOLKEIN -0.3009
-4.1992 TOMKAT -0.2776
-4.1992 TOP -0.3010
-3.8981 TOPICS -0.2977
-3.7220 TORONTO -0.3009
-4.1992 TORRES -0.3008
-4.1992 TOSTITOS -0.3008
-4.1992 TOUR -0.3009
-4.1992 TOWER -0.2776
-4.1992 TOWERS -0.3009
-3.2961 TOWN -0.2930
-3.8981 TOY -0.2776
-4.1992 TRACKS -0.3002
-4.1992 TRADED -0.3006
-4.1992 TRAIN -0.2977
-4.1992 TRAINS -0.2776
-4.1992 TRANSFORMERS -0.3009
-4.1992 TRANSMISSION -0.2952
-4.1992 TRANSMITTED -0.2776
-3.8981 TRANSPORTATION -0.2971
-3.7220 TRAVEL -0.2776
-4.1992 TRAVELS -0.3009
-4.1992 TREAT -0.2776
-4.1992 TREATMENTS -0.2977
-3.5971 TRIP -0.2776
-4.1992 TRISTAN -0.3002
-4.1992 TRUE -0.2952
-4.1992 TRYPTOPHAN -0.2776
-4.1992 TUNGSTEN -0.2982
-4.1992 TURTLES -0.2776
-4.1992 TUTANKHAMUN -0.3008
-3.2961 TV -0.3005
-4.1992 TX1 -0.3009
-3.4210 TYPE -0.2952
-3.4210 TYPES -0.2936
-4.1992 TYUTIN -0.3005
-4.1992 UEFA -0.2776
-4.1992 UK -0.3009
-4.1992 ULTIMATE -0.3009
-4.1992 ULURU -0.3009
-3.7220 UNDER -0.2644
-4.1992 UNDERGRADUATE -0.3008
-4.1992 UNESCO -0.3009
-4.1992 UNFORTUNATE -0.3010
-4.1992 UNION -0.2776
-3.7220 UNITED -0.3009
-3.8981 UNITS -0.2994
-4.1992 UNIVERSAL -0.3010
-4.1992 UNIVERSITY -0.2952
-4.1992 UNIVERSITY'S -0.3010
-3.8981 UP -0.2982
-4.1992 URQUELL -0.3009
-3.4210 US -0.3007
-3.8981 USA -0.3006
-4.1992 USA_S -0.3008
-3.1578 USE -0.2644
-3.7220 USED -0.2762
-3.5002 USS -0.3009
-4.1992 USUALLY -0.3009
-4.1992 UTAH -0.2776
-3.8981 V. -0.3010
-3.5002 VACATION -0.2771
-4.1992 VACCINE -0.2776
-4.1992 VANCOUVER -0.3009
-4.1992 VERY -0.2999
-4.1992 VICE -0.3009
-4.1992 VICENTE -0.2776
-4.1992 VICTORIA -0.3009
-4.1992 VII -0.3010
-4.1992 VINCI -0.2776
-3.5971 VISIT -0.2641
-3.5971 VISITED -0.2999
-4.1992 VISITORS -0.2994
-4.1992 VISITS -0.2994
-4.1992 VOICE -0.2982
-4.1992 VOLTAGE -0.2952
-4.1992 VS. -0.3010
-4.1992 WADE -0.3005
-4.1992 WALDEN -0.3010
-4.1992 WALMART -0.3009
-4.1992 WALTER -0.3010
-3.8981 WANT -0.3000
-4.1992 WAR -0.2776
-2.1200 WAS -0.2823
-3.8981 WASHINGTON -0.3010
-4.1992 WATER -0.2776
-4.1992 WBA -0.3009
-4.1992 WEAR -0.2776
-4.1992 WEBSITE -0.2953
-3.7220 WEDDING -0.2775
-4.1992 WELLAND -0.2776
-3.8981 WELLS -0.3010
-2.7842 WERE -0.2811
-4.1992 WESTERN -0.3010
-4.1992 WESTMINSTER -0.3009
-1.5577 WHAT -0.2705
-4.1992 WHAT'S -0.2886
-2.3071 WHEN -0.2827
-2.6677 WHERE -0.2786
-3.7220 WHICH -0.3007
-4.1992 WHITE -0.3010
-2.1422 WHO -0.2800
-4.1992 WHOM -0.2953
-4.1992 WILLIAM -0.3010
-4.1992 WILLIAMS -0.3009
-4.1992 WILSON -0.2776
-3.2449 WIN -0.2598
-4.1992 WIND -0.3010
-4.1992 WIND-UP -0.3009
-4.1992 WINNERS -0.2977
-4.1992 WINS -0.3002
-4.1992 WINTER -0.3009
-4.1992 WIRE -0.2776
-3.5971 WITH -0.2984
-4.1992 WITHIN -0.3009
-4.1992 WIZARD -0.2952
-4.1992 WIZARDS -0.2776
-3.2961 WON -0.2642
-4.1992 WONDERFUL -0.3010
-4.1992 WOODROW -0.3010
-4.1992 WOODY -0.3010
-4.1992 WORD -0.3010
-3.8981 WORK -0.3007
-3.8981 WORKED -0.2999
-4.1992 WORKING -0.2999
-3.5971 WORKS -0.2720
-3.4210 WORLD -0.3008
-4.1992 WORSHIP -0.3010
-4.1992 WORST -0.3008
-3.8981 WORTH -0.2776
-3.5971 WOULD -0.2985
-4.1992 WRANGLER -0.3009
-4.1992 WRIGHT -0.3009
-4.1992 WRINKLE -0.2982
-3.8981 WRITE -0.2776
-4.1992 WRITES -0.2886
-4.1992 WRITTEN -0.2999
-3.7220 WROTE -0.2871
-4.1992 WXPN -0.2776
-4.1992 X -0.2776
-3.7220 X-MEN -0.2761
-2.8189 YEAR -0.2574
-3.8981 YEN -0.2776
-4.1992 YIP -0.3010
-4.1992 YORI -0.3010
-3.7220 YORK -0.2774
-4.1992 YOSEMITE -0.3010
-2.2354 YOU -0.2680
-4.1992 YOUKILIS -0.2999
-2.2354 YOUR -0.2962
-4.1992 ZONE -0.2953
-4.1992 ZOO -0.2776
-4.1992 ZOOLOGICAL -0.3009
-4.1992 ﻿WHO -0.2953

\2-grams:
-0.3010 "I'LL BE -0.2218
-0.3010 #477 </s> -0.3010
-1.1761 'S AREA -0.2139
-1.4771 'S BIRTHDAY 0.0000
-1.4771 'S INDUSTRY 0.0000
-1.4771 'S MAJOR -0.2218
-1.1761 'S MUSICAL -0.1249
-1.4771 'S OPERATING 0.0000
-1.4771 'S ORIGINAL -0.1761
-1.4771 'S PLACE -0.2553
-1.4771 'S RANK -0.1761
-1.1761 'S RELIGION -0.1761
-1.4771 'S RUNTIME -0.1761
-1.4771 'S SUPPLIER 0.0000
-0.4771 1 </s> -0.3010
-0.7782 1 FOUND 0.0000
-0.3010 101 BELONG 0.0000
-0.3010 11 MISSION 0.0000
-0.3010 11TH </s> -0.3010
-0.3010 12 MISSION 0.0000
-0.3010 13 GOING 0.0000
-0.3010 1896 SUMMER 0.0000
-0.3010 1904 TORONTO -0.2218
-0.6021 1948 ON -0.2900
-0.6021 1948 SUMMER 0.0000
-0.3010 1964 UNITED -0.2218
-0.3010 1967 ISSUE -0.1761
-0.3010 1968 </s> -0.3010
-0.3010 1973 FA 0.0000
-0.3010 1981 WHAT -0.2995
-0.3010 1990S </s> -0.3010
-0.3010 1992 ATLANTIC 0.0000
-0.3010 1993 ON -0.2900
-0.3010 1ST WORLD -0.2632
-0.6021 2 FAST 0.0000
-0.6021 2 FURIOUS 0.0000
-0.3010 2000 </s> -0.3010
-0.3010 2002 </s> -0.3010
-0.6021 2003 </s> -0.3010
-0.6021 2003 CRICKET 0.0000
-0.6021 2004 SUMMER 0.0000
-0.6021 2004 TO -0.2950
-0.3010 2005 ATLANTIC 0.0000
-0.4771 2006 FIFA 0.0000
-0.7782 2006 WINTER 0.0000
-0.3010 2007 HONDA -0.1761
-0.6021 2008 HYUNDAI 0.0000
-0.6021 2008 SEASON 0.0000
-0.3010 2009 CONCERT -0.1761
-0.4260 2010 </s> -0.3010
-0.9031 2010 FERRARI 0.0000
-0.6021 2011 </s> -0.3010
-0.6021 2011 HONDA -0.1761
-0.3010 2012 JEEP 0.0000
-0.3010 22ND PRESIDENT -0.2218
-0.3010 28 DAYS 0.0000
-0.3010 30 </s> -0.3010
-0.3010 4 CYLINDER 0.0000
-0.6021 5 DIGITS 0.0000
-0.9031 5 OF -0.2632
-0.9031 5 PASS 0.0000
-0.3010 500 IN -0.2968
-0.3010 52 TRAINS 0.0000
-0.3010 6 ON -0.2109
-0.3010 8 MILE 0.0000
-0.3010 9/11 </s> -0.3010
-2.9196 <s> AT -0.2762
-2.9196 <s> DOES -0.2248
-3.2206 <s> DURING -0.2430
-2.9196 <s> FOR -0.2917
-1.0031 <s> HOW 0.0000
-2.1792 <s> IN -0.2772
-3.2206 <s> IS -0.1503
-3.2206 <s> ON -0.2956
-3.2206 <s> OVER -0.1761
-2.9196 <s> SINCE 0.0000
-3.2206 <s> TO -0.2950
-0.5943 <s> WHAT -0.0069
-3.2206 <s> WHAT'S 0.0000
-1.3818 <s> WHEN -0.0474
-1.7021 <s> WHERE -0.0126
-2.9196 <s> WHICH -0.1249
-1.1676 <s> WHO -0.0038
-3.2206 <s> ﻿WHO 0.0000
-2.0253 A 2007 0.0000
-2.0253 A 2008 -0.1761
-2.0253 A 2010 -0.2430
-2.0253 A 2011 -0.1761
-2.0253 A 2012 0.0000
-2.0253 A 4 0.0000
-2.0253 A AA 0.0000
-2.0253 A BEAVER 0.0000
-2.0253 A BIANCHI 0.0000
-2.0253 A CANON -0.1249
-2.0253 A CESSNA 0.0000
-2.0253 A CHAPTER 0.0000
-1.3263 A CHILD -0.0969
-1.7243 A COLLEGE -0.2109
-2.0253 A COLLINS 0.0000
-2.0253 A DOWN 0.0000
-2.0253 A DREAM -0.2553
-2.0253 A FIFTH -0.1761
-2.0253 A FORD -0.2430
-2.0253 A G.H. 0.0000
-2.0253 A GLOSTER 0.0000
-2.0253 A GRAMMY -0.1761
-2.0253 A HEART 0.0000
-2.0253 A HORSE 0.0000
-2.0253 A HUB 0.0000
-2.0253 A LEADING 0.0000
-2.0253 A MEMBER 0.0000
-2.0253 A MOCKINGBIRD 0.0000
-2.0253 A MULTIPLAYER 0.0000
-2.0253 A PANASONIC -0.2218
-2.0253 A PART 0.0000
-2.0253 A POSITRON 0.0000
-2.0253 A PRAIRIE 0.0000
-2.0253 A PROFESSOR -0.1761
-2.0253 A PROTECTED 0.0000
-2.0253 A PROTON 0.0000
-2.0253 A RIGHT 0.0000
-2.0253 A ROAD 0.0000
-2.0253 A ROLLS 0.0000
-2.0253 A SERIES -0.2730
-2.0253 A STRAIGHT-4 0.0000
-2.0253 A STROKE 0.0000
-2.0253 A SYMPTOM 0.0000
-2.0253 A THOUSAND -0.1761
-2.0253 A US -0.2632
-2.0253 A VACATION -0.2553
-2.0253 A WRINKLE 0.0000
-2.0253 A YEAR -0.2730
-0.3010 A75 HAVE -0.2964
-0.3010 AA ALKALINE 0.0000
-0.3010 AARON INDUCTED 0.0000
-0.4771 ABBEY </s> -0.3010
-0.7782 ABBEY OF -0.3000
-0.3010 ABNORMAL PSYCHOLOGY -0.1761
-1.6232 ABOUT 9/11 0.0000
-1.0212 ABOUT </s> -0.3010
-1.6232 ABOUT ART -0.2218
-0.7782 ABOUT IT -0.0512
-1.6232 ABOUT LEONARDO 0.0000
-1.6232 ABOUT MATHEMATICS 0.0000
-1.3222 ABOUT THEIR -0.1249
-1.0212 ABOUT THIS -0.1526
-0.3010 ABREVIATION FOR -0.2964
-0.3010 ABUSED </s> -0.3010
-0.3010 ABUSING COCAINE 0.0000
-0.3010 ACADEMY AWARD -0.2041
-0.3010 ACCENT GLS 0.0000
-0.3010 ACQUAITANCE CIRCLE 0.0000
-0.3590 ACTIVITY OCCUR 0.0000
-1.2041 ACTIVITY WITH -0.1761
-0.3010 ACTORS ARE -0.2501
-0.3010 ADAMS PLAY -0.2218
-0.3010 ADAPTATIONS OF -0.2460
-0.3010 ADAPTED FROM -0.2341
-0.6021 ADDRESS </s> -0.3010
-0.6021 ADDRESS OF -0.2460
-0.3010 ADOLF ANDERSSEN 0.0000
-0.3010 ADRIENNE ROY 0.0000
-0.3010 ADVENTURE TIME -0.2808
-0.3010 AEROSMITH </s> -0.3010
-0.3010 AFFECTED BY -0.2747
-0.9031 AFRICA 'S -0.2711
-0.4260 AFRICA </s> -0.3010
-0.6021 AFTER THE -0.3005
-0.6021 AFTER YOU -0.2891
-0.3010 AGE TO -0.2950
-0.3010 AGNOSTIC FIGURES 0.0000
-0.3010 AHOY DEBUT 0.0000
-0.6021 AIR </s> -0.3010
-0.6021 AIR DATE -0.2218
-0.3010 AIRED </s> -0.3010
-0.3010 AIRLINES IS -0.1503
-0.7782 AIRPORT A -0.2969
-0.7782 AIRPORT HAVE -0.1792
-0.7782 AIRPORT LOCATED -0.0969
-0.3010 AIRSPEED OXFORD -0.2218
-0.3010 AKERS ON -0.2109
-0.3010 ALABAMA CURRENTLY -0.2632
-0.3010 ALAN SHEPARD 0.0000
-0.9031 ALBERTSON DIE -0.0580
-0.9031 ALBERTSON HAVE -0.1792
-0.6021 ALBERTSON WIN -0.1249
-0.3010 ALBUM </s> -0.3010
-0.6021 ALBUMS DID -0.2995
-0.6021 ALBUMS HAS -0.2935
-0.3010 ALCOHOL IS -0.2937
-0.3010 ALDRIDGE'S NUMBER -0.2218
-0.3010 ALI VS. 0.0000
-0.3010 ALKALINE BATTERY 0.0000
-0.3010 ALL TIME -0.2808
-0.4260 ALMIGHTY </s> -0.3010
-0.9031 ALMIGHTY RELEASED 0.0000
-0.3010 ALPHABET BEEN -0.2762
-0.3010 ALSO KNOWN -0.2218
-0.3010 ALTA SKI 0.0000
-0.3010 ALTITUDE OF -0.3000
-0.6021 AMENDMENT </s> -0.3010
-0.6021 AMENDMENT RATIFIED 0.0000
-0.3010 AMERICA </s> -0.3010
-0.6021 AMERICAN EAGLE 0.0000
-0.6021 AMERICAN KENNEL 0.0000
-1.0792 AN EPISODE -0.2218
-1.0792 AN INTERNAL 0.0000
-1.0792 AN OLYMPIC 0.0000
-1.0792 AN ORIENTATION -0.1761
-1.0792 AN SDHC 0.0000
-1.0792 AN UNESCO 0.0000
-1.8062 AND ARTIST 0.0000
-1.8062 AND AUTHOR 0.0000
-1.8062 AND BESS 0.0000
-1.8062 AND COLOR -0.1761
-1.8062 AND CONSTRUCTION 0.0000
-1.5051 AND COUNTRY -0.1461
-1.5051 AND COUNTY -0.1761
-1.8062 AND DAY -0.2218
-1.8062 AND FATHER 0.0000
-1.8062 AND ISOLDE 0.0000
-1.5051 AND LAST -0.2156
-1.8062 AND LONGITUDE 0.0000
-1.8062 AND MODEL -0.1761
-1.8062 AND MONTH -0.2888
-1.8062 AND ROLL 0.0000
-1.8062 AND TELEVISION 0.0000
-1.8062 AND THE -0.3005
-1.8062 AND TOWN -0.2430
-1.8062 AND TRUE 0.0000
-0.8062 AND YEAR -0.0669
-0.3010 ANDERSSEN PLAY -0.2499
-0.3010 ANDREW FORM 0.0000
-0.3010 ANGELES DODGERS 0.0000
-0.3010 ANGELINA JOLIE'S 0.0000
-0.7782 ANGELS BY -0.1845
-0.7782 ANGELS COME -0.1249
-0.7782 ANGELS HAVE -0.1792
-0.3010 ANIMAL </s> -0.3010
-0.3010 ANIMALS ARE -0.2501
-0.3010 ANNA ZOOLOGICAL 0.0000
-0.3010 ANNIVERSARY </s> -0.3010
-0.3010 ANNUALLY </s> -0.3010
-0.3010 ANNUNCIATION </s> -0.3010
-0.3010 ANTARCTICA </s> -0.3010
-0.3010 ANTHONY PAYNE 0.0000
-0.3010 ANTILLES </s> -0.3010
-0.3010 AOL INSTANT 0.0000
-0.6021 APOLLO 11 0.0000
-0.6021 APOLLO 12 0.0000
-0.6021 APPEAR </s> -0.3010
-0.6021 APPEAR IN -0.2705
-0.7782 APPLE </s> -0.3010
-0.7782 APPLE I 0.0000
-0.7782 APPLE II -0.2430
-0.3010 APPLE, INC. -0.1761
-0.3010 APPLIED TO -0.2888
-0.6021 ARABIC ALPHABET 0.0000
-0.6021 ARABIC ARE -0.2501
-0.6021 ARCHITECTS </s> -0.3010
-0.6021 ARCHITECTS PRESENT 0.0000
-0.3010 ARCHITECTURAL STYLE 0.0000
-2.3874 ARE ADVENTURE 0.0000
-2.3874 ARE BMW'S 0.0000
-2.3874 ARE COLUMBIA 0.0000
-2.3874 ARE COMPREHENSIVE 0.0000
-2.3874 ARE DAVE 0.0000
-2.3874 ARE DRAVIDIAN 0.0000
-2.0864 ARE EQUIVALENT 0.0000
-2.3874 ARE FROM -0.2688
-2.3874 ARE GATORADE 0.0000
-2.3874 ARE GOALKEEPERS 0.0000
-1.3460 ARE IN -0.2302
-2.3874 ARE INFLUENCED -0.1761
-2.3874 ARE KNICKERBOCKERS 0.0000
-2.0864 ARE MADE -0.0580
-2.3874 ARE NICKNAMES -0.1761
-2.3874 ARE PLAYABLE 0.0000
-2.3874 ARE SACRED 0.0000
-1.2113 ARE SOME 0.0000
-2.3874 ARE SPOKEN -0.2430
-0.7061 ARE THE -0.2735
-0.9560 ARE THERE -0.0497
-2.3874 ARE TRADED 0.0000
-2.3874 ARE WITHIN 0.0000
-0.7404 AREA </s> -0.3010
-1.3424 AREA CODE -0.2218
-1.0414 AREA DOES -0.2248
-0.7404 AREA OF -0.2958
-0.3010 AREAS WERE -0.2926
-0.3010 ARIGNAR ANNA 0.0000
-0.3010 ARMORY SHOW -0.1761
-0.6021 ARMSTRONG PLAY -0.2888
-0.6021 ARMSTRONG REPRESENT 0.0000
-0.3010 ARMY HAVE -0.1792
-0.3010 ARNOLD! STOP -0.2553
-0.7782 ART DECO 0.0000
-0.7782 ART FOR -0.2964
-0.7782 ART MUSEUM 0.0000
-0.3010 ARTICLES ARE -0.2810
-0.3010 ARTIST OF -0.2632
-0.6021 ARTISTS ARE -0.2992
-0.6021 ARTISTS WORKED 0.0000
-0.6021 ARTS IS -0.3000
-0.6021 ARTS UNDER -0.2218
-1.0414 AS </s> -0.3010
-0.4973 AS A -0.2714
-1.3424 AS AN -0.2632
-1.3424 AS THEIR -0.2218
-0.3010 ASCAP FILM -0.2762
-0.3010 ASIA </s> -0.3010
-0.3010 ASPIRIN TREAT 0.0000
-0.3010 ASTRONAUTS IN -0.2376
-1.5563 AT </s> -0.3010
-1.5563 AT DISNEYLAND -0.1761
-1.5563 AT SIX 0.0000
-0.5563 AT THE -0.2897
-1.2553 AT THIS -0.2775
-1.2553 AT WHAT -0.3000
-1.5563 AT YOUR -0.2963
-0.3010 ATHLETES HAVE -0.2964
-0.3010 ATLANTIC HURRICANE -0.2041
-0.3010 ATOMIC NUMBER -0.2499
-0.6021 ATTACK </s> -0.3010
-0.6021 ATTACK FORM 0.0000
-0.4260 ATTEND </s> -0.3010
-0.9031 ATTEND FOR -0.2964
-0.4260 ATTENDED </s> -0.3010
-0.9031 ATTENDED OXFORD -0.2218
-0.3010 ATTRACTIONS YOU -0.2915
-0.3010 AUGUST </s> -0.3010
-0.6021 AUSTRALIA </s> -0.3010
-0.6021 AUSTRALIA FOUNDED -0.0580
-0.3010 AUSTRALIAN DOLLAR -0.0792
-0.3010 AUTHOR OF -0.2632
-0.3010 AUTOMOBILES </s> -0.3010
-0.3010 AVERAGE TEMPERATURE -0.1761
-1.3010 AWARD </s> -0.3010
-1.0000 AWARD DID -0.2888
-1.3010 AWARD DOES -0.2291
-0.6990 AWARD FOR -0.2821
-1.3010 AWARD NOMINATIONS 0.0000
-1.3010 AWARD WINNERS 0.0000
-0.5051 AWARDS DID -0.2825
-1.2041 AWARDS FOR -0.2964
-0.9031 AWARDS HAS -0.2452
-0.3010 B12 </s> -0.3010
-0.3010 BABYSITTER </s> -0.3010
-0.3010 BACK" </s> -0.3010
-0.3010 BALTIMORE RAVENS 0.0000
-0.7782 BAND MASSIVE 0.0000
-0.7782 BAND RECORDED 0.0000
-0.7782 BAND YOU -0.2963
-0.3010 BARACK OBAMA 0.0000
-0.3010 BAROSAURUS LIVE -0.0872
-0.3010 BARREMIAN PERIOD -0.1761
-0.3010 BARRY HALPER 0.0000
-0.3010 BASKERVILLES </s> -0.3010
-0.3010 BATH IRON 0.0000
-0.3010 BATMAN #477 0.0000
-0.3010 BATTERY </s> -0.3010
-0.3010 BATTLE OF -0.2460
-0.3010 BAUHAUS ARCHITECTS -0.1761
-0.7782 BE BACK" 0.0000
-0.4771 BE TO -0.2825
-0.3010 BEACH DID -0.2516
-0.3010 BEARS </s> -0.3010
-0.3010 BEAVER AS -0.2808
-0.3010 BECKETT DIE -0.0580
-0.3010 BEDS DOES -0.2973
-1.2553 BEEN </s> -0.3010
-1.2553 BEEN ABOUT -0.2906
-1.2553 BEEN AT -0.1597
-1.2553 BEEN CHARGED 0.0000
-1.2553 BEEN IN -0.2705
-1.2553 BEEN INFLUENCED -0.1761
-1.2553 BEEN SET -0.1761
-1.2553 BEEN THE -0.3005
-1.2553 BEEN USED -0.1249
-0.3010 BEER IS -0.3000
-0.6021 BEERS </s> -0.3010
-0.6021 BEERS ARE -0.2501
-0.3010 BEGIN </s> -0.3010
-0.3010 BEING SOLD 0.0000
-0.3010 BELLY </s> -0.3010
-0.3010 BELONG TO -0.2698
-0.3010 BELONGS TO -0.2950
-0.3010 BELT IN -0.2968
-0.3010 BEN MAY -0.1761
-0.3010 BENGALI SCRIPT 0.0000
-0.3010 BERGKAMP PLAY -0.2632
-0.3010 BERTRAND RUSSELL 0.0000
-0.3010 BESS FIRST -0.2957
-1.0792 BEST DIRECTOR -0.2218
-1.0792 BEST DRAMA 0.0000
-1.0792 BEST FRIEND -0.1249
-1.0792 BEST MOVIE -0.2430
-1.0792 BEST NOVEL 0.0000
-1.0792 BEST SPOKEN -0.2430
-0.3010 BETTY FORD -0.2430
-0.3010 BETWEEN THE -0.3005
-0.6021 BEYONCE DO -0.2798
-0.6021 BEYONCE RECEIVE -0.1761
-0.3010 BEYOND ROBSON 0.0000
-0.3010 BIANCHI PISTA 0.0000
-0.3010 BICYCLE IS -0.2937
-0.3010 BIG DADDY 0.0000
-0.3010 BIKE </s> -0.3010
-0.3010 BILL BLASS 0.0000
-0.3010 BINDING </s> -0.3010
-0.3010 BING </s> -0.3010
-0.7782 BIRD CHRONICLE 0.0000
-0.7782 BIRD HAD -0.1761
-0.7782 BIRD OF -0.3000
-0.3010 BIRTH </s> -0.3010
-0.3010 BIRTHDAY </s> -0.3010
-0.3010 BLACK BELT 0.0000
-0.3010 BLASS LIMITED 0.0000
-0.3010 BLOCK HEADQUARTERED 0.0000
-0.6021 BLOG </s> -0.3010
-0.9031 BLOG DOES -0.2973
-0.9031 BLOG ON -0.2956
-0.3010 BLOGS ARE -0.2810
-0.3010 BLOGTALKRADIO DISTRIBUTE 0.0000
-0.3010 BLUES PLAY -0.2218
-0.3010 BMW </s> -0.3010
-0.3010 BMW'S MANUFACTURING 0.0000
-0.3010 BOATS DOES -0.2291
-0.3010 BOILING POINT 0.0000
-0.3010 BOND IN -0.2989
-0.3010 BONES HAVE -0.2964
-1.0000 BOOK </s> -0.3010
-1.0000 BOOK AS -0.1347
-1.0000 BOOK AWARD -0.2788
-1.0000 BOOK ISSUE -0.2430
-1.0000 BOOK SERIES -0.2430
-0.7782 BOOKS ABOUT -0.2906
-0.7782 BOOKS ARE -0.2501
-0.7782 BOOKS DOES -0.2291
-0.6021 BORDERS EMPLOY 0.0000
-0.6021 BORDERS FOUNDED -0.0580
-0.3736 BORN </s> -0.3010
-1.1139 BORN IN -0.2682
-0.3010 BOSON CLASS -0.2632
-0.9031 BOSTON HERALD 0.0000
-0.9031 BOSTON MOLASSES 0.0000
-0.6021 BOSTON RED 0.0000
-0.3010 BOWLING TECHNIQUE 0.0000
-0.3010 BRANCHED FROM -0.2688
-0.6021 BRANCHES DOES -0.2291
-0.6021 BRANCHES USE -0.2374
-0.3010 BRANDS DOES -0.2973
-0.3010 BREAST CANCER -0.2553
-0.3010 BREED, AND -0.2942
-0.3010 BREEDS ARE -0.2810
-0.3010 BREWS PAUWEL 0.0000
-0.3010 BRIDGE </s> -0.3010
-0.3010 BRIE CHEESE 0.0000
-0.6021 BRITISH ARCHITECTS -0.1761
-0.6021 BRITISH LOCOMOTIVE 0.0000
-0.3010 BRITNEY SPEARS' 0.0000
-0.6021 BROADCAST </s> -0.3010
-0.6021 BROADCAST START -0.2430
-0.3010 BROADCASTS DOES -0.2973
-0.3010 BROKEN </s> -0.3010
-0.3010 BROTHER’S BIRTHDAY 0.0000
-0.7782 BROWN </s> -0.3010
-0.7782 BROWN COACH -0.2430
-0.7782 BROWN RECEIVE -0.1761
-0.3979 BRUCE ALMIGHTY 0.0000
-1.0000 BRUCE LEE -0.1761
-0.3010 BRUT </s> -0.3010
-0.3010 BUDGET FOR -0.2964
-0.3010 BUILDINGS WERE -0.2926
-0.7782 BUILT </s> -0.3010
-0.7782 BUILT BY -0.2881
-0.7782 BUILT THE -0.2986
-0.3010 BULLS </s> -0.3010
-0.3010 BURIED </s> -0.3010
-0.3010 BUS OPERATORS 0.0000
-0.3010 BUSES TO -0.2950
-0.6021 BUT DID -0.2995
-0.6021 BUT DIDN'T 0.0000
-0.3010 BUTANE </s> -0.3010
-0.6284 BY </s> -0.3010
-1.5315 BY BATH 0.0000
-1.5315 BY HURRICANE -0.2553
-1.2304 BY IN -0.2968
-1.5315 BY LEAD 0.0000
-1.5315 BY SOCRATES 0.0000
-1.2304 BY THE -0.2996
-1.5315 BY THIS -0.2653
-0.3010 C. </s> -0.3010
-0.3010 CAJUN DISHES 0.0000
-0.6021 CALIFORNIA </s> -0.3010
-0.6021 CALIFORNIA GULL 0.0000
-0.6021 CAMERAS ARE -0.2501
-0.6021 CAMERAS TAKE -0.2218
-0.3010 CAN PLAY -0.2888
-0.3010 CANADIAN DOLLAR -0.1461
-0.3010 CANADIENS </s> -0.3010
-0.3010 CANASTA </s> -0.3010
-0.6990 CANCER </s> -0.3010
-1.0000 CANCER ARE -0.2501
-1.0000 CANCER CENTERS 0.0000
-1.0000 CANCER KNOWN -0.2218
-0.7782 CANON DIGITAL 0.0000
-0.4771 CANON POWERSHOT 0.0000
-0.3010 CAPACITY OF -0.2820
-0.3010 CAPE MAY -0.1761
-0.3010 CAPRI SUN 0.0000
-0.6021 CAR </s> -0.3010
-1.2041 CAR COLLECTION 0.0000
-1.2041 CAR TALK -0.1761
-0.9031 CAR YOU -0.2963
-0.3010 CARD </s> -0.3010
-0.3010 CARDINALS </s> -0.3010
-0.3010 CARDIOLOGY </s> -0.3010
-0.3010 CARDS DO -0.1091
-0.4260 CAREER </s> -0.3010
-0.9031 CAREER BEGIN 0.0000
-0.3010 CARLISLE COACH -0.2430
-0.3010 CARNEGIE MELLON 0.0000
-0.3010 CARS ARE -0.2810
-0.3010 CASES HAVE -0.2869
-0.3010 CAST MEMBERS 0.0000
-0.3010 CASTING DIRECTOR -0.2218
-0.3010 CATAN </s> -0.3010
-0.3010 CATCHER IN -0.2376
-0.6021 CATEGORY DOES -0.2291
-0.6021 CATEGORY OF -0.3000
-0.3010 CATHOLICISM </s> -0.3010
-0.3010 CATHY LANDERS 0.0000
-0.3010 CATS </s> -0.3010
-0.3010 CAUSE LEUKEMIA 0.0000
-0.3010 CAUSES OF -0.2809
-0.3010 CAVE NATIONAL 0.0000
-0.3010 CBS EVENING 0.0000
-0.3010 CELEBRITIES HAVE -0.2821
-0.3010 CELLO </s> -0.3010
-0.3010 CENTER </s> -0.3010
-0.3010 CENTERS ARE -0.2992
-0.3010 CENTURY </s> -0.3010
-0.3010 CEO OF -0.3000
-0.3010 CERATOPSIA HAVE -0.1792
-0.3010 CERTIFIED AS -0.1347
-0.3010 CESSNA CITATION 0.0000
-0.3010 CHAMPION </s> -0.3010
-0.3010 CHAMPIONS </s> -0.3010
-0.3010 CHANCERY HAVE -0.2964
-0.3010 CHAPTER OF -0.3000
-0.6021 CHARACTER SAYS 0.0000
-0.6021 CHARACTER WAS -0.2974
-1.0792 CHARACTERS ARE -0.2992
-1.0792 CHARACTERS DID -0.2980
-1.0792 CHARACTERS HAVE -0.2964
-0.7782 CHARACTERS IN -0.2968
-1.0792 CHARACTERS SING 0.0000
-0.3010 CHARGE OF -0.2820
-0.3010 CHARGED WITH -0.2430
-0.6021 CHARLIE BROWN -0.2218
-0.6021 CHARLIE SHEEN 0.0000
-0.3010 CHARLIE_S ANGELS 0.0000
-0.3010 CHEERING YOU -0.2866
-0.3010 CHEESE </s> -0.3010
-0.6021 CHEMICAL FORMULA 0.0000
-0.6021 CHEMICAL SERIES -0.2430
-0.3010 CHI CHUAN 0.0000
-0.6021 CHICAGO BEARS 0.0000
-0.6021 CHICAGO BULLS 0.0000
-0.4260 CHILD </s> -0.3010
-1.2041 CHILD BORN -0.0621
-1.2041 CHILD WAS -0.2974
-1.2553 CHILDHOOD BABYSITTER 0.0000
-1.2553 CHILDHOOD FRIEND -0.1249
-1.2553 CHILDHOOD HERO 0.0000
-1.2553 CHILDHOOD NEIGHBORS 0.0000
-1.2553 CHILDHOOD NICKNAME 0.0000
-1.2553 CHILDHOOD PHONE 0.0000
-1.2553 CHILDHOOD TEACHER 0.0000
-0.9542 CHILDHOOD TOY 0.0000
-0.3010 CHIPS AHOY 0.0000
-0.3010 CHRISTOPHER HIGGINS 0.0000
-0.3010 CHRONICLE </s> -0.3010
-0.3010 CHUAN </s> -0.3010
-0.3010 CIRCLE WAS -0.2992
-0.3010 CIRCULATED </s> -0.3010
-0.3010 CIRRUS CLOUDS -0.1761
-0.3010 CITATION X 0.0000
-0.3010 CITIES DOES -0.2936
-1.4472 CITY </s> -0.3010
-1.0492 CITY AND -0.2657
-0.7939 CITY DID -0.1821
-1.7482 CITY DOES -0.2973
-1.7482 CITY HOSTED 0.0000
-1.4472 CITY IS -0.1488
-1.4472 CITY OR -0.2430
-1.7482 CITY TO -0.2950
-1.2711 CITY WAS -0.2672
-1.7482 CITY WERE -0.2285
-1.7482 CITY WOULD 0.0000
-0.3010 CITY, STATE -0.2553
-0.3010 CITY/TOWN/VILLAGE </s> -0.3010
-0.3010 CIVIC HYBRID 0.0000
-0.3010 CIVIL WAR 0.0000
-0.3010 CIVILIZATION FIRST -0.2957
-0.3010 CLARIS DEVELOPED -0.2218
-1.0792 CLASS 52 0.0000
-1.0792 CLASS </s> -0.3010
-1.0792 CLASS IS -0.1503
-1.0792 CLASS OF -0.3000
-1.0792 CLASS SUBMARINE 0.0000
-1.0792 CLASS SUBMARINES 0.0000
-0.3010 CLEVELAND BELONG 0.0000
-0.3010 CLINIC BEEN -0.2762
-0.3010 CLINTON SPOKEN -0.2430
-0.3010 CLOSE </s> -0.3010
-0.3010 CLOSET CITY -0.2932
-0.3010 CLOTHING ARE -0.2992
-0.6021 CLOUDS </s> -0.3010
-0.6021 CLOUDS LOOK 0.0000
-0.3010 CLUB </s> -0.3010
-0.9031 COACH </s> -0.3010
-0.9031 COACH IN -0.2989
-0.6021 COACH OF -0.2460
-0.3010 COACHED </s> -0.3010
-0.3010 COACHES THE -0.3001
-0.3010 COAL </s> -0.3010
-0.3010 COBIA </s> -0.3010
-0.3010 COCAINE </s> -0.3010
-0.7782 CODE </s> -0.3010
-0.4771 CODE FOR -0.2364
-0.3010 CODONS OF -0.3000
-0.3010 COHOST IN -0.2989
-0.3010 COLBY ARMSTRONG -0.1761
-0.6021 COLLECT </s> -0.3010
-0.6021 COLLECT AUTOMOBILES 0.0000
-0.3010 COLLECTION </s> -0.3010
-0.3010 COLLECTIONS DID -0.2995
-0.9031 COLLEGE </s> -0.3010
-1.2041 COLLEGE PROFESSOR -0.1761
-1.2041 COLLEGE RIVAL 0.0000
-1.2041 COLLEGE WAS -0.2672
-0.7270 COLLEGE YOU -0.2891
-0.3010 COLLINS CLASS -0.2632
-1.0792 COLOR </s> -0.3010
-1.0792 COLOR AS -0.1347
-1.0792 COLOR DID -0.2995
-0.6021 COLOR OF -0.2621
-0.3010 COLORADO </s> -0.3010
-0.3010 COLORED </s> -0.3010
-0.3010 COLORS </s> -0.3010
-0.3010 COLUMBIA UNIVERSITY'S 0.0000
-0.3010 COMBUSTION ENGINE -0.2430
-0.7782 COME IN -0.2705
-0.4771 COME OUT -0.1761
-0.3010 COMEDY MOVIE -0.1761
-0.4771 COMIC BOOK -0.2041
-0.7782 COMIC STORIES 0.0000
-0.3010 COMMAND </s> -0.3010
-0.3010 COMMANDERS WERE -0.2752
-0.3010 COMMITTED </s> -0.3010
-0.6021 COMPANIES ARE -0.2992
-0.6021 COMPANIES PRODUCE -0.2430
-0.3010 COMPANION FIRST -0.2957
-0.3010 COMPANY OF -0.2632
-0.3010 COMPOSED THE -0.3005
-0.3010 COMPREHENSIVE </s> -0.3010
-0.6021 COMPUTER PROGRAMMING -0.1761
-0.6021 COMPUTER SCIENCE -0.2430
-0.6021 CONCERT TOUR 0.0000
-0.6021 CONCERT YOU -0.2939
-0.3010 CONDITIONS DOES -0.2973
-0.3010 CONFERENCE OF -0.2460
-0.7782 CONFERENCES ABOUT -0.2906
-0.7782 CONFERENCES DOES -0.2973
-0.7782 CONFERENCES HAS -0.2935
-0.6021 CONFIGURATION </s> -0.3010
-0.6021 CONFIGURATION OF -0.2820
-0.3010 CONFLICTS DID -0.2995
-0.3010 CONSIST OF -0.2884
-0.3010 CONSTITUTION BUILT -0.2218
-0.3010 CONSTRUCTION OF -0.2460
-0.3010 CONVENTION HELD -0.1761
-0.3010 CONVENTIONS HAS -0.2935
-0.3010 COOKIE INTRODUCED -0.0512
-0.3010 CORDON ROUGE 0.0000
-0.3010 CORNER FIRST -0.2957
-0.3010 CORONET PEAK 0.0000
-0.6021 CORPORATION FOUNDED -0.0580
-0.6021 CORPORATION KNOWN -0.1249
-0.7782 COST </s> -0.3010
-0.7782 COST TO -0.2950
-0.7782 COST WHEN -0.2982
-0.3010 COSTUME DESIGNER 0.0000
-0.3010 COTTON </s> -0.3010
-0.9031 COUNTRIES ARE -0.2791
-1.2041 COUNTRIES IS -0.1503
-1.2041 COUNTRIES PARTICIPATED 0.0000
-0.6021 COUNTRIES USE -0.1891
-0.6021 COUNTRY DID -0.1860
-1.3010 COUNTRY DO -0.1091
-1.3010 COUNTRY DOES -0.2291
-1.3010 COUNTRY OF -0.2632
-1.0000 COUNTRY TIME -0.2374
-0.9031 COUNTY </s> -0.3010
-0.6021 COUNTY DID -0.2430
-0.9031 COUNTY WHERE -0.2946
-0.9031 COURT CASES 0.0000
-0.4260 COURT OF -0.2969
-0.3010 COUSIN'S FIRST -0.2903
-0.3010 COUSINS </s> -0.3010
-0.6021 COVER </s> -0.3010
-0.9031 COVER ART -0.2218
-0.9031 COVER PRICE 0.0000
-0.3010 CRACKERS INTRODUCED -0.0512
-0.6021 CRAIG </s> -0.3010
-0.6021 CRAIG ADAMS 0.0000
-0.7782 CREATED </s> -0.3010
-1.0792 CREATED CHARLIE -0.1761
-1.0792 CREATED SESAME 0.0000
-1.0792 CREATED SUPERMAN 0.0000
-1.0792 CREATED THE -0.3005
-0.3010 CREATORS OF -0.3000
-0.3010 CREDIT CARD 0.0000
-0.3010 CRETACEOUS PERIOD -0.1761
-0.3010 CRICKET WORLD -0.1761
-0.3010 CROAKER LAUNCHED 0.0000
-0.3010 CROSS OF -0.2990
-0.3010 CRUSH </s> -0.3010
-0.3010 CUISINE </s> -0.3010
-0.9031 CUP </s> -0.3010
-0.4260 CUP FINAL -0.1461
-0.3010 CURLY LAMBEAU 0.0000
-1.2041 CURRENCY </s> -0.3010
-0.3590 CURRENCY CODE 0.0000
-0.6021 CURRENT PET 0.0000
-0.6021 CURRENT SENATORS 0.0000
-1.0792 CURRENTLY MANAGE 0.0000
-1.0792 CURRENTLY MOORED 0.0000
-1.0792 CURRENTLY NUMBER -0.2762
-1.0792 CURRENTLY ON -0.2109
-1.0792 CURRENTLY PLAY -0.2632
-1.0792 CURRENTLY PLAYS 0.0000
-0.3010 CYLINDER ENGINE -0.2430
-0.3010 DA VINCI 0.0000
-0.3010 DABBLE BLOG -0.1761
-0.3010 DAD'S FIRST -0.2848
-0.6021 DADDY RATED 0.0000
-0.6021 DADDY RELEASED 0.0000
-0.3010 DAMAGES DID -0.2583
-0.3010 DANGO </s> -0.3010
-0.3010 DANISH KRONER 0.0000
-0.3010 DANNY DEVITO 0.0000
-0.3010 DAS TORRES 0.0000
-0.7782 DATE AND -0.2942
-0.7782 DATE FOR -0.2964
-0.7782 DATE OF -0.3000
-0.3010 DAVE GROHL 0.0000
-0.3010 DAVID AKERS 0.0000
-0.7782 DAY IS -0.2785
-0.7782 DAY WAS -0.2672
-0.7782 DAY WERE -0.2285
-0.3010 DAYS LATER 0.0000
-0.3010 DE SAN -0.2430
-0.3010 DEATH AN -0.2632
-0.3010 DEBUT </s> -0.3010
-0.3010 DECO </s> -0.3010
-0.3010 DEDICATE TO -0.2950
-0.3010 DEDICATED </s> -0.3010
-0.3010 DEGREE BLACK 0.0000
-0.3010 DEITIES OF -0.3000
-0.3010 DELAWARE </s> -0.3010
-0.3010 DENNIS BERGKAMP 0.0000
-0.3010 DENVER SPURS 0.0000
-0.7782 DESIGN </s> -0.3010
-0.7782 DESIGN AND -0.2942
-0.7782 DESIGN FOR -0.2821
-0.3010 DESIGNATED AS -0.1347
-0.7270 DESIGNED </s> -0.3010
-0.5051 DESIGNED THE -0.2942
-0.3010 DESIGNER FOR -0.2917
-0.3010 DESIGNING FOR -0.2964
-0.3010 DESIGNS FOR -0.2964
-0.3010 DESTROYED IN -0.2989
-0.3010 DETROIT PUBLIC -0.0792
-0.7782 DEVELOPED </s> -0.3010
-0.7782 DEVELOPED CAPRI 0.0000
-0.7782 DEVELOPED THE -0.3005
-0.3010 DEVELOPER OF -0.3000
-1.0792 DEVITO 'S -0.2711
-1.0792 DEVITO BORN -0.0621
-0.7782 DEVITO HAVE -0.1408
-0.7782 DEVITO WIN -0.1597
-0.3010 DIALECTS OF -0.3000
-2.4594 DID 8 0.0000
-2.1584 DID A -0.2928
-2.4594 DID ADOLF 0.0000
-2.4594 DID ALAN 0.0000
-2.4594 DID ANTHONY 0.0000
-2.4594 DID BARACK 0.0000
-2.4594 DID BAROSAURUS 0.0000
-2.4594 DID BARRY 0.0000
-2.4594 DID BERTRAND 0.0000
-2.1584 DID BEYONCE 0.0000
-2.4594 DID CERATOPSIA 0.0000
-2.4594 DID CHARLIE -0.1761
-2.1584 DID CHARLIE_S 0.0000
-2.4594 DID CHIPS 0.0000
-2.4594 DID CHRISTOPHER 0.0000
-2.4594 DID CORONET 0.0000
-1.8573 DID DANNY 0.0000
-2.4594 DID DONOVAN 0.0000
-2.4594 DID ELIZABETH 0.0000
-2.4594 DID EVERYTHING 0.0000
-2.4594 DID FRANCESCO 0.0000
-2.1584 DID FRANK 0.0000
-2.4594 DID GRAEME 0.0000
-2.4594 DID GROVER 0.0000
-2.4594 DID HARRY -0.1761
-2.4594 DID HAYDEN -0.1249
-2.4594 DID HEY 0.0000
-2.4594 DID HURRICANE -0.2553
-2.4594 DID INVERTIGO 0.0000
-1.8573 DID JACK 0.0000
-2.4594 DID JERRY -0.0580
-2.4594 DID JIM 0.0000
-2.1584 DID JOHN 0.0000
-2.4594 DID JONATHAN 0.0000
-2.4594 DID JUN 0.0000
-2.4594 DID KITTY 0.0000
-2.4594 DID LIGHTNIN' 0.0000
-2.4594 DID LIL 0.0000
-2.1584 DID MARTIN 0.0000
-2.4594 DID MICHAEL 0.0000
-2.4594 DID MONSANTO 0.0000
-2.4594 DID MOTOROLA 0.0000
-2.4594 DID MOUNT -0.1761
-2.4594 DID MOZART 0.0000
-2.4594 DID MUSSOLINI 0.0000
-2.1584 DID NATHAN 0.0000
-2.4594 DID NOT 0.0000
-2.4594 DID NUTTY 0.0000
-2.4594 DID OMARION -0.2430
-2.4594 DID QUEEN 0.0000
-2.4594 DID RICK 0.0000
-2.4594 DID ROBIN 0.0000
-2.4594 DID RON 0.0000
-2.4594 DID SAMUEL 0.0000
-2.4594 DID SECRETARIAT 0.0000
-2.4594 DID SESAME 0.0000
-2.4594 DID TAEKWONDO 0.0000
-2.4594 DID TAMORA 0.0000
-1.0280 DID THE -0.2837
-1.5051 DID THIS -0.1192
-2.4594 DID TITANIC -0.2553
-2.4594 DID TRANSFORMERS 0.0000
-2.4594 DID TUTANKHAMUN 0.0000
-2.4594 DID ULURU 0.0000
-0.9680 DID YOU -0.2181
-2.1584 DID YOUR -0.2939
-0.3010 DIDN'T ATTEND -0.0969
-0.3680 DIE </s> -0.3010
-1.1461 DIE OF -0.2884
-0.3010 DIED IN -0.2376
-0.3010 DIET DID -0.2995
-0.3010 DIFFERENT PRODUCTS -0.1761
-0.3010 DIGITAL CAMERAS 0.0000
-0.3010 DIGITS OF -0.2632
-0.3010 DIMENSIONS OF -0.2460
-0.3010 DINOSAUR SPECIES -0.1761
-0.3010 DINOSAURS WERE -0.2752
-0.3010 DIRECT </s> -0.3010
-0.7782 DIRECTED 13 0.0000
-0.7782 DIRECTED 2 -0.1761
-0.7782 DIRECTED MEET -0.2398
-0.7782 DIRECTOR FOR -0.2917
-0.7782 DIRECTOR IN -0.2989
-0.7782 DIRECTOR OF -0.2460
-0.3010 DISASTER </s> -0.3010
-0.3010 DISCOVERED NEON 0.0000
-0.3010 DISCOVERY </s> -0.3010
-0.6021 DISEASE </s> -0.3010
-0.6021 DISEASE OF -0.2820
-0.6021 DISEASES CAUSE 0.0000
-0.6021 DISEASES IS -0.3000
-0.3010 DISHES </s> -0.3010
-0.6021 DISNEYLAND </s> -0.3010
-0.6021 DISNEYLAND IS -0.3000
-0.3010 DISTRIBUTE </s> -0.3010
-0.3010 DISTRIBUTORS FOR -0.2917
-0.3010 DISTRICT OF -0.3000
-0.6021 DIVISION ARE -0.2059
-0.6021 DIVISION DO -0.2688
-0.3010 DIVISIONS OF -0.2460
-0.3010 DNA CODONS 0.0000
-1.3222 DO </s> -0.3010
-1.6232 DO CIRRUS 0.0000
-1.1461 DO THE -0.2991
-0.4472 DO YOU -0.2615
-0.3010 DOCTOR </s> -0.3010
-0.3010 DOCTORS </s> -0.3010
-0.3010 DOCUMENTARIES ARE -0.2501
-0.3010 DODGERS </s> -0.3010
-1.7709 DOES A -0.2928
-2.0719 DOES AN -0.2632
-2.0719 DOES ASPIRIN 0.0000
-2.0719 DOES BLOGTALKRADIO 0.0000
-2.0719 DOES BORDERS -0.1761
-2.0719 DOES CARNEGIE 0.0000
-2.0719 DOES COLBY 0.0000
-2.0719 DOES CRAIG -0.1761
-2.0719 DOES DENNIS 0.0000
-2.0719 DOES DOOM 0.0000
-2.0719 DOES FEDOR 0.0000
-2.0719 DOES FORD -0.2430
-2.0719 DOES GOOGLE 0.0000
-2.0719 DOES GSUSA -0.1761
-2.0719 DOES IGNEOUS 0.0000
-2.0719 DOES JERRY -0.0580
-2.0719 DOES JOE -0.1761
-2.0719 DOES JULIEN 0.0000
-2.0719 DOES KEYON 0.0000
-2.0719 DOES KIFM 0.0000
-2.0719 DOES MAMMOTH 0.0000
-2.0719 DOES MATTHEW 0.0000
-2.0719 DOES MCLEAN 0.0000
-2.0719 DOES MEET -0.2398
-2.0719 DOES MIKE 0.0000
-2.0719 DOES OXFORD -0.2218
-2.0719 DOES PILSNER 0.0000
-2.0719 DOES RAY 0.0000
-2.0719 DOES ROBERT -0.2218
-2.0719 DOES SARA 0.0000
-2.0719 DOES SARAH 0.0000
-1.7709 DOES SESAME 0.0000
-2.0719 DOES SHAQUILLE 0.0000
-2.0719 DOES SONIC -0.1761
-0.8166 DOES THE -0.2902
-1.7709 DOES US -0.2218
-2.0719 DOES WALMART 0.0000
-2.0719 DOES WOODY 0.0000
-2.0719 DOES YOUR -0.2987
-0.3010 DOG </s> -0.3010
-0.9031 DOING </s> -0.3010
-1.2041 DOING AFTER -0.1761
-0.6021 DOING AT -0.1249
-1.2041 DOING WHEN -0.2840
-0.5229 DOLLAR </s> -0.3010
-1.0000 DOLLAR CODE -0.2218
-1.0000 DOLLAR WORTH 0.0000
-0.3010 DOMAIN BELONG 0.0000
-0.3010 DONOVAN MCNABB 0.0000
-0.3010 DOOLING PLAY -0.2218
-0.3010 DOOM HAVE -0.2724
-0.3010 DOONESBURY </s> -0.3010
-0.3010 DORITOS </s> -0.3010
-0.3010 DOWN QUARK 0.0000
-0.3010 DOWNEY JR 0.0000
-0.3010 DRAMA FILM -0.2499
-0.3010 DRAVIDIAN LANGUAGES -0.2632
-1.0000 DREAM CAR -0.1761
-0.6990 DREAM JOB 0.0000
-1.0000 DREAM OF -0.2820
-1.0000 DREAM VACATION -0.1461
-0.3010 DRIVER'S LICENSE -0.1761
-0.3010 DRIVING UNDER -0.2218
-0.3010 DRY MASS 0.0000
-0.3010 DS </s> -0.3010
-0.3010 DUBAI MARINA 0.0000
-0.6021 DURING COLLEGE -0.2430
-0.9031 DURING THE -0.3005
-0.9031 DURING WHAT -0.2990
-0.3010 DX3000 HAVE -0.1792
-0.3010 EAGLE </s> -0.3010
-0.3010 EAGLES </s> -0.3010
-0.6021 EARTH 'S -0.2711
-0.6021 EARTH </s> -0.3010
-0.3010 EASY CHEESE 0.0000
-0.3010 ECONOMY OF -0.2820
-0.3010 EDWARD SCISSORHANDS 0.0000
-0.3010 EFFECTS OF -0.3000
-0.3010 EGYPT PARTICIPATED 0.0000
-0.3010 EIFFEL TOWER 0.0000
-0.3010 ELDEST OF -0.2632
-0.3010 ELECTION </s> -0.3010
-0.3010 ELECTRIC CHARGE 0.0000
-0.3010 ELEMENTARY SCHOOL -0.2374
-0.3010 ELEVATION AT -0.1597
-0.3010 ELIZABETH II -0.2430
-0.3010 ELK MOUNTAIN -0.2430
-0.3010 ELSE DOING -0.0969
-0.3010 EMPLOY </s> -0.3010
-0.3010 EMPLOYER </s> -0.3010
-0.6021 ENGAGED </s> -0.3010
-0.6021 ENGAGED IN -0.2989
-0.9031 ENGINE </s> -0.3010
-0.9031 ENGINE IN -0.2968
-0.9031 ENGINE TAKE -0.2218
-0.9031 ENGINE USE -0.1891
-0.3010 ENGINEERING </s> -0.3010
-0.3010 ENGINES HAVE -0.2724
-0.3010 ENGLISH PATIENT 0.0000
-0.3010 ENTER THE -0.3005
-0.7782 EPISODE AFTER -0.1761
-0.7782 EPISODE OF -0.2884
-0.7782 EPISODE STRAIGHT 0.0000
-0.6021 EPISODES </s> -0.3010
-0.6021 EPISODES DOES -0.2936
-0.3010 EPSILON </s> -0.3010
-0.3010 EQUIVALENT TO -0.2888
-0.3010 ERUPT </s> -0.3010
-0.3010 EURO USED -0.1249
-0.3010 EUROPEAN UNION 0.0000
-0.3010 EUROS </s> -0.3010
-0.3010 EVENING NEWS 0.0000
-0.6812 EVENT </s> -0.3010
-0.5351 EVENT OCCUR 0.0000
-0.6021 EVENTS </s> -0.3010
-0.6021 EVENTS IN -0.2989
-0.3010 EVEREST </s> -0.3010
-0.3010 EVERYTHING IS -0.3000
-0.3010 EXAMPLES OF -0.2820
-0.6021 EXHIBIT ABOUT -0.2576
-0.6021 EXHIBIT AT -0.1597
-0.3010 EXHIBITED </s> -0.3010
-0.6021 EXHIBITIONS HAS -0.2536
-0.6021 EXHIBITIONS HAVE -0.2869
-0.6021 EXHIBITS ARE -0.2501
-0.6021 EXHIBITS HAVE -0.2869
-0.3010 EXPANSION PACKS 0.0000
-0.3010 EYES </s> -0.3010
-0.3010 F KENNEDY 0.0000
-0.3010 F-5 FREEDOM 0.0000
-0.3010 F. C. 0.0000
-0.3010 F.C. FROM -0.2688
-0.3010 FA CUP -0.0969
-0.3010 FACILITIES HAS -0.2935
-0.3010 FACILITY </s> -0.3010
-0.3010 FACT DO -0.1091
-0.3010 FALLINGWATER </s> -0.3010
-0.3010 FALLS </s> -0.3010
-0.3010 FAME </s> -0.3010
-0.3010 FAMILY </s> -0.3010
-0.3010 FAMOUS LANDMARK 0.0000
-0.3010 FANTASY SERIES -0.2430
-0.6021 FARGO 'S -0.2863
-0.6021 FARGO FOUNDED -0.0580
-0.3010 FAST 2 -0.1761
-0.3010 FATHER MEET -0.1684
-0.3010 FATIGUE A -0.2969
-1.6812 FAVORITE ANIMAL 0.0000
-1.3802 FAVORITE BOOK -0.2041
-1.6812 FAVORITE CAR -0.2430
-1.0792 FAVORITE CHILDHOOD -0.1919
-1.6812 FAVORITE COLLEGE -0.2730
-1.6812 FAVORITE COLOR -0.2632
-1.6812 FAVORITE COMEDY 0.0000
-1.6812 FAVORITE CREDIT 0.0000
-1.6812 FAVORITE MANAGER 0.0000
-1.6812 FAVORITE MOVIE -0.1761
-1.6812 FAVORITE NICKNAME 0.0000
-1.6812 FAVORITE PLACE -0.2553
-1.6812 FAVORITE ROOMMATE 0.0000
-1.6812 FAVORITE SONG -0.2218
-1.3802 FAVORITE SPORT 0.0000
-1.6812 FAVORITE TEACHER'S 0.0000
-1.6812 FAVORITE TEAM -0.2688
-1.3802 FAVORITE TV -0.2430
-0.3010 FAWLTY TOWERS 0.0000
-0.3010 FEDERAL HIGHWAY -0.2218
-0.3010 FEDOR TYUTIN 0.0000
-0.3010 FERDINAND II -0.1761
-0.3010 FERRARI CALIFORNIA -0.1761
-0.3010 FICTION CONVENTION 0.0000
-0.3010 FICTIONAL CHARACTERS -0.2632
-0.3010 FIFA WORLD -0.1761
-0.6021 FIFTH AMENDMENT -0.1761
-0.6021 FIFTH DEGREE 0.0000
-0.3010 FIGHTER </s> -0.3010
-0.3010 FIGURES </s> -0.3010
-0.3010 FILE FORMATS 0.0000
-0.3010 FILLION VOICE 0.0000
-0.9542 FILM </s> -0.3010
-1.2553 FILM ACTORS 0.0000
-1.2553 FILM AND -0.2942
-1.2553 FILM DOMAIN 0.0000
-0.7782 FILM PERFORMANCES 0.0000
-1.2553 FILM PRODUCTIONS 0.0000
-0.6021 FILMS ARE -0.2501
-0.6021 FILMS ON -0.2109
-0.5229 FINAL </s> -0.3010
-1.0000 FINAL AIR -0.1761
-1.0000 FINAL FANTASY 0.0000
-0.3010 FINISH </s> -0.3010
-0.6021 FIRE COST -0.2218
-0.6021 FIRE WIN -0.2499
-0.3010 FIREFLY </s> -0.3010
-1.9138 FIRST AIR -0.1761
-1.9138 FIRST AIRED 0.0000
-1.9138 FIRST AMENDMENT -0.1761
-1.6128 FIRST AND -0.2872
-1.9138 FIRST APPEAR -0.1761
-1.9138 FIRST BOOK -0.2553
-1.9138 FIRST BROADCAST -0.1761
-1.4367 FIRST CAR -0.1761
-1.9138 FIRST CONCERT -0.1761
-1.9138 FIRST CRUSH 0.0000
-1.9138 FIRST ELEMENTARY 0.0000
-1.9138 FIRST EMPLOYER 0.0000
-1.9138 FIRST FLOWN 0.0000
-1.6128 FIRST GENERATION -0.1249
-1.9138 FIRST HEARD 0.0000
-1.6128 FIRST JOB -0.0969
-1.9138 FIRST KISS 0.0000
-0.9596 FIRST MEET -0.1684
-1.6128 FIRST NAME -0.0830
-1.9138 FIRST PERFORMED -0.1761
-1.6128 FIRST PUBLISHED 0.0000
-1.9138 FIRST RELEASED 0.0000
-1.9138 FIRST SCHOOL -0.2596
-1.9138 FIRST STUFFED 0.0000
-1.9138 FIRST TIME -0.2596
-1.9138 FIRST UNDERGRADUATE 0.0000
-0.3010 FIT </s> -0.3010
-0.3010 FIVE DIGITS 0.0000
-0.3010 FLAGS AMERICA 0.0000
-0.3010 FLEECE </s> -0.3010
-0.3010 FLEET FOXES 0.0000
-0.3010 FLICKR </s> -0.3010
-0.3010 FLOOR SPACE -0.2553
-0.3010 FLOORS DOES -0.2291
-0.3010 FLOWN </s> -0.3010
-0.3010 FOCUS OF -0.2460
-0.3010 FOOLS </s> -0.3010
-0.3010 FOOTWEAR ARE -0.2501
-1.9731 FOR 13 0.0000
-1.9731 FOR 2 -0.1761
-1.3711 FOR </s> -0.3010
-1.9731 FOR A -0.2969
-1.9731 FOR AOL 0.0000
-1.9731 FOR BATMAN 0.0000
-1.3711 FOR BEST -0.1249
-1.9731 FOR BILL 0.0000
-1.6721 FOR BRUCE -0.0792
-1.9731 FOR BUTANE 0.0000
-1.9731 FOR EDWARD 0.0000
-1.9731 FOR FAVORITE -0.2919
-1.9731 FOR GUITAR 0.0000
-1.9731 FOR HERM 0.0000
-1.9731 FOR LEUKEMIA 0.0000
-1.6721 FOR MEET -0.2398
-1.9731 FOR MOST -0.2825
-1.9731 FOR NEW 0.0000
-1.9731 FOR NINTENDO 0.0000
-1.9731 FOR PROSTATE 0.0000
-1.9731 FOR SAN -0.1761
-1.9731 FOR SIXTH 0.0000
-0.8592 FOR THE -0.2927
-1.9731 FOR TRYPTOPHAN 0.0000
-1.6721 FOR WHAT -0.2980
-1.9731 FOR YEN 0.0000
-0.9031 FORD CENTER 0.0000
-0.9031 FORD HAVE -0.1792
-0.9031 FORD MODEL -0.1761
-0.9031 FORD MUSTANG 0.0000
-0.3010 FORM </s> -0.3010
-0.7782 FORMATIONS ARE -0.2975
-0.7782 FORMATIONS FORMED -0.1761
-0.7782 FORMATIONS WERE -0.2926
-0.3010 FORMATS SUPPORTED 0.0000
-0.6021 FORMED DURING -0.2430
-0.6021 FORMED IN -0.2376
-0.3010 FORMULA FOR -0.2964
-0.3010 FORTUNE 500 0.0000
-0.3010 FORUNE 500 0.0000
-0.3010 FOUGHT IN -0.2376
-0.3010 FOUND </s> -0.3010
-0.3680 FOUNDED </s> -0.3010
-1.4472 FOUNDED GSUSA -0.1761
-1.4472 FOUNDED NIVEA 0.0000
-0.3010 FOURNIE DESIGN -0.2218
-0.3010 FOXES RELEASED 0.0000
-0.3010 FRANCESCO SABATINI 0.0000
-0.6021 FRANCISCO </s> -0.3010
-0.6021 FRANCISCO INTERNATIONAL 0.0000
-0.6021 FRANK LLOYD 0.0000
-0.6021 FRANK SINATRA 0.0000
-0.3010 FRAZIER II -0.1761
-0.3010 FREE EXHIBITS -0.1761
-0.3010 FREEBASE </s> -0.3010
-0.3010 FREEDOM FIGHTER 0.0000
-0.6021 FRENCH OPERAS 0.0000
-0.6021 FRENCH RESTAURANTS 0.0000
-0.3010 FRIDA KAHLO 0.0000
-0.4771 FRIEND </s> -0.3010
-0.7782 FRIEND OR -0.2730
-1.1461 FROM 2004 -0.1761
-0.8451 FROM </s> -0.3010
-1.1461 FROM AFRICA -0.0969
-1.1461 FROM COTTON 0.0000
-1.1461 FROM MOTION 0.0000
-1.1461 FROM ROMAN 0.0000
-0.3010 FRONTIER TIMES 0.0000
-0.3010 FRY </s> -0.3010
-0.6021 FUEL DOES -0.2898
-0.6021 FUEL ECONOMY 0.0000
-0.3010 FUJI LAST -0.2852
-0.3010 FULHAM F. 0.0000
-0.3010 FURIOUS </s> -0.3010
-0.3010 G.H. MUMM 0.0000
-0.3010 GALILEO SPACECRAFT 0.0000
-0.3010 GALL LISTED 0.0000
-0.9031 GAME </s> -0.3010
-0.4260 GAME OF -0.2436
-0.6021 GAMES ARE -0.2275
-0.9031 GAMES DID -0.2995
-0.9031 GAMES HAS -0.2935
-0.3010 GAP, INC. -0.1761
-0.3010 GARCIA GONE 0.0000
-0.3010 GARRY KASPAROV 0.0000
-0.6021 GARTER DID -0.2583
-0.6021 GARTER HAVE -0.1792
-0.3010 GATE BRIDGE 0.0000
-0.3010 GATO CLASS -0.2632
-0.3010 GATORADE 'S -0.2863
-0.7782 GENERATION FORD -0.2430
-0.7782 GENERATION OF -0.3000
-0.7782 GENERATION PARTICLES 0.0000
-0.3010 GENERATIONS OF -0.2460
-1.0000 GENRE </s> -0.3010
-1.0000 GENRE DID -0.2995
-0.6990 GENRE IS -0.1488
-1.0000 GENRE OF -0.3000
-0.7782 GENRES </s> -0.3010
-0.7782 GENRES DID -0.2995
-0.7782 GENRES DOES -0.2973
-0.6021 GERMAN </s> -0.3010
-0.6021 GERMAN BEERS -0.1761
-0.9031 GET ENGAGED -0.1761
-0.9031 GET IN -0.2968
-0.9031 GET MARRIED 0.0000
-0.9031 GET PER 0.0000
-0.3010 GETTYSBURG ADDRESS -0.1761
-0.3010 GIANTS ALSO 0.0000
-0.3010 GILLIGAN_S ISLAND 0.0000
-0.3010 GIRARDI CURRENTLY -0.2632
-0.3010 GIRL SCOUTS 0.0000
-0.6021 GLASS 'S -0.2553
-0.9031 GLASS DO -0.2798
-0.9031 GLASS IN -0.2705
-0.3010 GLOBE AWARD -0.2041
-0.3010 GLOSTER METEOR 0.0000
-0.3010 GLS SEDAN 0.0000
-0.3010 GLUTAMINE </s> -0.3010
-0.4260 GO ON -0.2613
-0.9031 GO SOLO 0.0000
-0.3010 GOALKEEPERS </s> -0.3010
-0.3010 GOBLET OF -0.3000
-0.3010 GOD </s> -0.3010
-0.3010 GOING ON -0.2844
-0.9031 GOLD </s> -0.3010
-0.6021 GOLD MEDAL -0.1249
-0.9031 GOLD SPEECH 0.0000
-0.9031 GOLDEN FLEECE 0.0000
-0.6021 GOLDEN GATE 0.0000
-0.9031 GOLDEN GLOBE 0.0000
-0.3010 GONE TO -0.2632
-0.3010 GOOGLE SPONSOR 0.0000
-0.3010 GOT THE -0.3005
-0.3010 GOTHAM CITY -0.2852
-0.3010 GOTTEN AN -0.2632
-0.4260 GRADE </s> -0.3010
-0.9031 GRADE TEACHER 0.0000
-0.3010 GRADUATED FROM -0.2341
-0.3010 GRAEME BROWN -0.2218
-0.6021 GRAMMY AWARD -0.2041
-0.6021 GRAMMY AWARDS -0.1383
-0.3010 GRAND MASTER 0.0000
-0.3010 GRANDFATHER'S MIDDLE 0.0000
-0.3010 GRANDFATHER’S MIDDLE 0.0000
-0.3010 GRANDMOTHER BORN -0.0621
-0.6021 GRANDMOTHER'S DOG 0.0000
-0.6021 GRANDMOTHER'S MAIDEN 0.0000
-0.3010 GREATEST GUITARIST 0.0000
-0.3010 GREEN PARTY -0.1761
-0.3010 GREW UP -0.1761
-0.3010 GROHL 'S -0.2711
-0.3010 GROPIUS' ARCHITECTURAL 0.0000
-0.3010 GROSS CLINIC 0.0000
-0.3010 GROUP OF -0.2460
-0.3010 GROVER CLEVELAND 0.0000
-0.3010 GRUTA DAS 0.0000
-0.6021 GSUSA </s> -0.3010
-0.6021 GSUSA PRODUCE -0.0969
-0.6021 GUARDIAN CIRCULATED 0.0000
-0.6021 GUARDIAN FIRST -0.2957
-0.3010 GUIDEBOOKS ARE -0.2501
-0.3010 GUITAR HERO: 0.0000
-0.3010 GUITARIST OF -0.3000
-0.3010 GULL BEEN -0.2762
-0.3010 GUNPOWDER TEA -0.1761
-0.3010 H&R BLOCK 0.0000
-0.9031 HAD </s> -0.3010
-0.6021 HAD IN -0.2968
-0.9031 HAD YOUR -0.2817
-0.6021 HAIR COLOR -0.2632
-0.6021 HAIR STYLIST 0.0000
-0.9031 HALL A -0.2969
-0.9031 HALL LOCATED -0.0969
-0.6021 HALL OF -0.2990
-0.3010 HALO: REACH 0.0000
-0.3010 HALPER HAVE -0.1792
-0.3010 HANA YORI 0.0000
-0.3010 HANK AARON 0.0000
-0.3010 HAPPENED IN -0.2968
-0.3010 HARDIN ARMSTRONG -0.1761
-0.6021 HARRY </s> -0.3010
-0.6021 HARRY POTTER 0.0000
-1.7634 HAS ADRIENNE 0.0000
-1.7634 HAS CLARIS 0.0000
-1.7634 HAS CURLY 0.0000
-1.7634 HAS EGYPT 0.0000
-1.7634 HAS FLEET 0.0000
-1.7634 HAS GARRY 0.0000
-1.7634 HAS HELD -0.1761
-1.7634 HAS HILLARY 0.0000
-1.7634 HAS HUGH 0.0000
-1.7634 HAS INFLUENCED -0.2430
-1.7634 HAS JERRY -0.2688
-1.7634 HAS JRR 0.0000
-1.7634 HAS LARRY 0.0000
-1.7634 HAS LINDSEY 0.0000
-1.7634 HAS LOST 0.0000
-1.7634 HAS MATTEL 0.0000
-1.7634 HAS MICROSOFT 0.0000
-1.7634 HAS NATHANAEL 0.0000
-1.7634 HAS ORACLE 0.0000
-1.7634 HAS PORTRAYED 0.0000
-1.7634 HAS ROBERT -0.2218
-1.7634 HAS RUDI 0.0000
-1.7634 HAS SEAN 0.0000
-0.9853 HAS THE -0.2961
-0.3010 HATS </s> -0.3010
-0.3010 HAUNTED MANSION 0.0000
-0.6114 HAVE </s> -0.3010
-1.1950 HAVE A -0.2757
-1.9731 HAVE AN -0.2632
-1.9731 HAVE ATTENDED -0.2430
-1.4960 HAVE BEEN -0.2218
-1.9731 HAVE GONE 0.0000
-1.9731 HAVE GOTTEN 0.0000
-1.9731 HAVE HELD -0.1761
-1.9731 HAVE ICEMAN 0.0000
-1.9731 HAVE IN -0.2968
-1.9731 HAVE JURISDICTION 0.0000
-1.9731 HAVE THE -0.3001
-1.4960 HAVE THERE -0.2808
-1.6721 HAVE TO -0.2888
-1.9731 HAVE YOU -0.2987
-0.3010 HAWK </s> -0.3010
-0.3010 HAWKER SEA 0.0000
-0.4771 HAYDEN PANETTIERE 0.0000
-0.7782 HAYDEN USE -0.1891
-0.3010 HAYDN </s> -0.3010
-0.3010 HEAD COACH -0.1761
-0.3010 HEADQUARTERED </s> -0.3010
-0.3010 HEADQUARTERS </s> -0.3010
-0.3010 HEARD ABOUT -0.2906
-0.3010 HEART ATTACK -0.1761
-0.3010 HEATHROW AIRPORT -0.2218
-0.3010 HEAVY HARRY -0.1761
-0.3010 HEDGEHOG HAVE -0.1792
-0.3010 HEIGHT RESTRICTION 0.0000
-0.6021 HELD </s> -0.3010
-0.6021 HELD THE -0.2991
-0.3010 HENRY III 0.0000
-0.3010 HER SINGING 0.0000
-0.3010 HERALD FIRST -0.2903
-0.3010 HERITAGE SITE 0.0000
-0.3010 HERM </s> -0.3010
-0.3010 HERO </s> -0.3010
-0.3010 HERO: AEROSMITH 0.0000
-0.3010 HERRESHOFF DESIGNED -0.2109
-0.3010 HEY ARNOLD! 0.0000
-0.3010 HIGGINS STOP -0.2553
-0.9031 HIGH COURT -0.0969
-1.2041 HIGH IS -0.3000
-0.5051 HIGH SCHOOL -0.0726
-0.6021 HIGHEST ELEVATION 0.0000
-0.6021 HIGHEST WIND 0.0000
-0.7782 HIGHWAY 1 -0.1249
-0.7782 HIGHWAY FUEL -0.1761
-0.7782 HIGHWAY SYSTEM 0.0000
-0.3010 HILLARY CLINTON 0.0000
-0.3010 HINDUISM </s> -0.3010
-0.3010 HIS CAREER -0.0969
-0.3010 HISTORY HAPPENED 0.0000
-0.3010 HOBBIT SET -0.1761
-0.3010 HOBBY </s> -0.3010
-0.3010 HOCKEY PLAYERS -0.2430
-0.3010 HOLY ANNUNCIATION 0.0000
-0.6021 HOME </s> -0.3010
-0.6021 HOME COMPANION 0.0000
-0.6021 HOMETOWN </s> -0.3010
-0.6021 HOMETOWN NEWSPAPER 0.0000
-0.6021 HONDA CIVIC 0.0000
-0.6021 HONDA FIT 0.0000
-0.3010 HONEYMOON </s> -0.3010
-0.3010 HONOR AT -0.2888
-0.3010 HOPKINS PLAY -0.2218
-0.3010 HORSE </s> -0.3010
-0.6021 HOSPITAL HAVE -0.1792
-0.6021 HOSPITAL YOUR -0.2842
-0.3010 HOSPITALS SPECIALIZE 0.0000
-0.3010 HOST </s> -0.3010
-0.3010 HOSTED THE -0.3001
-0.3010 HOSTS OF -0.3000
-0.3010 HOUND OF -0.2460
-0.6021 HOUSE HAVE -0.1792
-0.6021 HOUSE YOU -0.2987
-2.0466 HOW DID -0.2499
-2.5237 HOW HIGH -0.2730
-2.2227 HOW IS -0.1473
-1.5695 HOW LONG 0.0000
-0.3839 HOW MANY 0.0000
-1.7456 HOW MUCH 0.0000
-2.5237 HOW OFTEN 0.0000
-2.5237 HOW OLD 0.0000
-1.7456 HOW TALL 0.0000
-0.3010 HUB FOR -0.2821
-0.3010 HUBBLE SPACE -0.2553
-0.3010 HUGH LAURIE 0.0000
-0.3010 HUGO AWARD -0.2041
-0.3010 HULL MADE -0.1091
-1.0000 HURRICANE ANDREW 0.0000
-1.0000 HURRICANE IVAN 0.0000
-1.0000 HURRICANE KATRINA 0.0000
-0.6990 HURRICANE SEASON 0.0000
-0.3010 HYBRID </s> -0.3010
-0.3010 HYUNDAI ACCENT 0.0000
-0.3010 I STOP -0.2553
-0.3010 ICEMAN ON -0.2109
-0.3010 ID </s> -0.3010
-0.3010 IGNEOUS ROCK -0.2688
-0.6021 II </s> -0.3010
-0.9031 II COLLECT -0.1761
-0.9031 II USE -0.1891
-0.3010 III BURIED 0.0000
-0.3010 ILLINOIS </s> -0.3010
-0.3010 ILLUMINATED WIN -0.2499
-0.3010 IMAGE </s> -0.3010
-0.3010 IMMORTAL GAME -0.2430
-2.3139 IN 1948 -0.1761
-2.3139 IN 1968 0.0000
-2.3139 IN 1981 0.0000
-2.3139 IN 1993 0.0000
-2.3139 IN 2000 0.0000
-2.3139 IN 2002 0.0000
-2.3139 IN 2003 -0.1761
-2.3139 IN 2010 -0.0969
-2.3139 IN 2011 -0.1761
-1.1677 IN </s> -0.3010
-2.0128 IN A -0.2928
-2.0128 IN AFRICA -0.0969
-2.3139 IN AUGUST 0.0000
-2.3139 IN BRUCE -0.0792
-2.3139 IN CARDIOLOGY 0.0000
-2.3139 IN DAMAGES 0.0000
-2.3139 IN DELAWARE 0.0000
-2.3139 IN FALLINGWATER 0.0000
-2.3139 IN FILM -0.2499
-2.3139 IN FIREFLY 0.0000
-2.3139 IN GERMAN -0.1761
-2.3139 IN GOTHAM 0.0000
-2.3139 IN HALO: 0.0000
-2.3139 IN HANA 0.0000
-2.3139 IN HER 0.0000
-2.3139 IN HIGH -0.1383
-2.0128 IN HIS 0.0000
-2.3139 IN HISTORY 0.0000
-2.0128 IN HOW -0.0695
-2.3139 IN HURRICANE -0.2553
-2.3139 IN IOWA 0.0000
-2.3139 IN ITALIAN 0.0000
-2.3139 IN JAY 0.0000
-2.3139 IN MEN_S 0.0000
-2.3139 IN NORTH 0.0000
-2.3139 IN PEANUTS 0.0000
-2.3139 IN QUINOA 0.0000
-2.0128 IN SEISHINDO 0.0000
-2.3139 IN SEPTEMBER 0.0000
-2.3139 IN SONIC -0.1761
-2.3139 IN SPACE -0.2553
-2.3139 IN SUNNI 0.0000
-2.3139 IN SYDNEY 0.0000
-0.8667 IN THE -0.2827
-2.3139 IN THIRD 0.0000
-2.3139 IN THIS -0.2398
-2.3139 IN TIME -0.2808
-2.3139 IN TITANIC -0.2041
-2.3139 IN TO -0.2950
-2.3139 IN TRISTAN 0.0000
-1.4688 IN WHAT -0.2797
-2.3139 IN WHICH -0.2218
-0.6021 INC. </s> -0.3010
-0.6021 INC. HEADQUARTERS 0.0000
-0.3010 INCLUDING AREA -0.2808
-0.3010 INCOME </s> -0.3010
-0.3010 INDEPENDENCE HALL -0.2430
-0.3010 INDIAN RUPEE 0.0000
-0.3010 INDONESIAN RUPIAH 0.0000
-0.3010 INDUCTED INTO 0.0000
-0.3010 INDUSTRIES DOES -0.2973
-0.3010 INDUSTRY </s> -0.3010
-0.3010 INFECTION IS -0.2989
-0.3010 INFLUENCE </s> -0.3010
-0.6021 INFLUENCED BY -0.2747
-0.9031 INFLUENCED KARL 0.0000
-0.9031 INFLUENCED STEPHEN 0.0000
-0.3010 INGREDIENTS ARE -0.2810
-0.3010 INSTANT MESSENGER 0.0000
-0.3010 INSTITUTE OF -0.3000
-0.3010 INSTITUTIONS WAS -0.2992
-0.3010 INSTRUMENT DID -0.2995
-0.3010 INTERNAL COMBUSTION 0.0000
-0.3010 INTERNATIONAL AIRPORT -0.1249
-0.3010 INTERSTATE 5 -0.2430
-0.3010 INTO THE -0.3001
-0.3590 INTRODUCED </s> -0.3010
-1.2041 INTRODUCED YOU -0.2866
-0.3010 INVENTED SCRABBLE 0.0000
-0.3010 INVERTIGO OPEN 0.0000
-0.3010 INVISIBLE MAN -0.1761
-0.3010 IOWA </s> -0.3010
-0.3010 IPHONE </s> -0.3010
-0.3010 IPOD ARE -0.2501
-0.3010 IRON WORKS -0.2430
-1.7740 IS A -0.2714
-2.6191 IS AFRICA -0.2430
-2.6191 IS ANGELINA 0.0000
-2.6191 IS B12 0.0000
-2.6191 IS BETWEEN 0.0000
-2.6191 IS BIG 0.0000
-2.6191 IS BING 0.0000
-2.6191 IS BRITNEY 0.0000
-1.9201 IS CURRENCY -0.0512
-2.6191 IS CURRENTLY -0.2632
-2.6191 IS DANNY 0.0000
-2.6191 IS DOONESBURY 0.0000
-2.6191 IS FATIGUE 0.0000
-2.6191 IS GRUTA 0.0000
-2.6191 IS GUNPOWDER 0.0000
-2.6191 IS H&R 0.0000
-2.6191 IS ILLINOIS 0.0000
-2.6191 IS ILLUMINATED 0.0000
-2.6191 IS IN -0.2989
-2.6191 IS INDEPENDENCE 0.0000
-2.6191 IS INVISIBLE 0.0000
-2.6191 IS JCPENNEY -0.1761
-2.1420 IS JERRY -0.0580
-2.6191 IS KEVIN 0.0000
-2.6191 IS LAMARCUS 0.0000
-2.6191 IS LOCATED -0.2430
-2.6191 IS LOHENGRIN 0.0000
-2.6191 IS MILLER -0.2218
-2.6191 IS MOUNT -0.1761
-2.6191 IS MY -0.1761
-2.6191 IS NIAGARA 0.0000
-2.6191 IS OMARION -0.2430
-2.6191 IS PANASONIC -0.1249
-2.6191 IS PROSTATE 0.0000
-2.6191 IS REAL 0.0000
-2.6191 IS RNA 0.0000
-2.3181 IS RON 0.0000
-2.6191 IS SARAH 0.0000
-2.6191 IS SERGE 0.0000
-2.6191 IS SPACE -0.2553
-2.6191 IS SPLASH 0.0000
-2.6191 IS SPOCK 0.0000
-2.3181 IS SYPHILIS 0.0000
-2.6191 IS TAGLIABLOG 0.0000
-2.6191 IS TAI 0.0000
-2.6191 IS TARGET -0.1249
-0.5327 IS THE -0.2166
-2.6191 IS TITANIC -0.2553
-2.6191 IS TUNGSTEN 0.0000
-2.6191 IS WALDEN 0.0000
-2.6191 IS WELLS 0.0000
-2.6191 IS WESTMINSTER 0.0000
-1.2969 IS YOUR -0.1915
-0.3010 ISLAM </s> -0.3010
-0.3010 ISLAND FIRST -0.2957
-0.3010 ISLANDS ARE -0.2810
-0.3010 ISOLDE </s> -0.3010
-0.9031 ISSUE 1 -0.1249
-0.9031 ISSUE DID -0.2995
-0.6021 ISSUE OF -0.2990
-0.6021 ISSUES ARE -0.2501
-0.6021 ISSUES OF -0.3000
-0.3590 IT </s> -0.3010
-1.2041 IT WAS -0.2992
-0.3010 ITALIAN CUISINE 0.0000
-0.3010 IVAN </s> -0.3010
-0.3010 JACK ALBERTSON 0.0000
-0.3010 JACKSON GO -0.2430
-0.6021 JAMES BOND 0.0000
-0.6021 JAMES CRAIG -0.1761
-0.3010 JAPAN OPENED 0.0000
-0.3010 JAPANESE YEN 0.0000
-0.3010 JAVA LANGUAGE -0.2553
-0.3010 JAY LENO'S 0.0000
-0.6021 JCPENNEY 'S -0.2863
-0.6021 JCPENNEY FOUNDED -0.0580
-0.3010 JEEP WRANGLER 0.0000
-1.1461 JERRY GARCIA 0.0000
-0.3680 JERRY SEINFELD 0.0000
-0.6021 JESSICA PARKER 0.0000
-0.6021 JESSICA PARKER'S 0.0000
-0.3010 JIM THORPE 0.0000
-0.4260 JOB </s> -0.3010
-0.9031 JOB AS -0.1347
-0.6021 JOE FRAZIER 0.0000
-0.6021 JOE GIRARDI 0.0000
-0.3010 JOHN F 0.0000
-0.3010 JOLIE'S NET 0.0000
-0.3010 JONATHAN MILLER -0.2218
-0.3010 JONI MITCHELL -0.1761
-0.3010 JOSE SHARKS 0.0000
-0.3010 JOSEPH HAYDN 0.0000
-0.3010 JOURNAL OF -0.3000
-0.3010 JOURNALS </s> -0.3010
-0.3010 JR ABUSED 0.0000
-0.3010 JRR TOLKEIN 0.0000
-0.3010 JUDAISM ARE -0.2501
-0.3010 JUDGE PRESIDED 0.0000
-0.3010 JUDGES HAS -0.2536
-0.3010 JUDO </s> -0.3010
-0.3010 JULIEN FOURNIE 0.0000
-0.3010 JULY 1967 0.0000
-0.3010 JUN MATSUMOTO 0.0000
-0.3010 JUNE 2010 -0.0969
-0.3010 JUPITER </s> -0.3010
-0.3010 JURISDICTION </s> -0.3010
-0.3010 JUSTICE HAD -0.2430
-0.3010 KA </s> -0.3010
-0.3010 KAHLO EXHIBIT -0.1761
-0.3010 KARL MARX 0.0000
-0.3010 KASPAROV WON -0.2109
-0.3010 KATRINA </s> -0.3010
-0.3010 KELLY </s> -0.3010
-0.6021 KENNEDY DIE -0.0580
-0.6021 KENNEDY OWN 0.0000
-0.3010 KENNEL CLUB 0.0000
-0.3010 KENPO </s> -0.3010
-0.3010 KEPLER SPACECRAFT 0.0000
-0.3010 KEVIN YOUKILIS 0.0000
-0.3010 KEYON DOOLING 0.0000
-0.3010 KIDS USUALLY 0.0000
-0.3010 KID_S CORNER 0.0000
-0.3010 KIFM SERVE 0.0000
-0.3010 KILL A -0.2969
-0.3010 KIND OF -0.3000
-0.3010 KINDS OF -0.3000
-0.3010 KINGDA KA 0.0000
-0.3010 KINGDOM GET -0.2430
-0.3010 KIRKSTALL ABBEY -0.1249
-0.3010 KISS </s> -0.3010
-0.3010 KITTY PRYDE 0.0000
-0.3010 KNICKERBOCKERS </s> -0.3010
-0.3010 KNIGHTS OF -0.2460
-0.7782 KNOWN AS -0.2596
-0.4771 KNOWN BY -0.1845
-0.3010 KOERTZEN REFEREED 0.0000
-0.3010 KRONA </s> -0.3010
-0.3010 KRONER IS -0.2937
-0.3010 KWAK </s> -0.3010
-0.3010 LABEL DOES -0.2973
-0.6021 LABELS DOES -0.2973
-0.6021 LABELS WAS -0.2974
-0.3010 LAMARCUS ALDRIDGE'S 0.0000
-0.3010 LAMBEAU COACHED 0.0000
-0.3010 LANDERS CERTIFIED 0.0000
-0.3010 LANDMARK WOULD 0.0000
-1.0000 LANGUAGE </s> -0.3010
-0.6990 LANGUAGE IS -0.2989
-0.6990 LANGUAGE OF -0.2448
-1.0792 LANGUAGES ARE -0.2992
-0.7782 LANGUAGES HAS -0.2858
-1.0792 LANGUAGES SPOKEN -0.2430
-1.0792 LANGUAGES USE -0.2808
-1.0792 LANGUAGES WERE -0.2926
-0.3010 LARRY BIRD -0.2218
-0.9700 LAST 5 -0.0969
-1.4472 LAST </s> -0.3010
-1.4472 LAST ERUPT 0.0000
-1.1461 LAST FIVE 0.0000
-1.4472 LAST MINUTE 0.0000
-0.7482 LAST NAME -0.0223
-1.4472 LAST YEAR -0.2730
-0.3010 LATER </s> -0.3010
-0.3010 LATITUDE AND -0.2942
-0.3010 LAUNCHED </s> -0.3010
-0.3010 LAURIE CREATED -0.2218
-0.3010 LEAD BELLY 0.0000
-0.3010 LEADING ROLE 0.0000
-0.3010 LEAFS </s> -0.3010
-0.3010 LEAGUE IS -0.3000
-1.0000 LEARN </s> -0.3010
-0.3979 LEARN ABOUT -0.2218
-0.3010 LEARNED ABOUT -0.1691
-0.9031 LEARNING LAST -0.2852
-0.4260 LEARNING OCCUR 0.0000
-0.3010 LEAST FAVORITE -0.2919
-0.6021 LEE </s> -0.3010
-0.6021 LEE OWN 0.0000
-0.3010 LEGAL OFFENCES 0.0000
-0.3010 LENO'S CAR -0.2730
-0.3010 LEONARDO DA 0.0000
-0.3010 LEPTON FAMILY 0.0000
-0.3010 LETTER ABREVIATION 0.0000
-0.3010 LEUKEMIA </s> -0.3010
-0.3010 LEWIS CURRENTLY -0.2632
-1.0000 LIBRARY </s> -0.3010
-1.0000 LIBRARY ANNUALLY 0.0000
-0.6990 LIBRARY HAVE -0.1792
-1.0000 LIBRARY IN -0.2705
-0.6021 LICENSE NUMBER -0.2218
-0.6021 LICENSE PLATE 0.0000
-0.3010 LIFE </s> -0.3010
-0.3010 LIGHTHOUSE MADE -0.1091
-0.3010 LIGHTNIN' HOPKINS 0.0000
-1.0000 LIKE </s> -0.3010
-0.3979 LIKE TO -0.2698
-0.3010 LIKED MOST -0.2632
-0.3010 LIL HARDIN 0.0000
-0.3010 LIMA PUBLIC -0.2553
-0.3010 LIMITED </s> -0.3010
-0.3010 LINDSEY LOHAN 0.0000
-0.6021 LINE </s> -0.3010
-0.6021 LINE STOP -0.2553
-0.3010 LINEBACKERS ON -0.2109
-0.6021 LINES DOES -0.2291
-0.6021 LINES PRODUCED -0.1963
-0.3010 LISA </s> -0.3010
-0.3010 LISTED AS -0.2808
-0.3010 LITE </s> -0.3010
-0.4102 LIVE </s> -0.3010
-1.2553 LIVE ON -0.2956
-1.2553 LIVE ONCE 0.0000
-0.3010 LIVED IN -0.2989
-0.3010 LIVERPOOL F.C. 0.0000
-0.3010 LLOYD WRIGHT 0.0000
-0.4260 LOCATED </s> -0.3010
-0.9031 LOCATED ON -0.2900
-0.6021 LOCATION DID -0.2516
-0.6021 LOCATION WERE -0.2285
-0.3010 LOCATIONS ARE -0.2501
-0.3010 LOCOMOTIVE CLASS -0.2632
-0.3010 LODGES ARE -0.2810
-0.3010 LOHAN COMMITTED 0.0000
-0.3010 LOHENGRIN IN -0.2705
-0.7782 LONDON HEATHROW 0.0000
-0.7782 LONDON OVERGROUND 0.0000
-0.7782 LONDON ZOO 0.0000
-1.2553 LONG ARE -0.2992
-0.9542 LONG DID -0.2034
-0.5563 LONG IS -0.1488
-1.2553 LONG OVERALL 0.0000
-0.3010 LONGITUDE OF -0.2460
-0.3010 LOOK LIKE -0.2553
-0.3010 LOS ANGELES 0.0000
-0.3010 LOSE </s> -0.3010
-0.3010 LOSSES HAS -0.2935
-0.3010 LOST WON -0.2109
-0.6021 LOUIS BLUES 0.0000
-0.6021 LOUIS CARDINALS 0.0000
-0.3010 LOVE TO -0.2950
-0.3010 LOWELL OBSERVATORY 0.0000
-0.3010 LSE COVER -0.1761
-0.3010 LUKE SKYWALKER 0.0000
-0.3010 LUTHER FOUND 0.0000
-0.3010 LUX RADIO -0.1761
-0.3010 MACINTOSH INTRODUCED -0.0512
-1.1461 MADE FROM -0.2688
-0.4472 MADE OF -0.2863
-1.1461 MADE OUT -0.1761
-0.3010 MADRID A -0.2969
-0.3010 MAGIC KINGDOM 0.0000
-0.3010 MAGICIAN_S NEPHEW 0.0000
-0.3010 MAID OF -0.3000
-0.3010 MAIDEN NAME -0.2653
-0.7782 MAIN CAST 0.0000
-0.7782 MAIN CHARACTERS -0.2632
-0.7782 MAIN LIBRARY -0.2553
-0.7782 MAJOR DURING -0.1761
-0.7782 MAJOR EVENTS -0.1761
-0.7782 MAJOR SPONSORS 0.0000
-0.3010 MAKE AND -0.2942
-0.6021 MAKES DOES -0.2973
-0.6021 MAKES UP -0.1761
-0.3010 MAKEUP ARTISTS -0.1761
-0.3010 MALL </s> -0.3010
-0.3010 MALLS DOES -0.2973
-0.3010 MAMMOTH CAVE 0.0000
-0.6021 MAN </s> -0.3010
-0.6021 MAN DEDICATED 0.0000
-0.3010 MANAGE </s> -0.3010
-0.3010 MANAGED LIVERPOOL 0.0000
-0.3010 MANAGER </s> -0.3010
-0.3010 MANAGES FULHAM 0.0000
-0.3010 MANHATTAN PROJECT 0.0000
-0.3010 MANSION RIDE -0.1761
-0.3010 MANUFACTURED THE -0.3005
-0.3010 MANUFACTURES THE -0.3001
-0.3010 MANUFACTURING PLANTS 0.0000
-2.4409 MANY ALBUMS -0.1761
-2.4409 MANY ANIMALS 0.0000
-2.4409 MANY AREAS 0.0000
-2.4409 MANY ATHLETES 0.0000
-2.4409 MANY AWARD -0.2788
-1.8388 MANY AWARDS -0.1383
-2.4409 MANY BEDS 0.0000
-2.4409 MANY BEERS -0.1761
-2.4409 MANY BOATS 0.0000
-2.4409 MANY BONES 0.0000
-2.1399 MANY BOOKS -0.1249
-2.4409 MANY BRANCHES -0.1761
-2.4409 MANY BRANDS 0.0000
-2.4409 MANY BREEDS 0.0000
-2.4409 MANY BROADCASTS 0.0000
-2.4409 MANY CANCER -0.2553
-2.4409 MANY CANON -0.2218
-2.4409 MANY CARDS 0.0000
-2.4409 MANY CARS 0.0000
-2.4409 MANY CELEBRITIES 0.0000
-2.4409 MANY COLLECTIONS 0.0000
-2.4409 MANY COMIC -0.2218
-2.4409 MANY COMMANDERS 0.0000
-2.4409 MANY COMPANIES -0.1761
-2.4409 MANY CONFERENCES -0.2218
-1.5378 MANY COUNTRIES 0.0000
-2.4409 MANY DIALECTS 0.0000
-2.4409 MANY DIFFERENT 0.0000
-2.1399 MANY DINOSAUR 0.0000
-2.4409 MANY DOCUMENTARIES 0.0000
-2.4409 MANY ENGINES 0.0000
-2.4409 MANY EPISODES -0.1761
-2.4409 MANY EXHIBITIONS -0.1761
-2.4409 MANY EXPANSION 0.0000
-1.7419 MANY FILM -0.1597
-2.4409 MANY FILMS -0.1761
-2.4409 MANY FIRST -0.2903
-2.4409 MANY FLOORS 0.0000
-2.4409 MANY FREE 0.0000
-2.4409 MANY FRENCH -0.1761
-1.9638 MANY GAMES -0.0969
-2.4409 MANY GENERATIONS 0.0000
-2.4409 MANY GRAMMY -0.1761
-2.4409 MANY HOCKEY 0.0000
-2.4409 MANY INDUSTRIES 0.0000
-2.4409 MANY ISLANDS 0.0000
-2.4409 MANY ISSUES -0.1761
-2.4409 MANY JUDGES 0.0000
-2.4409 MANY KINDS 0.0000
-2.4409 MANY KNIGHTS 0.0000
-2.4409 MANY LANGUAGES -0.2218
-2.4409 MANY LEGAL 0.0000
-2.4409 MANY LOCATIONS 0.0000
-2.4409 MANY LOSSES 0.0000
-2.4409 MANY MAIN -0.2218
-2.4409 MANY MALLS 0.0000
-2.1399 MANY MILITARY -0.1249
-2.4409 MANY NICKNAMES -0.1761
-2.4409 MANY NOMINATIONS 0.0000
-2.4409 MANY ORDERS 0.0000
-2.4409 MANY OSCAR 0.0000
-1.7419 MANY OTHER -0.1249
-2.4409 MANY PARENT -0.1761
-2.4409 MANY PEABODY 0.0000
-1.3617 MANY PEOPLE -0.0669
-2.4409 MANY PETS 0.0000
-2.4409 MANY PRODUCTS -0.1761
-2.4409 MANY PROSTHETIC 0.0000
-2.4409 MANY RECORD 0.0000
-2.4409 MANY RELIGIONS -0.1761
-2.4409 MANY ROCK -0.1963
-2.4409 MANY RUNWAYS 0.0000
-1.9638 MANY SCHOOLS 0.0000
-2.4409 MANY SEASONS 0.0000
-2.1399 MANY SHIPS 0.0000
-2.4409 MANY SHOWS -0.2041
-2.4409 MANY SOCCER 0.0000
-2.4409 MANY SONGS -0.1761
-2.4409 MANY SPEEDS -0.1761
-2.4409 MANY SPIN -0.1761
-2.4409 MANY STAGES 0.0000
-2.4409 MANY STARRING 0.0000
-2.4409 MANY STORMS 0.0000
-2.4409 MANY SUB-TYPES 0.0000
-1.9638 MANY TEAMS 0.0000
-2.4409 MANY TEST 0.0000
-2.4409 MANY TOPICS 0.0000
-2.4409 MANY TRACKS 0.0000
-1.9638 MANY TV -0.2109
-2.4409 MANY TYPES -0.0669
-2.4409 MANY UNITS -0.1761
-2.4409 MANY US -0.2632
-2.4409 MANY VISITORS 0.0000
-2.4409 MANY VISITS 0.0000
-2.4409 MANY WINS 0.0000
-2.1399 MANY WORKS -0.0969
-0.3010 MAPLE LEAFS 0.0000
-0.3010 MARGIELA START -0.2430
-0.3010 MARINA MALL 0.0000
-0.6021 MARK MCKINNEY 0.0000
-0.6021 MARK VII 0.0000
-0.3010 MARKET-FRANKFORD LINE -0.1761
-0.3010 MARRIED </s> -0.3010
-0.3010 MARSHALL HALL -0.2430
-0.3010 MARTIAL ARTS 0.0000
-0.6021 MARTIN LUTHER 0.0000
-0.6021 MARTIN MARGIELA 0.0000
-0.3010 MARX </s> -0.3010
-0.4771 MASCOT </s> -0.3010
-0.7782 MASCOT OF -0.2460
-0.3010 MASS OF -0.2460
-0.3010 MASSIVE ATTACK -0.1761
-0.3010 MASTER OF -0.2460
-0.3010 MATERNAL GRANDMOTHER'S -0.1761
-0.3010 MATHEMATICS ARE -0.2501
-0.3010 MATRIX RELOADED 0.0000
-0.3010 MATSUMOTO PLAY -0.2499
-0.3010 MATTEL PRODUCED -0.1963
-0.3010 MATTER IS -0.2937
-0.3010 MATTHEW HAYDEN -0.2218
-0.3010 MAURITANIA </s> -0.3010
-0.3010 MAX SPEED 0.0000
-0.3010 MAXIMUM ALTITUDE 0.0000
-0.6021 MAY LIGHTHOUSE 0.0000
-0.6021 MAY MAIN -0.2218
-0.3010 MCKINNEY BORN -0.0621
-0.3010 MCLEAN HOSPITAL -0.1761
-0.3010 MCNABB PLAY -0.2499
-0.7782 MEDAL </s> -0.3010
-0.7782 MEDAL DID -0.2995
-0.7782 MEDAL IN -0.2989
-0.5798 MEET </s> -0.3010
-0.8808 MEET THE -0.2981
-0.9777 MEET YOUR -0.2915
-0.3010 MEETING OCCUR 0.0000
-0.3010 MELLON PUBLISH 0.0000
-0.3010 MELTING POINT 0.0000
-0.3010 MEMBER OF -0.2884
-0.3010 MEMBERS OF -0.2424
-0.4771 MEMORABLE CHILDHOOD -0.2499
-0.7782 MEMORABLE VACATION -0.1461
-0.3010 MEN_S SINGLES 0.0000
-0.3010 MERLIN </s> -0.3010
-0.3010 MESSENGER </s> -0.3010
-0.6021 MET </s> -0.3010
-0.6021 MET DOING -0.1761
-0.3010 METAMORPHIC ROCK -0.2688
-0.3010 METEOR </s> -0.3010
-0.6021 MEXICAN FEDERAL 0.0000
-0.6021 MEXICAN PESO 0.0000
-0.3010 MICHAEL JACKSON 0.0000
-0.3010 MICROSOFT DESIGNED -0.2109
-0.3010 MIDDLE NAME -0.0223
-0.3010 MIKE BROWN -0.2218
-0.3010 MILE CONSIST 0.0000
-0.7782 MILITARY BRANCHES -0.1761
-0.7782 MILITARY CONFLICTS 0.0000
-0.7782 MILITARY UNITS -0.1761
-0.7782 MILLER DIRECT 0.0000
-0.7782 MILLER HAD -0.1761
-0.7782 MILLER LITE 0.0000
-0.3010 MINUTE BLOG -0.1761
-0.3010 MISSION </s> -0.3010
-0.3010 MISSISSIPPI RIVER 0.0000
-0.6021 MITCHELL INDUCTED 0.0000
-0.6021 MITCHELL PUBLIC -0.0792
-0.3010 MOCKINGBIRD </s> -0.3010
-0.3010 MODE </s> -0.3010
-0.6021 MODEL OF -0.2632
-0.6021 MODEL T 0.0000
-0.3010 MOLASSES DISASTER 0.0000
-0.3010 MONA LISA 0.0000
-0.7782 MONEY </s> -0.3010
-0.7782 MONEY CURRENCY -0.0512
-0.7782 MONEY IN -0.2989
-0.3010 MONOPOLY </s> -0.3010
-0.3010 MONORAIL INTRODUCED -0.0512
-0.3010 MONSANTO RANK -0.1761
-0.5563 MONTH AND -0.2191
-0.7112 MONTH DID -0.2034
-1.5563 MONTH IS -0.2785
-0.3010 MONTREAL CANADIENS 0.0000
-0.3010 MOON </s> -0.3010
-0.3010 MOONS OF -0.3000
-0.3010 MOORED </s> -0.3010
-0.3010 MORPHINE </s> -0.3010
-1.3802 MOST DURING -0.1761
-1.3802 MOST HOLY 0.0000
-1.3802 MOST IN -0.2376
-0.7782 MOST LIKE -0.0792
-0.9031 MOST MEMORABLE 0.0000
-1.3802 MOST PERFORMED -0.1761
-1.3802 MOST REVENUE 0.0000
-0.6021 MOTHER AND -0.2942
-0.6021 MOTHER BORN -0.0621
-0.6021 MOTHER'S FIRST -0.2957
-0.6021 MOTHER'S MAIDEN 0.0000
-0.3010 MOTION PICTURES 0.0000
-0.3010 MOTOR NEURON 0.0000
-0.3010 MOTOROLA HAVE -0.2964
-0.3010 MOTTO OF -0.2460
-0.6021 MOUNT EVEREST 0.0000
-0.6021 MOUNT FUJI 0.0000
-0.6021 MOUNTAIN </s> -0.3010
-0.9031 MOUNTAIN IN -0.2705
-0.9031 MOUNTAIN SKI 0.0000
-0.6021 MOVIE </s> -0.3010
-0.9031 MOVIE BIG 0.0000
-0.9031 MOVIE OF -0.3000
-0.7782 MOVIES WERE -0.2926
-0.4771 MOVIES WON -0.2109
-0.3010 MOZART DEDICATE 0.0000
-1.0792 MUCH DANISH 0.0000
-0.7782 MUCH DID -0.2965
-1.0792 MUCH MONEY -0.2218
-1.0792 MUCH PROTEIN 0.0000
-1.0792 MUCH TIME -0.2808
-0.3010 MUHAMMAD ALI 0.0000
-0.3010 MULTIPLAYER MODE 0.0000
-0.3010 MUMM CORDON 0.0000
-0.3010 MUSEUM </s> -0.3010
-0.9031 MUSIC AWARDS -0.2730
-0.6021 MUSIC BY -0.2747
-0.9031 MUSIC IS -0.3000
-0.7782 MUSICAL CAREER -0.2430
-0.7782 MUSICAL GENRE -0.2553
-0.7782 MUSICAL GENRES -0.2218
-0.3010 MUSSOLINI COMMAND 0.0000
-0.3010 MUSTANG </s> -0.3010
-0.3010 MUTANT NINJA 0.0000
-0.6021 MY CELLO 0.0000
-0.6021 MY DREAM -0.2553
-1.1027 NAME </s> -0.3010
-1.8808 NAME FOR -0.2964
-0.4037 NAME OF -0.1788
-1.8808 NAME YOUR -0.2963
-0.3010 NAME, BREED, 0.0000
-1.0792 NAMES ARE -0.2501
-0.3802 NAMES IS -0.1413
-0.6021 NATHAN FILLION 0.0000
-0.6021 NATHAN SMITH 0.0000
-0.3010 NATHANAEL HERRESHOFF 0.0000
-0.3010 NATIONAL PARK -0.1761
-0.6021 NATIONS FOUNDED -0.0580
-0.6021 NATIONS KNOWN -0.1249
-0.3010 NAUTILUS </s> -0.3010
-0.6021 NAVY BELONG 0.0000
-0.6021 NAVY OWN 0.0000
-0.3010 NEANDERTHAL 1 -0.2218
-0.3010 NEAREST SIBLING 0.0000
-0.3010 NEED TO -0.2888
-0.3010 NEIGHBORS </s> -0.3010
-0.3010 NEON </s> -0.3010
-0.3010 NEPHEW </s> -0.3010
-0.3010 NET WORTH 0.0000
-0.3010 NETFLIX </s> -0.3010
-0.6021 NETWORK </s> -0.3010
-0.6021 NETWORK WAS -0.2992
-0.3010 NEURON DISEASE -0.1761
-0.3010 NEW YORK 0.0000
-0.3010 NEWS </s> -0.3010
-0.3010 NEWSCASTER IN -0.2989
-0.3010 NEWSPAPER </s> -0.3010
-0.3010 NEWSPAPERS DOES -0.2973
-0.3010 NHL </s> -0.3010
-0.3010 NIAGARA FALLS 0.0000
-0.3010 NICKNAME </s> -0.3010
-0.6021 NICKNAMES DOES -0.2973
-0.6021 NICKNAMES FOR -0.2964
-0.3010 NINJA TURTLES 0.0000
-0.3010 NINTENDO DS 0.0000
-0.3010 NIVEA </s> -0.3010
-0.3010 NOMINATED FOR -0.2310
-0.3010 NOMINATIONS DID -0.2934
-0.3010 NORTH AMERICA 0.0000
-0.3010 NOT ATTEND -0.0969
-0.3010 NOTABLE AGNOSTIC 0.0000
-0.3010 NOVEL </s> -0.3010
-1.2553 NUMBER 6 0.0000
-0.7782 NUMBER </s> -0.3010
-1.2553 NUMBER INCLUDING 0.0000
-1.2553 NUMBER IS -0.3000
-0.9542 NUMBER OF -0.2448
-1.2553 NUMBER WAS -0.2992
-0.3010 NUTTY PROFESSOR 0.0000
