Language model created by QuickLM on Thu Dec 11 20:29:12 EST 2014
Copyright (c) 1996-2010 Carnegie Mellon University and Alexander I. Rudnicky

The model is in standard ARPA format, designed by Doug Paul while he was at MITRE.

The code that was used to produce this language model is available in Open Source.
Please visit http://www.speech.cs.cmu.edu/tools/ for more information

The (fixed) discount mass is 0.5. The backoffs are computed using the ratio method.
This model based on a corpus of 3831 sentences and 6862 words

\data\
ngram 1=6862
ngram 2=20661
ngram 3=27997

\1-grams:
-4.2787 ! -0.2996
-4.9776 "I'LL -0.3008
-4.9776 #1 -0.2874
-4.9776 #477 -0.2831
-4.9776 $ -0.3010
-4.9776 $1 -0.2997
-4.9776 $15 -0.2982
-4.9776 $200 -0.2874
-4.9776 $28 -0.3010
-4.6766 $5 -0.2996
-4.9776 $836 -0.3010
-4.9776 $85 -0.3010
-4.1325 & -0.3010
-3.3244 ' -0.2855
-2.5867 '' -0.2341
-4.9776 '-LANTERN -0.3008
-4.9776 'CLOCK -0.3000
-4.9776 'ETAT -0.2874
-4.9776 'HARA -0.2874
-4.9776 'L -0.3010
-4.5005 'LL -0.3008
-4.6766 'N -0.3010
-4.6766 'RE -0.3009
-2.3554 'S -0.2545
-3.8315 'T -0.2993
-4.9776 'THE -0.3010
-4.6766 'VE -0.3010
-2.4991 , -0.2089
-4.0745 - -0.2858
-3.1451 . -0.2820
-4.9776 ... -0.3004
-4.9776 ...THE -0.3010
-4.9776 .COM -0.2874
-4.9776 .DBF -0.2874
-4.1325 0 -0.2873
-4.9776 000-A-YEAR -0.3010
-4.9776 000TH -0.3010
-3.8637 1 -0.2653
-4.9776 1-CENT -0.3010
-4.9776 1-DOLLAR -0.3010
-4.9776 1-MILLIONTH -0.2961
-4.2787 10 -0.2870
-4.9776 10-?? -0.2961
-4.9776 100 -0.3010
-4.9776 101 -0.3010
-4.9776 103 -0.3010
-4.2787 11 -0.2872
-4.9776 118 -0.2997
-4.9776 11TH -0.2831
-4.9776 11TH-CENTURY -0.3010
-4.2787 12 -0.2828
-4.9776 12-HOUR -0.3010
-4.9776 12-YEAR-OLD -0.3010
-4.9776 123 -0.3007
-4.9776 126 -0.2997
-4.1995 13 -0.2859
-4.9776 134 -0.2997
-4.9776 14 -0.3010
-4.9776 14-MILE -0.3010
-4.9776 142 -0.2997
-4.5005 15 -0.2996
-4.9776 15-MINUTE -0.3010
-4.9776 158 -0.2997
-4.9776 15TH -0.3010
-4.6766 16 -0.2874
-4.9776 16-YEAR -0.3009
-4.9776 1642-1649 -0.2997
-4.9776 165 -0.3010
-4.9776 167 -0.2997
-4.5005 16TH -0.2872
-4.9776 16TH-CENTURY -0.3010
-4.9776 17 -0.3010
-4.9776 175 -0.2997
-4.9776 177 -0.2997
-4.9776 1779 -0.2874
-4.9776 1787 -0.2874
-4.6766 1797-185 -0.2997
-4.6766 18 -0.2980
-4.9776 1812 -0.3010
-4.9776 1830 -0.2991
-4.9776 1832 -0.2874
-4.9776 1835 -0.3010
-4.6766 1847 -0.2874
-4.9776 1865 -0.2874
-4.9776 1866 -0.2874
-4.9776 1872 -0.3010
-4.9776 1873 -0.2874
-4.9776 1879 -0.2997
-4.9776 187S -0.3010
-4.9776 1880 -0.2998
-4.9776 1881 -0.2874
-4.9776 1885 -0.2874
-4.9776 1891 -0.2874
-4.9776 1893 -0.2874
-4.6766 1896 -0.2874
-4.2787 1899 -0.2856
-4.3756 19 -0.2872
-4.9776 1904 -0.3010
-4.9776 1913 -0.2874
-4.9776 1915 -0.3008
-4.9776 192 -0.2874
-4.6766 1920S -0.2874
-4.9776 1922 -0.2874
-4.6766 1923 -0.2874
-4.9776 1926 -0.2998
-4.9776 1929 -0.2874
-4.9776 193 -0.2991
-4.9776 1930S -0.3008
-4.9776 1931 -0.2874
-4.9776 1932 -0.2874
-4.9776 1933 -0.3008
-4.9776 1935 -0.2874
-4.9776 1936 -0.2998
-4.3756 1939 -0.2859
-4.9776 1940 -0.2991
-4.9776 1941 -0.2991
-4.6766 1942 -0.2874
-4.9776 1945 -0.3010
-4.9776 1946 -0.2874
-4.5005 1948 -0.2863
-4.9776 195 -0.2874
-4.9776 1950 -0.2874
-4.6766 1951 -0.2870
-4.6766 1952 -0.2860
-4.6766 1953 -0.2979
-4.9776 1954 -0.2874
-4.9776 1956 -0.3010
-4.9776 1956-1971 -0.2874
-4.9776 1957 -0.3010
-4.9776 1958 -0.2874
-4.9776 196 -0.2874
-4.6766 1960 -0.2991
-4.9776 1960'S -0.2874
-4.9776 1961 -0.2874
-4.9776 1962 -0.2874
-4.3756 1963 -0.2874
-4.5005 1964 -0.2986
-4.5005 1965 -0.2996
-4.9776 1966 -0.3010
-4.3756 1967 -0.2873
-4.6766 1968 -0.2689
-4.5005 1969 -0.2872
-4.6766 197 -0.2856
-4.6766 1971 -0.2874
-4.5005 1972 -0.2873
-4.3756 1973 -0.3010
-4.9776 1975 -0.2874
-4.9776 1976 -0.2874
-4.9776 1977 -0.3010
-4.5005 1978 -0.2872
-4.9776 1979 -0.2874
-4.9776 198 -0.3006
-4.5005 1980 -0.2965
-4.5005 1981 -0.2763
-4.6766 1982 -0.2854
-4.3756 1983 -0.2828
-4.2787 1984 -0.2873
-4.9776 1985 -0.2874
-4.9776 1988 -0.3010
-4.5005 1989 -0.2874
-4.9776 199 -0.3010
-4.6766 1990 -0.2874
-4.6766 1990S -0.2689
-4.2787 1991 -0.2874
-4.6766 1992 -0.2874
-4.6766 1993 -0.3000
-4.5005 1994 -0.2874
-4.9776 1996 -0.2874
-4.9776 1997 -0.2874
-4.5005 1998 -0.2874
-4.6766 1999 -0.2874
-4.9776 19TH -0.3010
-4.6766 19TH-CENTURY -0.3010
-4.9776 1ST -0.3006
-3.8315 2 -0.2816
-4.9776 2-FOOT-SQUARE -0.3010
-4.6766 2000 -0.2689
-4.9776 2002 -0.2831
-4.6766 2003 -0.2831
-4.6766 2004 -0.2993
-4.9776 2005 -0.3010
-4.5005 2006 -0.3010
-4.9776 2007 -0.3010
-4.6766 2008 -0.3010
-4.9776 2009 -0.3010
-4.3756 2010 -0.2831
-4.6766 2011 -0.2831
-4.9776 2012 -0.3010
-4.3756 21 -0.2860
-4.9776 21-27 -0.2874
-4.9776 219 -0.3010
-4.6766 22 -0.3009
-4.9776 227 -0.3010
-4.9776 22ND -0.3008
-4.9776 23 -0.3010
-4.5005 24 -0.2860
-4.9776 24-HOUR -0.3010
-4.6766 25 -0.3007
-4.9776 25TH -0.3010
-4.9776 26 -0.2997
-4.9776 26-YEAR -0.3010
-4.6766 27 -0.2874
-4.9776 28 -0.3010
-4.9776 280 -0.3010
-4.9776 2TH -0.3010
-4.9776 2TH-CENTURY -0.3010
-4.3756 3 -0.2996
-4.5005 30 -0.2831
-4.9776 31 -0.3010
-4.9776 33 -0.3000
-4.9776 35 -0.3010
-4.9776 35-MILLIMETER -0.3008
-4.9776 387 -0.3010
-4.9776 39 -0.3010
-4.5005 4 -0.2994
-4.9776 401 -0.2997
-4.9776 42.3 -0.3010
-4.9776 455-YARD -0.3010
-4.9776 45MHZ -0.3010
-4.9776 46 -0.2997
-4.9776 468-POUND -0.3010
-4.6766 49 -0.2996
-4.9776 4TH -0.2961
-4.0745 5 -0.2929
-4.6766 500 -0.2975
-4.6766 52 -0.3007
-4.9776 55 -0.3010
-4.9776 576 -0.3010
-4.6766 5TH -0.2998
-4.3756 6 -0.2986
-4.9776 600 -0.2997
-4.9776 64 -0.2874
-4.5005 6TH -0.3010
-4.3756 7 -0.2996
-4.9776 7-MINUTE -0.3010
-4.9776 72 -0.3010
-4.9776 737 -0.3005
-4.6766 740-TREE -0.2856
-4.9776 755 -0.3009
-4.9776 7847+5943 -0.3010
-4.2787 8 -0.2947
-4.9776 8/28/1941 -0.2874
-4.9776 80 -0.2991
-4.9776 84 -0.3010
-4.9776 86 -0.2999
-4.9776 86ED -0.2999
-4.9776 9 -0.2997
-4.9776 9/11 -0.2831
-4.6766 900 -0.2997
-4.9776 98 -0.2874
-4.9776 985 -0.2874
-4.9776 9971 -0.3006
-4.9776 9TH -0.3010
-3.3544 : -0.2991
-4.5005 ; -0.2998
-1.3943 </s> -0.3010
-1.3943 <s> -0.2532
-1.5096 ? -0.2789
-2.1930 A -0.2728
-4.9776 A&W -0.2961
-4.9776 A.G. -0.2961
-4.9776 A.M. -0.2998
-4.9776 A75 -0.3005
-4.9776 AA -0.3010
-4.3756 AARON -0.3008
-4.3756 ABBEY -0.2780
-3.9776 ABBR:ABB -0.2903
-3.4336 ABBR:EXP -0.2894
-4.5005 ABBREVIATED -0.3008
-3.9362 ABBREVIATION -0.2948
-4.9776 ABBY -0.2874
-4.9776 ABDICATION -0.2874
-4.9776 ABIGAIL -0.3010
-4.9776 ABNER -0.2991
-4.9776 ABNORMAL -0.3010
-4.9776 ABOMINABLE -0.3010
-3.2373 ABOUT -0.2481
-4.9776 ABRAHAM -0.3010
-4.9776 ABREVIATION -0.2997
-4.9776 ABSOLUTE -0.3010
-4.9776 ABUNDANT -0.3010
-4.6766 ABUSE -0.2873
-4.9776 ABUSED -0.2831
-4.9776 ABUSING -0.3010
-4.5005 ACADEMY -0.3009
-4.9776 ACCENT -0.3010
-4.9776 ACCESS -0.2874
-4.9776 ACCESSORY -0.2988
-4.9776 ACCIDENTS -0.2874
-4.9776 ACCOMPANYING -0.2893
-4.9776 ACCORDING -0.2993
-4.9776 ACCOUNT -0.2874
-4.9776 ACE -0.3010
-4.9776 ACETYLSALICYLIC -0.3010
-4.9776 ACHIEVEMENTS -0.2961
-4.3756 ACID -0.2860
-4.9776 ACID-BASE -0.3010
-4.9776 ACIDIC -0.3010
-4.9776 ACLU -0.3010
-4.9776 ACQUAITANCE -0.3010
-4.9776 ACQUITTED -0.2997
-4.9776 ACREAGE -0.2961
-4.9776 ACRES -0.2975
-4.9776 ACRONYM -0.2997
-4.6766 ACROSS -0.2893
-4.5005 ACT -0.2823
-4.3756 ACTED -0.2968
-4.9776 ACTING -0.3009
-4.9776 ACTION -0.2874
-4.6766 ACTIVE -0.3010
-4.0745 ACTIVITY -0.3006
-3.7472 ACTOR -0.2756
-4.6766 ACTORS -0.2993
-3.8637 ACTRESS -0.2900
-4.9776 ACTUAL -0.3010
-4.9776 ACTUALLY -0.3009
-4.5005 AD -0.2874
-4.9776 ADAMS -0.3009
-4.9776 ADAPTATIONS -0.2961
-4.9776 ADAPTED -0.3006
-4.9776 ADAPTER -0.2874
-4.9776 ADD -0.2993
-4.9776 ADDING -0.3010
-3.7735 ADDRESS -0.2587
-4.6766 ADDRESSES -0.2948
-4.9776 ADJOINING -0.3010
-4.9776 ADJOURNMENT -0.2961
-4.9776 ADMINISTRATION -0.2874
-4.9776 ADMIRAL -0.2961
-4.9776 ADMIT -0.2993
-4.9776 ADMONITION -0.3008
-4.9776 ADOLF -0.3010
-4.9776 ADOPT -0.2893
-4.6766 ADOPTED -0.3010
-4.9776 ADORNS -0.2893
-4.9776 ADRIENNE -0.3010
-4.6766 ADS -0.2993
-4.6766 ADULT -0.2874
-4.9776 ADVANCED -0.3010
-4.9776 ADVANTAGES -0.2961
-4.9776 ADVENTURE -0.3009
-4.6766 ADVENTURES -0.2926
-4.9776 ADVERTISE -0.2997
-4.9776 ADVERTISED -0.3007
-4.6766 ADVERTISES -0.2997
-4.9776 ADVERTISING -0.2874
-4.9776 ADVERTIZING -0.2997
-4.9776 ADVISED -0.3010
-4.9776 AEROSMITH -0.2831
-4.9776 AESOP -0.2991
-4.9776 AEUL -0.3010
-4.9776 AFFAIR -0.3007
-4.5005 AFFECT -0.2892
-4.6766 AFFECTED -0.3006
-4.9776 AFFECTIONATE -0.3010
-4.9776 AFGHANISTAN -0.2975
-3.9362 AFRICA -0.2612
-4.2787 AFRICAN -0.3006
-4.9776 AFS -0.2874
-3.7224 AFTER -0.2703
-4.6766 AFTERNOON -0.2873
-4.5005 AGAINST -0.2893
-3.9776 AGE -0.2704
-4.6766 AGED -0.2872
-4.9776 AGENCY -0.2958
-4.9776 AGENT -0.2874
-4.9776 AGENTS -0.2997
-4.3756 AGES -0.2926
-4.9776 AGNOSTIC -0.3010
-4.6766 AGO -0.2994
-4.9776 AGREE -0.2993
-4.9776 AGREEMENT -0.3010
-4.9776 AGRICULTURAL -0.3010
-4.9776 AHEAD -0.2961
-4.9776 AHOY -0.3010
-4.3756 AIDS -0.2872
-4.9776 AILMENT -0.3005
-4.9776 AIM-54C -0.3010
-3.8985 AIR -0.2560
-4.9776 AIRBORNE -0.2999
-4.9776 AIRCRAFT -0.3010
-4.9776 AIRED -0.2831
-4.9776 AIRLINES -0.2958
-4.9776 AIRMAN -0.3009
-4.9776 AIRPLANE -0.3006
-4.9776 AIRPLANES -0.3009
-4.0745 AIRPORT -0.2748
-4.6766 AIRPORTS -0.2874
-4.9776 AIRSPEED -0.3010
-4.9776 AIRWAVES -0.3007
-4.9776 AKERS -0.3000
-4.9776 AKITA -0.2874
-4.5005 AL -0.3010
-4.9776 AL-FARRI -0.2874
-4.9776 ALABAMA -0.3010
-4.9776 ALADDIN -0.2874
-4.9776 ALAMEIN -0.2874
-4.6766 ALAN -0.3010
-4.2787 ALASKA -0.2827
-4.9776 ALBERT -0.3010
-4.3756 ALBERTSON -0.3004
-4.5005 ALBUM -0.2689
-4.5005 ALBUMS -0.2989
-4.9776 ALCOHOL -0.2958
-4.9776 ALCOHOLIC -0.2874
-4.9776 ALDA -0.2874
-4.9776 ALDOUS -0.3010
-4.9776 ALDRIDGE'S -0.3009
-4.6766 ALDRIN -0.3008
-4.6766 ALEXANDRA -0.2989
-4.9776 ALEXANDRE -0.3010
-4.9776 ALGERIA -0.2874
-4.9776 ALGIERS -0.2874
-4.5005 ALI -0.3010
-4.5005 ALICE -0.2942
-4.9776 ALIVE -0.2874
-4.9776 ALKALINE -0.3010
-3.5627 ALL -0.2845
-4.9776 ALL-STAR -0.3009
-4.9776 ALL-TIME -0.3010
-4.9776 ALLAH -0.2874
-4.9776 ALLAN -0.3010
-4.9776 ALLEGED -0.2993
-4.9776 ALLEGEDLY -0.3010
-4.6766 ALLEN -0.3010
-4.6766 ALLEY -0.2874
-4.9776 ALLIANCE -0.2874
-4.6766 ALLOWED -0.2856
-4.9776 ALMANAC -0.2874
-4.3756 ALMIGHTY -0.2831
-4.9776 ALMOST -0.3010
-4.9776 ALONE -0.2874
-4.5005 ALONG -0.2752
-4.9776 ALPHA -0.3010
-4.5005 ALPHABET -0.2860
-4.9776 ALPHABETICALLY -0.2874
-4.3756 ALSO -0.3009
-4.9776 ALTA -0.3010
-4.9776 ALTERED -0.3009
-4.9776 ALTERNATE -0.2993
-4.9776 ALTERNATOR -0.2874
-4.9776 ALTITUDE -0.2961
-4.9776 ALVEOLI -0.2874
-4.9776 ALVIN -0.2991
-4.2787 ALWAYS -0.2992
-4.9776 ALYSSA -0.3010
-4.5005 AM -0.3004
-4.9776 AMARETTO -0.3010
-4.9776 AMATEUR -0.3010
-4.9776 AMAZING -0.3009
-4.9776 AMAZON -0.2874
-4.9776 AMAZONIS -0.2874
-4.9776 AMBASSADOR -0.2993
-4.9776 AMBASSADORIAL -0.3010
-4.9776 AMELIA -0.3010
-4.9776 AMENDED -0.2874
-4.9776 AMENDEMENTS -0.3010
-4.1995 AMENDMENT -0.2660
-3.5627 AMERICA -0.2520
-3.3244 AMERICAN -0.2940
-4.2787 AMERICANS -0.2867
-4.9776 AMERICAS -0.2874
-4.9776 AMEZAIKU -0.2874
-4.9776 AMHERST -0.2874
-4.9776 AMICABLE -0.3010
-4.9776 AMISH -0.3010
-4.9776 AMONG -0.3006
-4.6766 AMOUNT -0.2944
-4.9776 AMPHIBIANS -0.2874
-4.9776 AMSTERDAM -0.2874
-3.1516 AN -0.2872
-4.6766 ANALYSIS -0.2823
-4.6766 ANCIENT -0.3006
-2.5447 AND -0.2572
-4.9776 ANDERSON -0.2991
-4.9776 ANDERSSEN -0.3009
-4.9776 ANDREA -0.3010
-4.9776 ANDRESS -0.2874
-4.3756 ANDREW -0.2997
-4.9776 ANDREWS -0.3010
-4.5005 ANDY -0.3010
-4.6766 ANGEL -0.3006
-4.1325 ANGELES -0.2860
-4.9776 ANGELICA -0.3009
-4.9776 ANGELINA -0.3010
-4.2787 ANGELS -0.2862
-4.9776 ANGLES -0.2993
-4.9776 ANGLICAN -0.3010
-3.8315 ANIMAL -0.2550
-3.8985 ANIMALS -0.2915
-4.5005 ANIMATED -0.3010
-4.9776 ANKA -0.2874
-4.6766 ANNA -0.3010
-4.9776 ANNE -0.3010
-4.2787 ANNIVERSARY -0.2795
-4.9776 ANNOTATED -0.3010
-4.9776 ANNOUNCED -0.2993
-4.9776 ANNUAL -0.3010
-4.9776 ANNUALLY -0.2831
-4.9776 ANNUNCIATION -0.2831
-4.9776 ANOPHELES -0.3010
-4.9776 ANOREXIA -0.2874
-4.0745 ANOTHER -0.2856
-4.5005 ANSWERS -0.2971
-4.5005 ANSWERS.COM -0.2853
-4.5005 ANTARCTICA -0.2689
-4.9776 ANTE -0.3010
-4.6766 ANTHEM -0.2874
-4.5005 ANTHONY -0.2997
-4.9776 ANTICHRIST -0.2874
-4.9776 ANTIDISESTABLISHMENTARIANISM -0.2999
-4.6766 ANTILLES -0.2689
-4.9776 ANTONIO -0.3010
-4.9776 ANUS -0.2998
-4.5005 ANY -0.2961
-4.9776 ANYBODY -0.3010
-4.9776 ANYONE -0.3010
-4.6766 ANYTHING -0.2989
-4.9776 ANZUS -0.3010
-4.9776 AOL -0.3010
-4.9776 AOL.COM -0.3006
-4.9776 APART -0.3006
-4.9776 APARTHEID -0.3010
-4.9776 APARTMENT -0.2874
-4.3756 APOLLO -0.3006
-4.9776 APPALACHIAN -0.3010
-4.9776 APPAREL -0.2874
-4.1325 APPEAR -0.2784
-4.5005 APPEARANCE -0.2835
-4.6766 APPEARANCES -0.2965
-4.3756 APPEARED -0.2965
-4.6766 APPEARS -0.3000
-4.9776 APPENDIX -0.2874
-4.2787 APPLE -0.2807
-4.9776 APPLE, -0.3010
-4.3756 APPLES -0.2848
-4.5005 APPLIED -0.2993
-4.9776 APPROACHES -0.2961
-4.9776 APPROACHING -0.3002
-4.9776 APPROPRIATELY -0.3010
-4.9776 APPROVAL -0.3010
-4.6766 APPROXIMATE -0.3008
-4.9776 APPROXIMATELY -0.2984
-4.9776 APRICOT -0.3010
-4.6766 APRIL -0.3010
-4.9776 APSO -0.3009
-4.9776 AQUATIC -0.3010
-4.9776 ARAB -0.3010
-4.9776 ARABIA -0.2997
-4.9776 ARABIAN -0.3010
-4.5005 ARABIC -0.2993
-4.9776 ARCADIA -0.2997
-4.9776 ARCANE -0.3010
-4.6766 ARCH -0.2868
-4.9776 ARCH-ENEMY -0.2874
-4.9776 ARCHIE -0.3010
-4.9776 ARCHITECT -0.2961
-4.6766 ARCHITECTS -0.2831
-4.9776 ARCHITECTURAL -0.3010
-4.6766 ARCHITECTURE -0.3010
-4.9776 ARCHY -0.2997
-4.5005 ARCTIC -0.3010
-2.4130 ARE -0.2758
-3.7224 AREA -0.2622
-4.5005 AREAS -0.2820
-4.9776 ARGENTINA -0.2874
-4.9776 ARGON -0.2874
-4.9776 ARIGNAR -0.3010
-4.9776 ARISTOTLE -0.3010
-4.9776 ARKANSAS -0.2998
-4.6766 ARMA -0.2993
-4.9776 ARMED -0.3010
-4.9776 ARMORY -0.3009
-4.9776 ARMS -0.2961
-4.5005 ARMSTRONG -0.2996
-4.3756 ARMY -0.2826
-4.5005 ARNOLD -0.2874
-4.9776 ARNOLD! -0.3010
-4.9776 AROMETHERAPY -0.2874
-4.2787 AROUND -0.2887
-4.9776 AROUSED -0.3006
-4.9776 ARRIVING -0.3008
-4.9776 ARSENAL -0.2997
-3.9362 ART -0.2794
-4.9776 ARTEMIS -0.2874
-4.9776 ARTHUR -0.3010
-4.9776 ARTICLE -0.2874
-4.5005 ARTICLES -0.2944
-4.6766 ARTIFICIAL -0.3010
-4.2787 ARTIST -0.2945
-4.3756 ARTISTS -0.2856
-4.6766 ARTS -0.2958
-3.0282 AS -0.2333
-4.9776 ASCAP -0.3008
-4.9776 ASH -0.2999
-4.5005 ASIA -0.2674
-4.1995 ASIAN -0.3002
-4.3756 ASK -0.2851
-4.3756 ASKED -0.2882
-4.9776 ASLEEP -0.2874
-4.5005 ASPARTAME -0.2820
-4.9776 ASPIRIN -0.3010
-4.6766 ASSASSINATE -0.2838
-4.2787 ASSASSINATED -0.2869
-4.6766 ASSASSINATION -0.2874
-4.9776 ASSASSINATIONS -0.2998
-4.9776 ASSEMBLY -0.2874
-4.9776 ASSENT -0.3006
-4.9776 ASSIGN -0.3010
-4.9776 ASSIGNED -0.2893
-4.9776 ASSISI -0.2874
-4.5005 ASSOCIATED -0.3007
-4.9776 ASSOCIATES -0.3008
-4.5005 ASSOCIATION -0.3005
-4.9776 ASSOCIATON -0.3010
-4.9776 ASSUME -0.2997
-4.9776 ASTAIRE -0.2975
-4.9776 ASTHMA -0.2874
-4.5005 ASTRONAUT -0.2993
-4.2787 ASTRONAUTS -0.2953
-4.9776 ASTRONOMICAL -0.3010
-3.2616 AT -0.2324
-4.9776 ATARI -0.3010
-4.9776 ATHENS -0.2961
-4.6766 ATHLETE -0.3007
-4.9776 ATHLETES -0.3005
-4.2787 ATLANTIC -0.2856
-4.6766 ATM -0.3003
-4.9776 ATOM -0.2874
-4.9776 ATOMIC -0.3009
-4.2787 ATTACK -0.2678
-4.9776 ATTACKED -0.2975
-4.6766 ATTACKS -0.2752
-4.6766 ATTEMPT -0.2856
-4.6766 ATTEMPTS -0.2993
-4.1325 ATTEND -0.2548
-4.9776 ATTENDANT -0.2874
-4.3756 ATTENDED -0.2831
-4.9776 ATTENDS -0.3010
-4.9776 ATTIC -0.2999
-4.9776 ATTIRE -0.3007
-4.9776 ATTORNEYS -0.3010
-4.9776 ATTRACT -0.2874
-4.9776 ATTRACTION -0.3009
-4.3756 ATTRACTIONS -0.2966
-4.9776 ATTRACTS -0.3010
-4.9776 AUBERGE -0.2975
-4.9776 AUDIO -0.3009
-4.3756 AUGUST -0.2830
-4.3756 AUSTRALIA -0.2809
-4.3756 AUSTRALIAN -0.2988
-4.0234 AUTHOR -0.2806
-4.9776 AUTHORS -0.2874
-4.9776 AUTO -0.3010
-4.6766 AUTOBIOGRAPHY -0.2958
-4.9776 AUTOIMMUNE -0.3010
-4.9776 AUTOMOBILE -0.3007
-4.9776 AUTOMOBILES -0.2831
-4.6766 AVAILABLE -0.2984
-4.9776 AVENUE -0.2998
-3.6554 AVERAGE -0.2942
-4.9776 AVERY -0.3004
-4.9776 AWAKES -0.3009
-3.8315 AWARD -0.2684
-4.3756 AWARDED -0.2839
-4.0234 AWARDS -0.2839
-4.5005 AWAY -0.2994
-4.9776 AYKROYD -0.2998
-4.9776 AZTEC -0.3010
-4.9776 B -0.2874
-4.9776 B12 -0.2831
-4.9776 BABAR -0.2874
-4.1325 BABY -0.2909
-4.9776 BABYSITTER -0.2831
-4.6766 BACALL -0.2991
-4.9776 BACHELOR -0.2998
-4.1995 BACK -0.2804
-4.9776 BACK" -0.2831
-4.9776 BACKGAMMON -0.3010
-4.6766 BACKGROUND -0.3010
-4.9776 BACKSTREET -0.3010
-4.9776 BACKUP -0.3010
-4.9776 BACON -0.2999
-4.9776 BADGE -0.2961
-4.9776 BADGERS -0.2874
-4.9776 BAGDAD -0.2874
-4.9776 BAGGINS -0.3006
-4.9776 BAGHDAD -0.2874
-4.9776 BAJA -0.3010
-4.9776 BAKER -0.2997
-4.9776 BAKERY -0.2874
-4.6766 BAKING -0.3010
-4.6766 BALANCE -0.2823
-4.0234 BALL -0.2842
-4.9776 BALLAD -0.3010
-4.9776 BALLCOCK -0.2997
-4.9776 BALLET -0.2874
-4.9776 BALLOON -0.2874
-4.9776 BALLOTS -0.2975
-4.2787 BALLS -0.2838
-4.9776 BALTIC -0.3010
-4.9776 BALTIMORE -0.3010
-4.9776 BANANA -0.2975
-4.0234 BAND -0.2732
-4.9776 BANDIT -0.2999
-4.9776 BANDS -0.3009
-4.9776 BANK -0.2874
-4.9776 BANKS -0.2961
-4.6766 BANNED -0.3005
-4.6766 BANNER -0.2862
-4.6766 BAR -0.2873
-4.9776 BARACK -0.3010
-4.6766 BARBADOS -0.2874
-4.9776 BARBARA -0.3010
-4.9776 BARBEQUE -0.2874
-4.6766 BARBIE -0.2873
-4.9776 BARE -0.2874
-4.9776 BARKIS -0.2958
-4.9776 BARNEY -0.3010
-4.9776 BARNUM -0.2991
-4.9776 BAROSAURUS -0.3009
-4.9776 BARR -0.2997
-4.9776 BARRED -0.3006
-4.9776 BARREMIAN -0.3010
-4.9776 BARRIER -0.2874
-4.9776 BARROOM -0.3010
-4.9776 BARRY -0.3010
-4.6766 BARRYMORE -0.2991
-4.6766 BARS -0.2874
-3.6159 BASEBALL -0.2835
-4.2787 BASED -0.2827
-4.9776 BASEEMEN -0.2975
-4.9776 BASILICA -0.2997
-4.9776 BASKERVILLES -0.2831
-4.3756 BASKETBALL -0.3009
-4.9776 BASOPHOBIC -0.3008
-4.9776 BASQUE -0.3007
-4.6766 BASTILLE -0.3009
-4.9776 BAT -0.3010
-4.9776 BATH -0.3010
-4.9776 BATHING -0.3010
-4.9776 BATHROOM -0.2874
-4.9776 BATMAN -0.3010
-4.9776 BATMOBILE -0.3010
-4.9776 BATTERIES -0.2874
-4.2787 BATTERY -0.2684
-3.8637 BATTLE -0.2955
-4.9776 BATTLEFIELD -0.3007
-4.5005 BATTLES -0.2996
-4.9776 BATTLESHIP -0.2874
-4.9776 BAUHAUS -0.3010
-4.9776 BAVARIA -0.2874
-4.9776 BAVARIAN -0.3010
-4.3756 BAY -0.2823
-4.9776 BAYER -0.3010
-3.3055 BE -0.2608
-4.1325 BEACH -0.2841
-4.6766 BEAK -0.2998
-4.9776 BEANIE -0.3010
-4.0745 BEAR -0.2879
-4.9776 BEARD -0.3010
-4.9776 BEARER -0.2874
-4.5005 BEARS -0.2815
-4.9776 BEASLEY -0.2874
-4.9776 BEAST -0.2874
-4.5005 BEAT -0.2839
-4.9776 BEATA -0.3010
-4.9776 BEATING -0.3010
-4.3756 BEATLES -0.2861
-4.9776 BEATRIX -0.2999
-4.6766 BEAUTIFUL -0.2996
-4.5005 BEAUTY -0.2929
-4.5005 BEAVER -0.2850
-4.9776 BEBRENIA -0.2997
-3.8985 BECAME -0.2877
-4.5005 BECAUSE -0.2949
-4.9776 BECKETT -0.3010
-3.8637 BECOME -0.2676
-4.6766 BECOMING -0.3007
-4.9776 BEDROOM -0.3010
-4.9776 BEDS -0.2998
-4.5005 BEE -0.3010
-4.9776 BEEF -0.2999
-3.6554 BEEN -0.2631
-4.1325 BEER -0.2956
-4.9776 BEER-PRODUCING -0.3006
-4.2787 BEERS -0.2801
-4.6766 BEES -0.2870
-4.6766 BEETHOVEN -0.2990
-4.9776 BEETLE -0.3010
-4.9776 BEFELL -0.2893
-3.9362 BEFORE -0.2733
-4.6766 BEGAN -0.3006
-3.9776 BEGIN -0.2654
-4.9776 BEGINNING -0.2961
-4.6766 BEGINS -0.3005
-4.5005 BEHIND -0.2893
-4.9776 BEHOLDER -0.2999
-3.9362 BEING -0.2998
-4.6766 BELGIUM -0.2854
-4.9776 BELGRADE -0.2874
-4.0745 BELIEVE -0.2834
-4.9776 BELIEVED -0.2993
-4.9776 BELL -0.2874
-4.9776 BELLE -0.3010
-4.9776 BELLWORTS -0.2874
-4.6766 BELLY -0.2831
-4.9776 BELMONT -0.3010
-4.2787 BELONG -0.2993
-4.9776 BELONGED -0.3007
-4.9776 BELONGS -0.2993
-4.6766 BELT -0.2926
-4.6766 BELUSHI -0.3002
-4.3756 BEN -0.2873
-4.9776 BENDS -0.2993
-4.9776 BENEATH -0.2893
-4.9776 BENEDICT -0.2874
-4.9776 BENELUX -0.3009
-4.9776 BENGALI -0.3010
-4.6766 BENNY -0.3010
-4.9776 BENTOS -0.3010
-4.9776 BERGERES -0.2874
-4.9776 BERGKAMP -0.3009
-4.9776 BERGMAN -0.3009
-4.3756 BERLIN -0.2989
-4.9776 BERMUDA -0.3010
-4.9776 BERNADETTE -0.3010
-4.9776 BERNARD -0.2874
-4.9776 BERNSTEIN -0.2975
-4.6766 BERT -0.3010
-4.9776 BERTRAND -0.3010
-4.9776 BERYL -0.3008
-4.9776 BESIDES -0.3010
-4.9776 BESS -0.3004
-3.5152 BEST -0.2948
-4.6766 BEST-SELLER -0.2961
-4.6766 BET -0.2997
-4.9776 BETRAYED -0.3010
-4.9776 BETSY -0.3010
-4.6766 BETTE -0.3010
-4.6766 BETTER -0.3005
-4.6766 BETTER-KNOWN -0.3000
-4.6766 BETTING -0.2948
-4.6766 BETTY -0.3010
-3.4213 BETWEEN -0.2859
-4.6766 BEYONCE -0.3000
-4.9776 BEYOND -0.3010
-4.9776 BIANCHI -0.3010
-4.1995 BIBLE -0.2855
-4.9776 BIBLES -0.2993
-4.6766 BIBLICAL -0.3010
-4.9776 BIBLIOGRAPHIES -0.2997
-4.6766 BIBLIOGRAPHY -0.2870
-4.9776 BIC -0.2993
-4.9776 BICEPS -0.3008
-4.9776 BICORNATE -0.3010
-4.9776 BICYCLE -0.2958
-3.9362 BIG -0.2957
-4.9776 BIGFOOT -0.3010
-4.9776 BIGGER -0.3010
-3.9362 BIGGEST -0.2996
-4.9776 BIKE -0.2831
-4.9776 BIKINI -0.3010
-4.9776 BILBO -0.3010
-3.9362 BILL -0.2820
-4.9776 BILLIE -0.3008
-4.9776 BILLS -0.3010
-4.9776 BILLY -0.3010
-4.9776 BILOXI -0.2997
-4.9776 BINDING -0.2831
-4.9776 BING -0.2831
-4.9776 BINGO -0.2874
-4.9776 BIORHYTHM -0.2874
-4.1995 BIRD -0.2817
-4.0745 BIRDS -0.2941
-4.1325 BIRTH -0.2671
-4.0745 BIRTHDAY -0.2689
-4.9776 BIRTHPLACE -0.2874
-4.9776 BIRTHS -0.2997
-4.5005 BIRTHSTONE -0.2820
-4.9776 BISCAY -0.2874
-4.9776 BISCUITS -0.2874
-4.9776 BITE -0.3010
-4.9776 BITMAP -0.3010
-4.9776 BJORN -0.3010
-3.8015 BLACK -0.2750
-4.9776 BLACK-AND-WHITE -0.3010
-4.9776 BLACKHAWK -0.3010
-4.9776 BLACKHAWKS -0.3010
-4.9776 BLACKJACK -0.3010
-4.9776 BLACKS -0.2874
-4.9776 BLADERUNNER -0.2874
-4.9776 BLAISE -0.3010
-4.9776 BLASS -0.3010
-4.9776 BLATTY -0.3010
-4.9776 BLEACH -0.2999
-4.9776 BLIGH -0.2991
-4.5005 BLIND -0.2993
-4.9776 BLOB -0.3010
-4.9776 BLOBBO -0.2874
-4.9776 BLOCK -0.3010
-4.3756 BLOG -0.2809
-4.9776 BLOGS -0.2993
-4.9776 BLOGTALKRADIO -0.3010
-4.9776 BLONDE -0.3010
-4.9776 BLONDES -0.2874
-4.1995 BLOOD -0.2829
-4.9776 BLOODHOUND -0.2999
-4.9776 BLOOM -0.3010
-4.5005 BLUE -0.2997
-4.5005 BLUES -0.2872
-4.9776 BLUNDER -0.2975
-4.9776 BLUSH -0.2874
-4.9776 BLYTHE -0.2874
-4.9776 BMW -0.2831
-4.9776 BMW'S -0.3010
-4.0745 BOARD -0.2872
-4.9776 BOARDS -0.3010
-4.9776 BOARDWALK -0.2874
-4.0745 BOASTS -0.2893
-4.6766 BOAT -0.3009
-4.9776 BOATS -0.2998
-4.3756 BOB -0.3010
-4.9776 BOBBY -0.3010
-4.9776 BOCCI -0.3010
-3.7472 BODY -0.2683
-4.9776 BOEING -0.3010
-4.9776 BOG -0.2874
-4.9776 BOG-DWELLERS -0.3009
-4.9776 BOGART -0.3010
-4.9776 BOGS -0.2874
-4.9776 BOHANNON -0.3010
-4.9776 BOHEME -0.2874
-4.9776 BOIL -0.3010
-4.9776 BOILING -0.3010
-4.9776 BOLEYN -0.3010
-4.9776 BOLIVIA -0.3000
-4.9776 BOLT -0.2874
-4.3756 BOMB -0.2868
-4.6766 BOMBAY -0.2874
-4.6766 BOMBING -0.2961
-4.9776 BOMBSHELL -0.2874
-4.1995 BOND -0.2820
-4.9776 BONDS -0.2874
-4.5005 BONE -0.2975
-4.6766 BONES -0.2988
-4.9776 BONNIE -0.3010
-4.9776 BOOB -0.3010
-3.4725 BOOK -0.2471
-4.1325 BOOKS -0.2841
-4.9776 BOOP -0.2991
-4.9776 BOOSTERS -0.2874
-4.9776 BOOTH -0.2998
-4.9776 BORDEN -0.2874
-4.5005 BORDER -0.2752
-4.3756 BORDERS -0.3009
-4.9776 BORG -0.3009
-4.9776 BORIS -0.3010
-3.4591 BORN -0.2640
-4.9776 BORN-CHILD -0.2975
-4.6766 BORROW -0.3010
-4.9776 BORROWER -0.3010
-4.9776 BORU -0.3007
-4.9776 BOSON -0.3010
-4.2787 BOSTON -0.3010
-4.9776 BOTH -0.3009
-4.2787 BOTTLE -0.2808
-4.9776 BOTTLED-UP -0.3009
-4.6766 BOTTLES -0.2863
-4.9776 BOTTOM -0.2961
-4.6766 BOUGHT -0.2972
-4.9776 BOULEVARD -0.2874
-4.9776 BOUND -0.2993
-4.3756 BOUNTY -0.3010
-4.9776 BOURBON -0.3010
-4.9776 BOURDON -0.3010
-4.9776 BOVINE -0.2999
-4.9776 BOW -0.2874
-3.8985 BOWL -0.2781
-4.1995 BOWLING -0.2873
-4.9776 BOWLS -0.2874
-4.5005 BOX -0.2873
-4.9776 BOXER -0.2991
-4.9776 BOXES -0.2961
-4.1995 BOXING -0.2974
-4.5005 BOY -0.2849
-4.9776 BOYCOTT -0.2961
-4.9776 BOYFRIEND -0.2874
-4.5005 BOYS -0.2979
-4.9776 BPH -0.2874
-4.9776 BRA -0.2874
-4.6766 BRADBURY -0.2991
-4.9776 BRADLEY -0.2997
-4.9776 BRAILLE -0.3010
-4.5005 BRAIN -0.2861
-4.9776 BRAKE -0.2874
-4.9776 BRANCHED -0.3006
-4.6766 BRANCHES -0.2997
-4.2787 BRAND -0.2950
-4.9776 BRANDENBURG -0.3010
-4.9776 BRANDS -0.2998
-4.9776 BRAUN -0.2874
-4.9776 BRAVE -0.3009
-4.6766 BRAZIL -0.2874
-4.6766 BRAZILIAN -0.3010
-4.9776 BREAD -0.3009
-4.9776 BREAKFAST -0.3010
-4.9776 BREAST -0.3010
-4.9776 BREED -0.2961
-4.9776 BREED, -0.2998
-4.9776 BREEDING -0.3010
-4.6766 BREEDS -0.2856
-4.9776 BRENNER -0.3010
-4.9776 BREONY -0.3008
-4.9776 BRETHREN -0.2874
-4.9776 BREWERIES -0.2975
-4.9776 BREWS -0.3010
-4.9776 BRIAN -0.3010
-4.9776 BRICKS -0.3006
-4.0745 BRIDGE -0.2580
-4.9776 BRIDGE-CONNECTED -0.3010
-4.9776 BRIE -0.3010
-4.9776 BRIEF -0.3010
-4.9776 BRIGHAM -0.3010
-4.9776 BRIGHTEST -0.3009
-4.9776 BRING -0.3010
-4.6766 BRITAIN -0.2991
-4.0234 BRITISH -0.2836
-4.9776 BRITNEY -0.3010
-4.2787 BROADCAST -0.2689
-4.6766 BROADCASTING -0.2838
-4.9776 BROADCASTS -0.2998
-4.5005 BROADWAY -0.3009
-4.9776 BROKE -0.2893
-4.3756 BROKEN -0.2830
-4.9776 BRONTOSAURUSES -0.3010
-4.6766 BRONZE -0.3010
-4.9776 BROOKLYN -0.3010
-4.6766 BROOKS -0.2874
-4.6766 BROTHER -0.2961
-4.2787 BROTHERS -0.2673
-4.9776 BROTHERS-IN-LAW -0.2975
-4.9776 BROTHER’S -0.3010
-4.6766 BROUGHT -0.3001
-4.1995 BROWN -0.2811
-4.6766 BROWNS -0.2873
-4.9776 BROWSER -0.3010
-4.2787 BRUCE -0.3010
-4.9776 BRUEGEL -0.3006
-4.9776 BRUNETTES -0.3009
-4.6766 BRUSH -0.3010
-4.9776 BRUT -0.2831
-4.9776 BUBBLE -0.3010
-4.9776 BUDAPEST -0.2998
-4.9776 BUDGET -0.2997
-4.9776 BUDWEIS -0.2874
-4.9776 BUDWEISER -0.3010
-4.6766 BUFFALO -0.3006
-4.5005 BUG -0.2874
-4.9776 BUGS -0.3010
-4.3756 BUILD -0.2863
-4.0234 BUILDING -0.2667
-4.6766 BUILDINGS -0.2871
-4.0745 BUILT -0.2508
-4.9776 BULBS -0.3009
-4.9776 BULGARICUS -0.2993
-4.9776 BULGE -0.3009
-4.6766 BULL -0.2874
-4.9776 BULLETIN -0.2961
-4.9776 BULLETS -0.2874
-4.9776 BULLFIGHTING -0.3010
-4.6766 BULLS -0.2831
-4.9776 BUMS -0.2999
-4.9776 BUNCH -0.2874
-4.9776 BUNYAN -0.2991
-4.1995 BUREAU -0.2961
-4.9776 BUREAUCRACY -0.2874
-4.9776 BURGLARY -0.3010
-4.9776 BURIAL -0.2874
-4.2787 BURIED -0.2652
-4.9776 BURKINA -0.3010
-4.9776 BURN -0.3010
-4.6766 BURNED -0.2963
-4.9776 BURNFORD -0.2991
-4.9776 BURNT -0.3008
-4.6766 BUS -0.2874
-4.6766 BUSES -0.2856
-4.6766 BUSH -0.2874
-4.9776 BUSIEST -0.3010
-4.0234 BUSINESS -0.2774
-4.9776 BUSINESSES -0.2993
-4.9776 BUSINESSMAN -0.3010
-4.0234 BUT -0.2958
-4.9776 BUTANE -0.2831
-4.9776 BUTCH -0.3010
-4.5005 BUTLER -0.2988
-4.9776 BUTT -0.3010
-4.9776 BUTTER -0.3010
-4.9776 BUTTONS -0.2874
-4.9776 BUXOM -0.3010
-4.5005 BUY -0.2982
-4.6766 BUYS -0.3010
-4.9776 BUZZ -0.3010
-3.0534 BY -0.2493
-4.5005 C -0.2999
-4.6766 C. -0.2831
-4.9776 C.C. -0.3010
-4.9776 CABARNET -0.3010
-4.9776 CABER-TOSSING -0.3010
-4.9776 CABINETS -0.2874
-4.6766 CABLE -0.3010
-4.9776 CABLE-MODEM -0.3010
-4.6766 CACHE -0.2874
-4.9776 CACTUS -0.2874
-4.6766 CAESAR -0.2874
-4.6766 CAFFEINATED -0.2873
-4.6766 CAFFEINE -0.2820
-4.6766 CAGE -0.2854
-4.9776 CAINE -0.3010
-4.6766 CAIRO -0.2993
-4.9776 CAJUN -0.3010
-4.9776 CALCIUM -0.3010
-4.9776 CALCULATE -0.3010
-4.6766 CALCULATOR -0.2975
-4.9776 CALCUTTA -0.2874
-4.9776 CALDERA -0.2874
-4.9776 CALENDAR -0.2874
-4.9776 CALHOUN -0.2998
-4.5005 CALIENTE -0.2997
-3.8985 CALIFORNIA -0.2665
-3.6989 CALL -0.2830
-3.3149 CALLED -0.2586
-4.5005 CALLOSUM -0.2820
-4.9776 CALLS -0.3010
-4.9776 CALLUSES -0.2874
-4.6766 CALORIES -0.2993
-4.9776 CALYPSO -0.3010
-4.6766 CAMARO -0.2872
-4.9776 CAMBODIA -0.2874
-4.9776 CAMCORDERS -0.3010
-4.1995 CAME -0.2966
-4.9776 CAMEL -0.3010
-4.9776 CAMELS -0.3010
-4.9776 CAMERA -0.3010
-4.9776 CAMERA-READY -0.3010
-4.6766 CAMERAS -0.2992
-4.5005 CAMP -0.3010
-4.9776 CAMPS -0.3009
-4.9776 CAMPTOWN -0.3010
-2.9207 CAN -0.2755
-4.0745 CANADA -0.2779
-4.5005 CANADIAN -0.3009
-4.9776 CANADIANS -0.3010
-4.9776 CANADIENS -0.2831
-4.5005 CANAL -0.2861
-4.9776 CANASTA -0.2831
-4.0745 CANCER -0.2575
-4.9776 CANDLE -0.3010
-4.9776 CANDLEMAS -0.3009
-4.9776 CANDY -0.3010
-4.9776 CANFIELD -0.2997
-4.6766 CANINE -0.2958
-4.9776 CANKER -0.3010
-4.9776 CANNING -0.2961
-4.3756 CANON -0.2975
-4.9776 CANONIZE -0.2893
-4.9776 CANS -0.3010
-4.5005 CANYON -0.2859
-4.9776 CAP -0.3010
-4.6766 CAPACITY -0.2961
-4.9776 CAPE -0.3010
-3.8637 CAPITAL -0.2743
-4.6766 CAPONE -0.2991
-4.6766 CAPP -0.2854
-4.9776 CAPRI -0.3010
-4.3756 CAPTAIN -0.2960
-3.6989 CAR -0.2660
-4.9776 CARCINOGENS -0.2874
-4.1325 CARD -0.2792
-4.6766 CARDINAL -0.2988
-4.9776 CARDINALS -0.2831
-4.9776 CARDIOLOGY -0.2831
-4.0234 CARDS -0.2794
-4.9776 CARE -0.3010
-3.9776 CAREER -0.2660
-4.5005 CARIBBEAN -0.2873
-4.6766 CARL -0.3010
-4.9776 CARLISLE -0.3010
-4.9776 CARMANIA -0.2874
-4.9776 CARNEGIE -0.3010
-4.6766 CAROL -0.2874
-4.6766 CAROLINA -0.2874
-4.9776 CAROLINGIAN -0.3010
-4.9776 CAROLL -0.3010
-4.9776 CARPAL -0.3010
-4.9776 CARRE -0.2991
-4.9776 CARRIED -0.2893
-4.9776 CARRIER -0.2893
-4.9776 CARRIERS -0.2874
-4.6766 CARRIES -0.2892
-4.6766 CARRY -0.2975
-4.9776 CARRYING -0.2893
-4.5005 CARS -0.2987
-4.9776 CARSON -0.2874
-4.9776 CARTA -0.2874
-4.6766 CARTER -0.2874
-4.9776 CARTESIAN -0.3010
-4.1325 CARTOON -0.2871
-4.5005 CARTOONS -0.2821
-4.9776 CASCADE -0.2874
-4.6766 CASE -0.2951
-4.5005 CASES -0.2866
-4.5005 CASH -0.3009
-4.9776 CASH-CONSCIOUS -0.3010
-4.9776 CASINOS -0.2993
-4.9776 CASPER -0.2991
-4.9776 CASSIDEY -0.2998
-4.9776 CAST -0.3010
-4.9776 CASTELLATED -0.3010
-4.9776 CASTING -0.3010
-4.5005 CASTLE -0.2860
-4.9776 CASTOR -0.2998
-4.3756 CAT -0.2854
-4.9776 CAT-BEAR -0.2874
-4.9776 CATALOGUES -0.2975
-4.9776 CATAN -0.2831
-4.6766 CATCH -0.2980
-4.9776 CATCHER -0.2975
-4.5005 CATEGORY -0.2938
-4.6766 CATHEDRAL -0.2860
-4.9776 CATHERINE -0.2874
-4.6766 CATHOLIC -0.2998
-4.9776 CATHOLICISM -0.2831
-4.9776 CATHY -0.3010
-4.5005 CATS -0.2828
-4.9776 CATSUP -0.2874
-4.9776 CAUCASIAN -0.2999
-4.9776 CAUGHT -0.2975
-4.9776 CAULFIELD -0.3010
-4.9776 CAUSE -0.3010
-4.0745 CAUSED -0.2885
-3.8637 CAUSES -0.2830
-4.6766 CAUSING -0.2864
-4.9776 CAVE -0.3009
-4.9776 CAYMAN -0.3010
-4.5005 CBS -0.3010
-4.9776 CC -0.3010
-4.3756 CD -0.3006
-4.9776 CDS -0.3006
-4.1995 CELEBRATED -0.2963
-4.2787 CELEBRITIES -0.2981
-4.9776 CELEBRITY -0.3010
-4.9776 CELLO -0.2831
-4.5005 CELLS -0.2856
-4.9776 CEMENT -0.3000
-4.9776 CEMETERY -0.2975
-3.9776 CENTER -0.2617
-4.5005 CENTERS -0.2983
-4.3756 CENTRAL -0.3009
-4.9776 CENTS -0.3007
-4.9776 CENTURION -0.3000
-4.2787 CENTURY -0.2676
-4.9776 CENTURY-FOX -0.3010
-4.9776 CEO -0.2961
-4.9776 CERATOPSIA -0.3005
-4.6766 CEREAL -0.2874
-4.6766 CERTAIN -0.3009
-4.6766 CERTIFIED -0.3006
-4.9776 CERVANTES -0.2991
-4.9776 CESSNA -0.3010
-4.9776 CHAIN -0.2874
-4.9776 CHAIRBOUND -0.3010
-4.6766 CHAIRMAN -0.2961
-4.9776 CHAIRS -0.2874
-4.9776 CHALLENGE -0.3010
-4.9776 CHALLENGERS -0.2961
-4.6766 CHAMPION -0.2689
-4.5005 CHAMPIONS -0.2689
-4.3756 CHAMPIONSHIP -0.2838
-4.6766 CHANCE -0.2948
-4.6766 CHANCERY -0.2994
-4.9776 CHANCES -0.2961
-4.9776 CHANDLER -0.2975
-4.9776 CHANGE -0.2982
-4.6766 CHANGED -0.2878
-4.9776 CHANGES -0.3010
-4.9776 CHAPEL -0.2874
-4.9776 CHAPMAN -0.2991
-4.9776 CHAPPELLET -0.3010
-4.5005 CHAPTER -0.2961
-3.6554 CHARACTER -0.2660
-3.9362 CHARACTERS -0.2870
-4.9776 CHARACTERSTICS -0.2961
-4.9776 CHARCOAL -0.2997
-4.9776 CHARGE -0.2961
-4.9776 CHARGED -0.3007
-3.9776 CHARLES -0.3000
-4.2787 CHARLIE -0.2990
-4.5005 CHARLIE_S -0.3010
-4.9776 CHARTERED -0.2975
-4.6766 CHECK -0.2998
-4.9776 CHECKMATE -0.2874
-4.9776 CHEEKS -0.3002
-4.9776 CHEERING -0.3001
-4.9776 CHEERY -0.3010
-4.6766 CHEESE -0.2831
-4.9776 CHEETAHS -0.3010
-4.6766 CHEFS -0.3009
-4.0745 CHEMICAL -0.2999
-4.5005 CHEMICALS -0.2992
-4.9776 CHEMIOSMOTIC -0.3010
-4.9776 CHEROKEE -0.3010
-4.9776 CHESAPEAKE -0.3010
-4.9776 CHESS -0.3010
-4.9776 CHESSBOARD -0.2874
-4.9776 CHEST -0.3010
-4.9776 CHEVROLET -0.2999
-4.9776 CHI -0.3010
-4.2787 CHICAGO -0.2975
-4.9776 CHICAGO-STYLE -0.3010
-4.6766 CHICKEN -0.3008
-4.9776 CHICKENPOXS -0.3009
-4.9776 CHICKENS -0.3005
-4.9776 CHICKS -0.2874
-4.6766 CHIEF -0.3010
-4.9776 CHIHUAHUAS -0.3009
-3.9776 CHILD -0.2664
-4.0234 CHILDHOOD -0.3009
-3.9776 CHILDREN -0.2839
-4.9776 CHILEAN -0.3008
-4.9776 CHILLY -0.3010
-4.9776 CHIN -0.2998
-4.2787 CHINA -0.2857
-4.1995 CHINESE -0.2982
-4.9776 CHIP -0.2958
-4.9776 CHIPS -0.3010
-4.9776 CHIRICAHUA -0.2893
-4.9776 CHIVINGTON -0.3010
-4.2787 CHOCOLATE -0.2861
-4.9776 CHOCOLATES -0.3006
-4.9776 CHOLERA -0.2874
-4.9776 CHOMPER -0.2874
-4.6766 CHOO -0.3010
-4.9776 CHOOSE -0.3010
-4.9776 CHOPS -0.2874
-4.9776 CHRIS -0.3010
-4.6766 CHRIST -0.2969
-4.9776 CHRISTI -0.2999
-4.3756 CHRISTIAN -0.3000
-4.9776 CHRISTINA -0.3008
-4.0234 CHRISTMAS -0.2846
-4.5005 CHRISTOPHER -0.3010
-4.9776 CHROMATOLOGY -0.2874
-4.9776 CHROMOSOME -0.3009
-4.6766 CHRONIC -0.3010
-4.9776 CHRONICLE -0.2831
-4.9776 CHRONICLED -0.2893
-4.9776 CHRONICLES -0.3009
-4.9776 CHUAN -0.2831
-4.5005 CHURCH -0.2861
-4.9776 CHURCHILL -0.2982
-4.9776 CIGAR-CHEWING -0.3010
-4.5005 CIGARETTE -0.2998
-4.9776 CINCINNATI -0.3010
-4.9776 CINDERSLUT -0.2997
-4.9776 CINZANO -0.2874
-4.5005 CIRCLE -0.2815
-4.9776 CIRCULATED -0.2831
-4.9776 CIRCULATORY -0.3010
-4.9776 CIRCUMCISION -0.2961
-4.9776 CIRCUMORBITAL -0.3010
-4.9776 CIRRUS -0.3010
-4.9776 CISALPINE -0.3010
-4.9776 CISCO -0.3010
-4.9776 CITATION -0.3010
-3.9776 CITIES -0.2729
-4.5005 CITIZEN -0.2944
-4.9776 CITIZENS -0.2874
-2.9733 CITY -0.2217
-4.9776 CITY, -0.3008
-4.9776 CITY/TOWN/VILLAGE -0.2831
-4.9776 CIVIC -0.3010
-4.0234 CIVIL -0.3008
-4.6766 CIVILIZATION -0.3002
-4.5005 CLAIM -0.2993
-4.3756 CLAIMED -0.2992
-4.3756 CLAIMS -0.2992
-4.9776 CLARA -0.3010
-4.9776 CLARIS -0.3010
-4.5005 CLARK -0.2990
-4.1995 CLASS -0.2725
-4.5005 CLASSIC -0.2998
-4.3756 CLASSICAL -0.3009
-4.6766 CLASSIFICATION -0.2961
-4.9776 CLASSIFIED -0.3010
-4.6766 CLAUS -0.2998
-4.9776 CLAUSE -0.2975
-4.5005 CLAY -0.3008
-4.3756 CLEAN -0.2870
-4.9776 CLEANER -0.2874
-4.9776 CLEAR -0.2874
-4.6766 CLEVELAND -0.3010
-4.9776 CLIMB -0.2975
-4.9776 CLIMBING -0.2874
-4.6766 CLINIC -0.2873
-4.9776 CLINTON -0.3010
-4.6766 CLIP -0.2874
-4.9776 CLITORIDECTOMY -0.2999
-4.9776 CLITORIS -0.3010
-4.2787 CLOCK -0.2860
-4.9776 CLOCKWISE -0.3009
-4.5005 CLOSE -0.2830
-4.6766 CLOSED -0.2872
-4.5005 CLOSEST -0.2993
-4.9776 CLOSET -0.3006
-4.6766 CLOSING -0.3007
-4.9776 CLOTH -0.2998
-4.5005 CLOTHES -0.2856
-4.3756 CLOTHING -0.2856
-4.1995 CLOUDS -0.2647
-4.3756 CLUB -0.2638
-4.0234 CNN -0.2936
-4.9776 CO-EDUCATIONAL -0.3009
-4.9776 CO-PILOT -0.2961
-4.1995 COACH -0.2744
-4.9776 COACHED -0.2831
-4.9776 COACHES -0.2893
-4.6766 COAL -0.2831
-4.9776 COAST -0.2874
-4.9776 COASTAL -0.3006
-4.9776 COASTLINE -0.2874
-4.9776 COASTLINES -0.3010
-4.9776 COBIA -0.2831
-4.9776 COBOL -0.2997
-4.6766 COCAINE -0.2831
-4.9776 COCKROACHES -0.3008
-4.6766 COCKTAIL -0.3000
-3.8015 CODE -0.2661
-4.9776 CODES -0.2997
-4.9776 CODONS -0.2961
-4.9776 CODY -0.2991
-4.6766 COFFEE -0.2874
-4.9776 COGNAC -0.2874
-4.9776 COHO -0.3010
-4.9776 COHOST -0.2975
-4.9776 COIN -0.2874
-4.9776 COINED -0.2893
-4.9776 COLBY -0.3010
-4.1325 COLD -0.2873
-4.9776 COLD-WATER -0.3010
-4.9776 COLE -0.3005
-4.6766 COLIN -0.3010
-4.9776 COLLABRATIVE -0.2874
-4.2787 COLLECT -0.2689
-4.6766 COLLECTION -0.2795
-4.9776 COLLECTIONS -0.2994
-3.6766 COLLEGE -0.2583
-4.9776 COLLEGES -0.2993
-4.9776 COLLIER -0.3010
-4.6766 COLLINS -0.3009
-4.9776 COLOGNE -0.3009
-4.9776 COLOMBIA -0.2997
-4.9776 COLONEL -0.3010
-4.9776 COLONIES -0.3007
-4.9776 COLONISTS -0.2975
-4.5005 COLONY -0.2824
-3.5152 COLOR -0.2519
-4.5005 COLORADO -0.2684
-4.5005 COLORED -0.2831
-4.1325 COLORS -0.2671
-4.9776 COLT -0.2874
-4.5005 COLUMBIA -0.3010
-4.6766 COLUMBUS -0.2992
-4.5005 COMANECI -0.3009
-4.9776 COMBINATIONS -0.2874
-4.6766 COMBUSTION -0.3010
-3.5974 COME -0.2934
-4.1325 COMEDIAN -0.2983
-4.9776 COMEDIENNE -0.3010
-4.9776 COMEDIENNES -0.2991
-4.9776 COMEDY -0.3009
-4.5005 COMES -0.2987
-3.8315 COMIC -0.2958
-4.6766 COMICS -0.2871
-4.6766 COMING -0.2992
-4.5005 COMMAND -0.2686
-4.6766 COMMANDERS -0.3007
-4.9776 COMMANDMENTS -0.3010
-4.2787 COMMERCIAL -0.2971
-4.9776 COMMERCIALLY -0.3006
-4.9776 COMMISSION -0.2993
-4.9776 COMMISSIONER -0.2961
-4.9776 COMMIT -0.3010
-4.9776 COMMITTED -0.2831
-4.5005 COMMITTEE -0.2870
-4.9776 COMMODITY -0.3010
-3.8637 COMMON -0.2861
-4.5005 COMMONLY -0.3009
-4.9776 COMMONLY-SPOKEN -0.3010
-4.9776 COMMUNE -0.2874
-4.9776 COMMUNICATIONS -0.3010
-4.9776 COMMUNIST -0.3010
-4.6766 COMMUNITY -0.2991
-4.3756 COMPANIES -0.2958
-4.5005 COMPANION -0.2952
-3.4863 COMPANY -0.2686
-4.9776 COMPAQ -0.2991
-4.9776 COMPARED -0.2993
-4.9776 COMPARISONS -0.2961
-4.9776 COMPASS -0.3000
-4.9776 COMPATIBLE -0.2874
-4.9776 COMPETITION -0.2874
-4.9776 COMPETITOR -0.2961
-4.6766 COMPLETE -0.3010
-4.9776 COMPOSED -0.2893
-4.3756 COMPOSER -0.2919
-4.9776 COMPOSITION -0.2961
-4.9776 COMPREHENSIVE -0.2831
-4.9776 COMPRISED -0.2893
-3.8315 COMPUTER -0.2839
-4.9776 COMPUTERS -0.2874
-4.9776 CONCEIVED -0.2997
-4.9776 CONCEIVING -0.3010
-4.9776 CONCENTRATION -0.3010
-4.9776 CONCEPTION -0.2874
-4.6766 CONCERT -0.3001
-4.9776 CONCOCT -0.3007
-4.9776 CONCORDE -0.2874
-4.9776 CONDIMENT -0.2988
-4.9776 CONDITION -0.2975
-4.6766 CONDITIONING -0.2861
-4.6766 CONDITIONS -0.2963
-4.9776 CONDOMS -0.2874
-4.9776 CONDOR -0.2874
-4.9776 CONDUCTOR -0.2961
-4.9776 CONE -0.2874
-4.9776 CONEY -0.3010
-4.5005 CONFEDERATE -0.3009
-4.1995 CONFERENCE -0.2811
-4.5005 CONFERENCES -0.2991
-4.9776 CONFESSION -0.2999
-4.6766 CONFIGURATION -0.2780
-4.9776 CONFLICTS -0.2994
-4.6766 CONGRESS -0.2944
-4.9776 CONGRESSIONAL -0.3010
-4.5005 CONGRESSMAN -0.2873
-4.9776 CONIFER -0.2874
-4.9776 CONJUGATIONS -0.2961
-4.9776 CONNECTICUT -0.2991
-4.9776 CONNECTION -0.3009
-4.9776 CONQUERED -0.2999
-4.9776 CONRAD -0.3010
-4.9776 CONSECUTIVE -0.3009
-4.9776 CONSECUTIVELY -0.2874
-4.9776 CONSERVANCY -0.3010
-4.9776 CONSERVATIONIST -0.2990
-4.9776 CONSIDER -0.3008
-4.3756 CONSIDERED -0.2875
-4.3756 CONSIST -0.2961
-4.9776 CONSISTING -0.2961
-4.9776 CONSORTIUM -0.3010
-4.5005 CONSTELLATION -0.2958
-4.9776 CONSTIPATION -0.2982
-4.9776 CONSTITUTES -0.3007
-4.2787 CONSTITUTION -0.2871
-4.9776 CONSTRUCTED -0.2874
-4.9776 CONSTRUCTION -0.2961
-4.3756 CONTACT -0.2891
-4.5005 CONTAIN -0.2892
-4.9776 CONTAINED -0.2975
-3.9776 CONTAINS -0.2861
-4.6766 CONTEMPTIBLE -0.3010
-4.9776 CONTENTS -0.2961
-4.5005 CONTEST -0.2983
-4.9776 CONTESTANT -0.3010
-4.2787 CONTINENT -0.2796
-4.9776 CONTINENTAL -0.3010
-4.9776 CONTRACEPTIVES -0.2874
-4.6766 CONTRACT -0.3010
-4.9776 CONTRIBUTIONS -0.2993
-4.6766 CONTROL -0.2823
-4.9776 CONTROLS -0.2893
-4.9776 CONVENTION -0.3010
-4.9776 CONVENTIONS -0.3006
-4.9776 CONVERGE -0.2874
-4.9776 CONVERSION -0.2993
-4.9776 CONVERT -0.3010
-4.5005 CONVICTED -0.2961
-4.9776 COOK -0.3000
-4.9776 COOKBOOK -0.3010
-4.9776 COOKERS -0.3010
-4.9776 COOKIE -0.3010
-4.6766 COOLER -0.2958
-4.9776 COOPER -0.3009
-4.9776 COOT -0.2874
-4.9776 COP -0.2958
-4.9776 COPACABANA -0.3010
-4.9776 COPIER -0.3010
-4.9776 COPIES -0.2993
-4.9776 COPPERTOP -0.2999
-4.9776 COPROLITE -0.2874
-4.9776 COPY -0.2961
-4.9776 COPYRIGHT -0.3010
-4.9776 COPYRIGHTED -0.2998
-4.9776 CORDON -0.3010
-4.9776 CORGI -0.2958
-4.5005 CORK -0.3004
-4.9776 CORN -0.2874
-4.9776 CORNELL -0.3010
-4.5005 CORNER -0.2954
-4.9776 CORNERS -0.2998
-4.9776 CORONADO -0.2874
-4.9776 CORONET -0.3010
-4.9776 CORPORAL -0.2874
-4.6766 CORPORATION -0.3008
-4.9776 CORPS -0.3010
-4.3756 CORPUS -0.3010
-4.5005 CORRECT -0.2993
-4.6766 CORRECTLY -0.3010
-4.9776 CORRESPONDENT -0.2997
-4.9776 CORRESPONDING -0.2993
-4.5005 COSMOLOGY -0.2871
-3.8985 COST -0.2566
-4.9776 COSTA -0.3010
-4.9776 COSTLIEST -0.3010
-4.3756 COSTNER -0.2987
-4.6766 COSTS -0.2991
-4.5005 COSTUME -0.3010
-4.9776 COSTUMED -0.3010
-4.6766 COTRUBAS -0.2873
-4.5005 COTTON -0.2829
-4.9776 COULD -0.3010
-4.9776 COULEE -0.3010
-4.3756 COUNCIL -0.2842
-4.5005 COUNT -0.2876
-4.9776 COUNTERCLOCKWISE -0.2874
-4.9776 COUNTERPART -0.2993
-4.9776 COUNTIES -0.2993
-3.5797 COUNTRIES -0.2732
-3.0911 COUNTRY -0.2554
-4.0234 COUNTY -0.2736
-4.9776 COUP -0.3010
-4.9776 COUPLED -0.2975
-4.9776 COURAGE -0.2874
-4.9776 COURIER -0.2874
-4.5005 COURSE -0.2838
-4.0745 COURT -0.2926
-4.9776 COURT-MARTIALLED -0.2997
-4.9776 COUSIN'S -0.3004
-4.6766 COUSINS -0.2689
-4.9776 COUSTEAU -0.2991
-3.9776 COVER -0.2724
-4.6766 COVERS -0.3010
-4.9776 COVREFEU -0.2997
-4.9776 COW -0.3010
-4.5005 COWBOY -0.2872
-4.6766 COWBOYS -0.2961
-4.9776 COWS -0.2874
-4.9776 COZUMEL -0.2997
-4.9776 CRABGRASS -0.2874
-4.9776 CRABS -0.3009
-4.9776 CRACK -0.2975
-4.9776 CRACKER -0.3010
-4.9776 CRACKERS -0.3010
-4.0234 CRAFT -0.2828
-4.6766 CRAIG -0.2831
-4.9776 CRANBERRY -0.3010
-4.9776 CRANES -0.3002
-4.9776 CRAVE -0.2874
-4.3756 CREAM -0.2856
-4.9776 CREAMS -0.3010
-4.2787 CREATE -0.2715
-3.7735 CREATED -0.2556
-4.9776 CREATING -0.2982
-4.9776 CREATIVITY. -0.2893
-4.3756 CREATOR -0.2800
-4.9776 CREATORS -0.2961
-4.2787 CREATURE -0.2803
-4.2787 CREDIT -0.2862
-4.9776 CREDITED -0.3007
-4.9776 CREEK -0.2999
-4.6766 CREEPS -0.2874
-4.9776 CRETACEOUS -0.3010
-4.9776 CREW -0.3010
-4.9776 CREWEL -0.2874
-4.9776 CRIBBAGE -0.3010
-4.6766 CRICKET -0.3006
-4.9776 CRIME -0.2961
-4.3756 CRIMINAL -0.2873
-4.9776 CRIMINOLOGIST -0.3010
-4.9776 CRITICAL -0.3010
-4.9776 CRITICIZING -0.3008
-4.9776 CROAKER -0.3010
-4.9776 CROCODILE -0.3010
-4.9776 CROKINOLE -0.2874
-4.9776 CROMWELL -0.2874
-4.9776 CROONER -0.3010
-4.5005 CROP -0.2972
-4.3756 CROSS -0.2700
-4.9776 CROSSWORD -0.3009
-4.9776 CROWD -0.2999
-4.9776 CROWN -0.3010
-4.9776 CROWN-WINNING -0.3010
-4.9776 CROWNED -0.2975
-4.9776 CROWS -0.2874
-4.9776 CRUCIFIXION -0.2874
-4.9776 CRUISER -0.2993
-4.9776 CRUSADERS -0.3010
-4.9776 CRUSH -0.2831
-4.9776 CRUST -0.2874
-4.9776 CRY -0.3008
-4.9776 CRYPT -0.3010
-4.9776 CRYSTALS -0.3009
-4.9776 CTBT -0.2874
-4.6766 CUBA -0.2874
-4.5005 CUBE -0.2859
-4.9776 CUBIC -0.3010
-4.9776 CUCKOO -0.2991
-4.6766 CUCUMBER -0.3010
-4.9776 CUISINE -0.2831
-4.9776 CULTURE -0.3010
-4.1325 CUP -0.2636
-4.9776 CUPBOARD -0.2988
-4.9776 CURIES -0.2874
-4.9776 CURL -0.2874
-4.9776 CURLY -0.3010
-4.0745 CURRENCY -0.2831
-4.1325 CURRENT -0.3009
-4.1995 CURRENTLY -0.2997
-4.9776 CUSHMAN -0.2998
-4.9776 CUT -0.2874
-4.9776 CWT. -0.2874
-4.9776 CYBERSPACE -0.2999
-4.9776 CYCLIST -0.3010
-4.9776 CYCLONE -0.3007
-4.9776 CYLINDER -0.3010
-4.9776 CYSTIC -0.3010
-4.9776 CZAR -0.2991
-4.9776 CZECH -0.3009
-4.6766 D -0.3010
-4.6766 D-DAY -0.2862
-4.6766 D. -0.3010
-4.9776 D.B. -0.3010
-4.5005 D.C. -0.2855
-4.9776 DA -0.3010
-4.9776 DABBLE -0.3010
-4.9776 DAD'S -0.3004
-4.6766 DADDY -0.3010
-4.5005 DAILY -0.2874
-4.9776 DAIRY -0.3010
-4.6766 DAKOTA -0.3007
-4.9776 DALI -0.2991
-4.6766 DAM -0.2874
-4.6766 DAMAGE -0.2875
-4.9776 DAMAGES -0.2994
-4.9776 DAME -0.3010
-4.6766 DAMINOZIDE -0.2874
-4.9776 DAMS -0.2874
-4.9776 DAN -0.3010
-4.9776 DANCED -0.3009
-4.9776 DANCER -0.2874
-4.9776 DANCING -0.2993
-4.9776 DANE -0.2999
-4.9776 DANGLES -0.3010
-4.9776 DANGLING -0.3010
-4.9776 DANGO -0.2831
-4.9776 DANIEL -0.2991
-4.9776 DANISH -0.3010
-4.1995 DANNY -0.3010
-4.6766 DANUBE -0.2873
-4.9776 DANZA -0.2874
-4.9776 DARE -0.3007
-4.9776 DARING -0.3010
-4.9776 DARIUS -0.2874
-4.9776 DARN -0.3010
-4.9776 DARTBOARD -0.2874
-4.9776 DARTH -0.3010
-4.9776 DARTMOUTH -0.3009
-4.9776 DARWIN -0.2874
-4.9776 DAS -0.3010
-4.9776 DATA -0.3010
-4.6766 DATABASE -0.2874
-3.7224 DATE -0.2710
-4.9776 DATES -0.3007
-4.9776 DATING -0.3007
-4.2787 DAUGHTER -0.2804
-4.5005 DAUGHTERS -0.2823
-4.9776 DAVE -0.3010
-4.3756 DAVID -0.3010
-4.6766 DAVIES -0.2947
-4.6766 DAVIS -0.3010
-4.9776 DAWS -0.3010
-4.9776 DAWSON -0.2991
-4.9776 DAXAM -0.2874
-3.5005 DAY -0.2707
-4.6766 DAYCARE -0.3010
-4.1995 DAYS -0.2809
-4.3756 DC -0.2990
-4.1995 DE -0.3009
-4.2787 DEAD -0.2973
-4.9776 DEADLIEST -0.2874
-4.9776 DEADRISE -0.2997
-4.9776 DEADWOOD -0.2997
-4.6766 DEAL -0.3007
-4.9776 DEALER -0.3000
-4.9776 DEALING -0.3007
-4.9776 DEALS -0.3007
-4.6766 DEALT -0.2856
-4.9776 DEAR -0.3010
-3.9362 DEATH -0.2820
-4.9776 DEBATE -0.3008
-4.9776 DEBBIE -0.3010
-4.5005 DEBUT -0.2652
-4.9776 DECADE -0.2874
-4.9776 DECATHLON -0.3010
-4.5005 DECEMBER -0.3010
-4.9776 DECIDED -0.3007
-4.9776 DECK -0.2961
-4.9776 DECLARATION -0.2961
-4.9776 DECLARE -0.3009
-4.5005 DECLARED -0.3008
-4.9776 DECO -0.2831
-4.9776 DEDICATE -0.2993
-4.9776 DEDICATED -0.2831
-4.9776 DEEPEST -0.3009
-4.6766 DEER -0.2873
-4.9776 DEFECTS -0.2874
-4.9776 DEFENSE -0.2961
-4.9776 DEFENSIVE -0.3010
-4.6766 DEFINE -0.2892
-4.6766 DEFINED -0.2870
-4.0234 DEFINITION -0.2950
-4.6766 DEGAS -0.2874
-4.6766 DEGREE -0.3005
-4.6766 DEGREES -0.3010
-4.9776 DEITIES -0.2961
-4.3756 DELAWARE -0.2688
-4.9776 DELEGATE -0.2975
-4.9776 DELEGATION -0.2874
-4.9776 DELILAH -0.3000
-4.9776 DELIVERED -0.3008
-4.9776 DELTIOLOGIST -0.3010
-4.9776 DEM -0.3010
-4.9776 DEMOCRATIC -0.3010
-4.9776 DENA -0.3010
-4.6766 DENNIS -0.2893
-4.9776 DENTAL -0.3010
-4.6766 DENTIST -0.2873
-4.9776 DENVER -0.3010
-4.9776 DEODORANT -0.3010
-4.1995 DEPARTMENT -0.3010
-4.9776 DEPARTMENTS -0.2975
-4.9776 DEPENDED -0.2874
-4.9776 DEPICTED -0.3000
-4.9776 DEPLOYED -0.2993
-4.9776 DEPRECIATES -0.2999
-4.5005 DEPRESSION -0.2826
-2.5920 DESC:DEF -0.2876
-2.7958 DESC:DESC -0.2858
-2.7929 DESC:MANNER -0.2984
-2.9482 DESC:REASON -0.2859
-4.9776 DESCENDENTS -0.2961
-4.3756 DESCRIBE -0.2827
-4.0745 DESERT -0.2776
-4.1995 DESIGN -0.2608
-4.9776 DESIGNATE -0.3010
-4.9776 DESIGNATED -0.3006
-4.0745 DESIGNED -0.2709
-4.5005 DESIGNER -0.2997
-4.9776 DESIGNING -0.2997
-4.9776 DESIGNS -0.2997
-4.3756 DESMOND -0.2984
-4.9776 DESPONDENT -0.3010
-4.9776 DESTINATION -0.2975
-4.6766 DESTROYED -0.2975
-4.9776 DESTROYING -0.3010
-4.9776 DESTRUCTOR -0.3010
-4.9776 DETAILED -0.3009
-4.6766 DETAILS -0.2872
-4.9776 DETECT -0.3010
-4.5005 DETECTIVE -0.2975
-4.9776 DETERGENT -0.2874
-4.6766 DETERMINE -0.3009
-4.9776 DETERMINED -0.2874
-4.9776 DETERMINES -0.2893
-4.9776 DETROIT -0.3010
-4.6766 DEVELOP -0.2947
-4.0745 DEVELOPED -0.2531
-4.9776 DEVELOPER -0.2961
-4.9776 DEVELOPMENT -0.2961
-4.9776 DEVELOPMENTAL -0.3010
-4.9776 DEVEOPMENT -0.2961
-4.6766 DEVICE -0.3009
-4.9776 DEVICES -0.3007
-4.9776 DEVIL -0.2874
-4.1995 DEVITO -0.2984
-4.9776 DEVO -0.3010
-4.9776 DEVOURED -0.3006
-4.6766 DEW -0.3010
-4.9776 DIABETES -0.2874
-4.9776 DIAGNOSE -0.3010
-4.9776 DIALECT -0.2874
-4.9776 DIALECTS -0.2961
-4.6766 DIALING -0.2997
-4.9776 DIALOGUE -0.3010
-4.9776 DIAMETER -0.3010
-4.9776 DIAMOND -0.3010
-4.9776 DIANA -0.2998
-4.9776 DIANE -0.3010
-4.9776 DIARY -0.2975
-4.1325 DICK -0.2859
-4.3756 DICKENS -0.2990
-4.6766 DICTATOR -0.3006
-2.4262 DID -0.2654
-4.9776 DIDN'T -0.3010
-3.7472 DIE -0.2636
-3.8015 DIED -0.2758
-4.3756 DIEGO -0.3010
-4.6766 DIET -0.2857
-3.6989 DIFFERENCE -0.2996
-4.6766 DIFFERENCES -0.2974
-3.8015 DIFFERENT -0.3000
-4.3756 DIGITAL -0.3010
-4.9776 DIGITALIS -0.2874
-4.3756 DIGITS -0.2961
-4.9776 DIKEMBE -0.3010
-4.6766 DIME -0.2854
-4.6766 DIMENSIONS -0.2961
-4.9776 DIMINUTIVE -0.3008
-4.9776 DIMLY-LIT -0.3009
-4.5005 DINNER -0.2838
-4.5005 DINOSAUR -0.3010
-4.9776 DINOSAURS -0.3007
-4.9776 DIPLOMACY -0.2874
-4.9776 DIPLOMATIC -0.3010
-4.9776 DIPPER -0.2874
-4.9776 DIPSOMANIAC -0.3010
-4.5005 DIRECT -0.2820
-4.1325 DIRECTED -0.2879
-4.9776 DIRECTIONS -0.3000
-4.9776 DIRECTLY -0.3006
-4.3756 DIRECTOR -0.2913
-4.9776 DIRECTORIAL -0.3010
-4.9776 DIRTY -0.2874
-4.6766 DISABILITIES -0.3010
-4.9776 DISAPPEAR -0.2874
-4.9776 DISAPPEARED -0.2874
-4.6766 DISASTER -0.2709
-4.5005 DISC -0.3010
-4.9776 DISCOVER -0.2997
-4.3756 DISCOVERED -0.2859
-4.9776 DISCOVERY -0.2831
-3.9776 DISEASE -0.2505
-4.5005 DISEASES -0.2820
-4.9776 DISH -0.3009
-4.9776 DISHES -0.2831
-4.9776 DISK -0.3010
-4.9776 DISKETTES -0.2874
-4.9776 DISKS -0.2998
-4.9776 DISMISSED -0.3010
-4.6766 DISNEYLAND -0.2777
-4.9776 DISPATCHED -0.2982
-4.5005 DISPLAY -0.2836
-4.9776 DISPLAYS -0.3010
-4.9776 DISPOSABLE -0.3010
-4.9776 DISPOSE -0.2961
-4.6766 DISTANCE -0.3005
-4.9776 DISTINCT -0.3010
-4.9776 DISTINCTION -0.2961
-4.9776 DISTINGUISHING -0.3010
-4.9776 DISTRIBUTE -0.2831
-4.9776 DISTRIBUTIONS -0.2874
-4.9776 DISTRIBUTORS -0.2997
-4.9776 DISTRICT -0.2961
-4.9776 DITA -0.3010
-4.9776 DIVER -0.2874
-4.9776 DIVERS -0.3010
-4.9776 DIVING -0.2874
-4.5005 DIVISION -0.2846
-4.9776 DIVISIONS -0.2961
-4.9776 DIVORCE -0.3010
-4.9776 DIXVILLE -0.3010
-4.5005 DNA -0.2961
-2.6235 DO -0.2422
-4.9776 DO-RIGHT -0.2991
-4.9776 DOCKLANDS -0.3010
-4.6766 DOCTOR -0.2820
-4.9776 DOCTORATE -0.2975
-4.6766 DOCTORS -0.2831
-4.9776 DOCUMENT -0.2994
-4.9776 DOCUMENTARIES -0.2993
-4.9776 DODGERS -0.2831
-2.5593 DOES -0.2821
-4.9776 DOESN -0.3010
-3.6554 DOG -0.2590
-4.9776 DOGS -0.3008
-4.9776 DOGSLEDDING -0.2874
-4.5005 DOGTOWN -0.2975
-4.0234 DOING -0.2819
-4.1995 DOLLAR -0.2830
-4.9776 DOLPHINS -0.3009
-4.9776 DOMAIN -0.3010
-4.9776 DOMESTIC -0.3010
-4.9776 DOMESTICA -0.3010
-4.9776 DOMESTICATED -0.3010
-4.9776 DOMINICA -0.2997
-4.9776 DOMINOES -0.2999
-4.9776 DOMINOS -0.3010
-4.5005 DON -0.3010
-4.6766 DONATED -0.2861
-4.9776 DONATION -0.3010
-4.3756 DONE -0.2861
-4.9776 DONOR -0.2874
-4.9776 DONOVAN -0.3010
-4.9776 DOO -0.2874
-4.6766 DOOBY -0.3000
-4.9776 DOODYVILLE -0.3010
-4.9776 DOOLING -0.3009
-4.9776 DOOM -0.3005
-4.5005 DOONESBURY -0.2688
-4.9776 DOOR -0.2993
-4.9776 DOOR-TO-DOOR -0.3010
-4.9776 DORIA -0.2874
-4.9776 DORITOS -0.2831
-4.9776 DORSETS -0.2997
-4.9776 DOSTOEVSKI -0.2991
-4.9776 DOT -0.3000
-4.9776 DOTS -0.3009
-4.9776 DOUBLE -0.3010
-4.9776 DOUBLE-WORD-SCORE -0.3010
-4.9776 DOUBLEHEADER -0.2874
-4.9776 DOUBLESPEAK -0.3009
-4.9776 DOUGHBOYS -0.2999
-4.9776 DOW -0.3004
-4.1995 DOWN -0.2798
-4.9776 DOWNEY -0.3010
-4.9776 DOWNHILL -0.3010
-4.9776 DOWNLOAD -0.3010
-4.9776 DOXAT -0.2993
-4.9776 DOYLE -0.2874
-4.9776 DOZEN -0.3010
-4.6766 DR. -0.3010
-4.6766 DRACULA -0.2975
-4.9776 DRAFT -0.2961
-4.9776 DRAKE -0.2893
-4.9776 DRAMA -0.3008
-4.9776 DRAMATIZED -0.2893
-4.9776 DRAVIDIAN -0.3010
-4.9776 DRAW -0.2982
-4.9776 DRAWS -0.3010
-4.1995 DREAM -0.2822
-4.9776 DREAMED -0.3007
-4.9776 DRESSED -0.3009
-4.6766 DREW -0.3010
-4.9776 DRILL -0.2874
-4.9776 DRILLS -0.2997
-3.8315 DRINK -0.2773
-4.9776 DRINKER -0.3010
-4.9776 DRINKING -0.2874
-4.3756 DRIVE -0.2994
-4.6766 DRIVEN -0.2971
-4.9776 DRIVER'S -0.3010
-4.6766 DRIVING -0.3010
-4.9776 DROPPED -0.3010
-4.9776 DROPPING -0.3009
-4.9776 DROPS -0.3010
-4.5005 DRUG -0.2941
-4.9776 DRUGS -0.2874
-4.5005 DRY -0.3010
-4.9776 DS -0.2831
-4.3756 DT -0.3009
-4.9776 DUBAI -0.3010
-4.2787 DUBBED -0.2880
-4.9776 DUCATS -0.3006
-4.9776 DUCK -0.2874
-4.9776 DUDLEY -0.3010
-4.9776 DUKE -0.2961
-4.9776 DUMAS -0.3009
-4.9776 DUMB-BUT-LOVEABLE -0.3009
-4.9776 DUMBO -0.2991
-4.9776 DUMMY -0.3010
-4.6766 DUMPTY -0.2838
-4.9776 DUNES -0.2874
-4.9776 DUNGRI -0.2997
-3.6766 DURING -0.2745
-4.9776 DUST -0.2997
-4.9776 DUSTBOWL -0.2874
-4.9776 DWARF -0.2993
-4.9776 DWARFS -0.2999
-4.9776 DWIGHT -0.3010
-4.9776 DX3000 -0.3005
-4.9776 DYCK -0.2998
-4.9776 DYE -0.3010
-4.9776 DYING -0.3006
-4.9776 DYLAN -0.3010
-4.9776 DYNASTY -0.3009
-4.6766 E-COMMERCE -0.2874
-4.3756 E-MAIL -0.3009
-4.9776 E.G. -0.3009
-4.6766 E=MC2 -0.2872
-3.9776 EACH -0.2957
-4.6766 EAGLE -0.2811
-4.9776 EAGLES -0.2831
-4.6766 EAR -0.2868
-4.9776 EARHART -0.3010
-4.6766 EARLY -0.2993
-4.9776 EARN -0.2982
-4.9776 EARNED -0.3007
-4.9776 EARNS -0.3009
-4.6766 EARS -0.3005
-3.8315 EARTH -0.2663
-4.9776 EARTHWORMS -0.2993
-4.9776 EASIEST -0.3010
-4.9776 EASILY -0.3010
-4.1995 EAST -0.2949
-4.9776 EAST-WEST -0.3010
-4.6766 EASTER -0.3010
-4.9776 EASTWARD -0.2998
-4.6766 EASY -0.3010
-4.0745 EAT -0.2715
-4.9776 EATEN -0.2874
-4.9776 ECHIDNA -0.3010
-4.9776 ECKLEY -0.3010
-4.9776 ECLAIRS -0.3006
-4.9776 ECONOLINE -0.3010
-4.6766 ECONOMIC -0.3010
-4.9776 ECONOMISTS -0.3000
-4.5005 ECONOMY -0.2823
-4.9776 ECZEMA -0.2997
-4.9776 ED -0.3010
-4.6766 EDBERG -0.2990
-4.9776 EDGAR -0.3010
-4.9776 EDGE -0.2874
-4.9776 EDINBURGH -0.2874
-4.9776 EDITH -0.3010
-4.9776 EDITION -0.2961
-4.9776 EDITOR -0.2961
-4.9776 EDMONTON -0.3009
-4.9776 EDMUND -0.3010
-4.9776 EDUARD -0.3010
-4.2787 EDUCATION -0.2999
-4.6766 EDWARD -0.3010
-4.9776 EDWIN -0.3010
-4.9776 EELS -0.3009
-4.9776 EENTY -0.3008
-4.6766 EFFECTS -0.2951
-4.6766 EFFICIENT -0.2975
-4.5005 EGG -0.2872
-4.2787 EGGS -0.2860
-4.9776 EGYPT -0.3010
-4.9776 EGYPTIANS -0.3010
-4.9776 EH -0.2874
-4.6766 EIFFEL -0.3010
-4.9776 EIGHT -0.3010
-4.5005 EINSTEIN -0.2989
-4.6766 EISENHOWER -0.2979
-4.9776 EITHER -0.3009
-4.9776 EJACULATE -0.2874
-4.9776 EJACULATION -0.2874
-4.1995 EL -0.3010
-4.9776 ELDEST -0.2961
-4.9776 ELECT -0.3009
-4.6766 ELECTED -0.2872
-4.3756 ELECTION -0.2636
-4.6766 ELECTIONS -0.2874
-4.9776 ELECTORAL -0.3010
-4.1325 ELECTRIC -0.2873
-4.6766 ELECTRICITY -0.2861
-4.9776 ELECTRONIC -0.3010
-4.9776 ELECTRONICS -0.3009
-4.1995 ELEMENT -0.2825
-4.6766 ELEMENTARY -0.3009
-4.5005 ELEMENTS -0.2838
-4.6766 ELEPHANT -0.2872
-4.9776 ELEVATION -0.3008
-4.9776 ELEVATORS -0.3000
-4.3756 ELEVEN -0.2976
-4.9776 ELI -0.3010
-4.9776 ELICIT -0.2893
-4.9776 ELIZABETH -0.3010
-4.9776 ELK -0.3010
-4.9776 ELLA -0.2874
-4.9776 ELM -0.3010
-4.9776 ELROY -0.3010
-4.5005 ELSE -0.3006
-4.9776 ELVIS -0.3010
-4.9776 ELYSIUM -0.3008
-4.3756 EMAIL -0.2996
-4.6766 EMBASSY -0.2874
-4.9776 EMBEDDED -0.2975
-4.9776 EMBLAZONED -0.3000
-4.9776 EMBLEM -0.2961
-4.9776 EMBRACING -0.3010
-4.9776 EMIL -0.3010
-4.9776 EMMA -0.3010
-4.9776 EMMIGRATE -0.3010
-4.9776 EMOTIONAL -0.3010
-4.3756 EMPEROR -0.2850
-4.9776 EMPERORS -0.3007
-4.1995 EMPIRE -0.2835
-4.6766 EMPLOY -0.2689
-4.9776 EMPLOYED -0.3010
-4.9776 EMPLOYEE -0.2961
-4.9776 EMPLOYER -0.2831
-4.9776 EMPTY -0.3010
-4.9776 ENCLOSE -0.3010
-4.9776 ENCYCLOPEDIA -0.3010
-4.3756 END -0.2838
-4.5005 ENDED -0.3007
-4.3756 ENDS -0.2956
-4.9776 ENEMIES -0.2874
-4.9776 ENEMY -0.3010
-4.3756 ENERGY -0.2768
-4.6766 ENGAGED -0.2795
-4.1325 ENGINE -0.2648
-4.9776 ENGINEER -0.3009
-4.9776 ENGINEERING -0.2831
-4.6766 ENGINES -0.2993
-3.9362 ENGLAND -0.2840
-3.8015 ENGLISH -0.2869
-4.9776 ENGLISHMAN -0.2993
-4.9776 ENIGMATIC -0.3007
-4.9776 ENLIST -0.3010
-4.9776 ENOLA -0.3010
-4.6766 ENOUGH -0.2941
-4.9776 ENROLLED -0.3008
-4.9776 ENTAIL -0.2874
-4.9776 ENTEBBE -0.3010
-4.5005 ENTER -0.2863
-4.9776 ENTERED -0.2893
-4.5005 ENTERPRISE -0.2820
-4.9776 ENTERS -0.2982
-4.9776 ENTERTAINER -0.2999
-4.9776 ENTIRE -0.3010
-3.1026 ENTY:ANIMAL -0.2852
-3.8637 ENTY:BODY -0.2768
-3.6159 ENTY:COLOR -0.2903
-2.9021 ENTY:CREMAT -0.2842
-4.9776 ENTY:CURRENCY -0.2903
-3.2294 ENTY:DISMED -0.2899
-3.4462 ENTY:EVENT -0.2903
-3.2964 ENTY:FOOD -0.2880
-4.0745 ENTY:INSTRU -0.2903
-4.0745 ENTY:LANG -0.2888
-4.1325 ENTY:LETTER -0.2903
-2.8913 ENTY:OTHER -0.2806
-4.1325 ENTY:PLANT -0.2903
-3.5627 ENTY:PRODUCT -0.2888
-4.9776 ENTY:RELIGION -0.2975
-3.5005 ENTY:SPORT -0.2745
-3.5797 ENTY:SUBSTANCE -0.2903
-4.1995 ENTY:SYMBOL -0.2903
-3.6766 ENTY:TECHMETH -0.2893
-3.2452 ENTY:TERMEQ -0.2875
-3.8637 ENTY:VEH -0.2882
-3.8315 ENTY:WORD -0.2903
-4.9776 ENVIRONMENT -0.2874
-4.9776 ENVIRONMENTAL -0.3010
-4.9776 ENZYMES -0.2874
-4.9776 EPIC -0.3010
-4.5005 EPISODE -0.2960
-4.6766 EPISODES -0.2819
-4.9776 EPSILON -0.2831
-4.2787 EQUAL -0.2845
-4.9776 EQUALS -0.3007
-4.9776 EQUATION -0.3010
-4.6766 EQUATOR -0.2991
-4.9776 EQUINOX -0.2874
-4.9776 EQUIPMENT -0.3006
-4.9776 EQUITY -0.3010
-4.9776 EQUIVALENCE -0.3010
-4.5005 EQUIVALENT -0.2980
-4.6766 ERA -0.2870
-4.9776 ERECTED -0.2874
-4.9776 ERICA -0.3010
-4.9776 ERIKSEN -0.2874
-4.9776 ERMAL -0.3010
-4.6766 ERNEST -0.3010
-4.9776 ERNIE -0.2874
-4.9776 ERS -0.3009
-4.9776 ERUPT -0.2831
-4.6766 ERUPTION -0.2823
-4.9776 ERUPTS -0.3010
-4.9776 ESKIMO -0.3008
-4.9776 ESPERANTO -0.3010
-4.9776 ESPIONAGE -0.2999
-4.5005 ESTABLISH -0.2870
-4.6766 ESTABLISHED -0.2802
-4.6766 ESTATE -0.2863
-4.9776 ESTIMATED -0.3010
-4.6766 ETC. -0.2997
-4.6766 ETERNITY -0.2874
-4.9776 ETHEL -0.3010
-4.9776 ETHNIC -0.3010
-4.9776 ETHNOLOGICAL -0.3010
-4.9776 ETHOLOGY -0.2874
-4.9776 ETHYLENE -0.2874
-4.9776 ETTA -0.3010
-4.9776 EUCHRE -0.2874
-4.9776 EUNICE -0.2874
-4.9776 EURO -0.3009
-4.2787 EUROPE -0.2860
-4.0234 EUROPEAN -0.2988
-4.9776 EUROS -0.2831
-4.9776 EVAPORATE -0.2874
-4.9776 EVEN -0.3005
-4.6766 EVENING -0.3010
-3.8015 EVENT -0.2632
-4.1995 EVENTS -0.2738
-4.1995 EVER -0.2872
-4.6766 EVEREST -0.2809
-4.2787 EVERY -0.3006
-4.9776 EVERYBODY -0.3010
-4.6766 EVERYTHING -0.2958
-4.9776 EVIDENCE -0.2997
-4.6766 EVIL -0.2874
-4.9776 EWOKS -0.3009
-4.9776 EX-DICTATOR -0.3010
-4.5005 EXAMPLE -0.2961
-4.6766 EXAMPLES -0.2961
-4.5005 EXCHANGE -0.2874
-4.9776 EXCLUDED -0.3006
-4.9776 EXCLUSIVE -0.3010
-4.9776 EXCLUSIVELY -0.2997
-4.9776 EXCUSE -0.2994
-4.5005 EXECUTED -0.2958
-4.9776 EXECUTION -0.2874
-4.9776 EXECUTIVE -0.3010
-4.9776 EXECUTOR -0.2975
-4.6766 EXERCISE -0.2874
-4.9776 EXERCISES -0.2997
-4.5005 EXHIBIT -0.2983
-4.9776 EXHIBITED -0.2831
-4.6766 EXHIBITIONS -0.3001
-4.6766 EXHIBITS -0.2988
-4.6766 EXIST -0.2965
-4.9776 EXPANSION -0.3010
-4.9776 EXPECT -0.2993
-4.6766 EXPECTANCY -0.2960
-4.6766 EXPECTANT -0.3010
-4.9776 EXPEDITION -0.2975
-4.9776 EXPELLED -0.3006
-4.9776 EXPENSIVE -0.3010
-4.6766 EXPERIENCED -0.2892
-4.9776 EXPERIMENTING -0.3007
-4.9776 EXPERTS -0.3009
-4.6766 EXPLORER -0.2974
-4.9776 EXPLORERS -0.3010
-4.9776 EXPLORING -0.3007
-4.9776 EXPLOSIVE -0.3000
-4.5005 EXPORT -0.2874
-4.6766 EXPORTS -0.2752
-4.3756 EXPRESSION -0.2986
-4.9776 EXTANT -0.3010
-4.9776 EXTENDED -0.3010
-4.9776 EXTENSION -0.3010
-4.6766 EXTENSIONS -0.2993
-4.9776 EXTERMINATE -0.3010
-4.9776 EXTINCT -0.3007
-4.9776 EXXON -0.3010
-4.1995 EYE -0.2820
-4.9776 EYEBROWS -0.2874
-4.1325 EYES -0.2653
-4.9776 EZRA -0.3010
-4.3756 F -0.2997
-4.9776 F-5 -0.3010
-4.0745 F. -0.3010
-4.9776 F.C. -0.3006
-4.9776 F25 -0.3010
-4.9776 FA -0.3010
-4.9776 FABER -0.3010
-4.9776 FABLE -0.3006
-4.2787 FACE -0.2829
-4.9776 FACED -0.2874
-4.6766 FACES -0.2842
-4.6766 FACIAL -0.3010
-4.9776 FACILITIES -0.3006
-4.6766 FACILITY -0.2831
-4.3756 FACT -0.3000
-4.9776 FACTOR -0.2874
-4.9776 FACTS -0.2998
-4.9776 FADE -0.3010
-4.9776 FAILURE -0.3010
-4.9776 FAIRGROUND -0.3010
-4.6766 FAIRY -0.3010
-4.9776 FAITH -0.2997
-4.9776 FALKLANDS -0.2874
-4.9776 FALLEN -0.2997
-4.9776 FALLINGWATER -0.2831
-4.3756 FALLS -0.2688
-4.9776 FALWELL -0.2874
-4.1325 FAME -0.2622
-4.1995 FAMED -0.3008
-4.0745 FAMILY -0.2817
-4.9776 FAMINE -0.2874
-3.5797 FAMOUS -0.2820
-4.9776 FAN -0.2874
-4.5005 FANS -0.2871
-4.6766 FANTASTIC -0.3010
-4.9776 FANTASY -0.3010
-4.0745 FAR -0.2937
-4.5005 FARE -0.2989
-4.6766 FARGO -0.2990
-4.9776 FARMER -0.2991
-4.9776 FARROW -0.2991
-4.9776 FARTHER -0.2999
-4.9776 FARTHEST -0.2874
-4.9776 FASCINATED -0.3007
-4.9776 FASO -0.2874
-4.1325 FAST -0.2931
-4.9776 FASTENER -0.2994
-4.9776 FASTER -0.2874
-4.0745 FASTEST -0.2836
-4.9776 FAT -0.2874
-4.6766 FATAL -0.2993
-4.0745 FATHER -0.2809
-4.9776 FATHOM -0.2874
-4.9776 FATIGUE -0.2982
-4.9776 FATS -0.2998
-3.4863 FAVORITE -0.2996
-4.9776 FAVOURED -0.3010
-4.9776 FAWAZ -0.3010
-4.9776 FAWLTY -0.3010
-4.9776 FAX -0.2998
-4.9776 FBI -0.2997
-4.9776 FCC -0.3010
-4.9776 FDR -0.2874
-4.9776 FE -0.3010
-3.3544 FEAR -0.2769
-4.9776 FEATHERED -0.3010
-4.6766 FEATURE -0.3010
-4.1995 FEATURED -0.2857
-4.0745 FEATURES -0.2863
-4.5005 FEBRUARY -0.2874
-4.3756 FEDERAL -0.3010
-4.9776 FEDOR -0.3010
-4.9776 FEEL -0.2999
-4.9776 FEELING -0.2961
-4.1325 FEET -0.2744
-4.6766 FEIN -0.2854
-4.9776 FELICITY -0.2999
-4.9776 FELLOW -0.3010
-4.9776 FELT -0.3009
-4.0234 FEMALE -0.2871
-4.9776 FEMININE -0.3010
-4.9776 FENCES -0.3009
-4.9776 FERDINAND -0.3010
-4.9776 FERGIE -0.3009
-4.9776 FERMONT -0.2991
-4.9776 FERRARI -0.3010
-4.9776 FERRY -0.3010
-4.6766 FESTIVAL -0.2838
-4.9776 FEUD -0.3010
-4.9776 FEUDAL -0.3010
-4.9776 FEVER -0.2874
-4.9776 FEYNMAN -0.3010
-4.9776 FIBROSIS -0.2874
-4.6766 FICTION -0.3010
-4.5005 FICTIONAL -0.3009
-4.9776 FIDDLERS -0.2994
-4.6766 FIDELIS -0.2999
-4.9776 FIEDLER -0.2991
-4.5005 FIELD -0.2873
-4.9776 FIESTA -0.2874
-4.6766 FIFA -0.3006
-4.2787 FIFTH -0.3010
-4.9776 FIFTH-LARGEST -0.3007
-4.9776 FIG -0.3010
-4.9776 FIGHT -0.2993
-4.9776 FIGHTER -0.2831
-4.9776 FIGHTING -0.2874
-4.6766 FIGURE -0.2874
-4.9776 FIGURES -0.2831
-4.1995 FILE -0.2811
-4.9776 FILES -0.3006
-4.9776 FILLING -0.2975
-4.9776 FILLION -0.3010
-3.3756 FILM -0.2537
-4.9776 FILMMAKERS -0.3010
-4.0745 FILMS -0.2823
-4.9776 FILTHIEST -0.3007
-4.2787 FINAL -0.2831
-4.9776 FINALLY -0.3010
-3.2068 FIND -0.2817
-4.9776 FINDS -0.2893
-4.9776 FINE -0.2997
-4.6766 FINED -0.2997
-4.9776 FINGERNAILS -0.3009
-4.6766 FINGERS -0.2993
-4.5005 FINISH -0.2830
-4.9776 FINNISH -0.3010
-3.9776 FIRE -0.2836
-4.9776 FIRE-AND-BRIMSTONE -0.3010
-4.6766 FIRED -0.3006
-4.9776 FIREFLY -0.2831
-4.9776 FIREHOLE -0.3010
-4.9776 FIREMEN -0.2874
-4.9776 FIREPLACE -0.2874
-4.9776 FIRES -0.2982
-4.9776 FIREWALL -0.2874
-4.5005 FIRM -0.3006
-2.8103 FIRST -0.2707
-4.9776 FIRST-AID -0.3010
-4.9776 FISCHER -0.3010
-4.3756 FISH -0.2969
-4.6766 FIT -0.2830
-4.0234 FIVE -0.2869
-4.9776 FIVE-TEAM -0.3010
-4.9776 FIVEPIN -0.3010
-4.9776 FIXED -0.2975
-4.9776 FLAB -0.3010
-4.1325 FLAG -0.2787
-4.5005 FLAGS -0.2873
-4.9776 FLAKES -0.3010
-4.9776 FLAME -0.3010
-4.9776 FLATFISH -0.3010
-4.6766 FLAVOR -0.2820
-4.9776 FLEA -0.3005
-4.9776 FLEECE -0.2831
-4.9776 FLEET -0.3010
-4.9776 FLEMING -0.3010
-4.9776 FLEW -0.2993
-4.9776 FLICKR -0.2831
-4.5005 FLIES -0.2974
-4.1325 FLIGHT -0.2806
-4.9776 FLIGHTS -0.2874
-4.9776 FLINTKNAPPING -0.2999
-4.6766 FLINTSTONES -0.2997
-4.9776 FLOAT -0.3010
-4.9776 FLOG -0.3000
-4.9776 FLOGGED -0.3009
-4.9776 FLOODS -0.2874
-4.5005 FLOOR -0.2822
-4.9776 FLOORS -0.2998
-4.5005 FLORENCE -0.2873
-4.3756 FLORIDA -0.2820
-4.6766 FLOURISH -0.2874
-4.9776 FLOW -0.3009
-4.9776 FLOWER -0.2994
-4.9776 FLOWERS -0.2998
-4.9776 FLOWN -0.2831
-4.6766 FLOWS -0.3010
-4.9776 FLOYD -0.3010
-4.9776 FLUORINE -0.2997
-4.9776 FLUSH -0.3010
-4.1325 FLY -0.2822
-4.9776 FLYER -0.2990
-4.6766 FLYING -0.3010
-4.9776 FOCUS -0.2961
-4.9776 FODOR -0.2991
-4.9776 FOGS -0.2874
-4.5005 FOLIC -0.3010
-4.9776 FOLIES -0.3010
-4.9776 FOLK -0.3010
-4.9776 FOLKLORE -0.3010
-4.6766 FOLLOW -0.2752
-4.9776 FOLLOW-UP -0.2993
-4.3756 FOLLOWED -0.2888
-3.9776 FOLLOWING -0.2848
-4.9776 FONDNESS -0.2997
-4.9776 FONTAINE -0.2999
-4.9776 FONTANNE -0.2874
-4.0234 FOOD -0.2801
-4.6766 FOODS -0.2874
-4.6766 FOOLS -0.2831
-4.9776 FOOT-INCHES -0.2874
-4.9776 FOOT-POUNDS -0.2993
-4.3756 FOOTBALL -0.3007
-4.9776 FOOTBALLS -0.2874
-4.9776 FOOTWEAR -0.2993
-2.5289 FOR -0.2211
-4.5005 FORCE -0.2856
-4.6766 FORCED -0.2983
-4.6766 FORCES -0.2975
-4.0745 FORD -0.2984
-4.9776 FORECLOSURE -0.3010
-4.9776 FOREHAND -0.2874
-4.2787 FOREST -0.2823
-4.9776 FORESTS -0.2874
-4.9776 FOREWORD -0.2874
-3.8315 FORM -0.2636
-4.9776 FORMAT -0.2988
-4.5005 FORMATIONS -0.2990
-4.9776 FORMATS -0.3010
-4.1995 FORMED -0.2837
-4.1325 FORMER -0.2996
-4.9776 FORMS -0.2998
-4.6766 FORMULA -0.2980
-4.9776 FORT -0.3010
-4.9776 FORTRAN -0.2997
-4.5005 FORTUNE -0.2860
-4.9776 FORUNE -0.3010
-4.9776 FOSSILIZES -0.2993
-4.9776 FOSSILS -0.3009
-4.9776 FOSTER -0.2874
-4.2787 FOUGHT -0.2823
-4.9776 FOUL -0.3010
-3.9776 FOUND -0.2631
-3.6766 FOUNDED -0.2558
-4.6766 FOUNDER -0.2949
-4.9776 FOUNDERS -0.2961
-4.9776 FOUNDING -0.3010
-3.8015 FOUR -0.2969
-4.9776 FOUR-HANDED -0.3009
-4.9776 FOUR-LEGGED -0.3010
-4.9776 FOUR-SIDED -0.3010
-4.9776 FOURNIE -0.3010
-4.9776 FOURTEENTH -0.3010
-4.6766 FOURTH -0.2874
-4.9776 FOWL -0.3010
-4.3756 FOX -0.2838
-4.9776 FOXES -0.3010
-4.9776 FRACTION -0.2961
-4.9776 FRAMES -0.2998
-4.3756 FRANCE -0.2874
-4.9776 FRANCESCO -0.3010
-4.9776 FRANCIS -0.2961
-4.5005 FRANCISCO -0.2831
-4.5005 FRANK -0.3010
-4.9776 FRANKFURT -0.2874
-4.9776 FRANKIE -0.2975
-4.9776 FRANKLIN -0.3010
-4.9776 FRANZ -0.3010
-4.9776 FRAY -0.3010
-4.6766 FRAZE -0.3008
-4.9776 FRAZIER -0.3010
-4.5005 FRED -0.3010
-4.9776 FREDDIE -0.3010
-4.9776 FREDERICK -0.3004
-4.2787 FREE -0.2874
-4.5005 FREEBASE -0.2831
-4.9776 FREED -0.3008
-4.9776 FREEDOM -0.3010
-4.9776 FREEDY -0.3010
-4.9776 FREEZING -0.3010
-4.9776 FREIDREICH -0.3010
-3.8985 FRENCH -0.2870
-4.9776 FREQUENCY -0.2961
-4.9776 FREQUENT -0.3010
-4.6766 FRESH -0.2998
-4.9776 FREUD -0.3010
-4.9776 FRIDA -0.3010
-4.3756 FRIEND -0.2828
-4.9776 FRITO-LAY -0.2874
-4.9776 FROGS -0.2874
-2.9648 FROM -0.2456
-4.6766 FRONT -0.2874
-4.9776 FRONTIER -0.3010
-4.9776 FROSTED -0.3010
-4.6766 FROZEN -0.2874
-4.6766 FRUIT -0.2998
-4.9776 FRUIT-TOPPED -0.3010
-4.9776 FRUITS -0.3009
-4.9776 FRUSTRATED -0.3010
-4.9776 FRY -0.2831
-4.0745 FUEL -0.2988
-4.9776 FUJI -0.3009
-4.9776 FULHAM -0.3010
-4.1995 FULL -0.2950
-4.9776 FUN -0.3010
-4.3756 FUNCTION -0.2949
-4.9776 FUND -0.2998
-4.9776 FUNERAL -0.3010
-4.6766 FUNGAL -0.3010
-4.9776 FUNK -0.3010
-4.9776 FUNNEL -0.2874
-4.9776 FUR -0.2874
-4.6766 FURIOUS -0.2831
-4.9776 FURTH -0.2997
-4.9776 FURTHER -0.2999
-4.6766 FUSION -0.2999
-4.6766 FUTURE -0.3008
-4.9776 G -0.2874
-4.9776 G. -0.3010
-4.9776 G.H. -0.3010
-4.9776 G.M.T. -0.3009
-4.9776 G2 -0.3010
-4.9776 G7 -0.3010
-4.9776 GAELIC -0.3010
-4.6766 GAIN -0.3010
-4.6766 GAINED -0.3010
-4.9776 GAJA -0.2997
-4.9776 GALAPAGOS -0.3010
-4.9776 GALILEO -0.3010
-4.9776 GALL -0.3010
-4.9776 GALLERY -0.2975
-4.6766 GALLON -0.2961
-4.5005 GAMBLE -0.2874
-4.9776 GAMBLER -0.2874
-3.4591 GAME -0.2458
-3.8637 GAMES -0.2784
-4.9776 GAMETOPHYTIC -0.3010
-4.9776 GAMING -0.3010
-4.5005 GANDHI -0.2838
-4.9776 GANDY -0.3010
-4.6766 GANG -0.2872
-4.9776 GAP, -0.3010
-4.9776 GARBAGE -0.3006
-4.9776 GARCIA -0.3010
-4.9776 GARDEN -0.2961
-4.9776 GARFIELD -0.2999
-4.9776 GARLAND -0.3009
-4.9776 GARMENT -0.2988
-4.9776 GARRETT -0.3010
-4.3756 GARRY -0.3010
-4.6766 GARTER -0.2989
-4.9776 GARTH -0.3010
-4.5005 GAS -0.3009
-4.3756 GATE -0.3010
-4.5005 GATES -0.2958
-4.9776 GATHERING -0.3010
-4.9776 GATO -0.3010
-4.9776 GATORADE -0.2991
-4.9776 GATSBY -0.2874
-4.9776 GAULLE -0.3010
-4.6766 GAVE -0.3007
-4.3756 GAY -0.2993
-4.9776 GAZA -0.3010
-4.9776 GE -0.3009
-4.6766 GEESE -0.2874
-4.6766 GEHRIG -0.3003
-4.9776 GENDER -0.3006
-4.6766 GENE -0.3010
-4.0234 GENERAL -0.2799
-4.6766 GENERALS -0.3005
-4.3756 GENERATION -0.2961
-4.9776 GENERATIONS -0.2961
-4.5005 GENERATOR -0.2861
-4.6766 GENESIS -0.3010
-4.6766 GENETICS -0.2874
-4.2787 GENRE -0.2708
-4.5005 GENRES -0.2802
-4.9776 GEOGRAPHICAL -0.3010
-4.2787 GEORGE -0.2961
-4.9776 GEORGETOWN -0.2999
-4.5005 GEORGIA -0.2846
-4.6766 GERALD -0.3010
-4.3756 GERMAN -0.2826
-4.9776 GERMANIC -0.3010
-4.0234 GERMANY -0.2873
-4.9776 GESTAPO -0.2874
-4.9776 GESTATION -0.2874
-4.9776 GESTURE -0.3008
-3.2294 GET -0.2620
-4.9776 GETS -0.3010
-4.5005 GETTING -0.3010
-4.5005 GETTYSBURG -0.2873
-4.9776 GHOST -0.2958
-4.9776 GIANT -0.3010
-4.9776 GIANTS -0.3010
-4.9776 GIBSON -0.2991
-4.9776 GIFT -0.2961
-4.9776 GILLETTE -0.2874
-4.9776 GILLIGAN_S -0.3010
-4.9776 GIMLI -0.3006
-4.6766 GIN -0.2998
-4.9776 GINA -0.3008
-4.9776 GIRAFFE -0.2874
-4.9776 GIRARDI -0.3010
-4.2787 GIRL -0.2835
-4.9776 GIRLFRIEND -0.2874
-4.6766 GIRLS -0.2874
-4.1995 GIVE -0.2951
-4.9776 GIVEN -0.3008
-4.3756 GIVES -0.2999
-4.6766 GIVING -0.3010
-4.6766 GLACIER -0.2873
-4.9776 GLAND -0.2975
-4.0745 GLASS -0.2804
-4.9776 GLEN -0.3010
-4.5005 GLITTERS -0.2955
-4.9776 GLOBAL -0.3010
-4.6766 GLOBE -0.3010
-4.9776 GLORY -0.3007
-4.9776 GLOSTER -0.3010
-4.9776 GLOVE -0.2874
-4.9776 GLOWSTICKS -0.2874
-4.9776 GLS -0.3010
-4.9776 GLUTAMINE -0.2831
-4.9776 GM -0.3009
-3.6989 GO -0.2840
-4.9776 GOAL -0.2874
-4.9776 GOALIE -0.3009
-4.9776 GOALKEEPERS -0.2831
-4.6766 GOAT -0.3009
-4.9776 GOBLET -0.2961
-4.1325 GOD -0.2618
-4.9776 GOD-SULLEN -0.2997
-4.9776 GODDAMN -0.3010
-4.6766 GODDESS -0.2874
-4.6766 GODFATHER -0.2973
-4.9776 GODIVA -0.3010
-4.6766 GODS -0.3008
-4.9776 GOERING -0.2874
-4.6766 GOGH -0.2975
-4.2787 GOING -0.2982
-4.0234 GOLD -0.2818
-4.0745 GOLDEN -0.3009
-4.9776 GOLDENSEAL -0.2874
-4.9776 GOLDFISH -0.3010
-4.9776 GOLDFUS -0.2874
-4.9776 GOLDIE -0.3010
-4.1995 GOLF -0.3009
-4.5005 GOLFER -0.2989
-4.9776 GOLFERS -0.3010
-4.9776 GOLFING -0.3010
-4.9776 GOMPERS -0.2874
-4.5005 GONE -0.2990
-3.8015 GOOD -0.2967
-4.2787 GOODALL -0.2871
-4.9776 GOODNIGHT -0.2997
-4.9776 GOOGLE -0.3010
-4.9776 GOOSEBUMPS -0.3002
-4.9776 GOPHER -0.3010
-4.6766 GORE -0.2977
-4.9776 GOSFIELD -0.3009
-4.3756 GOT -0.2890
-4.6766 GOTHAM -0.2869
-4.9776 GOTHIC -0.3010
-4.9776 GOTTEN -0.3007
-4.0745 GOULD -0.2992
-4.9776 GOVERNED -0.3006
-4.1995 GOVERNMENT -0.2835
-4.9776 GOVERNMENTAL -0.3010
-4.3756 GOVERNOR -0.2961
-4.9776 GOWN -0.2993
-4.9776 GRAB -0.3009
-4.9776 GRABS -0.2893
-4.9776 GRACED -0.2893
-4.6766 GRACES -0.2893
-4.3756 GRADE -0.2831
-4.9776 GRADER -0.2874
-4.9776 GRADERS -0.3010
-4.9776 GRADUAL -0.3010
-4.6766 GRADUATE -0.3009
-4.9776 GRADUATED -0.3006
-4.9776 GRAEME -0.3010
-4.9776 GRAM -0.2874
-4.6766 GRAMMY -0.3009
-4.9776 GRAMMYS -0.2994
-4.9776 GRANARY -0.2997
-4.3756 GRAND -0.3010
-4.9776 GRANDEUR -0.3007
-4.9776 GRANDFATHER'S -0.3010
-4.9776 GRANDFATHER’S -0.3010
-4.9776 GRANDMA -0.2999
-4.9776 GRANDMOTHER -0.3009
-4.6766 GRANDMOTHER'S -0.3009
-4.9776 GRANT -0.3000
-4.9776 GRANTED -0.3010
-4.9776 GRAPE -0.3010
-4.9776 GRAPES -0.2961
-4.9776 GRAPHIC -0.3010
-4.9776 GRASS -0.3010
-4.9776 GRAVITY -0.2874
-4.9776 GRAY -0.2997
-4.1325 GREAT -0.3009
-4.3756 GREATEST -0.3009
-4.9776 GREECE -0.2997
-4.0745 GREEK -0.3008
-4.0745 GREEN -0.2872
-4.9776 GREENFIELD -0.3009
-4.9776 GREENLAND -0.3008
-4.9776 GRENADA -0.2991
-4.9776 GRETEL -0.2874
-4.9776 GREW -0.3009
-4.9776 GRILLED -0.3010
-4.9776 GRIMACE -0.2998
-4.9776 GRIMES -0.2997
-4.9776 GRINCH -0.2990
-4.9776 GRINGO -0.3008
-4.9776 GROHL -0.2991
-4.6766 GROOVES -0.2993
-4.9776 GROPIUS' -0.3010
-4.5005 GROSS -0.2991
-4.6766 GROUND -0.3007
-3.8637 GROUP -0.2757
-4.9776 GROUPS -0.3010
-4.9776 GROVER -0.3010
-4.5005 GROW -0.2890
-4.5005 GROWING -0.3008
-4.6766 GROWTH -0.2975
-4.9776 GRUTA -0.3010
-4.6766 GSUSA -0.2831
-4.9776 GUAM -0.2874
-4.9776 GUARANTEE -0.3007
-4.6766 GUARDIAN -0.3004
-4.9776 GUERNSEY -0.2997
-4.9776 GUESS -0.2990
-4.9776 GUIDE -0.3010
-4.9776 GUIDEBOOKS -0.2993
-4.6766 GUILD -0.2874
-4.6766 GUINEA -0.2874
-4.6766 GUITAR -0.2994
-4.6766 GUITARIST -0.2823
-4.9776 GUITEAU -0.2874
-4.6766 GULF -0.2874
-4.9776 GULL -0.3009
-4.9776 GUM -0.3010
-4.9776 GUMMED -0.3010
-4.6766 GUNPOWDER -0.3010
-4.9776 GUSTAV -0.3010
-4.9776 GUSTO -0.3001
-4.9776 GUTENBERG -0.3010
-4.9776 GUY -0.2874
-4.9776 GUYS -0.3005
-4.9776 GYMNAST -0.3010
-4.6766 GYMNASTICS -0.3010
-4.9776 GYMNOPHOBIA -0.2874
-4.9776 H&R -0.3010
-4.9776 HACKERS -0.3008
-3.5974 HAD -0.2616
-4.9776 HAIFA -0.2874
-4.9776 HAIL -0.2982
-4.0234 HAIR -0.2872
-4.9776 HAIRS -0.2874
-4.9776 HAJO -0.2874
-4.9776 HALF-LIFE -0.2961
-4.2787 HALL -0.2932
-4.9776 HALLOWEEN -0.2991
-4.9776 HALO: -0.3010
-4.9776 HALPER -0.3005
-4.9776 HAM -0.2975
-4.9776 HAMBLEN -0.3010
-4.9776 HAMBURGER -0.2999
-4.9776 HAMBURGERS -0.3010
-4.9776 HAMILL -0.2991
-4.6766 HAMLET -0.3008
-4.9776 HAMMER -0.3010
-4.9776 HAMPSHIRE -0.3010
-4.9776 HANA -0.3010
-4.2787 HAND -0.2834
-4.9776 HANDFUL -0.2961
-4.6766 HANDHELD -0.3010
-4.9776 HANDICRAFT -0.3010
-4.6766 HANDLE -0.2864
-4.2787 HANDS -0.2846
-4.9776 HANK -0.3010
-4.9776 HANS -0.3010
-4.9776 HANSEL -0.2998
-4.5005 HAPPEN -0.2848
-3.9776 HAPPENED -0.2947
-4.5005 HAPPENS -0.2985
-4.9776 HAPPY -0.2874
-4.2787 HARBOR -0.2860
-4.9776 HARD -0.3010
-4.9776 HARD-OF -0.3010
-4.6766 HARDEST -0.3010
-4.9776 HARDIN -0.3010
-4.9776 HARDWARE -0.3010
-4.9776 HARLOW -0.2975
-4.9776 HARMFUL -0.3010
-4.9776 HARNESS -0.2975
-4.9776 HARRIET -0.3010
-4.6766 HARRISON -0.2854
-4.3756 HARRY -0.2831
-4.6766 HARVEY -0.3010
-3.0045 HAS -0.2724
-4.6766 HASS -0.3009
-4.9776 HASTINGS -0.2874
-4.5005 HAT -0.2861
-4.5005 HATE -0.2979
-4.9776 HATS -0.2831
-4.9776 HAUNT -0.2893
-4.6766 HAUNTED -0.3010
-4.9776 HAVANA -0.3010
-2.9284 HAVE -0.2424
-4.3756 HAVING -0.2982
-4.9776 HAVLICEK -0.2982
-4.6766 HAVOC -0.2997
-4.9776 HAWAII -0.2874
-4.6766 HAWAIIAN -0.3010
-4.9776 HAWK -0.2831
-4.9776 HAWKER -0.3010
-4.9776 HAWKING -0.2874
-4.9776 HAWKS -0.2874
-4.9776 HAWN -0.2991
-4.3756 HAYDEN -0.2872
-4.9776 HAYDN -0.2831
-4.9776 HAYWORTH -0.2874
-4.5005 HAZMAT -0.2873
-3.6554 HE -0.2924
-4.1995 HEAD -0.3005
-4.6766 HEADED -0.3006
-4.6766 HEADQUARTERED -0.2795
-4.1325 HEADQUARTERS -0.2595
-4.9776 HEALTH -0.2997
-4.9776 HEALTHY -0.3010
-4.6766 HEAR -0.2982
-4.9776 HEARD -0.3008
-4.3756 HEARING -0.2864
-4.3756 HEARST -0.2752
-4.5005 HEART -0.3010
-4.9776 HEARTS -0.2998
-4.9776 HEAT -0.2961
-4.9776 HEAT-SEEKING -0.3010
-4.9776 HEATHROW -0.3010
-4.9776 HEATING -0.3010
-4.6766 HEAVEN -0.2870
-4.6766 HEAVIER -0.3010
-4.6766 HEAVILY -0.3010
-4.9776 HEAVY -0.3010
-4.9776 HEAVYWEIGHT -0.3010
-4.9776 HEBEPHRENIA -0.2874
-4.9776 HEDGEHOG -0.3005
-4.9776 HEIGHT -0.3010
-4.9776 HEIR -0.2958
-4.1995 HELD -0.2671
-4.9776 HELEN -0.3009
-4.9776 HELIOLOGIST -0.3010
-4.6766 HELIUM -0.2867
-4.9776 HELL -0.2874
-4.9776 HELPS -0.2893
-4.9776 HEMATOMA -0.2874
-4.6766 HEMINGWAY -0.3010
-4.6766 HEMISPHERE -0.2856
-4.9776 HEN -0.2993
-4.9776 HENCE -0.3009
-4.9776 HENDECASYLLABIC -0.3010
-4.9776 HENDERSON -0.2874
-4.9776 HENDRIX -0.3009
-4.1995 HENRY -0.3009
-4.9776 HEPBURN -0.3005
-4.9776 HEPCATS -0.3010
-3.8015 HER -0.2966
-4.9776 HERALD -0.3004
-4.9776 HERB -0.2998
-4.9776 HERBERT -0.3010
-4.9776 HERCULOIDS -0.3007
-4.6766 HERE -0.2993
-4.9776 HERETIC -0.3010
-4.9776 HERITAGE -0.3010
-4.6766 HERM -0.2689
-4.6766 HERMANN -0.3010
-4.9776 HERMIT -0.3010
-4.9776 HERMITAGE -0.3010
-4.9776 HERMITS -0.2874
-4.1995 HERO -0.2659
-4.9776 HERO: -0.3010
-4.9776 HERRESHOFF -0.3010
-4.9776 HESSE -0.3009
-4.9776 HEURISTIC -0.2874
-4.9776 HEY -0.3010
-4.9776 HIBERNIA -0.2874
-4.9776 HICCUP -0.3010
-4.9776 HIDING -0.3010
-4.9776 HIGGINS -0.3010
-3.8637 HIGH -0.2906
-4.9776 HIGH-RISE -0.3010
-4.9776 HIGH-RISK -0.3010
-3.7224 HIGHEST -0.2871
-4.9776 HIGHEST-PAYING -0.3010
-4.2787 HIGHWAY -0.3008
-4.9776 HIJACKED -0.2975
-4.9776 HIKE -0.2893
-4.6766 HILLARY -0.3009
-4.9776 HILLS -0.2997
-4.9776 HIM -0.3010
-4.2787 HIMSELF -0.2715
-4.9776 HINCKLEY -0.3000
-4.9776 HINDUISM -0.2831
-4.9776 HIROHITO -0.3010
-4.9776 HIRSCH -0.2991
-3.3756 HIS -0.2975
-4.3756 HISTORICAL -0.3009
-3.8985 HISTORY -0.2780
-4.1995 HIT -0.2845
-4.0745 HITLER -0.2987
-4.9776 HITS -0.2893
-4.6766 HITTING -0.2891
-4.6766 HIV -0.2874
-4.9776 HIVES -0.3000
-4.9776 HOBBIT -0.3010
-4.9776 HOBBY -0.2831
-4.5005 HOCKEY -0.3010
-4.9776 HOCKS -0.3006
-4.9776 HOFFMAN -0.2997
-4.9776 HOG -0.3010
-4.6766 HOLD -0.2873
-4.9776 HOLDEN -0.3010
-4.3756 HOLDS -0.2864
-4.3756 HOLE -0.2813
-4.6766 HOLES -0.2981
-4.9776 HOLIDAY -0.3010
-4.9776 HOLIDAYS -0.2993
-4.9776 HOLLAND -0.2874
-4.3756 HOLLYWOOD -0.3009
-4.6766 HOLMES -0.2974
-4.9776 HOLSTRUM -0.2998
-4.5005 HOLY -0.3010
-3.6766 HOME -0.2615
-4.9776 HOMELITE -0.3010
-4.9776 HOMER -0.2991
-4.9776 HOMES -0.2874
-4.6766 HOMETOWN -0.2831
-4.6766 HONDA -0.3010
-4.9776 HONECKER -0.3010
-4.6766 HONEY -0.2977
-4.9776 HONEYMOON -0.2831
-4.9776 HONEYMOONERS -0.3010
-4.9776 HONG -0.3010
-4.5005 HONOR -0.2867
-4.6766 HONORARY -0.3010
-4.9776 HONORS -0.2893
-4.9776 HOOK -0.3010
-4.9776 HOOLIGANS -0.2874
-4.9776 HOOTERS -0.2999
-4.9776 HOOVER -0.3009
-4.9776 HOPKINS -0.3009
-4.9776 HOROSCOPE -0.3010
-4.9776 HORRORS -0.2961
-3.8637 HORSE -0.2649
-4.9776 HORSEPOWER -0.2961
-4.5005 HORSES -0.2856
-4.9776 HORSESHOES -0.3010
-4.5005 HOSPITAL -0.2987
-4.9776 HOSPITALS -0.3010
-4.1995 HOST -0.2612
-4.9776 HOSTAGE -0.3010
-4.9776 HOSTAGES -0.3007
-4.5005 HOSTED -0.2893
-4.9776 HOSTS -0.2961
-4.9776 HOT -0.2998
-4.9776 HOT-RODDER -0.2874
-4.9776 HOTEL -0.3010
-4.9776 HOUDINI -0.2991
-4.6766 HOUND -0.2944
-4.9776 HOUR -0.3008
-4.9776 HOURLY -0.3010
-4.9776 HOURS -0.2874
-4.0745 HOUSE -0.2808
-4.9776 HOUSEHOLD -0.3010
-4.9776 HOUSEPLANTS -0.3010
-4.6766 HOUSES -0.2892
-4.6766 HOUSEWIFE -0.2997
-4.9776 HOUSTON -0.3010
-2.2172 HOW -0.2840
-4.9776 HOYA -0.2999
-4.9776 HTML -0.2874
-4.6766 HUB -0.2948
-4.9776 HUBBLE -0.3009
-4.9776 HUCKLEBERRY -0.3010
-4.9776 HUDSON -0.3010
-4.9776 HUGH -0.3010
-4.9776 HUGHES -0.2874
-4.6766 HUGO -0.2873
-4.6766 HULK -0.2985
-4.9776 HULL -0.3009
-3.5463 HUM:DESC -0.2882
-2.9776 HUM:GR -0.2700
-2.2633 HUM:IND -0.2736
-3.9776 HUM:TITLE -0.2893
-4.0745 HUMAN -0.3007
-4.5005 HUMANS -0.2995
-4.9776 HUMBERT -0.2975
-4.9776 HUMOR -0.3010
-4.9776 HUMP -0.3010
-4.9776 HUMPHREY -0.3010
-4.9776 HUMPS -0.2874
-4.6766 HUMPTY -0.3010
-4.9776 HUNGARIAN -0.3010
-4.9776 HUNGARY -0.3009
-4.9776 HUNGRY -0.3009
-4.6766 HUNTER -0.2958
-4.6766 HUNTING -0.2981
-4.1325 HURRICANE -0.3009
-4.9776 HURT -0.3010
-4.9776 HURTING -0.2999
-4.5005 HUSBAND -0.2854
-4.9776 HUSBAND-AND-WIFE -0.3010
-4.9776 HUSSAIN -0.3010
-4.9776 HUSSEIN -0.2988
-4.9776 HUSTON -0.3010
-4.9776 HUXLEY -0.3009
-4.9776 HYATT -0.3000
-4.9776 HYBRID -0.2831
-4.3756 HYDROGEN -0.2873
-4.9776 HYENAS -0.3009
-4.9776 HYPERLINK -0.2874
-4.9776 HYPEROPIA -0.2874
-4.9776 HYPERTEXT -0.2874
-4.9776 HYPNOTHERAPY -0.2874
-4.9776 HYUNDAI -0.3010
-2.8637 I -0.2734
-4.9776 IAN -0.3010
-4.9776 IBERIA -0.2991
-4.9776 IBM -0.3009
-4.5005 IBM-COMPATIBLE -0.3010
-4.1995 ICE -0.2873
-4.9776 ICEMAN -0.3000
-4.9776 ID -0.2831
-4.6766 IDEA -0.2961
-4.9776 IDENTIFY -0.3010
-4.6766 IDENTITY -0.2823
-4.9776 IDIOT -0.2999
-3.6554 IF -0.2835
-4.9776 IGNEOUS -0.3010
-4.9776 IGUANA -0.2874
-4.0745 II -0.2687
-4.5005 III -0.2974
-4.6766 ILEANA -0.3010
-4.5005 ILLINOIS -0.2671
-4.9776 ILLUMINATED -0.3009
-4.6766 ILLUSTRATED -0.3006
-4.5005 IMAGE -0.2777
-4.9776 IMAGINARY -0.3010
-4.9776 IMAM -0.3010
-4.9776 IMMACULATE -0.3010
-4.9776 IMMORTAL -0.3009
-4.9776 IMMORTALS -0.2999
-4.9776 IMPACT -0.2961
-4.9776 IMPORT -0.2998
-4.6766 IMPORTANT -0.2874
-4.6766 IMPORTER -0.2961
-4.9776 IMPORTERS -0.2975
-4.9776 IMPOSED -0.3000
-4.6766 IMPRESS -0.2982
-4.9776 IMPRISONED -0.2997
-2.0974 IN -0.2195
-4.9776 INAUGURATION -0.3006
-4.5005 INC. -0.2830
-4.6766 INCH -0.2961
-4.9776 INCHES -0.3010
-4.9776 INCIDENT -0.3010
-4.5005 INCLUDE -0.2982
-4.5005 INCLUDED -0.2975
-4.6766 INCLUDES -0.2892
-4.6766 INCLUDING -0.3009
-4.2787 INCOME -0.2770
-4.9776 INCOMPETENT -0.2874
-4.9776 INCORPORATE -0.2893
-4.6766 INCREASE -0.2891
-4.6766 INCREDIBLE -0.3010
-4.9776 INCUBATE -0.2874
-4.3756 INDEPENDENCE -0.2995
-4.9776 INDEPENDENT -0.3010
-4.3756 INDIA -0.2874
-4.0234 INDIAN -0.2987
-4.9776 INDIANA -0.2874
-4.0745 INDIANS -0.2857
-4.9776 INDICATOR -0.2874
-4.6766 INDIES -0.2861
-4.6766 INDIGLO -0.2872
-4.6766 INDIVIDUALS -0.3007
-4.9776 INDONESIA -0.2997
-4.9776 INDONESIA-MALAYSIA -0.3010
-4.9776 INDONESIAN -0.3010
-4.5005 INDUCTED -0.3009
-4.9776 INDUSTRIAL -0.3010
-4.9776 INDUSTRIALIZED -0.3009
-4.9776 INDUSTRIES -0.2998
-4.6766 INDUSTRY -0.2827
-4.9776 INESCAPABLE -0.3010
-4.6766 INFAMOUS -0.3010
-4.9776 INFANT -0.3010
-4.5005 INFECTION -0.2820
-4.9776 INFECTIOUS -0.3010
-4.9776 INFLUENCE -0.2831
-4.3756 INFLUENCED -0.3006
-4.9776 INFLUENCES -0.3000
-4.6766 INFO -0.2998
-3.6989 INFORMATION -0.2769
-4.9776 INGA -0.3010
-4.9776 INGMAR -0.3010
-4.9776 INGREDIENT -0.2961
-4.9776 INGREDIENTS -0.2993
-4.9776 INHABIT -0.3009
-4.6766 INJECTION -0.2874
-4.9776 INJECTORS -0.3010
-4.9776 INJURY -0.3010
-4.9776 INKHORN -0.3010
-4.9776 INNINGS -0.2993
-4.9776 INNOCENT -0.2874
-4.9776 INOCO -0.3010
-4.9776 INOPERATIVE -0.3010
-4.9776 INRI -0.3009
-4.9776 INSANITY -0.2874
-4.3756 INSIDE -0.2823
-4.9776 INSPECTOR -0.3010
-4.9776 INSPIRATION -0.2997
-4.5005 INSPIRED -0.2887
-4.9776 INSTALL -0.2982
-4.9776 INSTANT -0.3010
-4.6766 INSTEAD -0.2961
-4.6766 INSTITUTE -0.2960
-4.9776 INSTITUTIONS -0.2988
-4.0745 INSTRUMENT -0.2752
-4.9776 INSTRUMENTS -0.2874
-4.5005 INSURANCE -0.2873
-4.9776 INSURED -0.2997
-4.9776 INTAKE -0.2961
-4.9776 INTELLIGENCE -0.2874
-4.5005 INTERCOURSE -0.2861
-4.9776 INTERESTING -0.3010
-4.9776 INTERLACE -0.3005
-4.6766 INTERNAL -0.3010
-4.0234 INTERNATIONAL -0.2999
-3.9362 INTERNET -0.2868
-4.9776 INTERRUPTED -0.3006
-4.9776 INTERSTATE -0.3010
-4.9776 INTERVIEW -0.3010
-4.9776 INTESTINE -0.2874
-4.9776 INTESTINES -0.2874
-3.6159 INTO -0.2567
-4.9776 INTRACTABLE -0.3010
-4.9776 INTRODUCE -0.3010
-3.8315 INTRODUCED -0.2513
-4.9776 INUIT -0.2998
-4.9776 INUITS -0.3009
-4.9776 INVADE -0.3010
-4.9776 INVADED -0.3010
-4.9776 INVASION -0.2961
-4.5005 INVENT -0.2838
-3.5974 INVENTED -0.2747
-4.6766 INVENTOR -0.2961
-4.9776 INVENTORS -0.3009
-4.9776 INVERTIGO -0.3010
-4.2787 INVESTIGATION -0.2874
-4.9776 INVISIBLE -0.3009
-4.6766 INVOLVED -0.2975
-4.9776 INVOLVES -0.2893
-4.5005 IOC -0.3006
-4.9776 ION -0.3010
-4.6766 IOWA -0.2689
-4.6766 IP -0.3010
-4.9776 IPANEMA -0.2874
-4.6766 IPHONE -0.2831
-4.9776 IPOD -0.2993
-4.5005 IQ -0.2874
-4.6766 IRAQ -0.2979
-4.9776 IRAQI -0.3010
-4.9776 IRAQIS -0.3010
-4.9776 IRATE -0.3009
-4.2787 IRELAND -0.2838
-4.9776 IRIS -0.2975
-4.3756 IRISH -0.2874
-4.9776 IRKUTSK -0.2997
-4.5005 IRON -0.3009
-4.9776 IRWIN -0.3010
-1.9249 IS -0.2373
-4.9776 ISADORA -0.3010
-4.9776 ISHMAEL -0.2975
-4.9776 ISIS -0.2893
-4.9776 ISLAM -0.2831
-4.9776 ISLAMIC -0.3010
-3.8985 ISLAND -0.2772
-4.1325 ISLANDS -0.2855
-4.9776 ISLE -0.2961
-4.9776 ISOLDE -0.2831
-4.9776 ISOSCELES -0.3010
-4.9776 ISPS -0.3010
-4.6766 ISRAEL -0.3005
-4.1995 ISSUE -0.2805
-4.6766 ISSUES -0.2944
-4.9776 ISTHMUS -0.2874
-3.1516 IT -0.2519
-4.9776 IT- -0.3010
-4.3756 ITALIAN -0.3010
-4.6766 ITALIANS -0.3009
-4.6766 ITALY -0.2820
-4.9776 ITCH -0.3006
-3.4213 ITS -0.2973
-4.3756 ITSELF -0.2736
-4.9776 IVAN -0.2831
-4.9776 IVY -0.2874
-4.6766 J. -0.3010
-4.9776 J.D. -0.2998
-4.6766 J.R.R. -0.3010
-3.9362 JACK -0.2962
-4.9776 JACK-O -0.3010
-4.6766 JACKIE -0.3010
-4.1995 JACKSON -0.2989
-4.9776 JACQUES -0.3010
-4.9776 JAIL -0.3010
-4.9776 JAKE -0.3010
-3.9362 JAMES -0.3010
-4.9776 JAMIROQUAI -0.3010
-4.9776 JAN. -0.3010
-4.2787 JANE -0.3010
-4.9776 JANELLE -0.2999
-4.5005 JANUARY -0.3010
-4.2787 JAPAN -0.2874
-4.0234 JAPANESE -0.2866
-4.9776 JAR -0.2874
-4.6766 JAVA -0.2873
-4.1325 JAWS -0.2999
-4.6766 JAY -0.3010
-4.9776 JAYNE -0.3010
-4.9776 JAZZ -0.2998
-4.6766 JCPENNEY -0.2990
-4.2787 JEAN -0.2958
-4.9776 JEEP -0.3010
-4.9776 JEFF -0.3010
-4.9776 JEFFERSON -0.3000
-4.9776 JELL-O -0.3009
-4.9776 JELLICLE -0.3010
-4.9776 JEREMY -0.3010
-4.9776 JERICHO -0.3010
-4.9776 JERKS -0.2874
-4.0234 JERRY -0.3010
-4.3756 JERSEY -0.2848
-4.6766 JESSICA -0.3010
-4.5005 JESUS -0.2872
-4.9776 JETT -0.2991
-4.5005 JEWISH -0.3010
-4.9776 JEWS -0.3007
-4.6766 JIGGY -0.2996
-4.6766 JIM -0.3010
-4.9776 JIMI -0.3010
-4.5005 JIMMY -0.2892
-4.9776 JJ -0.3007
-4.9776 JOAD -0.3010
-4.6766 JOAN -0.3010
-4.1995 JOB -0.2647
-4.9776 JOBS -0.2874
-4.5005 JOCKEY -0.2861
-4.9776 JODIE -0.3010
-4.6766 JOE -0.3010
-4.9776 JOEL -0.2874
-4.9776 JOGGING -0.2975
-4.9776 JOGIS -0.2982
-3.5797 JOHN -0.3008
-4.9776 JOHNNIE -0.3010
-4.3756 JOHNNY -0.2999
-4.5005 JOHNSON -0.2874
-4.9776 JOHNSTON -0.2874
-4.6766 JOIN -0.2893
-4.9776 JOINED -0.2893
-4.9776 JOKES -0.2874
-4.9776 JOLIE'S -0.3010
-4.9776 JOLLY -0.3010
-4.9776 JONATHAN -0.3010
-4.5005 JONES -0.2854
-4.9776 JONG -0.3010
-4.9776 JONI -0.3010
-4.9776 JORDAN -0.2874
-4.9776 JOSE -0.3010
-4.6766 JOSEPH -0.3010
-4.9776 JOSIE -0.2998
-4.3756 JOURNAL -0.2823
-4.9776 JOURNALISM -0.2874
-4.9776 JOURNALS -0.2831
-4.9776 JOURNEY -0.2874
-4.9776 JOYCE -0.2993
-4.9776 JPEG -0.3009
-4.9776 JR -0.3010
-4.9776 JR. -0.2991
-4.9776 JRR -0.3010
-4.6766 JUDAISM -0.2991
-4.3756 JUDE -0.3010
-4.6766 JUDGE -0.3008
-4.9776 JUDGES -0.3006
-4.9776 JUDICIARY -0.2874
-4.9776 JUDITH -0.3010
-4.9776 JUDO -0.2831
-4.6766 JUDSON -0.2874
-4.9776 JUDY -0.3010
-4.9776 JUICE -0.2874
-4.9776 JUICES -0.2993
-4.9776 JULIEN -0.3010
-4.3756 JULY -0.2859
-4.9776 JUMP -0.2874
-4.9776 JUN -0.3010
-4.6766 JUNE -0.2991
-4.6766 JUNGLE -0.2997
-4.9776 JUNK -0.3010
-4.9776 JUPITER -0.2831
-4.9776 JURASSIC -0.3010
-4.9776 JURISDICTION -0.2831
-4.9776 JURY -0.2975
-4.3756 JUST -0.2891
-4.2787 JUSTICE -0.2871
-4.9776 JUSTIN -0.2999
-4.6766 K -0.2986
-4.9776 KA -0.2831
-4.6766 KAFKA -0.2991
-4.9776 KAHLO -0.3010
-4.9776 KAHN -0.3009
-4.6766 KALAHARI -0.3010
-4.9776 KAMCHATKA -0.2874
-4.9776 KANE -0.2874
-4.9776 KANSAS -0.3010
-4.9776 KAPPA -0.3010
-4.9776 KARENNA -0.3010
-4.9776 KARL -0.3010
-4.9776 KARSH -0.3009
-4.9776 KASHMIR -0.3010
-4.3756 KASPAROV -0.3008
-4.9776 KATHARINE -0.3010
-4.9776 KATIE -0.2874
-4.9776 KATRINA -0.2831
-4.9776 KATY -0.3010
-4.9776 KAY -0.3006
-4.9776 KEATON -0.2874
-4.5005 KEEP -0.2878
-4.9776 KEEPS -0.3010
-4.6766 KELLY -0.2829
-3.9776 KENNEDY -0.2973
-4.9776 KENNEL -0.3010
-4.6766 KENPO -0.2831
-4.2787 KENTUCKY -0.2858
-4.9776 KENYA -0.2991
-4.9776 KENYAN -0.3006
-4.9776 KEPLER -0.3010
-4.5005 KEPT -0.2856
-4.9776 KERATOMA -0.2999
-4.2787 KEVIN -0.3010
-4.9776 KEYBOARD -0.2874
-4.9776 KEYON -0.3010
-4.9776 KHRUSHCHEV -0.2874
-4.9776 KHYBER -0.3010
-4.9776 KICKED -0.3006
-4.2787 KID -0.2827
-4.6766 KIDNAPED -0.2874
-4.9776 KIDNAPING -0.2988
-4.3756 KIDS -0.2977
-4.9776 KID_S -0.3010
-4.9776 KIFM -0.3010
-4.9776 KILAMANJARO -0.2874
-4.6766 KILL -0.2845
-3.8315 KILLED -0.2838
-4.5005 KILLER -0.2926
-4.6766 KILLING -0.2874
-4.9776 KILROY -0.3010
-4.9776 KIMPO -0.3010
-3.5005 KIND -0.2961
-4.9776 KINDERGARDEN -0.3010
-4.5005 KINDS -0.2961
-3.8985 KING -0.2884
-4.9776 KING.. -0.3007
-4.9776 KINGDA -0.3010
-4.6766 KINGDOM -0.2871
-4.5005 KINGS -0.2838
-4.9776 KINKS -0.3005
-4.9776 KIRKSTALL -0.3010
-4.6766 KISS -0.2689
-4.9776 KISSED -0.2893
-4.9776 KISSER -0.2999
-4.9776 KITCHEN -0.2874
-4.9776 KITE -0.2874
-4.9776 KITTY -0.3010
-4.9776 KLONDIKE -0.2998
-4.9776 KNICKERBOCKERS -0.2831
-4.9776 KNIFE -0.3010
-4.9776 KNIGHTS -0.2961
-4.9776 KNOCK -0.3010
-4.2787 KNOW -0.2989
-3.4462 KNOWN -0.2989
-4.9776 KNOWPOST.COM -0.2874
-4.9776 KNOWS -0.3009
-4.9776 KNOX -0.2975
-4.9776 KNUTE -0.3010
-4.9776 KODAK -0.3008
-4.9776 KOERTZEN -0.3010
-4.9776 KONG -0.3010
-4.9776 KONIGSBERG -0.2874
-4.9776 KONOPKA -0.2874
-4.3756 KOREA -0.2859
-4.9776 KOREAN -0.3006
-4.9776 KORESH -0.3010
-4.9776 KOSOVO -0.2982
-4.9776 KRAMER -0.2874
-4.9776 KREMLIN -0.2874
-4.9776 KRONA -0.2831
-4.9776 KRONER -0.2958
-4.9776 KRYPTON -0.2998
-4.5005 KUWAIT -0.2863
-4.9776 KWAK -0.2831
-4.9776 KYTHNOS -0.2997
-4.6766 L. -0.3010
-4.3756 L.A. -0.2997
-4.2787 LA -0.3010
-4.2787 LABEL -0.2811
-4.3756 LABELS -0.2971
-4.9776 LABIANCA -0.3000
-4.9776 LABOR -0.3010
-4.9776 LACAN -0.2874
-4.6766 LACK -0.2961
-4.9776 LACTOBACILLUS -0.3010
-4.5005 LADY -0.2961
-4.6766 LAGOON -0.2992
-4.9776 LAGOS -0.2874
-4.9776 LAID -0.2993
-3.9776 LAKE -0.2779
-4.5005 LAKES -0.2874
-4.9776 LAMARCUS -0.3010
-4.9776 LAMBEAU -0.3010
-4.5005 LAND -0.2810
-4.6766 LANDED -0.2972
-4.9776 LANDERS -0.3010
-4.6766 LANDING -0.2996
-4.9776 LANDLOCKED -0.2874
-4.6766 LANDMARK -0.2987
-4.9776 LANGSTON -0.3010
-3.8015 LANGUAGE -0.2533
-3.9776 LANGUAGES -0.2796
-4.9776 LANTERN -0.2991
-4.9776 LAOS -0.2874
-4.9776 LAP -0.2994
-4.9776 LAPWARMERS -0.2997
-4.5005 LARGE -0.2958
-4.9776 LARGER -0.3010
-3.3756 LARGEST -0.2818
-4.6766 LARRY -0.3009
-4.3756 LAS -0.3010
-4.9776 LASER -0.3008
-3.5005 LAST -0.2667
-4.9776 LATA -0.2997
-4.6766 LATE -0.3010
-4.9776 LATENT -0.3010
-4.6766 LATER -0.2831
-4.1325 LATIN -0.2857
-4.5005 LATITUDE -0.2998
-4.9776 LAUGH -0.2999
-4.6766 LAUGH-IN -0.2874
-4.3756 LAUNCHED -0.2830
-4.9776 LAUNDRY -0.3010
-4.9776 LAUREATE -0.2988
-4.6766 LAUREN -0.3010
-4.9776 LAURIE -0.3010
-3.9776 LAW -0.2837
-4.9776 LAWN -0.3010
-4.9776 LAWSUIT -0.3008
-4.1995 LAWYER -0.2835
-4.9776 LAWYERS -0.2993
-4.6766 LAY -0.3010
-4.6766 LAYERS -0.2949
-4.9776 LCD -0.3010
-4.9776 LE -0.3010
-4.3756 LEAD -0.2993
-4.0745 LEADER -0.2986
-4.3756 LEADING -0.3010
-4.6766 LEADS -0.2864
-4.6766 LEAFS -0.2831
-4.1325 LEAGUE -0.2767
-4.1325 LEARN -0.2811
-4.1995 LEARNED -0.2991
-4.2787 LEARNING -0.2871
-4.2787 LEAST -0.3008
-4.9776 LEAST-POPULATED -0.2874
-4.6766 LEAVE -0.3007
-4.9776 LEAVING -0.3010
-4.9776 LEBANON -0.2991
-4.5005 LED -0.2892
-4.3756 LEE -0.2831
-4.5005 LEFT -0.3010
-4.9776 LEFT-HANDED -0.3009
-4.5005 LEG -0.2853
-4.6766 LEGAL -0.3010
-4.9776 LEGENDARY -0.3010
-4.9776 LEGS -0.2998
-4.9776 LEIA -0.2991
-4.9776 LEICHHARDT -0.2997
-4.9776 LEMMON -0.3006
-4.9776 LENDER -0.3008
-4.6766 LENGTHS -0.2823
-4.9776 LENO -0.2998
-4.9776 LENO'S -0.3009
-4.6766 LENS -0.3009
-4.9776 LEON -0.3010
-4.9776 LEONARDO -0.3010
-4.9776 LEOS -0.3005
-4.9776 LEPER -0.3010
-4.9776 LEPROSY -0.2874
-4.9776 LEPTON -0.3010
-4.6766 LESS -0.3010
-4.9776 LESSON -0.3010
-4.5005 LET -0.2962
-4.6766 LETHAL -0.3010
-3.9776 LETTER -0.2888
-4.2787 LETTERS -0.2863
-4.5005 LEUKEMIA -0.2689
-4.5005 LEVEL -0.2823
-4.9776 LEVERKUSEN -0.2997
-4.9776 LEWIS -0.3010
-4.9776 LHASA -0.3010
-4.9776 LI -0.3010
-4.6766 LIBERTY -0.2874
-4.9776 LIBRARIES -0.2975
-4.1995 LIBRARY -0.2646
-4.9776 LIBYA -0.2874
-4.9776 LICE -0.2874
-4.6766 LICENSE -0.3009
-4.9776 LIE -0.3009
-4.9776 LIES -0.3009
-3.8315 LIFE -0.2594
-4.9776 LIFELONG -0.3008
-4.9776 LIFESAVER -0.3010
-4.9776 LIFTER -0.2874
-4.9776 LIFTING -0.2874
-4.0745 LIGHT -0.2856
-4.9776 LIGHTHOUSE -0.3009
-4.9776 LIGHTNIN' -0.3010
-4.6766 LIGHTNING -0.3010
-4.9776 LIGURIAN -0.3010
-3.7735 LIKE -0.2518
-4.5005 LIKED -0.3006
-4.6766 LIKELY -0.2993
-4.6766 LIKES -0.3010
-4.9776 LIL -0.3010
-4.9776 LILLY -0.2874
-4.9776 LIMA -0.3010
-4.6766 LIMITED -0.2831
-4.6766 LINCOLN -0.2991
-4.9776 LINCOLNS -0.2997
-4.6766 LINDBERGH -0.2990
-4.9776 LINDSEY -0.3010
-3.8637 LINE -0.2618
-4.9776 LINEBACKERS -0.3000
-4.6766 LINER -0.2988
-4.9776 LINERS -0.3010
-4.5005 LINES -0.2988
-4.9776 LINGO -0.2874
-4.9776 LINKED -0.3006
-4.9776 LINUS -0.3006
-4.9776 LIONS -0.3008
-4.9776 LIPS -0.2874
-4.9776 LISA -0.2831
-4.1995 LIST -0.2961
-4.9776 LISTED -0.3006
-4.9776 LISTEN -0.2993
-4.9776 LISTENERS -0.2993
-4.9776 LISTON -0.3010
-4.6766 LITE -0.2830
-4.6766 LITERAL -0.3010
-4.3756 LITERARY -0.3009
-4.6766 LITERATURE -0.2860
-3.9776 LITTLE -0.3004
-3.4094 LIVE -0.2480
-4.3756 LIVED -0.2973
-4.9776 LIVER -0.3010
-4.9776 LIVERPOOL -0.3010
-3.9776 LIVES -0.2771
-4.9776 LIVESTOCK -0.3005
-4.9776 LIVING -0.3010
-4.9776 LIVINGSTONE -0.2874
-4.9776 LIZ -0.3010
-4.9776 LIZZIE -0.3010
-4.9776 LL.M. -0.2874
-4.9776 LLOYD -0.3010
-4.9776 LO-O-OVE -0.3010
-4.6766 LOBSTER -0.2988
-3.1143 LOC:CITY -0.2741
-3.0968 LOC:COUNTRY -0.2852
-3.8985 LOC:MOUNT -0.2894
-2.5711 LOC:OTHER -0.2824
-3.3648 LOC:STATE -0.2862
-3.7224 LOCATED -0.2641
-4.5005 LOCATION -0.2941
-4.9776 LOCATIONS -0.2993
-4.9776 LOCK -0.3009
-4.9776 LOCKERBIE -0.2997
-4.9776 LOCO-MOTION -0.3007
-4.9776 LOCOMOTIVE -0.3010
-4.9776 LODGES -0.2993
-4.6766 LOG -0.2863
-4.5005 LOGAN -0.3010
-4.9776 LOGIC -0.2874
-4.9776 LOGO -0.2958
-4.9776 LOHAN -0.3010
-4.9776 LOHENGRIN -0.2975
-4.9776 LOL -0.3008
-3.9776 LONDON -0.2838
-3.3442 LONG -0.2731
-4.9776 LONGER -0.3010
-3.8637 LONGEST -0.3005
-4.9776 LONGEST-LIVED -0.2997
-4.9776 LONGEST-RUNNING -0.3010
-4.5005 LONGITUDE -0.2961
-4.9776 LONGTIME -0.3009
-4.0234 LOOK -0.2956
-4.9776 LOOKED -0.3010
-4.9776 LOOMIS -0.3010
-4.9776 LOOP -0.2874
-4.9776 LOOSELY -0.3010
-4.6766 LORD -0.2961
-4.1325 LOS -0.3010
-4.3756 LOSE -0.2561
-4.5005 LOSS -0.2947
-4.9776 LOSSES -0.3006
-4.6766 LOST -0.3009
-4.9776 LOT -0.2961
-4.6766 LOU -0.3010
-4.6766 LOUIE -0.2985
-4.2787 LOUIS -0.2831
-4.9776 LOUISIANA -0.2993
-3.9776 LOVE -0.2791
-4.9776 LOVED -0.2874
-4.6766 LOVERS -0.2860
-4.6766 LOW -0.3010
-4.9776 LOWELL -0.3010
-4.6766 LOWEST -0.3010
-4.9776 LP -0.3009
-4.9776 LSE -0.3010
-4.9776 LUCAS -0.2991
-4.9776 LUCIA -0.2874
-4.9776 LUCK -0.2874
-4.9776 LUCKY -0.3010
-4.9776 LUCY -0.2998
-4.9776 LUDWIG -0.3010
-4.9776 LUIS -0.3010
-4.6766 LUKE -0.3010
-4.6766 LUNCH -0.2874
-4.9776 LUND -0.2874
-4.9776 LUNG -0.3010
-4.9776 LUNT -0.2998
-4.9776 LUST -0.2997
-4.5005 LUTHER -0.3009
-4.9776 LUX -0.3010
-4.9776 LUXURY -0.3010
-4.9776 LYING -0.2874
-4.9776 LYNMOUTH -0.3010
-4.3756 LYRICS -0.2980
-4.9776 M16 -0.3010
-4.9776 M3 -0.3010
-4.9776 MAC -0.2874
-4.9776 MACBETH -0.2874
-4.3756 MACHINES -0.2866
-4.9776 MACINTOSH -0.3010
-4.6766 MACLAINE -0.2870
-4.9776 MACNEIL -0.2991
-4.9776 MACY -0.2991
-4.9776 MAD -0.3009
-4.9776 MADDING -0.3010
-3.4094 MADE -0.2619
-4.9776 MADILYN -0.3010
-4.5005 MADONNA -0.3010
-4.9776 MADRE -0.2874
-4.6766 MADRID -0.2845
-4.9776 MAE -0.3010
-4.2787 MAGAZINE -0.2945
-4.6766 MAGAZINES -0.2874
-4.9776 MAGEE -0.2975
-4.9776 MAGI -0.2874
-4.2787 MAGIC -0.2826
-4.9776 MAGICIAN_S -0.3010
-4.9776 MAGNA -0.3010
-4.9776 MAGNESIUM -0.2874
-4.9776 MAGNET -0.3010
-4.9776 MAGNETAR -0.2874
-4.9776 MAGNETS -0.3010
-4.9776 MAGOO -0.3010
-4.9776 MAID -0.2961
-4.6766 MAID-RITES -0.2874
-4.3756 MAIDEN -0.2863
-4.9776 MAIL -0.3010
-4.9776 MAILMAN -0.3010
-3.9776 MAIN -0.3008
-4.9776 MAINE -0.2999
-4.9776 MAINLAND -0.2874
-4.9776 MAINTAIN -0.3009
-4.0234 MAJOR -0.2997
-4.6766 MAJOR-LEAGUE -0.3009
-4.9776 MAJORITY -0.3010
-3.6554 MAKE -0.2753
-4.9776 MAKE-UP -0.2874
-4.6766 MAKER -0.2960
-3.9362 MAKES -0.2839
-4.9776 MAKEUP -0.3010
-4.6766 MAKING -0.2972
-4.9776 MALAYSIA -0.2874
-4.3756 MALE -0.2946
-4.9776 MALICK -0.2874
-4.6766 MALL -0.2795
-4.9776 MALLS -0.2998
-4.9776 MALTA -0.2874
-4.9776 MAMA -0.2874
-4.6766 MAMMAL -0.2958
-4.9776 MAMMALS -0.2997
-4.9776 MAMMOTH -0.3010
-3.5463 MAN -0.2597
-4.9776 MANAGE -0.2831
-4.9776 MANAGED -0.3010
-4.5005 MANAGER -0.2652
-4.9776 MANAGES -0.3010
-4.9776 MANAGING -0.3010
-4.9776 MANATEES -0.3010
-4.9776 MANCHA -0.2997
-4.9776 MANCHE -0.2874
-4.9776 MANCHUKUO -0.2874
-4.9776 MANDRAKE -0.3010
-4.9776 MANDY -0.3010
-4.9776 MANEUVER -0.2994
-4.9776 MANFRED -0.3010
-4.6766 MANHATTAN -0.3010
-4.9776 MANHATTEN -0.3010
-4.9776 MANIFEST -0.2998
-4.9776 MANKIEWICZ -0.3008
-4.5005 MANNED -0.3009
-4.9776 MANSFIELD -0.3010
-4.9776 MANSION -0.3010
-4.9776 MANSON -0.3010
-4.9776 MANUFACTURED -0.2893
-4.6766 MANUFACTURER -0.2958
-4.5005 MANUFACTURES -0.2893
-4.9776 MANUFACTURING -0.3010
-2.4962 MANY -0.2896
-4.6766 MAO -0.2991
-4.6766 MAPLE -0.3010
-4.9776 MAR -0.2997
-4.9776 MARBELLA -0.2874
-4.9776 MARBLE -0.2874
-4.9776 MARBLES -0.2999
-4.1325 MARCH -0.2837
-4.9776 MARCHING -0.3010
-4.6766 MARCIANO -0.2999
-4.9776 MARCOS -0.3010
-4.9776 MARE -0.3010
-4.9776 MARGIELA -0.3010
-4.9776 MARIA -0.3010
-4.6766 MARIJUANA -0.3009
-4.9776 MARILYN -0.3010
-4.9776 MARINA -0.3010
-4.9776 MARINE -0.3010
-4.9776 MARION -0.3010
-4.1995 MARK -0.2981
-4.6766 MARKED -0.2999
-4.3756 MARKET -0.2820
-4.9776 MARKET-FRANKFORD -0.3010
-4.6766 MARKETS -0.2845
-4.9776 MARKS -0.3010
-4.6766 MARLEY -0.2873
-4.9776 MARLIN -0.3010
-4.6766 MARLOWE -0.2854
-4.9776 MARQUESAS -0.3010
-4.9776 MARRIAGE -0.2975
-3.9362 MARRIED -0.2667
-4.9776 MARRY -0.3009
-4.9776 MARS -0.2998
-4.5005 MARSHALL -0.2874
-4.9776 MARTHA -0.3010
-4.6766 MARTIAL -0.3010
-4.9776 MARTIAN -0.2874
-4.3756 MARTIN -0.2996
-4.9776 MARTINI-DRINKING -0.3010
-4.9776 MARTINIS -0.2874
-4.9776 MARTYRS -0.3007
-4.6766 MARVEL -0.3008
-4.9776 MARVELOUS -0.2999
-4.9776 MARVIN -0.3009
-4.5005 MARX -0.2831
-4.6766 MARY -0.2996
-4.9776 MARYLAND -0.2874
-4.3756 MASCOT -0.2767
-4.9776 MASQUERADE -0.3006
-4.9776 MASS -0.2961
-4.2787 MASSACHUSETTS -0.2838
-4.9776 MASSACRE -0.2874
-4.9776 MASSAGE -0.2874
-4.9776 MASSIVE -0.3010
-4.3756 MASTER -0.2926
-4.9776 MASTERS -0.2874
-4.9776 MASTERSON -0.3010
-4.6766 MATCH -0.2969
-4.9776 MATE -0.3007
-4.9776 MATERNAL -0.3010
-4.6766 MATH -0.2874
-4.9776 MATHEMATICAL -0.3010
-4.9776 MATHEMATICS -0.2993
-4.9776 MATRIX -0.3010
-4.9776 MATSUMOTO -0.3009
-4.9776 MATTEL -0.3010
-4.6766 MATTER -0.2958
-4.9776 MATTHEW -0.3010
-4.9776 MATURE -0.2874
-4.9776 MATURITY -0.2999
-4.9776 MAURICE -0.3010
-4.6766 MAURITANIA -0.2831
-4.5005 MAURIZIO -0.3010
-4.5005 MAX -0.3010
-4.9776 MAXIMO -0.2999
-4.9776 MAXIMUM -0.3010
-4.3756 MAY -0.3009
-4.9776 MAYAN -0.3010
-4.9776 MAYANS -0.2874
-4.9776 MAYBE -0.3010
-4.9776 MAYO -0.3010
-4.5005 MAYOR -0.2961
-4.9776 MAZE -0.2961
-4.9776 MCCARREN -0.3010
-4.9776 MCCHEESE -0.3009
-4.6766 MCKINLEY -0.2975
-4.9776 MCKINNEY -0.3009
-4.9776 MCLEAN -0.3010
-4.9776 MCNABB -0.3009
-4.9776 MCQUEEN -0.2998
-3.9776 ME -0.2590
-3.3342 MEAN -0.2780
-3.8315 MEANING -0.2949
-4.6766 MEANS -0.2971
-4.3756 MEANT -0.2982
-4.6766 MEASURE -0.2889
-4.9776 MEASURED -0.2975
-4.9776 MEAT -0.2958
-4.2787 MEDAL -0.2726
-4.9776 MEDALS -0.2975
-4.9776 MEDIAN -0.2998
-4.2787 MEDICAL -0.3009
-4.6766 MEDICINE -0.2874
-4.6766 MEDIEVAL -0.3010
-4.9776 MEDINA -0.2874
-4.6766 MEDIUM -0.2945
-4.9776 MEERKAT -0.2874
-3.6989 MEET -0.2703
-4.3756 MEETING -0.2960
-4.9776 MEGAWATTS -0.3010
-4.9776 MEHITABEL -0.2874
-4.9776 MEL -0.3010
-4.9776 MELANCHOLY -0.3010
-4.9776 MELLON -0.3010
-4.9776 MELODIES -0.3010
-4.9776 MELTING -0.3010
-4.9776 MELTS -0.2975
-4.1325 MEMBER -0.2960
-4.1995 MEMBERS -0.2944
-4.5005 MEMORABLE -0.3010
-4.9776 MEMORY -0.2874
-4.9776 MEMPHIS -0.3010
-4.0234 MEN -0.2791
-4.9776 MENACE -0.2874
-4.9776 MENUS -0.2874
-4.9776 MEN_S -0.3010
-4.9776 MERCHANDISE -0.3010
-4.5005 MERCURY -0.3010
-4.9776 MERLIN -0.2831
-4.9776 MERRICK -0.2997
-4.9776 MERRIE -0.3010
-4.9776 MESS -0.2961
-4.6766 MESSAGE -0.2999
-4.9776 MESSENGER -0.2831
-4.3756 MET -0.2790
-4.9776 META -0.2999
-4.9776 METABOLIZE -0.3010
-4.9776 METAL -0.3010
-4.9776 METAMORPHIC -0.3010
-4.9776 METAMORPHOSIS -0.2997
-4.9776 METEOR -0.2831
-4.6766 METER -0.2972
-4.9776 METERS -0.2993
-4.6766 METHOD -0.2872
-4.9776 METHODIST -0.3010
-4.9776 METRIC -0.3010
-4.9776 METROPOLIS -0.3010
-4.5005 MEXICAN -0.3010
-4.5005 MEXICO -0.2846
-4.9776 MEYER -0.3010
-4.9776 MGM -0.2874
-4.9776 MIA -0.3010
-4.6766 MIAMI -0.2996
-4.3756 MICHAEL -0.3010
-4.9776 MICHAGIN -0.3010
-4.3756 MICHELANGELO -0.2987
-4.9776 MICHENER -0.3009
-4.5005 MICHIGAN -0.2861
-4.9776 MICRO -0.2874
-4.9776 MICROCONTROLLERS -0.2874
-4.9776 MICROPROCESSORS -0.3010
-4.9776 MICROSCOPE -0.2997
-4.3756 MICROSOFT -0.2991
-4.9776 MICROWAVES -0.3010
-4.0234 MIDDLE -0.2950
-4.9776 MIDEAST -0.3009
-4.9776 MIDSUMMER -0.3010
-4.9776 MIDWEST -0.3010
-4.9776 MIDWIFE -0.2874
-4.9776 MIGHT -0.3010
-4.6766 MIGHTY -0.3010
-4.9776 MIGRATES -0.2893
-4.9776 MIKE -0.3010
-4.9776 MILANO -0.3010
-4.5005 MILE -0.2874
-4.1325 MILES -0.2733
-4.3756 MILITARY -0.3010
-4.5005 MILK -0.2861
-4.9776 MILKY -0.3010
-4.9776 MILL -0.2975
-4.9776 MILLENIUM -0.2874
-4.6766 MILLENNIUM -0.3010
-4.3756 MILLER -0.3009
-4.9776 MILLIGRAMS -0.2993
-4.1325 MILLION -0.2860
-4.9776 MILLISECONDS -0.2975
-4.9776 MILLS -0.3007
-4.9776 MILO -0.2874
-4.9776 MILTON -0.3010
-4.9776 MIND -0.2999
-4.9776 MINDED -0.2893
-4.6766 MINE -0.2838
-4.9776 MINIATURE -0.3010
-4.3756 MINIMUM -0.3010
-4.9776 MINING -0.3010
-4.2787 MINISTER -0.2806
-4.9776 MINNEAPOLIS -0.2874
-4.6766 MINNESOTA -0.2958
-4.6766 MINOR -0.2874
-4.9776 MINOW -0.3010
-4.9776 MINT -0.2997
-4.9776 MINUTE -0.3010
-4.6766 MINUTES -0.2871
-4.1995 MISS -0.2995
-4.9776 MISSILE -0.3008
-4.1995 MISSION -0.2780
-3.8637 MISSISSIPPI -0.2795
-4.5005 MISSOURI -0.2854
-4.9776 MISTAKENLY -0.3010
-4.6766 MITCHELL -0.3010
-4.9776 MIX -0.2874
-4.9776 MIXABLE -0.2999
-4.6766 MIXING -0.3010
-4.9776 MIXTURE -0.2993
-4.9776 MLA -0.3010
-4.9776 MOB -0.2961
-4.6766 MOBY -0.3010
-4.9776 MOCKINGBIRD -0.2831
-4.9776 MODE -0.2831
-4.3756 MODEL -0.2800
-4.9776 MODEM -0.2958
-4.9776 MODESTLY -0.3010
-4.9776 MOJAVE -0.3010
-4.9776 MOLASSES -0.3010
-4.9776 MOLECULES -0.3010
-4.9776 MOLLY -0.3010
-4.9776 MOLYBDENUM -0.2874
-4.9776 MONA -0.3010
-4.9776 MONACO -0.2961
-4.6766 MONARCH -0.2942
-4.9776 MONARCHS -0.3010
-4.6766 MONET -0.2860
-3.8637 MONEY -0.2436
-4.9776 MONGOL -0.3010
-4.6766 MONITOR -0.3006
-4.9776 MONK -0.2990
-4.5005 MONKEY -0.2874
-4.0745 MONOPOLY -0.2689
-4.9776 MONORAIL -0.3010
-4.9776 MONROE -0.2991
-4.9776 MONSANTO -0.3010
-4.9776 MONSTER -0.2975
-3.6766 MONTH -0.2912
-4.9776 MONTHLY -0.3010
-4.1995 MONTHS -0.2812
-4.9776 MONTREAL -0.3010
-3.9776 MOON -0.2650
-4.9776 MOONS -0.2961
-4.9776 MOORE -0.3009
-4.9776 MOORED -0.2831
-4.6766 MORAL -0.3008
-3.9776 MORE -0.2838
-4.9776 MORGAN -0.3010
-4.9776 MORLEY -0.2874
-4.5005 MORMONS -0.3010
-4.5005 MORNING -0.2981
-4.9776 MORPHINE -0.2831
-4.9776 MORTEM -0.3008
-4.9776 MORTGAGE -0.3010
-4.9776 MOSAIC -0.2874
-4.9776 MOSCOW -0.3010
-4.6766 MOSQUITO -0.2854
-3.0691 MOST -0.2896
-4.9776 MOST-USED -0.3010
-4.9776 MOST...SUBVERSIVE -0.3009
-4.9776 MOSTLY -0.3010
-3.8637 MOTHER -0.2763
-4.6766 MOTHER'S -0.3003
-4.5005 MOTION -0.2874
-4.9776 MOTOR -0.3010
-4.9776 MOTORCYCLES -0.2874
-4.9776 MOTOROLA -0.3005
-4.6766 MOTORS -0.2872
-4.1325 MOTTO -0.2743
-4.1995 MOUNT -0.3010
-3.7735 MOUNTAIN -0.2778
-4.9776 MOUNTAINOUS -0.3010
-4.3756 MOUNTAINS -0.2838
-4.9776 MOURNING -0.2975
-4.3756 MOUSE -0.2797
-4.3756 MOUTH -0.2809
-4.9776 MOVE -0.3007
-4.6766 MOVEMENT -0.2962
-3.5005 MOVIE -0.2396
-4.3756 MOVIES -0.2996
-4.6766 MOVING -0.2974
-4.9776 MOXIE -0.2874
-4.3756 MOZAMBIQUE -0.2873
-4.9776 MOZART -0.3010
-4.9776 MPILO -0.3010
-4.5005 MR. -0.3010
-4.2787 MRS. -0.3009
-4.9776 MS. -0.2997
-3.3978 MUCH -0.2704
-4.6766 MUFFINS -0.2874
-4.5005 MUHAMMAD -0.3008
-4.9776 MULTICOLORED -0.3009
-4.9776 MULTIMEDIA -0.2874
-4.9776 MULTIPLAYER -0.3010
-4.9776 MULTIPLE -0.3010
-4.9776 MULTIPLEXER -0.2874
-4.9776 MUMM -0.3010
-4.9776 MUNCHING -0.3000
-4.9776 MUNICH -0.2975
-4.3756 MUPPETS -0.2998
-4.6766 MURDER -0.2975
-4.9776 MURDERED -0.3010
-4.9776 MURDERING -0.2874
-4.9776 MUSCA -0.3010
-4.9776 MUSCLE -0.2874
-4.1995 MUSEUM -0.2652
-4.9776 MUSHROOM -0.2999
-3.8637 MUSIC -0.2889
-3.8637 MUSICAL -0.2985
-4.9776 MUSICIAN -0.3010
-4.9776 MUSLIM -0.3007
-4.9776 MUSLIMS -0.2874
-4.9776 MUSSOLINI -0.3010
-4.5005 MUST -0.2980
-4.9776 MUSTACHIOED -0.3010
-4.9776 MUSTANG -0.2831
-4.9776 MUSTARD -0.2874
-4.9776 MUTANT -0.3010
-4.5005 MUTINY -0.2872
-4.9776 MUTOMBO -0.3010
-3.6159 MY -0.2996
-4.9776 MYKONOS -0.2874
