Language model created by QuickLM on Sun Dec  7 20:46:27 EST 2014
Copyright (c) 1996-2010 Carnegie Mellon University and Alexander I. Rudnicky

The model is in standard ARPA format, designed by Doug Paul while he was at MITRE.

The code that was used to produce this language model is available in Open Source.
Please visit http://www.speech.cs.cmu.edu/tools/ for more information

The (fixed) discount mass is 0.5. The backoffs are computed using the ratio method.
This model based on a corpus of 641 sentences and 1610 words

\data\
ngram 1=1610
ngram 2=3257
ngram 3=3788

\1-grams:
-4.0802 "I'LL -0.3009
-4.0802 #477 -0.2772
-2.9041 'S -0.2999
-3.6031 1 -0.2771
-4.0802 101 -0.3009
-4.0802 11 -0.3010
-4.0802 11TH -0.2772
-4.0802 12 -0.3010
-3.6031 13 -0.3009
-4.0802 1896 -0.3009
-4.0802 1904 -0.3009
-3.7792 1948 -0.2998
-4.0802 1964 -0.3009
-4.0802 1967 -0.3009
-4.0802 1968 -0.2772
-4.0802 1973 -0.3010
-4.0802 1981 -0.2910
-4.0802 1992 -0.3010
-4.0802 1993 -0.2999
-4.0802 1ST -0.3008
-3.4781 2 -0.3009
-4.0802 2000 -0.2772
-4.0802 2002 -0.2772
-3.7792 2003 -0.2772
-3.7792 2004 -0.3000
-4.0802 2005 -0.3010
-3.6031 2006 -0.3009
-4.0802 2007 -0.3010
-3.7792 2008 -0.3009
-4.0802 2009 -0.3010
-3.4781 2010 -0.2772
-3.7792 2011 -0.2772
-4.0802 2012 -0.3010
-4.0802 22ND -0.3009
-4.0802 28 -0.3010
-3.6031 30 -0.2772
-4.0802 4 -0.3010
-4.0802 5 -0.3010
-3.7792 500 -0.2975
-4.0802 52 -0.3010
-4.0802 6 -0.2999
-4.0802 8 -0.3010
-1.2733 </s> -0.3010
-1.2733 <s> -0.2608
-2.4270 A -0.2982
-4.0802 A75 -0.2994
-4.0802 AA -0.3010
-4.0802 AARON -0.3010
-3.6031 ABBEY -0.2713
-4.0802 ABNORMAL -0.3010
-3.3020 ABOUT -0.2771
-4.0802 ABREVIATION -0.2994
-4.0802 ABUSED -0.2772
-4.0802 ABUSING -0.3010
-4.0802 ACADEMY -0.3007
-4.0802 ACCENT -0.3010
-4.0802 ACTORS -0.2973
-4.0802 ADAMS -0.3004
-4.0802 ADAPTATIONS -0.2954
-4.0802 ADAPTED -0.3008
-3.6031 ADDRESS -0.2713
-4.0802 ADOLF -0.3010
-4.0802 ADRIENNE -0.3010
-4.0802 ADVENTURE -0.3007
-4.0802 AEROSMITH -0.2772
-4.0802 AFFECTED -0.3005
-3.4781 AFRICA -0.2767
-4.0802 AFTER -0.2881
-4.0802 AGE -0.3001
-4.0802 AGNOSTIC -0.3010
-4.0802 AHOY -0.3010
-3.7792 AIR -0.2772
-4.0802 AIRED -0.2772
-4.0802 AIRLINES -0.2955
-3.6031 AIRPORT -0.2977
-4.0802 AIRSPEED -0.3009
-4.0802 AKERS -0.2999
-4.0802 ALABAMA -0.3008
-4.0802 ALAN -0.3010
-3.4781 ALBERTSON -0.2988
-4.0802 ALBUM -0.2772
-3.7792 ALBUMS -0.2969
-4.0802 ALCOHOL -0.2955
-4.0802 ALDRIDGE'S -0.3008
-4.0802 ALI -0.3010
-4.0802 ALKALINE -0.3010
-4.0802 ALL -0.3007
-3.4781 ALMIGHTY -0.2771
-4.0802 ALPHABET -0.3007
-4.0802 ALSO -0.3008
-4.0802 ALTA -0.3010
-4.0802 ALTITUDE -0.2954
-3.7792 AMENDMENT -0.2772
-3.4781 AMERICA -0.2772
-3.7792 AMERICAN -0.3010
-3.3020 AN -0.3007
-3.1771 AND -0.2879
-4.0802 ANDERSSEN -0.3004
-4.0802 ANDREW -0.3009
-4.0802 ANGELES -0.3010
-4.0802 ANGELINA -0.3010
-3.6031 ANGELS -0.2987
-4.0802 ANIMALS -0.2973
-4.0802 ANNA -0.3010
-4.0802 ANNUALLY -0.2772
-4.0802 ANNUNCIATION -0.2772
-3.7792 ANTARCTICA -0.2772
-4.0802 ANTHONY -0.3010
-4.0802 ANTILLES -0.2772
-4.0802 AOL -0.3010
-3.7792 APOLLO -0.3010
-3.7792 APPEAR -0.2735
-3.6031 APPLE -0.2771
-4.0802 APPLE, -0.3010
-3.7792 ARABIC -0.2972
-3.7792 ARCHITECTS -0.2772
-4.0802 ARCHITECTURAL -0.3010
-2.0632 ARE -0.2813
-3.0802 AREA -0.2690
-4.0802 AREAS -0.3005
-4.0802 ARIGNAR -0.3010
-4.0802 ARMORY -0.3010
-3.7792 ARMSTRONG -0.3003
-4.0802 ARMY -0.2994
-4.0802 ARNOLD! -0.3008
-3.6031 ART -0.2993
-4.0802 ARTICLES -0.2973
-3.7792 ARTISTS -0.2972
-3.7792 ARTS -0.2954
-3.3020 AS -0.2753
-4.0802 ASCAP -0.3007
-4.0802 ASIA -0.2772
-4.0802 ASPIRIN -0.3010
-4.0802 ASTRONAUTS -0.2975
-2.9663 AT -0.2526
-4.0802 ATHLETES -0.2994
-3.7792 ATLANTIC -0.3008
-4.0802 ATOMIC -0.3008
-3.7792 ATTACK -0.2771
-4.0802 ATTENDED -0.3009
-4.0802 AUGUST -0.2772
-3.7792 AUSTRALIA -0.2767
-3.7792 AUSTRALIAN -0.3008
-4.0802 AUTOMOBILES -0.2772
-4.0802 AVERAGE -0.3010
-3.0802 AWARD -0.2699
-3.1771 AWARDS -0.2953
-4.0802 B12 -0.2772
-4.0802 BACK" -0.2772
-4.0802 BALTIMORE -0.3010
-3.7792 BAND -0.3010
-4.0802 BARACK -0.3010
-4.0802 BAROSAURUS -0.3010
-4.0802 BARREMIAN -0.3009
-4.0802 BARRY -0.3010
-4.0802 BASKERVILLES -0.2772
-4.0802 BATH -0.3010
-4.0802 BATMAN -0.3010
-4.0802 BATTERY -0.2772
-4.0802 BATTLE -0.2954
-4.0802 BAUHAUS -0.3010
-3.6031 BE -0.3001
-4.0802 BEARS -0.2772
-4.0802 BEAVER -0.3008
-4.0802 BECKETT -0.3008
-4.0802 BEDS -0.2989
-3.1260 BEEN -0.2586
-4.0802 BEER -0.2955
-3.7792 BEERS -0.2733
-3.7792 BEGIN -0.2772
-4.0802 BEING -0.3010
-4.0802 BELLY -0.2772
-3.4781 BELONG -0.3001
-4.0802 BELONGS -0.3001
-4.0802 BELT -0.2975
-4.0802 BEN -0.3010
-4.0802 BENGALI -0.3010
-4.0802 BERGKAMP -0.3004
-4.0802 BERTRAND -0.3010
-4.0802 BESS -0.3006
-3.3812 BEST -0.3006
-4.0802 BETTY -0.3009
-4.0802 BETWEEN -0.2881
-3.7792 BEYONCE -0.3006
-4.0802 BEYOND -0.3010
-4.0802 BIANCHI -0.3010
-4.0802 BICYCLE -0.2955
-3.7792 BIG -0.3010
-4.0802 BIKE -0.2772
-4.0802 BILL -0.3010
-4.0802 BINDING -0.2772
-4.0802 BING -0.2772
-3.6031 BIRD -0.2952
-4.0802 BIRTH -0.2772
-4.0802 BIRTHDAY -0.2772
-4.0802 BLACK -0.3010
-4.0802 BLASS -0.3010
-4.0802 BLOCK -0.3010
-3.4781 BLOG -0.2738
-4.0802 BLOGS -0.2973
-4.0802 BLOGTALKRADIO -0.3010
-4.0802 BLUES -0.3004
-4.0802 BMW -0.2772
-4.0802 BMW'S -0.3010
-4.0802 BOATS -0.2989
-4.0802 BOILING -0.3010
-4.0802 BOND -0.2975
-3.6031 BOOK -0.3003
-3.6031 BOOKS -0.2949
-3.7792 BORDERS -0.3005
-3.2351 BORN -0.2735
-4.0802 BOSON -0.3008
-3.4781 BOSTON -0.3009
-4.0802 BOWLING -0.3010
-4.0802 BRANCHED -0.3008
-3.7792 BRANCHES -0.2986
-4.0802 BRANDS -0.2989
-4.0802 BREAST -0.3008
-4.0802 BREEDS -0.2973
-4.0802 BREWS -0.3010
-3.7792 BRIDGE -0.2772
-4.0802 BRIE -0.3010
-3.7792 BRITISH -0.3009
-4.0802 BRITNEY -0.3010
-3.7792 BROADCAST -0.2771
-4.0802 BROADCASTS -0.2989
-3.6031 BROWN -0.2770
-3.3812 BRUCE -0.3008
-4.0802 BRUT -0.2772
-4.0802 BUDGET -0.2994
-4.0802 BUILDINGS -0.3005
-3.6031 BUILT -0.2630
-4.0802 BULLS -0.2772
-4.0802 BURIED -0.2772
-4.0802 BUS -0.3010
-4.0802 BUSES -0.3001
-4.0802 BUTANE -0.2772
-2.8761 BY -0.2595
-4.0802 C. -0.2772
-4.0802 CAJUN -0.3010
-3.7792 CALIFORNIA -0.2772
-3.7792 CAMERAS -0.2971
-4.0802 CAN -0.3004
-4.0802 CANADIAN -0.3008
-4.0802 CANADIENS -0.2772
-4.0802 CANASTA -0.2772
-3.3812 CANCER -0.2730
-3.6031 CANON -0.3009
-3.7792 CAPACITY -0.2954
-4.0802 CAPE -0.3010
-4.0802 CAPRI -0.3010
-3.7792 CAR -0.3010
-4.0802 CARD -0.2772
-4.0802 CARDINALS -0.2772
-4.0802 CARDIOLOGY -0.2772
-4.0802 CARDS -0.3007
-3.4781 CAREER -0.2772
-4.0802 CARLISLE -0.3009
-4.0802 CARNEGIE -0.3010
-4.0802 CARS -0.2973
-4.0802 CASES -0.2994
-4.0802 CAST -0.3010
-4.0802 CASTING -0.3009
-4.0802 CATAN -0.2772
-4.0802 CATCHER -0.2975
-3.7792 CATEGORY -0.2932
-4.0802 CATHOLICISM -0.2772
-4.0802 CATHY -0.3010
-4.0802 CATS -0.2772
-4.0802 CAUSE -0.3010
-3.7792 CAUSES -0.2954
-4.0802 CAVE -0.3010
-3.7792 CBS -0.3010
-3.7792 CELEBRITIES -0.2994
-4.0802 CELLO -0.2772
-3.7792 CENTER -0.2772
-4.0802 CENTERS -0.2973
-4.0802 CENTURY -0.2772
-4.0802 CEO -0.2954
-4.0802 CERATOPSIA -0.2994
-4.0802 CERTIFIED -0.3008
-4.0802 CESSNA -0.3010
-4.0802 CHAMPION -0.2772
-4.0802 CHAMPIONS -0.2772
-4.0802 CHANCERY -0.2994
-4.0802 CHAPTER -0.2954
-3.7792 CHARACTER -0.2978
-3.3020 CHARACTERS -0.2889
-4.0802 CHARGE -0.2954
-4.0802 CHARGED -0.3010
-3.7792 CHARLIE -0.3009
-3.6031 CHARLIE_S -0.3009
-3.7792 CHEESE -0.2772
-3.7792 CHEMICAL -0.3007
-4.0802 CHI -0.3010
-3.7792 CHICAGO -0.3010
-4.0802 CHIPS -0.3010
-4.0802 CHRISTOPHER -0.3010
-4.0802 CHRONICLE -0.2772
-4.0802 CHUAN -0.2772
-4.0802 CIRCULATED -0.2772
-4.0802 CIRRUS -0.3010
-4.0802 CITATION -0.3010
-4.0802 CITIES -0.2989
-3.3020 CITY -0.2704
-4.0802 CITY/TOWN/VILLAGE -0.2772
-4.0802 CIVIC -0.3010
-4.0802 CIVIL -0.3010
-4.0802 CIVILIZATION -0.3006
-4.0802 CLARIS -0.3009
-3.3020 CLASS -0.2652
-4.0802 CLEVELAND -0.3009
-4.0802 CLINIC -0.3007
-4.0802 CLINTON -0.3009
-4.0802 CLOSE -0.2772
-4.0802 CLOSET -0.3008
-4.0802 CLOTHING -0.2973
-3.7792 CLOUDS -0.2772
-4.0802 CLUB -0.2772
-3.4781 COACH -0.2675
-4.0802 COACHED -0.2772
-4.0802 COACHES -0.2881
-4.0802 COAL -0.2772
-4.0802 COBIA -0.2772
-4.0802 COCAINE -0.2772
-3.1771 CODE -0.2755
-4.0802 CODONS -0.2954
-4.0802 COHOST -0.2975
-4.0802 COLBY -0.3010
-3.7792 COLLECT -0.2772
-4.0802 COLLECTION -0.2772
-4.0802 COLLECTIONS -0.2980
-4.0802 COLLINS -0.3008
-4.0802 COLOR -0.2980
-4.0802 COLORADO -0.2772
-4.0802 COLORED -0.2772
-4.0802 COLORS -0.2772
-4.0802 COLUMBIA -0.3010
-4.0802 COMBUSTION -0.3009
-3.6031 COME -0.2974
-4.0802 COMEDY -0.3009
-3.6031 COMIC -0.3009
-4.0802 COMMAND -0.2772
-4.0802 COMMANDERS -0.3005
-4.0802 COMMITTED -0.2772
-3.7792 COMPANIES -0.2971
-4.0802 COMPANION -0.3006
-4.0802 COMPOSED -0.2881
-4.0802 COMPREHENSIVE -0.2772
-3.7792 COMPUTER -0.3008
-4.0802 CONCERT -0.3010
-4.0802 CONDITIONS -0.2989
-4.0802 CONFERENCE -0.2954
-3.6031 CONFERENCES -0.2977
-3.7792 CONFIGURATION -0.2713
-4.0802 CONFLICTS -0.2980
-3.6031 CONSIST -0.2954
-4.0802 CONSTITUTION -0.3009
-4.0802 CONSTRUCTION -0.2954
-4.0802 CONVENTION -0.3009
-4.0802 CONVENTIONS -0.3000
-4.0802 COOKIE -0.3008
-4.0802 CORDON -0.3010
-4.0802 CORNER -0.3006
-4.0802 CORONET -0.3010
-3.7792 CORPORATION -0.3003
-3.6031 COST -0.2736
-4.0802 COSTUME -0.3010
-4.0802 COTTON -0.2772
-3.1771 COUNTRIES -0.2913
-3.6031 COUNTRY -0.2986
-4.0802 COUNTY -0.2772
-3.4781 COURT -0.2953
-3.4781 COVER -0.2771
-4.0802 CRACKERS -0.3008
-3.7792 CRAIG -0.2772
-3.3020 CREATED -0.2632
-4.0802 CREATORS -0.2954
-4.0802 CRETACEOUS -0.3009
-4.0802 CRICKET -0.3008
-4.0802 CROAKER -0.3009
-4.0802 CROSS -0.2954
-4.0802 CUISINE -0.2772
-3.4781 CUP -0.2771
-4.0802 CURLY -0.3010
-3.1771 CURRENCY -0.2769
-4.0802 CURRENT -0.3010
-3.3020 CURRENTLY -0.2990
-4.0802 CYLINDER -0.3009
-4.0802 DA -0.3010
-4.0802 DABBLE -0.3009
-3.7792 DADDY -0.3008
-4.0802 DAMAGES -0.2980
-4.0802 DANGO -0.2772
-4.0802 DANISH -0.3010
-3.3020 DANNY -0.3008
-4.0802 DAS -0.3010
-3.7792 DATE -0.2937
-4.0802 DAVE -0.3010
-4.0802 DAVID -0.3010
-4.0802 DAYS -0.3010
-4.0802 DE -0.3009
-4.0802 DEATH -0.3008
-4.0802 DEBUT -0.2772
-4.0802 DECO -0.2772
-4.0802 DEDICATE -0.3001
-4.0802 DEDICATED -0.2772
-4.0802 DEGREE -0.3010
-4.0802 DEITIES -0.2954
-4.0802 DELAWARE -0.2772
-4.0802 DENNIS -0.3010
-4.0802 DENVER -0.3010
-3.6031 DESIGN -0.2752
-4.0802 DESIGNATED -0.3008
-3.1771 DESIGNED -0.2636
-4.0802 DESIGNER -0.2994
-4.0802 DESIGNING -0.2994
-4.0802 DESIGNS -0.2994
-4.0802 DESTROYED -0.2975
-4.0802 DETROIT -0.3008
-3.6031 DEVELOPED -0.2636
-4.0802 DEVELOPER -0.2954
-3.3020 DEVITO -0.2983
-4.0802 DIALECTS -0.2954
-2.1559 DID -0.2823
-3.2351 DIE -0.2713
-4.0802 DIED -0.2975
-4.0802 DIET -0.2980
-4.0802 DIFFERENT -0.3010
-3.7792 DIGITAL -0.3010
-4.0802 DIMENSIONS -0.2954
-3.7792 DINOSAUR -0.3009
-4.0802 DINOSAURS -0.3005
-4.0802 DIRECT -0.2772
-3.6031 DIRECTED -0.3006
-3.6031 DIRECTOR -0.2901
-4.0802 DISASTER -0.2772
-4.0802 DISCOVERED -0.3010
-4.0802 DISCOVERY -0.2772
-3.7792 DISEASE -0.2713
-3.7792 DISEASES -0.2955
-4.0802 DISHES -0.2772
-3.7792 DISNEYLAND -0.2714
-4.0802 DISTRIBUTE -0.2772
-4.0802 DISTRIBUTORS -0.2994
-4.0802 DISTRICT -0.2954
-3.7792 DIVISION -0.2969
-4.0802 DIVISIONS -0.2954
-4.0802 DNA -0.3010
-3.1260 DO -0.2634
-4.0802 DOCTOR -0.2772
-4.0802 DOCTORS -0.2772
-4.0802 DOCUMENTARIES -0.2973
-4.0802 DODGERS -0.2772
-2.3168 DOES -0.2836
-3.3812 DOLLAR -0.2769
-4.0802 DOMAIN -0.3009
-4.0802 DONOVAN -0.3010
-4.0802 DOOLING -0.3004
-4.0802 DOOM -0.2994
-4.0802 DOONESBURY -0.2772
-4.0802 DORITOS -0.2772
-4.0802 DOWN -0.3010
-4.0802 DOWNEY -0.3010
-4.0802 DRAMA -0.3007
-4.0802 DRAVIDIAN -0.3008
-4.0802 DREAM -0.2954
-4.0802 DRIVING -0.3009
-4.0802 DRY -0.3010
-4.0802 DS -0.2772
-4.0802 DUBAI -0.3010
-3.7792 DURING -0.2778
-4.0802 DX3000 -0.2994
-4.0802 EAGLE -0.2772
-4.0802 EAGLES -0.2772
-3.7792 EARTH -0.2767
-4.0802 EASY -0.3010
-3.7792 ECONOMY -0.2954
-4.0802 EDWARD -0.3010
-4.0802 EFFECTS -0.2954
-4.0802 EGYPT -0.3010
-4.0802 EIFFEL -0.3010
-4.0802 ELECTION -0.2772
-4.0802 ELECTRIC -0.3010
-4.0802 ELEVATION -0.3006
-4.0802 ELIZABETH -0.3009
-4.0802 ELK -0.3009
-4.0802 EMPLOY -0.2772
-3.4781 ENGINE -0.2731
-4.0802 ENGINEERING -0.2772
-4.0802 ENGINES -0.2994
-4.0802 ENGLISH -0.3010
-4.0802 ENTER -0.2881
-3.6031 EPISODE -0.2953
-3.7792 EPISODES -0.2750
-4.0802 EPSILON -0.2772
-3.7792 EQUIVALENT -0.3001
-4.0802 ERUPT -0.2772
-4.0802 EURO -0.3009
-4.0802 EUROPEAN -0.3010
-4.0802 EUROS -0.2772
-3.7792 EVENING -0.3010
-3.7792 EVENTS -0.2735
-4.0802 EVEREST -0.2772
-4.0802 EVERYTHING -0.2955
-4.0802 EXAMPLES -0.2954
-3.7792 EXHIBIT -0.3003
-4.0802 EXHIBITED -0.2772
-3.7792 EXHIBITIONS -0.2983
-3.7792 EXHIBITS -0.2956
-4.0802 EXPANSION -0.3010
-3.7792 F -0.3010
-4.0802 F-5 -0.3010
-4.0802 F. -0.3010
-4.0802 F.C. -0.3008
-4.0802 FA -0.3009
-4.0802 FACILITIES -0.3000
-4.0802 FACILITY -0.2772
-4.0802 FALLINGWATER -0.2772
-4.0802 FALLS -0.2772
-3.7792 FAME -0.2772
-4.0802 FAMILY -0.2772
-4.0802 FANTASY -0.3008
-3.7792 FARGO -0.3000
-3.7792 FAST -0.3009
-4.0802 FATIGUE -0.2994
-4.0802 FAVORITE -0.3010
-4.0802 FAWLTY -0.3010
-4.0802 FEDERAL -0.3009
-4.0802 FEDOR -0.3010
-4.0802 FERDINAND -0.3009
-4.0802 FERRARI -0.3010
-4.0802 FICTION -0.3010
-4.0802 FICTIONAL -0.3008
-3.7792 FIFA -0.3008
-3.7792 FIFTH -0.3009
-4.0802 FIGHTER -0.2772
-4.0802 FIGURES -0.2772
-4.0802 FILE -0.3010
-4.0802 FILLION -0.3010
-3.1260 FILM -0.2767
-3.7792 FILMS -0.2961
-3.3812 FINAL -0.2771
-3.7792 FINISH -0.2772
-3.7792 FIRE -0.3006
-4.0802 FIREFLY -0.2772
-2.9663 FIRST -0.3001
-4.0802 FIT -0.2772
-4.0802 FLAGS -0.3009
-4.0802 FLEECE -0.2772
-4.0802 FLEET -0.3010
-4.0802 FLICKR -0.2772
-4.0802 FLOOR -0.3008
-4.0802 FLOORS -0.2989
-4.0802 FLOWN -0.2772
-4.0802 FOCUS -0.2954
-4.0802 FOOLS -0.2772
-4.0802 FOOTWEAR -0.2973
-2.4270 FOR -0.2489
-3.4781 FORD -0.2993
-3.6031 FORM -0.2772
-3.6031 FORMATIONS -0.2966
-4.0802 FORMATS -0.3010
-3.7792 FORMED -0.2974
-4.0802 FORMULA -0.2994
-4.0802 FORTUNE -0.3010
-4.0802 FORUNE -0.3010
-4.0802 FOUGHT -0.2975
-3.6031 FOUND -0.2772
-2.9341 FOUNDED -0.2771
-4.0802 FOURNIE -0.3009
-4.0802 FOXES -0.3008
-4.0802 FRANCESCO -0.3010
-3.7792 FRANCISCO -0.2772
-3.7792 FRANK -0.3010
-4.0802 FRAZIER -0.3009
-4.0802 FREE -0.3010
-3.6031 FREEBASE -0.2772
-4.0802 FREEDOM -0.3010
-3.7792 FRENCH -0.3010
-4.0802 FRIDA -0.3010
-3.3020 FROM -0.2769
-4.0802 FRONTIER -0.3010
-4.0802 FRY -0.2772
-3.4781 FUEL -0.2989
-4.0802 FUJI -0.3010
-4.0802 FULHAM -0.3010
-3.7792 FURIOUS -0.2772
-4.0802 G.H. -0.3010
-4.0802 GALILEO -0.3010
-4.0802 GALL -0.3010
-3.4781 GAME -0.2713
-3.4781 GAMES -0.2931
-4.0802 GAP, -0.3010
-4.0802 GARCIA -0.3010
-4.0802 GARRY -0.3010
-3.7792 GARTER -0.2963
-3.7792 GATE -0.3010
-4.0802 GATO -0.3008
-4.0802 GATORADE -0.3005
-3.6031 GENERATION -0.2951
-4.0802 GENERATIONS -0.2954
-3.4781 GENRE -0.2866
-3.6031 GENRES -0.2718
-3.7792 GERMAN -0.2772
-3.7792 GET -0.2975
-4.0802 GETTYSBURG -0.3009
-4.0802 GIANTS -0.3010
-4.0802 GILLIGAN_S -0.3010
-4.0802 GIRARDI -0.3008
-4.0802 GIRL -0.3010
-3.4781 GLASS -0.2966
-4.0802 GLOBE -0.3007
-4.0802 GLOSTER -0.3010
-4.0802 GLS -0.3010
-4.0802 GLUTAMINE -0.2772
-4.0802 GO -0.3010
-4.0802 GOALKEEPERS -0.2772
-4.0802 GOBLET -0.2954
-4.0802 GOD -0.2772
-3.6031 GOING -0.2999
-3.4781 GOLD -0.2771
-3.4781 GOLDEN -0.3009
-3.7792 GONE -0.3001
-4.0802 GOOGLE -0.3010
-4.0802 GOT -0.2881
-4.0802 GOTHAM -0.3008
-4.0802 GOTTEN -0.3008
-4.0802 GRADE -0.2772
-4.0802 GRAEME -0.3009
-3.7792 GRAMMY -0.3004
-4.0802 GRAND -0.3010
-4.0802 GREATEST -0.3010
-4.0802 GREEN -0.3010
-4.0802 GROHL -0.3005
-4.0802 GROPIUS' -0.3010
-4.0802 GROSS -0.3010
-4.0802 GROUP -0.2954
-4.0802 GROVER -0.3010
-4.0802 GRUTA -0.3010
-3.7792 GSUSA -0.2771
-3.7792 GUARDIAN -0.3005
-4.0802 GUIDEBOOKS -0.2973
-4.0802 GUITAR -0.3010
-4.0802 GUITARIST -0.2954
-4.0802 GULL -0.3007
-4.0802 GUNPOWDER -0.3010
-4.0802 H&R -0.3010
-3.6031 HAD -0.2735
-3.4781 HALL -0.2936
-4.0802 HALO: -0.3010
-4.0802 HALPER -0.2994
-4.0802 HANA -0.3010
-4.0802 HANK -0.3010
-4.0802 HAPPENED -0.2975
-4.0802 HARDIN -0.3010
-3.7792 HARRY -0.2772
-2.6178 HAS -0.2868
-4.0802 HATS -0.2772
-4.0802 HAUNTED -0.3010
-2.4270 HAVE -0.2547
-4.0802 HAWK -0.2772
-4.0802 HAWKER -0.3010
-3.6031 HAYDEN -0.3006
-4.0802 HAYDN -0.2772
-3.7792 HEAD -0.3009
-4.0802 HEADQUARTERED -0.2772
-4.0802 HEADQUARTERS -0.2772
-4.0802 HEART -0.3010
-4.0802 HEATHROW -0.3009
-4.0802 HEAVY -0.3010
-4.0802 HEDGEHOG -0.2994
-4.0802 HEIGHT -0.3010
-3.6031 HELD -0.2636
-4.0802 HENRY -0.3010
-4.0802 HER -0.3010
-4.0802 HERALD -0.3006
-4.0802 HERITAGE -0.3010
-4.0802 HERM -0.2772
-4.0802 HERO: -0.3010
-4.0802 HERRESHOFF -0.3007
-4.0802 HEY -0.3010
-4.0802 HIGGINS -0.3008
-3.6031 HIGH -0.2954
-3.7792 HIGHEST -0.3010
-3.6031 HIGHWAY -0.3007
-4.0802 HILLARY -0.3010
-4.0802 HINDUISM -0.2772
-3.7792 HIS -0.3009
-4.0802 HISTORY -0.3010
-4.0802 HOBBIT -0.3010
-4.0802 HOBBY -0.2772
-4.0802 HOCKEY -0.3009
-4.0802 HOLY -0.3010
-4.0802 HOME -0.3010
-3.7792 HONDA -0.3010
-4.0802 HOPKINS -0.3004
-4.0802 HORSE -0.2772
-4.0802 HOSPITAL -0.2994
-4.0802 HOSPITALS -0.3010
-4.0802 HOST -0.2772
-3.7792 HOSTED -0.2881
-4.0802 HOSTS -0.2954
-4.0802 HOUND -0.2954
-4.0802 HOUSE -0.2994
-1.8707 HOW -0.2865
-4.0802 HUB -0.2994
-4.0802 HUBBLE -0.3008
-4.0802 HUGH -0.3010
-4.0802 HUGO -0.3007
-4.0802 HULL -0.3008
-3.3812 HURRICANE -0.3008
-4.0802 HYBRID -0.2772
-4.0802 HYUNDAI -0.3010
-4.0802 I -0.3008
-4.0802 ICEMAN -0.2999
-4.0802 IGNEOUS -0.3008
-3.4781 II -0.2768
-4.0802 III -0.3010
-4.0802 ILLINOIS -0.2772
-4.0802 ILLUMINATED -0.3007
-3.7792 IMAGE -0.2772
-4.0802 IMMORTAL -0.3009
-2.0934 IN -0.2395
-3.7792 INC. -0.2772
-4.0802 INCOME -0.2772
-4.0802 INDEPENDENCE -0.3009
-4.0802 INDIAN -0.3010
-4.0802 INDONESIAN -0.3010
-3.7792 INDUCTED -0.3010
-4.0802 INDUSTRIES -0.2989
-4.0802 INDUSTRY -0.2772
-4.0802 INFECTION -0.2955
-4.0802 INFLUENCE -0.2772
-3.4781 INFLUENCED -0.3004
-4.0802 INGREDIENTS -0.2973
-4.0802 INSTANT -0.3010
-4.0802 INSTITUTE -0.2954
-4.0802 INSTITUTIONS -0.2979
-4.0802 INSTRUMENT -0.2980
-4.0802 INTERNAL -0.3010
-3.7792 INTERNATIONAL -0.3009
-4.0802 INTERSTATE -0.3010
-3.7792 INTO -0.2881
-3.2351 INTRODUCED -0.2772
-4.0802 INVENTED -0.3010
-4.0802 INVERTIGO -0.3010
-4.0802 INVISIBLE -0.3010
-4.0802 IOWA -0.2772
-3.7792 IPHONE -0.2772
-4.0802 IPOD -0.2973
-4.0802 IRON -0.3009
-1.8983 IS -0.2790
-4.0802 ISLAM -0.2772
-4.0802 ISLAND -0.3006
-4.0802 ISLANDS -0.2973
-4.0802 ISOLDE -0.2772
-3.4781 ISSUE -0.2922
-3.7792 ISSUES -0.2915
-4.0802 IT -0.2979
-4.0802 ITALIAN -0.3010
-4.0802 IVAN -0.2772
-3.4781 JACK -0.3009
-4.0802 JACKSON -0.3010
-3.7792 JAMES -0.3009
-4.0802 JAPAN -0.3010
-4.0802 JAPANESE -0.3010
-4.0802 JAVA -0.3008
-4.0802 JAY -0.3010
-3.7792 JCPENNEY -0.3000
-4.0802 JEEP -0.3010
-3.2351 JERRY -0.3008
-3.7792 JESSICA -0.3010
-4.0802 JIM -0.3010
-3.7792 JOE -0.3010
-3.7792 JOHN -0.3010
-4.0802 JOLIE'S -0.3010
-4.0802 JONATHAN -0.3009
-4.0802 JONI -0.3010
-4.0802 JOSE -0.3010
-4.0802 JOSEPH -0.3010
-4.0802 JOURNAL -0.2954
-4.0802 JOURNALS -0.2772
-4.0802 JR -0.3010
-4.0802 JRR -0.3010
-4.0802 JUDAISM -0.2973
-4.0802 JUDGE -0.3010
-4.0802 JUDGES -0.3000
-4.0802 JUDO -0.2772
-4.0802 JULIEN -0.3010
-4.0802 JULY -0.3010
-4.0802 JUN -0.3010
-4.0802 JUNE -0.3009
-4.0802 JUPITER -0.2772
-4.0802 JURISDICTION -0.2772
-4.0802 JUSTICE -0.3009
-4.0802 KA -0.2772
-4.0802 KAHLO -0.3010
-4.0802 KARL -0.3010
-4.0802 KASPAROV -0.3007
-4.0802 KATRINA -0.2772
-4.0802 KELLY -0.2772
-3.7792 KENNEDY -0.3006
-4.0802 KENNEL -0.3010
-3.7792 KENPO -0.2772
-4.0802 KEPLER -0.3010
-4.0802 KEVIN -0.3010
-4.0802 KEYON -0.3010
-4.0802 KIDS -0.3010
-4.0802 KID_S -0.3010
-4.0802 KIFM -0.3010
-4.0802 KILL -0.2994
-4.0802 KIND -0.2954
-4.0802 KINDS -0.2954
-4.0802 KINGDA -0.3010
-4.0802 KINGDOM -0.3010
-4.0802 KIRKSTALL -0.3009
-4.0802 KITTY -0.3010
-4.0802 KNICKERBOCKERS -0.2772
-4.0802 KNIGHTS -0.2954
-3.3020 KNOWN -0.3002
-4.0802 KOERTZEN -0.3010
-4.0802 KRONA -0.2772
-4.0802 KRONER -0.2955
-4.0802 KWAK -0.2772
-4.0802 LABEL -0.2989
-3.7792 LABELS -0.2958
-4.0802 LAMARCUS -0.3010
-4.0802 LAMBEAU -0.3010
-4.0802 LANDERS -0.3010
-3.3812 LANGUAGE -0.2653
-3.3020 LANGUAGES -0.2952
-4.0802 LARRY -0.3009
-3.7792 LAST -0.3010
-4.0802 LATER -0.2772
-4.0802 LATITUDE -0.3007
-3.6031 LAUNCHED -0.2772
-4.0802 LAURIE -0.3008
-4.0802 LEAD -0.3010
-4.0802 LEADING -0.3010
-3.7792 LEAFS -0.2772
-4.0802 LEAGUE -0.2955
-3.7792 LEE -0.2771
-4.0802 LEGAL -0.3010
-4.0802 LENO'S -0.3010
-4.0802 LEONARDO -0.3010
-4.0802 LEPTON -0.3010
-4.0802 LETTER -0.3010
-3.7792 LEUKEMIA -0.2772
-4.0802 LEWIS -0.3008
-3.3812 LIBRARY -0.2718
-4.0802 LIFE -0.2772
-4.0802 LIGHTHOUSE -0.3008
-4.0802 LIGHTNIN' -0.3010
-4.0802 LIKE -0.2772
-4.0802 LIL -0.3010
-4.0802 LIMA -0.3008
-4.0802 LIMITED -0.2772
-4.0802 LINDSEY -0.3010
-3.7792 LINE -0.2771
-4.0802 LINEBACKERS -0.2999
-3.7792 LINES -0.2987
-4.0802 LISA -0.2772
-4.0802 LISTED -0.3008
-4.0802 LITE -0.2772
-3.7792 LIVE -0.2772
-4.0802 LIVED -0.2975
-4.0802 LIVERPOOL -0.3010
-4.0802 LLOYD -0.3010
-3.6031 LOCATED -0.2772
-4.0802 LOCATIONS -0.2973
-4.0802 LOCOMOTIVE -0.3008
-4.0802 LODGES -0.2973
-4.0802 LOHAN -0.3010
-4.0802 LOHENGRIN -0.2975
-3.6031 LONDON -0.3009
-3.2351 LONG -0.2916
-4.0802 LONGITUDE -0.2954
-4.0802 LOOK -0.3010
-4.0802 LOS -0.3010
-4.0802 LOSSES -0.3000
-4.0802 LOST -0.3007
-3.7792 LOUIS -0.3010
-4.0802 LOWELL -0.3010
-4.0802 LSE -0.3009
-4.0802 LUKE -0.3010
-4.0802 LUTHER -0.3009
-4.0802 LUX -0.3010
-4.0802 MACINTOSH -0.3008
-3.2351 MADE -0.2950
-4.0802 MADRID -0.2994
-4.0802 MAGIC -0.3010
-4.0802 MAGICIAN_S -0.3010
-3.6031 MAIN -0.3006
-3.7792 MAJOR -0.3009
-3.7792 MAKES -0.2989
-4.0802 MAKEUP -0.3010
-4.0802 MALL -0.2772
-4.0802 MALLS -0.2989
-4.0802 MAMMOTH -0.3010
-3.7792 MAN -0.2772
-4.0802 MANAGE -0.2772
-4.0802 MANAGED -0.3010
-4.0802 MANAGES -0.3010
-3.7792 MANHATTAN -0.3010
-4.0802 MANSION -0.3010
-4.0802 MANUFACTURED -0.2881
-3.7792 MANUFACTURES -0.2881
-4.0802 MANUFACTURING -0.3010
-1.9435 MANY -0.2925
-3.7792 MAPLE -0.3010
-4.0802 MARGIELA -0.3009
-4.0802 MARINA -0.3010
-3.7792 MARK -0.3010
-4.0802 MARKET-FRANKFORD -0.3010
-4.0802 MARSHALL -0.3009
-3.7792 MARTIAL -0.3010
-3.7792 MARTIN -0.3010
-4.0802 MARX -0.2772
-3.7792 MASCOT -0.2713
-4.0802 MASS -0.2954
-4.0802 MASSIVE -0.3010
-4.0802 MASTER -0.2954
-4.0802 MATHEMATICS -0.2973
-4.0802 MATRIX -0.3010
-4.0802 MATSUMOTO -0.3004
-4.0802 MATTEL -0.3008
-4.0802 MATTER -0.2955
-4.0802 MATTHEW -0.3009
-4.0802 MAURITANIA -0.2772
-3.6031 MAX -0.3009
-4.0802 MAXIMUM -0.3010
-3.7792 MAY -0.3009
-4.0802 MCKINNEY -0.3008
-4.0802 MCLEAN -0.3010
-4.0802 MCNABB -0.3004
-3.6031 MEDAL -0.2703
-3.3812 MEET -0.2881
-4.0802 MELLON -0.3010
-4.0802 MELTING -0.3010
-4.0802 MEMBER -0.2954
-3.7792 MEMBERS -0.2954
-4.0802 MEN_S -0.3010
-4.0802 MERLIN -0.2772
-4.0802 MESSENGER -0.2772
-4.0802 METAMORPHIC -0.3008
-4.0802 METEOR -0.2772
-3.7792 MEXICAN -0.3010
-4.0802 MICHAEL -0.3010
-4.0802 MICROSOFT -0.3007
-4.0802 MIKE -0.3009
-4.0802 MILE -0.3009
-3.6031 MILITARY -0.3008
-3.6031 MILLER -0.3008
-4.0802 MINUTE -0.3009
-3.7792 MISSION -0.2772
-4.0802 MISSISSIPPI -0.3010
-3.7792 MITCHELL -0.3008
-4.0802 MOCKINGBIRD -0.2772
-4.0802 MODE -0.2772
-4.0802 MODEL -0.3010
-4.0802 MOLASSES -0.3010
-4.0802 MONA -0.3010
-3.6031 MONEY -0.2732
-4.0802 MONOPOLY -0.2772
-4.0802 MONORAIL -0.3008
-4.0802 MONSANTO -0.3010
-4.0802 MONTREAL -0.3010
-3.7792 MOON -0.2772
-4.0802 MOONS -0.2954
-4.0802 MOORED -0.2772
-4.0802 MORPHINE -0.2772
-3.6031 MOST -0.3009
-4.0802 MOTION -0.3010
-4.0802 MOTOR -0.3010
-4.0802 MOTOROLA -0.2994
-4.0802 MOTTO -0.2954
-3.7792 MOUNT -0.3010
-3.4781 MOUNTAIN -0.2735
-3.6031 MOVIE -0.2712
-3.6031 MOVIES -0.3002
-4.0802 MOZART -0.3010
-3.3020 MUCH -0.2975
-4.0802 MUHAMMAD -0.3010
-4.0802 MULTIPLAYER -0.3010
-4.0802 MUMM -0.3010
-3.7792 MUSEUM -0.2772
-3.4781 MUSIC -0.2946
-3.7792 MUSICAL -0.3008
-4.0802 MUSSOLINI -0.3010
-4.0802 MUSTANG -0.2772
-4.0802 MUTANT -0.3010
-4.0802 MY -0.3010
-4.0802 NAME -0.2994
-3.3020 NAMES -0.2917
-3.7792 NATHAN -0.3010
-4.0802 NATHANAEL -0.3010
-3.7792 NATIONAL -0.3009
-3.7792 NATIONS -0.3003
-4.0802 NAUTILUS -0.2772
-3.7792 NAVY -0.3007
-4.0802 NEANDERTHAL -0.3009
-4.0802 NEED -0.3001
-4.0802 NEON -0.2772
-4.0802 NEPHEW -0.2772
-4.0802 NET -0.3010
-4.0802 NETFLIX -0.2772
-3.7792 NETWORK -0.2739
-4.0802 NEURON -0.3010
-3.6031 NEW -0.3009
-3.7792 NEWS -0.2772
-4.0802 NEWSCASTER -0.2975
-4.0802 NEWSPAPERS -0.2989
-4.0802 NHL -0.2772
-4.0802 NIAGARA -0.3010
-3.7792 NICKNAMES -0.2973
-4.0802 NINJA -0.3010
-4.0802 NINTENDO -0.3010
-4.0802 NIVEA -0.2772
-3.7792 NOMINATED -0.2994
-3.7792 NOMINATIONS -0.2980
-3.6031 NORTH -0.3009
-4.0802 NOTABLE -0.3010
-4.0802 NOVEL -0.2772
-3.3812 NUMBER -0.2619
-3.4781 NUTTY -0.3008
-4.0802 NYSE -0.2772
-4.0802 O'NEAL -0.2994
-4.0802 OAKS -0.3010
-4.0802 OBAMA -0.3007
-4.0802 OBSERVATORY -0.2994
-1.8871 OF -0.2552
-4.0802 OFFENCES -0.3000
-4.0802 OFFICIAL -0.3008
-4.0802 OFFS -0.2989
-4.0802 OFTEN -0.2989
-4.0802 OLD -0.3007
-4.0802 OLYMPIC -0.3009
-3.3812 OLYMPICS -0.2761
-3.4781 OMARION -0.2999
-2.5888 ON -0.2521
-4.0802 ONCE -0.3010
-4.0802 ONLY -0.3010
-3.7792 OPEN -0.2772
-4.0802 OPENED -0.2772
-4.0802 OPERA -0.2980
-4.0802 OPERAS -0.2973
-4.0802 OPERATE -0.2772
-4.0802 OPERATES -0.2881
-4.0802 OPERATING -0.3010
-4.0802 OPERATORS -0.3010
-4.0802 OPPENHEIMER'S -0.3010
-4.0802 OR -0.3010
-4.0802 ORACLE -0.3007
-4.0802 ORBITAL -0.3009
-3.4781 ORDER -0.2953
-4.0802 ORDERS -0.2980
-4.0802 OREO -0.3010
-3.7792 ORIENTATION -0.2772
-4.0802 ORIGIN -0.2954
-3.7792 ORIGINAL -0.3008
-4.0802 ORIGINATE -0.2772
-4.0802 ORIGINATED -0.2975
-4.0802 OSCAR -0.3008
-3.3020 OTHER -0.3008
-3.6031 OUT -0.2713
-3.7792 OVER -0.2909
-4.0802 OVERALL -0.2955
-4.0802 OVERGROUND -0.3010
-3.4781 OWN -0.2772
-4.0802 OWNED -0.3010
-4.0802 OWNER -0.2954
-3.7792 OWNS -0.3010
-3.6031 OXFORD -0.2767
-4.0802 OZ -0.2772
-4.0802 PABLO -0.3010
-4.0802 PACKS -0.2989
-4.0802 PAINTED -0.2881
-3.6031 PANASONIC -0.3009
-3.7792 PANETTIERE -0.2998
-3.7792 PARENT -0.3008
-3.3812 PARENTS -0.2711
-4.0802 PARIS -0.2772
-3.4781 PARK -0.2713
-4.0802 PARKER -0.3010
-4.0802 PARKER'S -0.3010
-4.0802 PART -0.2954
-4.0802 PARTICIPATE -0.2975
-3.7792 PARTICIPATED -0.2975
-3.7792 PARTICLES -0.2973
-3.7792 PARTY -0.2975
-4.0802 PASS -0.2772
-4.0802 PASSENGER -0.3010
-4.0802 PATIENT -0.3007
-4.0802 PAUWEL -0.3010
-4.0802 PAYNE -0.3010
-4.0802 PEABODY -0.3007
-4.0802 PEAK -0.3010
-4.0802 PEANUTS -0.2772
-2.9663 PEOPLE -0.2950
-4.0802 PER -0.3008
-4.0802 PERCENT -0.3010
-3.6031 PERFORMANCES -0.2959
-3.7792 PERFORMED -0.2772
-3.4781 PERIOD -0.2680
-4.0802 PERIODICALS -0.2999
-4.0802 PESO -0.2772
-4.0802 PETS -0.2980
-4.0802 PHI -0.3010
-3.6031 PHILADELPHIA -0.2771
-4.0802 PHILLIES -0.3004
-4.0802 PICASSO -0.2772
-4.0802 PICTURES -0.2772
-4.0802 PIERCE -0.3010
-4.0802 PILSNER -0.3010
-4.0802 PISTA -0.2772
-3.7792 PISTON -0.3010
-4.0802 PITTSBURGH -0.3010
-3.6031 PLACE -0.2713
-4.0802 PLANTS -0.2772
-4.0802 PLASTIKI -0.3010
-2.8249 PLAY -0.2704
-4.0802 PLAYABLE -0.2975
-3.7792 PLAYED -0.2975
-3.4781 PLAYERS -0.2963
-4.0802 PLAYING -0.2994
-4.0802 PLAYS -0.2994
-3.7792 POINT -0.2954
-4.0802 POLARIS -0.2772
-4.0802 POLIO -0.3010
-4.0802 POND -0.3009
-3.6031 POPULATION -0.2918
-4.0802 PORGY -0.3007
-4.0802 PORTRAYED -0.3010
-3.6031 POSITION -0.2989
-4.0802 POSITON -0.2989
-4.0802 POSITRON -0.2772
-4.0802 POST -0.3009
-4.0802 POTTER -0.3007
-4.0802 POWERS -0.2989
-3.7792 POWERSHOT -0.3010
-4.0802 PRACTICES -0.2954
-4.0802 PRACTITIONERS -0.2954
-4.0802 PRAIRIE -0.3010
-4.0802 PRESENT -0.2772
-3.7792 PRESENTED -0.2636
-4.0802 PRESIDED -0.3010
-3.6031 PRESIDENT -0.2703
-4.0802 PRESIDENTIAL -0.3010
-4.0802 PRESS -0.2772
-3.7792 PRICE -0.2954
-4.0802 PRINCETOWN -0.3010
-4.0802 PRIVATE -0.2772
-4.0802 PROCESSOR -0.2980
-3.4781 PRODUCE -0.2772
-3.2351 PRODUCED -0.2629
-4.0802 PRODUCER -0.2994
-4.0802 PRODUCES -0.3008
-4.0802 PRODUCTION -0.2772
-4.0802 PRODUCTIONS -0.2980
-3.7792 PRODUCTS -0.2979
-3.3812 PROFESSOR -0.2746
-4.0802 PROGRAM -0.2955
-3.7792 PROGRAMMING -0.2770
-4.0802 PROGRAMS -0.3000
-3.7792 PROJECT -0.2770
-4.0802 PROPELLED -0.2772
-4.0802 PROPERTIES -0.3009
-4.0802 PROPOSED -0.2881
-3.6031 PROSTATE -0.3008
-4.0802 PROSTHETIC -0.3010
-4.0802 PROTECTED -0.3009
-4.0802 PROTEIN -0.2955
-4.0802 PROTON -0.2772
-4.0802 PRYDE -0.3006
-4.0802 PSYCHIATRIST -0.2772
-3.7792 PSYCHOLOGY -0.2772
-3.3812 PUBLIC -0.3008
-4.0802 PUBLISH -0.2772
-3.7792 PUBLISHED -0.2772
-4.0802 PUBLISHES -0.2881
-4.0802 PUERTA -0.3010
-4.0802 QUALIFICATION -0.2989
-4.0802 QUARK -0.2772
-4.0802 QUARTZITE -0.2772
-4.0802 QUEEN -0.3010
-4.0802 QUINOA -0.2772
-3.7792 RADIO -0.3010
-3.7792 RAILWAY -0.2772
-3.7792 RANK -0.2964
-4.0802 RATED -0.2772
-4.0802 RATES -0.2994
-4.0802 RATIFIED -0.2772
-4.0802 RAVENS -0.2772
-4.0802 RAY -0.3010
-4.0802 REACH -0.2772
-4.0802 REAL -0.3010
-3.7792 RECEIVE -0.2970
-4.0802 RECORD -0.3010
-4.0802 RECORDED -0.2772
-3.7792 RED -0.3010
-4.0802 REFEREED -0.2772
-4.0802 REGIONS -0.2989
-3.7792 REHAB -0.3010
-4.0802 RELEASE -0.3010
-3.3812 RELEASED -0.2772
-3.4781 RELIGION -0.2707
-3.7792 RELIGIONS -0.3010
-4.0802 RELIGIOUS -0.3009
-4.0802 RELOADED -0.3010
-4.0802 RENAISSANCE -0.3010
-4.0802 REPORT -0.2772
-4.0802 REPRESENT -0.2772
-4.0802 RESTAURANTS -0.2772
-4.0802 RESTORATION -0.2954
-4.0802 RESTRICTION -0.2999
-4.0802 RETAIL -0.3010
-4.0802 REVENUE -0.2772
-4.0802 RICK -0.3010
-3.7792 RIDE -0.2876
-4.0802 RIDES -0.3006
-4.0802 RIGHT -0.3001
-4.0802 RIJKSMUSEUM -0.3010
-4.0802 RITZ -0.3010
-4.0802 RIVER -0.2772
-4.0802 RNA -0.3010
-4.0802 ROAD -0.3010
-3.6031 ROBERT -0.3009
-4.0802 ROBIN -0.3010
-4.0802 ROBSON -0.2772
-3.2351 ROCK -0.2896
-4.0802 ROE -0.3010
-3.7792 ROLE -0.2975
-4.0802 ROLES -0.2980
-4.0802 ROLL -0.3009
-4.0802 ROLLER -0.3010
-3.7792 ROLLING -0.3010
-4.0802 ROLLS -0.3010
-4.0802 ROLLS-ROYCE -0.3010
-4.0802 ROMAN -0.3010
-3.4781 RON -0.3009
-4.0802 ROUGE -0.3010
-4.0802 ROUTE -0.3010
-4.0802 ROY -0.3010
-3.6031 ROYAL -0.3009
-4.0802 ROYCE -0.3010
-4.0802 RUDI -0.3010
-4.0802 RUN -0.3010
-4.0802 RUNAWAYS -0.3009
-4.0802 RUNNING -0.2772
-3.7792 RUNTIME -0.2755
-4.0802 RUNWAYS -0.2989
-4.0802 RUPEE -0.2772
-4.0802 RUPIAH -0.2772
-4.0802 RUSH -0.2772
-4.0802 RUSSELL -0.3008
-4.0802 RYE -0.3006
-4.0802 SABATINI -0.3009
-4.0802 SACRED -0.3010
-4.0802 SAMUEL -0.3010
-3.4781 SAN -0.3009
-4.0802 SANDMAN -0.2955
-4.0802 SARA -0.3010
-3.7792 SARAH -0.3010
-4.0802 SAVEALOT -0.3005
-4.0802 SAYS -0.3010
-3.7792 SCHOOL -0.3009
-3.6031 SCHOOLS -0.2956
-3.4781 SCIENCE -0.2711
-4.0802 SCIENTIFIC -0.3010
-4.0802 SCISSORHANDS -0.2772
-4.0802 SCOBLE -0.3010
-4.0802 SCOPE -0.3008
-4.0802 SCORED -0.2975
-4.0802 SCOUTS -0.2954
-4.0802 SCRABBLE -0.2772
-4.0802 SCREENPLAY -0.2994
-4.0802 SCRIPT -0.2772
-4.0802 SDHC -0.3010
-4.0802 SEA -0.3010
-4.0802 SEABISCUIT -0.2772
-4.0802 SEAN -0.3009
-3.6031 SEASON -0.2772
-4.0802 SEASONS -0.2954
-4.0802 SECOND -0.3010
-4.0802 SECRETARIAT -0.3008
-4.0802 SEDAN -0.2975
-3.3020 SEINFELD -0.2743
-3.7792 SEISHINDO -0.3010
-4.0802 SENATORS -0.2954
-4.0802 SENSOR -0.2772
-4.0802 SEPTEMBER -0.3010
-4.0802 SERGE -0.3008
-3.2351 SERIES -0.2586
-4.0802 SERVE -0.2772
-3.1771 SESAME -0.3007
-3.7792 SET -0.2761
-4.0802 SETTING -0.2954
-4.0802 SETTLERS -0.2954
-4.0802 SEXUAL -0.3010
-4.0802 SHAKESPEARE -0.3008
-4.0802 SHAQUILLE -0.3010
-4.0802 SHARKS -0.2772
-4.0802 SHEEN -0.3010
-4.0802 SHEPARD -0.3010
-3.7792 SHIP -0.2951
-3.7792 SHIPS -0.2994
-4.0802 SHOW -0.3010
-3.3812 SHOWS -0.2948
-4.0802 SHUTTLE -0.3010
-4.0802 SIDE -0.3010
-4.0802 SIGMA -0.3010
-4.0802 SIGMOD -0.3005
-4.0802 SIKHISM -0.2772
-4.0802 SILICON -0.2772
-4.0802 SILVER -0.3010
-4.0802 SIMS -0.2994
-4.0802 SINATRA -0.3010
-3.7792 SINCE -0.2985
-4.0802 SING -0.3010
-4.0802 SINGAPORE -0.3008
-4.0802 SINGING -0.3009
-4.0802 SINGLE -0.3010
-4.0802 SINGLES -0.3010
-4.0802 SINKING -0.2954
-4.0802 SITE -0.2772
-4.0802 SITES -0.2975
-4.0802 SIX -0.3010
-4.0802 SIZES -0.2989
-3.7792 SKI -0.3007
-4.0802 SKYWALKER -0.3008
-4.0802 SLOGAN -0.2954
-4.0802 SMARTPHONES -0.2772
-4.0802 SMITH -0.3008
-4.0802 SNOWSHOE -0.3009
-4.0802 SOAKER -0.2772
-4.0802 SOCCER -0.3009
-4.0802 SOCRATES -0.2772
-3.7792 SOFTWARE -0.3000
-4.0802 SOLD -0.2772
-4.0802 SOLO -0.2772
-2.9041 SOME -0.3001
-3.7792 SONG -0.2953
-3.7792 SONGS -0.2970
-3.7792 SONIC -0.2881
-4.0802 SOPRANO -0.2975
-4.0802 SOUL -0.3010
-4.0802 SOURCE -0.3010
-3.7792 SOX -0.2772
-3.3812 SPACE -0.2710
-3.7792 SPACECRAFT -0.3009
-4.0802 SPEARS' -0.3010
-4.0802 SPECIALIZE -0.2975
-4.0802 SPECIALIZED -0.3010
-3.4781 SPECIES -0.2917
-4.0802 SPEECH -0.3010
-3.6031 SPEED -0.2954
-3.7792 SPEEDS -0.2954
-4.0802 SPEND -0.2975
-3.7792 SPIN -0.2953
-4.0802 SPLASH -0.3009
-4.0802 SPOCK -0.2772
-3.4781 SPOKEN -0.2730
-4.0802 SPONSOR -0.2772
-4.0802 SPONSORS -0.2772
-4.0802 SPORT -0.2772
-4.0802 SPORTING -0.3010
-4.0802 SPURS -0.3004
-3.6031 ST. -0.3009
-4.0802 STADIUM -0.3007
-4.0802 STAGES -0.2954
-4.0802 STANDARD -0.3010
-4.0802 STAR -0.3010
-4.0802 STARBUCKS -0.3005
-4.0802 STARRING -0.3008
-3.4781 START -0.3009
-4.0802 STARTED -0.2772
-3.7792 STATE -0.3008
-4.0802 STATES -0.3010
-4.0802 STEELERS -0.2772
-4.0802 STEPHEN -0.3010
-4.0802 STIRRERS -0.2772
-4.0802 STONES -0.3010
-4.0802 STONES' -0.3010
-3.3812 STOP -0.2771
-4.0802 STORIES -0.3000
-4.0802 STORM -0.2975
-4.0802 STORMS -0.3005
-4.0802 STORY -0.2954
-4.0802 STOVE -0.3010
-4.0802 STRAIGHT -0.3007
-4.0802 STRAIGHT-4 -0.3010
-4.0802 STRATUS -0.3010
-3.1771 STREET -0.2706
-4.0802 STRODE -0.2994
-4.0802 STROKE -0.2772
-4.0802 STRONGEST -0.3010
-4.0802 STRUCTURES -0.2980
-4.0802 STUDENTS -0.2954
-4.0802 STUDIED -0.3010
-4.0802 STUDIOS -0.3010
-4.0802 STUFFING -0.3008
-4.0802 STUMPJUMPER -0.2772
-4.0802 STYLE -0.2772
-3.7792 SUB-TYPES -0.2954
-4.0802 SUBCLASSES -0.2954
-4.0802 SUBDISCIPLINES -0.2954
-3.7792 SUBJECT -0.2954
-4.0802 SUBMARINE -0.2772
-4.0802 SUBMARINES -0.2772
-4.0802 SUBSTANCS -0.3000
-3.6031 SUMMER -0.3008
-4.0802 SUN -0.2772
-4.0802 SUNNI -0.3010
-4.0802 SUPERMAN -0.2772
-4.0802 SUPPLIER -0.2772
-4.0802 SUPPORTED -0.3005
-4.0802 SUPPOSED -0.3001
-4.0802 SUPREME -0.3009
-3.7792 SURVIVAL -0.3009
-4.0802 SURVIVED -0.2881
-4.0802 SWEDISH -0.3010
-4.0802 SYDNEY -0.2975
-4.0802 SYMBOL -0.2994
-4.0802 SYMPTOM -0.2954
-3.7792 SYMPTOMS -0.2954
-3.6031 SYPHILIS -0.2772
-4.0802 SYSTEM -0.2989
-4.0802 T -0.3009
-4.0802 T-38 -0.3010
-4.0802 TAEKWONDO -0.3010
-4.0802 TAGLIABLOG -0.2975
-4.0802 TAHINA -0.2772
-4.0802 TAI -0.3010
-3.6031 TAKE -0.2769
-4.0802 TALK -0.2772
-3.3020 TALL -0.2920
-4.0802 TALON -0.2772
-4.0802 TAMAGAWA -0.3010
-4.0802 TAMORA -0.3010
-3.6031 TARGET -0.3000
-3.7792 TEA -0.2714
-3.3812 TEAM -0.2959
-3.6031 TEAMS -0.2969
-4.0802 TECHNIQUE -0.2989
-4.0802 TECHVIBES -0.3010
-4.0802 TEENAGE -0.3010
-4.0802 TELESCOPE -0.2772
-4.0802 TELESCOPES -0.2989
-4.0802 TELEVISION -0.3009
-4.0802 TEMPELHOF -0.3010
-3.7792 TEMPERATURE -0.2918
-4.0802 TENNIS -0.3006
-4.0802 TEST -0.3009
-4.0802 TEXTILES -0.2973
-4.0802 TEXTURE -0.2954
-1.5337 THE -0.2685
-4.0802 THEATER -0.2772
-4.0802 THEIR -0.3010
-4.0802 THEME -0.3010
-2.5750 THERE -0.2697
-4.0802 THINKER -0.3008
-4.0802 THORPE -0.3004
-3.7792 THOUSAND -0.3010
-4.0802 THREE -0.3010
-4.0802 THRONES -0.3010
-3.1771 TIME -0.2680
-4.0802 TIMES -0.2772
-3.3812 TITANIC -0.2761
-3.7792 TITLE -0.2954
-2.6823 TO -0.2618
-4.0802 TOKYU -0.3010
-4.0802 TOLKEIN -0.3008
-4.0802 TOMKAT -0.2772
-4.0802 TOP -0.3010
-3.7792 TOPICS -0.2973
-3.6031 TORONTO -0.3009
-4.0802 TORRES -0.3008
-4.0802 TOSTITOS -0.3008
-4.0802 TOUR -0.3009
-4.0802 TOWER -0.2772
-4.0802 TOWERS -0.3009
-4.0802 TRACKS -0.3000
-4.0802 TRADED -0.3005
-4.0802 TRAIN -0.2979
-4.0802 TRAINS -0.2772
-4.0802 TRANSFORMERS -0.3009
-4.0802 TRANSMISSION -0.2954
-4.0802 TRANSMITTED -0.2772
-4.0802 TRAVELS -0.3010
-4.0802 TREAT -0.2772
-4.0802 TREATMENTS -0.2973
-4.0802 TRISTAN -0.3007
-4.0802 TRUE -0.2954
-4.0802 TRYPTOPHAN -0.2772
-4.0802 TUNGSTEN -0.2975
-4.0802 TURTLES -0.2772
-4.0802 TUTANKHAMUN -0.3008
-3.3812 TV -0.3008
-4.0802 TX1 -0.3009
-3.3812 TYPE -0.2954
-3.3812 TYPES -0.2932
-4.0802 TYUTIN -0.3004
-4.0802 UEFA -0.2772
-4.0802 UK -0.3009
-4.0802 ULURU -0.3009
-3.6031 UNDER -0.2636
-4.0802 UNESCO -0.3008
-4.0802 UNFORTUNATE -0.3010
-4.0802 UNION -0.2772
-3.6031 UNITED -0.3009
-3.7792 UNITS -0.2989
-4.0802 UNIVERSAL -0.3010
-4.0802 UNIVERSITY -0.2954
-4.0802 UNIVERSITY'S -0.3010
-4.0802 UP -0.3010
-4.0802 URQUELL -0.3009
-3.3020 US -0.3007
-3.7792 USA -0.3004
-4.0802 USA_S -0.3007
-3.1260 USE -0.2635
-3.6031 USED -0.2755
-3.3812 USS -0.3008
-4.0802 USUALLY -0.3009
-4.0802 UTAH -0.2772
-3.7792 V. -0.3010
-4.0802 VACCINE -0.2772
-4.0802 VANCOUVER -0.3008
-4.0802 VICE -0.3009
-4.0802 VICENTE -0.2772
-4.0802 VICTORIA -0.3009
-4.0802 VII -0.3010
-4.0802 VINCI -0.2772
-4.0802 VISIT -0.2881
-4.0802 VISITORS -0.2989
-4.0802 VISITS -0.2989
-4.0802 VOICE -0.2975
-4.0802 VOLTAGE -0.2954
-4.0802 VS. -0.3010
-4.0802 WADE -0.3008
-4.0802 WALDEN -0.3010
-4.0802 WALMART -0.3009
-4.0802 WALTER -0.3010
-4.0802 WAR -0.2772
-2.1407 WAS -0.2839
-3.7792 WASHINGTON -0.3010
-4.0802 WATER -0.2772
-4.0802 WBA -0.3008
-4.0802 WEAR -0.2772
-4.0802 WEBSITE -0.2955
-4.0802 WELLAND -0.2772
-3.7792 WELLS -0.3010
-2.9041 WERE -0.2823
-4.0802 WESTERN -0.3010
-4.0802 WESTMINSTER -0.3009
-1.6424 WHAT -0.2739
-4.0802 WHAT'S -0.2881
-2.2351 WHEN -0.2875
-2.6652 WHERE -0.2828
-3.6031 WHICH -0.3006
-4.0802 WHITE -0.3010
-2.0759 WHO -0.2802
-4.0802 WHOM -0.2955
-4.0802 WILLIAM -0.3010
-4.0802 WILLIAMS -0.3008
-4.0802 WILSON -0.2772
-3.1260 WIN -0.2580
-4.0802 WIND -0.3010
-4.0802 WIND-UP -0.3009
-4.0802 WINNERS -0.2973
-4.0802 WINS -0.3000
-4.0802 WINTER -0.3008
-4.0802 WIRE -0.2772
-3.7792 WITH -0.3010
-4.0802 WITHIN -0.3009
-4.0802 WIZARD -0.2954
-4.0802 WIZARDS -0.2772
-3.1771 WON -0.2633
-4.0802 WONDERFUL -0.3010
-4.0802 WOODROW -0.3010
-4.0802 WOODY -0.3010
-4.0802 WORD -0.3010
-3.7792 WORKED -0.2999
-4.0802 WORKING -0.2999
-3.4781 WORKS -0.2723
-3.3020 WORLD -0.3007
-4.0802 WORSHIP -0.3010
-3.7792 WORTH -0.2772
-4.0802 WRANGLER -0.3010
-4.0802 WRIGHT -0.3009
-4.0802 WRINKLE -0.2975
-3.7792 WRITE -0.2772
-4.0802 WRITES -0.2881
-4.0802 WRITTEN -0.2999
-3.6031 WROTE -0.2864
-4.0802 WXPN -0.2772
-4.0802 X -0.2772
-3.6031 X-MEN -0.2754
-3.3812 YEAR -0.2707
-3.7792 YEN -0.2772
-4.0802 YIP -0.3010
-4.0802 YORI -0.3010
-3.6031 YORK -0.2770
-4.0802 YOSEMITE -0.3010
-3.4781 YOU -0.2993
-4.0802 YOUKILIS -0.2999
-4.0802 ZONE -0.2955
-4.0802 ZOO -0.2772
-4.0802 ZOOLOGICAL -0.3009
-4.0802 ﻿WHO -0.2955

\2-grams:
-0.3010 "I'LL BE -0.2218
-0.3010 #477 </s> -0.3010
-1.1761 'S AREA -0.2041
-1.4771 'S BIRTHDAY 0.0000
-1.4771 'S INDUSTRY 0.0000
-1.4771 'S MAJOR -0.1761
-1.1761 'S MUSICAL 0.0000
-1.4771 'S OPERATING 0.0000
-1.4771 'S ORIGINAL -0.1761
-1.4771 'S PLACE -0.2218
-1.4771 'S RANK -0.1761
-1.1761 'S RELIGION -0.1761
-1.4771 'S RUNTIME -0.1761
-1.4771 'S SUPPLIER 0.0000
-0.4771 1 </s> -0.3010
-0.7782 1 FOUND 0.0000
-0.3010 101 BELONG 0.0000
-0.3010 11 MISSION 0.0000
-0.3010 11TH </s> -0.3010
-0.3010 12 MISSION 0.0000
-0.3010 13 GOING 0.0000
-0.3010 1896 SUMMER 0.0000
-0.3010 1904 TORONTO -0.2218
-0.6021 1948 ON -0.2868
-0.6021 1948 SUMMER 0.0000
-0.3010 1964 UNITED -0.2218
-0.3010 1967 ISSUE -0.1761
-0.3010 1968 </s> -0.3010
-0.3010 1973 FA 0.0000
-0.3010 1981 WHAT -0.2986
-0.3010 1992 ATLANTIC 0.0000
-0.3010 1993 ON -0.2868
-0.3010 1ST WORLD -0.2632
-0.6021 2 FAST 0.0000
-0.6021 2 FURIOUS 0.0000
-0.3010 2000 </s> -0.3010
-0.3010 2002 </s> -0.3010
-0.6021 2003 </s> -0.3010
-0.6021 2003 CRICKET 0.0000
-0.6021 2004 SUMMER 0.0000
-0.6021 2004 TO -0.2923
-0.3010 2005 ATLANTIC 0.0000
-0.4771 2006 FIFA 0.0000
-0.7782 2006 WINTER 0.0000
-0.3010 2007 HONDA -0.1761
-0.6021 2008 HYUNDAI 0.0000
-0.6021 2008 SEASON 0.0000
-0.3010 2009 CONCERT 0.0000
-0.4260 2010 </s> -0.3010
-0.9031 2010 FERRARI 0.0000
-0.6021 2011 </s> -0.3010
-0.6021 2011 HONDA -0.1761
-0.3010 2012 JEEP 0.0000
-0.3010 22ND PRESIDENT -0.2218
-0.3010 28 DAYS 0.0000
-0.3010 30 </s> -0.3010
-0.3010 4 CYLINDER 0.0000
-0.3010 5 PASS 0.0000
-0.3010 500 IN -0.2965
-0.3010 52 TRAINS 0.0000
-0.3010 6 ON -0.1807
-0.3010 8 MILE 0.0000
-2.8069 <s> AT -0.2663
-2.8069 <s> DOES -0.2233
-3.1079 <s> DURING -0.1761
-2.8069 <s> FOR -0.2913
-0.9038 <s> HOW 0.0000
-2.0665 <s> IN -0.2757
-3.1079 <s> IS -0.1506
-3.1079 <s> ON -0.2940
-3.1079 <s> OVER -0.1761
-2.8069 <s> SINCE 0.0000
-3.1079 <s> TO -0.2923
-0.6946 <s> WHAT -0.0140
-3.1079 <s> WHAT'S 0.0000
-1.2818 <s> WHEN -0.0182
-1.6929 <s> WHERE 0.0000
-2.8069 <s> WHICH -0.1249
-1.1036 <s> WHO 0.0000
-3.1079 <s> ﻿WHO 0.0000
-1.9542 A 2007 0.0000
-1.9542 A 2008 -0.1761
-1.9542 A 2010 -0.2430
-1.9542 A 2011 -0.1761
-1.9542 A 2012 0.0000
-1.9542 A 4 0.0000
-1.9542 A AA 0.0000
-1.9542 A BEAVER 0.0000
-1.9542 A BIANCHI 0.0000
-1.9542 A CANON -0.1249
-1.9542 A CESSNA 0.0000
-1.9542 A CHAPTER 0.0000
-1.9542 A COLLINS 0.0000
-1.9542 A DOWN 0.0000
-1.9542 A DREAM 0.0000
-1.9542 A FIFTH -0.1761
-1.9542 A FORD -0.2430
-1.9542 A G.H. 0.0000
-1.9542 A GLOSTER 0.0000
-1.9542 A GRAMMY -0.1761
-1.9542 A HEART 0.0000
-1.9542 A HORSE 0.0000
-1.9542 A HUB 0.0000
-1.9542 A LEADING 0.0000
-1.9542 A MEMBER 0.0000
-1.9542 A MOCKINGBIRD 0.0000
-1.9542 A MULTIPLAYER 0.0000
-1.9542 A PANASONIC -0.2218
-1.9542 A PART 0.0000
-1.9542 A POSITRON 0.0000
-1.9542 A PRAIRIE 0.0000
-1.9542 A PROFESSOR -0.2041
-1.9542 A PROTECTED 0.0000
-1.9542 A PROTON 0.0000
-1.9542 A RIGHT 0.0000
-1.9542 A ROAD 0.0000
-1.9542 A ROLLS 0.0000
-1.9542 A SERIES -0.2688
-1.9542 A STRAIGHT-4 0.0000
-1.9542 A STROKE 0.0000
-1.9542 A SYMPTOM 0.0000
-1.9542 A THOUSAND -0.1761
-1.9542 A US -0.2632
-1.9542 A WRINKLE 0.0000
-1.9542 A YEAR -0.2041
-0.3010 A75 HAVE -0.2962
-0.3010 AA ALKALINE 0.0000
-0.3010 AARON INDUCTED 0.0000
-0.4771 ABBEY </s> -0.3010
-0.7782 ABBEY OF -0.2996
-0.3010 ABNORMAL PSYCHOLOGY -0.1761
-0.6021 ABOUT </s> -0.3010
-1.0792 ABOUT ART -0.2218
-1.0792 ABOUT LEONARDO 0.0000
-1.0792 ABOUT MATHEMATICS 0.0000
-0.3010 ABREVIATION FOR -0.2962
-0.3010 ABUSED </s> -0.3010
-0.3010 ABUSING COCAINE 0.0000
-0.3010 ACADEMY AWARD -0.2041
-0.3010 ACCENT GLS 0.0000
-0.3010 ACTORS ARE -0.2406
-0.3010 ADAMS PLAY -0.2218
-0.3010 ADAPTATIONS OF -0.2430
-0.3010 ADAPTED FROM -0.2632
-0.7782 ADDRESS </s> -0.3010
-0.4771 ADDRESS OF -0.2430
-0.3010 ADOLF ANDERSSEN 0.0000
-0.3010 ADRIENNE ROY 0.0000
-0.3010 ADVENTURE TIME -0.2730
-0.3010 AEROSMITH </s> -0.3010
-0.3010 AFFECTED BY -0.2872
-0.9031 AFRICA 'S -0.2711
-0.4260 AFRICA </s> -0.3010
-0.3010 AFTER THE -0.3004
-0.3010 AGE TO -0.2923
-0.3010 AGNOSTIC FIGURES 0.0000
-0.3010 AHOY DEBUT 0.0000
-0.6021 AIR </s> -0.3010
-0.6021 AIR DATE -0.1761
-0.3010 AIRED </s> -0.3010
-0.3010 AIRLINES IS -0.1506
-0.7782 AIRPORT A -0.2962
-0.7782 AIRPORT HAVE -0.1729
-0.7782 AIRPORT LOCATED 0.0000
-0.3010 AIRSPEED OXFORD -0.2218
-0.3010 AKERS ON -0.1807
-0.3010 ALABAMA CURRENTLY -0.2632
-0.3010 ALAN SHEPARD 0.0000
-0.9031 ALBERTSON DIE -0.0580
-0.9031 ALBERTSON HAVE -0.1729
-0.6021 ALBERTSON WIN -0.1249
-0.3010 ALBUM </s> -0.3010
-0.6021 ALBUMS DID -0.2984
-0.6021 ALBUMS HAS -0.2935
-0.3010 ALCOHOL IS -0.2909
-0.3010 ALDRIDGE'S NUMBER -0.2553
-0.3010 ALI VS. 0.0000
-0.3010 ALKALINE BATTERY 0.0000
-0.3010 ALL TIME -0.2730
-0.4260 ALMIGHTY </s> -0.3010
-0.9031 ALMIGHTY RELEASED 0.0000
-0.3010 ALPHABET BEEN -0.2762
-0.3010 ALSO KNOWN -0.2218
-0.3010 ALTA SKI 0.0000
-0.3010 ALTITUDE OF -0.2996
-0.6021 AMENDMENT </s> -0.3010
-0.6021 AMENDMENT RATIFIED 0.0000
-0.3010 AMERICA </s> -0.3010
-0.6021 AMERICAN EAGLE 0.0000
-0.6021 AMERICAN KENNEL 0.0000
-1.0792 AN EPISODE -0.2218
-1.0792 AN INTERNAL 0.0000
-1.0792 AN OLYMPIC 0.0000
-1.0792 AN ORIENTATION -0.1761
-1.0792 AN SDHC 0.0000
-1.0792 AN UNESCO 0.0000
-1.2041 AND BESS 0.0000
-1.2041 AND CONSTRUCTION 0.0000
-1.2041 AND ISOLDE 0.0000
-1.2041 AND LONGITUDE 0.0000
-1.2041 AND ROLL 0.0000
-1.2041 AND TELEVISION 0.0000
-1.2041 AND THE -0.3004
-1.2041 AND TRUE 0.0000
-0.3010 ANDERSSEN PLAY -0.2499
-0.3010 ANDREW FORM 0.0000
-0.3010 ANGELES DODGERS 0.0000
-0.3010 ANGELINA JOLIE'S 0.0000
-0.7782 ANGELS BY -0.1761
-0.7782 ANGELS COME -0.1249
-0.7782 ANGELS HAVE -0.1729
-0.3010 ANIMALS ARE -0.2406
-0.3010 ANNA ZOOLOGICAL 0.0000
-0.3010 ANNUALLY </s> -0.3010
-0.3010 ANNUNCIATION </s> -0.3010
-0.3010 ANTARCTICA </s> -0.3010
-0.3010 ANTHONY PAYNE 0.0000
-0.3010 ANTILLES </s> -0.3010
-0.3010 AOL INSTANT 0.0000
-0.6021 APOLLO 11 0.0000
-0.6021 APOLLO 12 0.0000
-0.6021 APPEAR </s> -0.3010
-0.6021 APPEAR IN -0.2733
-0.7782 APPLE </s> -0.3010
-0.7782 APPLE I 0.0000
-0.7782 APPLE II -0.2430
-0.3010 APPLE, INC. -0.1761
-0.6021 ARABIC ALPHABET 0.0000
-0.6021 ARABIC ARE -0.2406
-0.6021 ARCHITECTS </s> -0.3010
-0.6021 ARCHITECTS PRESENT 0.0000
-0.3010 ARCHITECTURAL STYLE 0.0000
-2.3181 ARE ADVENTURE 0.0000
-2.3181 ARE BMW'S 0.0000
-2.3181 ARE COLUMBIA 0.0000
-2.3181 ARE COMPREHENSIVE 0.0000
-2.3181 ARE DAVE 0.0000
-2.3181 ARE DRAVIDIAN 0.0000
-2.0170 ARE EQUIVALENT 0.0000
-2.3181 ARE FROM -0.2632
-2.3181 ARE GATORADE 0.0000
-2.3181 ARE GOALKEEPERS 0.0000
-1.2767 ARE IN -0.2281
-2.3181 ARE INFLUENCED -0.1761
-2.3181 ARE KNICKERBOCKERS 0.0000
-2.0170 ARE MADE -0.0580
-2.3181 ARE NICKNAMES -0.1761
-2.3181 ARE PLAYABLE 0.0000
-2.3181 ARE SACRED 0.0000
-1.1420 ARE SOME 0.0000
-2.3181 ARE SPOKEN -0.2430
-0.8409 ARE THE -0.2808
-0.8867 ARE THERE -0.0389
-2.3181 ARE TRADED 0.0000
-2.3181 ARE WITHIN 0.0000
-0.6990 AREA </s> -0.3010
-1.0000 AREA DOES -0.2233
-0.6990 AREA OF -0.2940
-0.3010 AREAS WERE -0.2863
-0.3010 ARIGNAR ANNA 0.0000
-0.3010 ARMORY SHOW 0.0000
-0.6021 ARMSTRONG PLAY -0.2888
-0.6021 ARMSTRONG REPRESENT 0.0000
-0.3010 ARMY HAVE -0.1729
-0.3010 ARNOLD! STOP -0.2553
-0.7782 ART DECO 0.0000
-0.7782 ART FOR -0.2962
-0.7782 ART MUSEUM 0.0000
-0.3010 ARTICLES ARE -0.2774
-0.6021 ARTISTS ARE -0.2989
-0.6021 ARTISTS WORKED 0.0000
-0.6021 ARTS IS -0.2996
-0.6021 ARTS UNDER -0.2218
-0.7782 AS </s> -0.3010
-0.7782 AS A -0.2913
-1.0792 AS AN -0.2632
-1.0792 AS THEIR 0.0000
-0.3010 ASCAP FILM -0.2762
-0.3010 ASIA </s> -0.3010
-0.3010 ASPIRIN TREAT 0.0000
-0.3010 ASTRONAUTS IN -0.2359
-1.4150 AT </s> -0.3010
-1.4150 AT DISNEYLAND -0.1761
-1.4150 AT SIX 0.0000
-0.5119 AT THE -0.2923
-1.1139 AT WHAT -0.2994
-0.3010 ATHLETES HAVE -0.2962
-0.3010 ATLANTIC HURRICANE -0.2041
-0.3010 ATOMIC NUMBER -0.2553
-0.6021 ATTACK </s> -0.3010
-0.6021 ATTACK FORM 0.0000
-0.3010 ATTENDED OXFORD -0.2218
-0.3010 AUGUST </s> -0.3010
-0.6021 AUSTRALIA </s> -0.3010
-0.6021 AUSTRALIA FOUNDED -0.0580
-0.3010 AUSTRALIAN DOLLAR -0.0792
-0.3010 AUTOMOBILES </s> -0.3010
-0.3010 AVERAGE TEMPERATURE -0.1761
-1.3010 AWARD </s> -0.3010
-1.0000 AWARD DID -0.2798
-1.3010 AWARD DOES -0.2278
-0.6990 AWARD FOR -0.2813
-1.3010 AWARD NOMINATIONS 0.0000
-1.3010 AWARD WINNERS 0.0000
-0.5051 AWARDS DID -0.2688
-1.2041 AWARDS FOR -0.2962
-0.9031 AWARDS HAS -0.2452
-0.3010 B12 </s> -0.3010
-0.3010 BACK" </s> -0.3010
-0.3010 BALTIMORE RAVENS 0.0000
-0.6021 BAND MASSIVE 0.0000
-0.6021 BAND RECORDED 0.0000
-0.3010 BARACK OBAMA 0.0000
-0.3010 BAROSAURUS LIVE -0.1761
-0.3010 BARREMIAN PERIOD -0.1761
-0.3010 BARRY HALPER 0.0000
-0.3010 BASKERVILLES </s> -0.3010
-0.3010 BATH IRON 0.0000
-0.3010 BATMAN #477 0.0000
-0.3010 BATTERY </s> -0.3010
-0.3010 BATTLE OF -0.2430
-0.3010 BAUHAUS ARCHITECTS -0.1761
-0.7782 BE BACK" 0.0000
-0.4771 BE TO -0.2742
-0.3010 BEARS </s> -0.3010
-0.3010 BEAVER AS -0.2632
-0.3010 BECKETT DIE -0.0580
-0.3010 BEDS DOES -0.2973
-1.2553 BEEN </s> -0.3010
-1.2553 BEEN ABOUT -0.2632
-1.2553 BEEN AT -0.1413
-1.2553 BEEN CHARGED 0.0000
-1.2553 BEEN IN -0.2733
-1.2553 BEEN INFLUENCED -0.1761
-1.2553 BEEN SET -0.1761
-1.2553 BEEN THE -0.3004
-1.2553 BEEN USED -0.1249
-0.3010 BEER IS -0.2996
-0.6021 BEERS </s> -0.3010
-0.6021 BEERS ARE -0.2406
-0.3010 BEGIN </s> -0.3010
-0.3010 BEING SOLD 0.0000
-0.3010 BELLY </s> -0.3010
-0.3010 BELONG TO -0.2553
-0.3010 BELONGS TO -0.2923
-0.3010 BELT IN -0.2965
-0.3010 BEN MAY -0.1761
-0.3010 BENGALI SCRIPT 0.0000
-0.3010 BERGKAMP PLAY -0.2632
-0.3010 BERTRAND RUSSELL 0.0000
-0.3010 BESS FIRST -0.2840
-1.0000 BEST DIRECTOR -0.2218
-1.0000 BEST DRAMA 0.0000
-1.0000 BEST MOVIE -0.2218
-1.0000 BEST NOVEL 0.0000
-1.0000 BEST SPOKEN -0.2430
-0.3010 BETTY FORD -0.2430
-0.3010 BETWEEN THE -0.3004
-0.6021 BEYONCE DO -0.2499
-0.6021 BEYONCE RECEIVE -0.1761
-0.3010 BEYOND ROBSON 0.0000
-0.3010 BIANCHI PISTA 0.0000
-0.3010 BICYCLE IS -0.2909
-0.3010 BIG DADDY 0.0000
-0.3010 BIKE </s> -0.3010
-0.3010 BILL BLASS 0.0000
-0.3010 BINDING </s> -0.3010
-0.3010 BING </s> -0.3010
-0.7782 BIRD CHRONICLE 0.0000
-0.7782 BIRD HAD -0.1249
-0.7782 BIRD OF -0.2996
-0.3010 BIRTH </s> -0.3010
-0.3010 BIRTHDAY </s> -0.3010
-0.3010 BLACK BELT 0.0000
-0.3010 BLASS LIMITED 0.0000
-0.3010 BLOCK HEADQUARTERED 0.0000
-0.6021 BLOG </s> -0.3010
-0.9031 BLOG DOES -0.2973
-0.9031 BLOG ON -0.2940
-0.3010 BLOGS ARE -0.2774
-0.3010 BLOGTALKRADIO DISTRIBUTE 0.0000
-0.3010 BLUES PLAY -0.2218
-0.3010 BMW </s> -0.3010
-0.3010 BMW'S MANUFACTURING 0.0000
-0.3010 BOATS DOES -0.2278
-0.3010 BOILING POINT 0.0000
-0.3010 BOND IN -0.2988
-0.7782 BOOK AWARD -0.2788
-0.7782 BOOK ISSUE -0.2430
-0.7782 BOOK SERIES -0.2341
-0.7782 BOOKS ABOUT -0.2632
-0.7782 BOOKS ARE -0.2406
-0.7782 BOOKS DOES -0.2278
-0.6021 BORDERS EMPLOY 0.0000
-0.6021 BORDERS FOUNDED -0.0580
-0.3680 BORN </s> -0.3010
-1.1461 BORN IN -0.2988
-0.3010 BOSON CLASS -0.2632
-0.9031 BOSTON HERALD 0.0000
-0.9031 BOSTON MOLASSES 0.0000
-0.6021 BOSTON RED 0.0000
-0.3010 BOWLING TECHNIQUE 0.0000
-0.3010 BRANCHED FROM -0.2632
-0.6021 BRANCHES DOES -0.2278
-0.6021 BRANCHES USE -0.2218
-0.3010 BRANDS DOES -0.2973
-0.3010 BREAST CANCER -0.2553
-0.3010 BREEDS ARE -0.2774
-0.3010 BREWS PAUWEL 0.0000
-0.3010 BRIDGE </s> -0.3010
-0.3010 BRIE CHEESE 0.0000
-0.6021 BRITISH ARCHITECTS -0.1761
-0.6021 BRITISH LOCOMOTIVE 0.0000
-0.3010 BRITNEY SPEARS' 0.0000
-0.6021 BROADCAST </s> -0.3010
-0.6021 BROADCAST START -0.2430
-0.3010 BROADCASTS DOES -0.2973
-0.7782 BROWN </s> -0.3010
-0.7782 BROWN COACH -0.2430
-0.7782 BROWN RECEIVE -0.1761
-0.3979 BRUCE ALMIGHTY 0.0000
-1.0000 BRUCE LEE -0.1761
-0.3010 BRUT </s> -0.3010
-0.3010 BUDGET FOR -0.2962
-0.3010 BUILDINGS WERE -0.2863
-0.7782 BUILT </s> -0.3010
-0.7782 BUILT BY -0.2872
-0.7782 BUILT THE -0.2979
-0.3010 BULLS </s> -0.3010
-0.3010 BURIED </s> -0.3010
-0.3010 BUS OPERATORS 0.0000
-0.3010 BUSES TO -0.2923
-0.3010 BUTANE </s> -0.3010
-0.6021 BY </s> -0.3010
-1.5051 BY BATH 0.0000
-1.5051 BY HURRICANE -0.2553
-1.2041 BY IN -0.2965
-1.5051 BY LEAD 0.0000
-1.5051 BY SOCRATES 0.0000
-1.2041 BY THE -0.2992
-0.3010 C. </s> -0.3010
-0.3010 CAJUN DISHES 0.0000
-0.6021 CALIFORNIA </s> -0.3010
-0.6021 CALIFORNIA GULL 0.0000
-0.6021 CAMERAS ARE -0.2406
-0.6021 CAMERAS TAKE -0.2218
-0.3010 CAN PLAY -0.2888
-0.3010 CANADIAN DOLLAR -0.1461
-0.3010 CANADIENS </s> -0.3010
-0.3010 CANASTA </s> -0.3010
-0.6990 CANCER </s> -0.3010
-1.0000 CANCER ARE -0.2406
-1.0000 CANCER CENTERS 0.0000
-1.0000 CANCER KNOWN -0.2218
-0.7782 CANON DIGITAL 0.0000
-0.4771 CANON POWERSHOT 0.0000
-0.3010 CAPACITY OF -0.2782
-0.3010 CAPE MAY -0.1761
-0.3010 CAPRI SUN 0.0000
-0.6021 CAR COLLECTION 0.0000
-0.6021 CAR TALK 0.0000
-0.3010 CARD </s> -0.3010
-0.3010 CARDINALS </s> -0.3010
-0.3010 CARDIOLOGY </s> -0.3010
-0.3010 CARDS DO -0.2218
-0.4260 CAREER </s> -0.3010
-0.9031 CAREER BEGIN 0.0000
-0.3010 CARLISLE COACH -0.2430
-0.3010 CARNEGIE MELLON 0.0000
-0.3010 CARS ARE -0.2774
-0.3010 CASES HAVE -0.2863
-0.3010 CAST MEMBERS 0.0000
-0.3010 CASTING DIRECTOR -0.2218
-0.3010 CATAN </s> -0.3010
-0.3010 CATCHER IN -0.2359
-0.6021 CATEGORY DOES -0.2278
-0.6021 CATEGORY OF -0.2996
-0.3010 CATHOLICISM </s> -0.3010
-0.3010 CATHY LANDERS 0.0000
-0.3010 CATS </s> -0.3010
-0.3010 CAUSE LEUKEMIA 0.0000
-0.3010 CAUSES OF -0.2767
-0.3010 CAVE NATIONAL 0.0000
-0.3010 CBS EVENING 0.0000
-0.3010 CELEBRITIES HAVE -0.2813
-0.3010 CELLO </s> -0.3010
-0.3010 CENTER </s> -0.3010
-0.3010 CENTERS ARE -0.2989
-0.3010 CENTURY </s> -0.3010
-0.3010 CEO OF -0.2996
-0.3010 CERATOPSIA HAVE -0.1729
-0.3010 CERTIFIED AS -0.2218
-0.3010 CESSNA CITATION 0.0000
-0.3010 CHAMPION </s> -0.3010
-0.3010 CHAMPIONS </s> -0.3010
-0.3010 CHANCERY HAVE -0.2962
-0.3010 CHAPTER OF -0.2996
-0.6021 CHARACTER SAYS 0.0000
-0.6021 CHARACTER WAS -0.2985
-1.0792 CHARACTERS ARE -0.2989
-1.0792 CHARACTERS DID -0.2958
-1.0792 CHARACTERS HAVE -0.2962
-0.7782 CHARACTERS IN -0.2965
-1.0792 CHARACTERS SING 0.0000
-0.3010 CHARGE OF -0.2782
-0.3010 CHARGED WITH -0.1761
-0.6021 CHARLIE BROWN -0.2218
-0.6021 CHARLIE SHEEN 0.0000
-0.3010 CHARLIE_S ANGELS 0.0000
-0.3010 CHEESE </s> -0.3010
-0.6021 CHEMICAL FORMULA 0.0000
-0.6021 CHEMICAL SERIES -0.2341
-0.3010 CHI CHUAN 0.0000
-0.6021 CHICAGO BEARS 0.0000
-0.6021 CHICAGO BULLS 0.0000
-0.3010 CHIPS AHOY 0.0000
-0.3010 CHRISTOPHER HIGGINS 0.0000
-0.3010 CHRONICLE </s> -0.3010
-0.3010 CHUAN </s> -0.3010
-0.3010 CIRCULATED </s> -0.3010
-0.3010 CIRRUS CLOUDS -0.1761
-0.3010 CITATION X 0.0000
-0.3010 CITIES DOES -0.2935
-0.7782 CITY </s> -0.3010
-1.0792 CITY HOSTED 0.0000
-0.7782 CITY IS -0.1486
-1.0792 CITY TO -0.2923
-0.3010 CITY/TOWN/VILLAGE </s> -0.3010
-0.3010 CIVIC HYBRID 0.0000
-0.3010 CIVIL WAR 0.0000
-0.3010 CIVILIZATION FIRST -0.2840
-0.3010 CLARIS DEVELOPED -0.2218
-1.0792 CLASS 52 0.0000
-1.0792 CLASS </s> -0.3010
-1.0792 CLASS IS -0.1506
-1.0792 CLASS OF -0.2996
-1.0792 CLASS SUBMARINE 0.0000
-1.0792 CLASS SUBMARINES 0.0000
-0.3010 CLEVELAND BELONG 0.0000
-0.3010 CLINIC BEEN -0.2762
-0.3010 CLINTON SPOKEN -0.2430
-0.3010 CLOSE </s> -0.3010
-0.3010 CLOSET CITY -0.2632
-0.3010 CLOTHING ARE -0.2989
-0.6021 CLOUDS </s> -0.3010
-0.6021 CLOUDS LOOK 0.0000
-0.3010 CLUB </s> -0.3010
-0.9031 COACH </s> -0.3010
-0.9031 COACH IN -0.2988
-0.6021 COACH OF -0.2430
-0.3010 COACHED </s> -0.3010
-0.3010 COACHES THE -0.2998
-0.3010 COAL </s> -0.3010
-0.3010 COBIA </s> -0.3010
-0.3010 COCAINE </s> -0.3010
-0.9031 CODE </s> -0.3010
-0.4260 CODE FOR -0.2389
-0.3010 CODONS OF -0.2996
-0.3010 COHOST IN -0.2988
-0.3010 COLBY ARMSTRONG -0.1761
-0.6021 COLLECT </s> -0.3010
-0.6021 COLLECT AUTOMOBILES 0.0000
-0.3010 COLLECTION </s> -0.3010
-0.3010 COLLECTIONS DID -0.2984
-0.3010 COLLINS CLASS -0.2632
-0.3010 COLOR DID -0.2984
-0.3010 COLORADO </s> -0.3010
-0.3010 COLORED </s> -0.3010
-0.3010 COLORS </s> -0.3010
-0.3010 COLUMBIA UNIVERSITY'S 0.0000
-0.3010 COMBUSTION ENGINE -0.2430
-0.7782 COME IN -0.2733
-0.4771 COME OUT -0.1249
-0.3010 COMEDY MOVIE -0.2218
-0.4771 COMIC BOOK -0.1249
-0.7782 COMIC STORIES 0.0000
-0.3010 COMMAND </s> -0.3010
-0.3010 COMMANDERS WERE -0.2711
-0.3010 COMMITTED </s> -0.3010
-0.6021 COMPANIES ARE -0.2989
-0.6021 COMPANIES PRODUCE -0.2430
-0.3010 COMPANION FIRST -0.2840
-0.3010 COMPOSED THE -0.3004
-0.3010 COMPREHENSIVE </s> -0.3010
-0.6021 COMPUTER PROGRAMMING -0.1761
-0.6021 COMPUTER SCIENCE -0.2430
-0.3010 CONCERT TOUR 0.0000
-0.3010 CONDITIONS DOES -0.2973
-0.3010 CONFERENCE OF -0.2430
-0.7782 CONFERENCES ABOUT -0.2632
-0.7782 CONFERENCES DOES -0.2973
-0.7782 CONFERENCES HAS -0.2935
-0.6021 CONFIGURATION </s> -0.3010
-0.6021 CONFIGURATION OF -0.2782
-0.3010 CONFLICTS DID -0.2984
-0.3010 CONSIST OF -0.2840
-0.3010 CONSTITUTION BUILT -0.2218
-0.3010 CONSTRUCTION OF -0.2430
-0.3010 CONVENTION HELD -0.2218
-0.3010 CONVENTIONS HAS -0.2935
-0.3010 COOKIE INTRODUCED 0.0000
-0.3010 CORDON ROUGE 0.0000
-0.3010 CORNER FIRST -0.2840
-0.3010 CORONET PEAK 0.0000
-0.6021 CORPORATION FOUNDED -0.0580
-0.6021 CORPORATION KNOWN -0.1249
-0.7782 COST </s> -0.3010
-0.7782 COST TO -0.2923
-0.7782 COST WHEN -0.2979
-0.3010 COSTUME DESIGNER 0.0000
-0.3010 COTTON </s> -0.3010
-0.9031 COUNTRIES ARE -0.2752
-1.2041 COUNTRIES IS -0.1506
-1.2041 COUNTRIES PARTICIPATED 0.0000
-0.6021 COUNTRIES USE -0.1597
-0.7782 COUNTRY DOES -0.2278
-0.4771 COUNTRY TIME -0.2430
-0.3010 COUNTY </s> -0.3010
-0.9031 COURT CASES 0.0000
-0.4260 COURT OF -0.2954
-0.6021 COVER </s> -0.3010
-0.9031 COVER ART -0.2218
-0.9031 COVER PRICE 0.0000
-0.3010 CRACKERS INTRODUCED 0.0000
-0.6021 CRAIG </s> -0.3010
-0.6021 CRAIG ADAMS 0.0000
-0.7782 CREATED </s> -0.3010
-1.0792 CREATED CHARLIE -0.1761
-1.0792 CREATED SESAME 0.0000
-1.0792 CREATED SUPERMAN 0.0000
-1.0792 CREATED THE -0.3004
-0.3010 CREATORS OF -0.2996
-0.3010 CRETACEOUS PERIOD -0.1761
-0.3010 CRICKET WORLD -0.1761
-0.3010 CROAKER LAUNCHED 0.0000
-0.3010 CROSS OF -0.2982
-0.3010 CUISINE </s> -0.3010
-0.9031 CUP </s> -0.3010
-0.4260 CUP FINAL -0.1461
-0.3010 CURLY LAMBEAU 0.0000
-1.2041 CURRENCY </s> -0.3010
-0.3590 CURRENCY CODE 0.0000
-0.3010 CURRENT SENATORS 0.0000
-1.0792 CURRENTLY MANAGE 0.0000
-1.0792 CURRENTLY MOORED 0.0000
-1.0792 CURRENTLY NUMBER -0.2553
-1.0792 CURRENTLY ON -0.1807
-1.0792 CURRENTLY PLAY -0.2632
-1.0792 CURRENTLY PLAYS 0.0000
-0.3010 CYLINDER ENGINE -0.2430
-0.3010 DA VINCI 0.0000
-0.3010 DABBLE BLOG -0.1761
-0.6021 DADDY RATED 0.0000
-0.6021 DADDY RELEASED 0.0000
-0.3010 DAMAGES DID -0.2744
-0.3010 DANGO </s> -0.3010
-0.3010 DANISH KRONER 0.0000
-0.3010 DANNY DEVITO 0.0000
-0.3010 DAS TORRES 0.0000
-0.6021 DATE FOR -0.2962
-0.6021 DATE OF -0.2996
-0.3010 DAVE GROHL 0.0000
-0.3010 DAVID AKERS 0.0000
-0.3010 DAYS LATER 0.0000
-0.3010 DE SAN -0.2430
-0.3010 DEATH AN -0.2632
-0.3010 DEBUT </s> -0.3010
-0.3010 DECO </s> -0.3010
-0.3010 DEDICATE TO -0.2923
-0.3010 DEDICATED </s> -0.3010
-0.3010 DEGREE BLACK 0.0000
-0.3010 DEITIES OF -0.2996
-0.3010 DELAWARE </s> -0.3010
-0.3010 DENNIS BERGKAMP 0.0000
-0.3010 DENVER SPURS 0.0000
-0.7782 DESIGN </s> -0.3010
-0.7782 DESIGN AND -0.2730
-0.7782 DESIGN FOR -0.2813
-0.3010 DESIGNATED AS -0.2218
-0.7270 DESIGNED </s> -0.3010
-0.5051 DESIGNED THE -0.2961
-0.3010 DESIGNER FOR -0.2913
-0.3010 DESIGNING FOR -0.2962
-0.3010 DESIGNS FOR -0.2962
-0.3010 DESTROYED IN -0.2988
-0.3010 DETROIT PUBLIC -0.0792
-0.7782 DEVELOPED </s> -0.3010
-0.7782 DEVELOPED CAPRI 0.0000
-0.7782 DEVELOPED THE -0.3004
-0.3010 DEVELOPER OF -0.2996
-1.0792 DEVITO 'S -0.2711
-1.0792 DEVITO BORN -0.0580
-0.7782 DEVITO HAVE -0.1392
-0.7782 DEVITO WIN -0.1597
-0.3010 DIALECTS OF -0.2996
-2.2253 DID 8 0.0000
-1.9243 DID A -0.2913
-2.2253 DID ADOLF 0.0000
-2.2253 DID ALAN 0.0000
-2.2253 DID ANTHONY 0.0000
-2.2253 DID BARACK 0.0000
-2.2253 DID BAROSAURUS 0.0000
-2.2253 DID BARRY 0.0000
-2.2253 DID BERTRAND 0.0000
-1.9243 DID BEYONCE 0.0000
-2.2253 DID CERATOPSIA 0.0000
-2.2253 DID CHARLIE -0.1761
-1.9243 DID CHARLIE_S 0.0000
-2.2253 DID CHIPS 0.0000
-2.2253 DID CHRISTOPHER 0.0000
-2.2253 DID CORONET 0.0000
-1.6232 DID DANNY 0.0000
-2.2253 DID DONOVAN 0.0000
-2.2253 DID ELIZABETH 0.0000
-2.2253 DID EVERYTHING 0.0000
-2.2253 DID FRANCESCO 0.0000
-1.9243 DID FRANK 0.0000
-2.2253 DID GRAEME 0.0000
-2.2253 DID GROVER 0.0000
-2.2253 DID HARRY -0.1761
-2.2253 DID HAYDEN -0.1249
-2.2253 DID HEY 0.0000
-2.2253 DID HURRICANE -0.2553
-2.2253 DID INVERTIGO 0.0000
-1.6232 DID JACK 0.0000
-2.2253 DID JERRY -0.0580
-2.2253 DID JIM 0.0000
-1.9243 DID JOHN 0.0000
-2.2253 DID JONATHAN 0.0000
-2.2253 DID JUN 0.0000
-2.2253 DID KITTY 0.0000
-2.2253 DID LIGHTNIN' 0.0000
-2.2253 DID LIL 0.0000
-1.9243 DID MARTIN 0.0000
-2.2253 DID MICHAEL 0.0000
-2.2253 DID MONSANTO 0.0000
-2.2253 DID MOTOROLA 0.0000
-2.2253 DID MOUNT -0.1761
-2.2253 DID MOZART 0.0000
-2.2253 DID MUSSOLINI 0.0000
-1.9243 DID NATHAN 0.0000
-2.2253 DID NUTTY 0.0000
-2.2253 DID OMARION -0.2430
-2.2253 DID QUEEN 0.0000
-2.2253 DID RICK 0.0000
-2.2253 DID ROBIN 0.0000
-2.2253 DID RON 0.0000
-2.2253 DID SAMUEL 0.0000
-2.2253 DID SECRETARIAT 0.0000
-2.2253 DID SESAME 0.0000
-2.2253 DID TAEKWONDO 0.0000
-2.2253 DID TAMORA 0.0000
-1.2253 DID THE -0.2917
-2.2253 DID TITANIC -0.2553
-2.2253 DID TRANSFORMERS 0.0000
-2.2253 DID TUTANKHAMUN 0.0000
-2.2253 DID ULURU 0.0000
-0.3680 DIE </s> -0.3010
-1.1461 DIE OF -0.2840
-0.3010 DIED IN -0.2359
-0.3010 DIET DID -0.2984
-0.3010 DIFFERENT PRODUCTS -0.1761
-0.3010 DIGITAL CAMERAS 0.0000
-0.3010 DIMENSIONS OF -0.2430
-0.3010 DINOSAUR SPECIES -0.1761
-0.3010 DINOSAURS WERE -0.2711
-0.3010 DIRECT </s> -0.3010
-0.7782 DIRECTED 13 0.0000
-0.7782 DIRECTED 2 -0.1761
-0.7782 DIRECTED MEET 0.0000
-0.7782 DIRECTOR FOR -0.2913
-0.7782 DIRECTOR IN -0.2988
-0.7782 DIRECTOR OF -0.2430
-0.3010 DISASTER </s> -0.3010
-0.3010 DISCOVERED NEON 0.0000
-0.3010 DISCOVERY </s> -0.3010
-0.6021 DISEASE </s> -0.3010
-0.6021 DISEASE OF -0.2782
-0.6021 DISEASES CAUSE 0.0000
-0.6021 DISEASES IS -0.2996
-0.3010 DISHES </s> -0.3010
-0.6021 DISNEYLAND </s> -0.3010
-0.6021 DISNEYLAND IS -0.2996
-0.3010 DISTRIBUTE </s> -0.3010
-0.3010 DISTRIBUTORS FOR -0.2913
-0.3010 DISTRICT OF -0.2996
-0.6021 DIVISION ARE -0.2334
-0.6021 DIVISION DO -0.2218
-0.3010 DIVISIONS OF -0.2430
-0.3010 DNA CODONS 0.0000
-0.9542 DO </s> -0.3010
-1.2553 DO CIRRUS 0.0000
-0.7782 DO THE -0.2986
-0.7782 DO YOU -0.0969
-0.3010 DOCTOR </s> -0.3010
-0.3010 DOCTORS </s> -0.3010
-0.3010 DOCUMENTARIES ARE -0.2406
-0.3010 DODGERS </s> -0.3010
-1.7634 DOES A -0.2913
-2.0645 DOES AN -0.2632
-2.0645 DOES ASPIRIN 0.0000
-2.0645 DOES BLOGTALKRADIO 0.0000
-2.0645 DOES BORDERS -0.1761
-2.0645 DOES CARNEGIE 0.0000
-2.0645 DOES COLBY 0.0000
-2.0645 DOES CRAIG -0.1761
-2.0645 DOES DENNIS 0.0000
-2.0645 DOES DOOM 0.0000
-2.0645 DOES FEDOR 0.0000
-2.0645 DOES FORD -0.2430
-2.0645 DOES GOOGLE 0.0000
-2.0645 DOES GSUSA -0.1761
-2.0645 DOES IGNEOUS 0.0000
-2.0645 DOES JERRY -0.0580
-2.0645 DOES JOE -0.1761
-2.0645 DOES JULIEN 0.0000
-2.0645 DOES KEYON 0.0000
-2.0645 DOES KIFM 0.0000
-2.0645 DOES MAMMOTH 0.0000
-2.0645 DOES MATTHEW 0.0000
-2.0645 DOES MCLEAN 0.0000
-2.0645 DOES MEET 0.0000
-2.0645 DOES MIKE 0.0000
-2.0645 DOES OXFORD -0.2218
-2.0645 DOES PILSNER 0.0000
-2.0645 DOES RAY 0.0000
-2.0645 DOES ROBERT -0.2218
-2.0645 DOES SARA 0.0000
-2.0645 DOES SARAH 0.0000
-1.7634 DOES SESAME 0.0000
-2.0645 DOES SHAQUILLE 0.0000
-2.0645 DOES SONIC -0.1761
-0.8092 DOES THE -0.2872
-1.7634 DOES US -0.2218
-2.0645 DOES WALMART 0.0000
-2.0645 DOES WOODY 0.0000
-0.5229 DOLLAR </s> -0.3010
-1.0000 DOLLAR CODE -0.2430
-1.0000 DOLLAR WORTH 0.0000
-0.3010 DOMAIN BELONG 0.0000
-0.3010 DONOVAN MCNABB 0.0000
-0.3010 DOOLING PLAY -0.2218
-0.3010 DOOM HAVE -0.2762
-0.3010 DOONESBURY </s> -0.3010
-0.3010 DORITOS </s> -0.3010
-0.3010 DOWN QUARK 0.0000
-0.3010 DOWNEY JR 0.0000
-0.3010 DRAMA FILM -0.2499
-0.3010 DRAVIDIAN LANGUAGES -0.2632
-0.3010 DREAM OF -0.2782
-0.3010 DRIVING UNDER -0.2218
-0.3010 DRY MASS 0.0000
-0.3010 DS </s> -0.3010
-0.3010 DUBAI MARINA 0.0000
-0.6021 DURING THE -0.3004
-0.6021 DURING WHAT -0.2994
-0.3010 DX3000 HAVE -0.1729
-0.3010 EAGLE </s> -0.3010
-0.3010 EAGLES </s> -0.3010
-0.6021 EARTH 'S -0.2711
-0.6021 EARTH </s> -0.3010
-0.3010 EASY CHEESE 0.0000
-0.3010 ECONOMY OF -0.2782
-0.3010 EDWARD SCISSORHANDS 0.0000
-0.3010 EFFECTS OF -0.2996
-0.3010 EGYPT PARTICIPATED 0.0000
-0.3010 EIFFEL TOWER 0.0000
-0.3010 ELECTION </s> -0.3010
-0.3010 ELECTRIC CHARGE 0.0000
-0.3010 ELEVATION AT -0.1413
-0.3010 ELIZABETH II -0.2430
-0.3010 ELK MOUNTAIN -0.2430
-0.3010 EMPLOY </s> -0.3010
-0.9031 ENGINE </s> -0.3010
-0.9031 ENGINE IN -0.2965
-0.9031 ENGINE TAKE -0.2218
-0.9031 ENGINE USE -0.2218
-0.3010 ENGINEERING </s> -0.3010
-0.3010 ENGINES HAVE -0.2762
-0.3010 ENGLISH PATIENT 0.0000
-0.3010 ENTER THE -0.3004
-0.7782 EPISODE AFTER 0.0000
-0.7782 EPISODE OF -0.2840
-0.7782 EPISODE STRAIGHT 0.0000
-0.6021 EPISODES </s> -0.3010
-0.6021 EPISODES DOES -0.2935
-0.3010 EPSILON </s> -0.3010
-0.3010 EQUIVALENT TO -0.2833
-0.3010 ERUPT </s> -0.3010
-0.3010 EURO USED -0.1249
-0.3010 EUROPEAN UNION 0.0000
-0.3010 EUROS </s> -0.3010
-0.3010 EVENING NEWS 0.0000
-0.6021 EVENTS </s> -0.3010
-0.6021 EVENTS IN -0.2988
-0.3010 EVEREST </s> -0.3010
-0.3010 EVERYTHING IS -0.2996
-0.3010 EXAMPLES OF -0.2782
-0.6021 EXHIBIT ABOUT -0.1761
-0.6021 EXHIBIT AT -0.1413
-0.3010 EXHIBITED </s> -0.3010
-0.6021 EXHIBITIONS HAS -0.2536
-0.6021 EXHIBITIONS HAVE -0.2863
-0.6021 EXHIBITS ARE -0.2406
-0.6021 EXHIBITS HAVE -0.2863
-0.3010 EXPANSION PACKS 0.0000
-0.3010 F KENNEDY 0.0000
-0.3010 F-5 FREEDOM 0.0000
-0.3010 F. C. 0.0000
-0.3010 F.C. FROM -0.2632
-0.3010 FA CUP -0.0969
-0.3010 FACILITIES HAS -0.2935
-0.3010 FACILITY </s> -0.3010
-0.3010 FALLINGWATER </s> -0.3010
-0.3010 FALLS </s> -0.3010
-0.3010 FAME </s> -0.3010
-0.3010 FAMILY </s> -0.3010
-0.3010 FANTASY SERIES -0.2341
-0.6021 FARGO 'S -0.2863
-0.6021 FARGO FOUNDED -0.0580
-0.3010 FAST 2 -0.1761
-0.3010 FATIGUE A -0.2962
-0.3010 FAVORITE COMEDY 0.0000
-0.3010 FAWLTY TOWERS 0.0000
-0.3010 FEDERAL HIGHWAY -0.2218
-0.3010 FEDOR TYUTIN 0.0000
-0.3010 FERDINAND II -0.1761
-0.3010 FERRARI CALIFORNIA -0.1761
-0.3010 FICTION CONVENTION 0.0000
-0.3010 FICTIONAL CHARACTERS -0.2632
-0.3010 FIFA WORLD -0.1761
-0.6021 FIFTH AMENDMENT -0.1761
-0.6021 FIFTH DEGREE 0.0000
-0.3010 FIGHTER </s> -0.3010
-0.3010 FIGURES </s> -0.3010
-0.3010 FILE FORMATS 0.0000
-0.3010 FILLION VOICE 0.0000
-0.9542 FILM </s> -0.3010
-1.2553 FILM ACTORS 0.0000
-1.2553 FILM AND -0.2730
-1.2553 FILM DOMAIN 0.0000
-0.7782 FILM PERFORMANCES 0.0000
-1.2553 FILM PRODUCTIONS 0.0000
-0.6021 FILMS ARE -0.2406
-0.6021 FILMS ON -0.1807
-0.5229 FINAL </s> -0.3010
-1.0000 FINAL AIR -0.1761
-1.0000 FINAL FANTASY 0.0000
-0.3010 FINISH </s> -0.3010
-0.6021 FIRE COST -0.2218
-0.6021 FIRE WIN -0.2499
-0.3010 FIREFLY </s> -0.3010
-1.4150 FIRST AIR -0.1761
-1.4150 FIRST AIRED 0.0000
-1.4150 FIRST AMENDMENT -0.1761
-1.4150 FIRST APPEAR -0.1761
-1.4150 FIRST BOOK -0.2218
-1.4150 FIRST BROADCAST -0.1761
-1.4150 FIRST FLOWN 0.0000
-1.1139 FIRST GENERATION -0.1249
-1.4150 FIRST PERFORMED -0.1761
-1.1139 FIRST PUBLISHED 0.0000
-1.4150 FIRST RELEASED 0.0000
-0.3010 FIT </s> -0.3010
-0.3010 FLAGS AMERICA 0.0000
-0.3010 FLEECE </s> -0.3010
-0.3010 FLEET FOXES 0.0000
-0.3010 FLICKR </s> -0.3010
-0.3010 FLOOR SPACE -0.2553
-0.3010 FLOORS DOES -0.2278
-0.3010 FLOWN </s> -0.3010
-0.3010 FOCUS OF -0.2430
-0.3010 FOOLS </s> -0.3010
-0.3010 FOOTWEAR ARE -0.2406
-1.9542 FOR 13 0.0000
-1.9542 FOR 2 -0.1761
-1.3522 FOR </s> -0.3010
-1.9542 FOR A -0.2962
-1.9542 FOR AOL 0.0000
-1.9542 FOR BATMAN 0.0000
-1.3522 FOR BEST -0.0792
-1.9542 FOR BILL 0.0000
-1.6532 FOR BRUCE -0.0792
-1.9542 FOR BUTANE 0.0000
-1.9542 FOR EDWARD 0.0000
-1.9542 FOR FAVORITE 0.0000
-1.9542 FOR GUITAR 0.0000
-1.9542 FOR HERM 0.0000
-1.9542 FOR LEUKEMIA 0.0000
-1.6532 FOR MEET 0.0000
-1.9542 FOR MOST -0.2218
-1.9542 FOR NEW 0.0000
-1.9542 FOR NINTENDO 0.0000
-1.9542 FOR PROSTATE 0.0000
-1.9542 FOR SAN -0.1761
-0.8751 FOR THE -0.2910
-1.9542 FOR TRYPTOPHAN 0.0000
-1.6532 FOR WHAT -0.2962
-1.9542 FOR YEN 0.0000
-0.9031 FORD CENTER 0.0000
-0.9031 FORD HAVE -0.1729
-0.9031 FORD MODEL 0.0000
-0.9031 FORD MUSTANG 0.0000
-0.3010 FORM </s> -0.3010
-0.7782 FORMATIONS ARE -0.2968
-0.7782 FORMATIONS FORMED -0.1761
-0.7782 FORMATIONS WERE -0.2863
-0.3010 FORMATS SUPPORTED 0.0000
-0.6021 FORMED DURING -0.1761
-0.6021 FORMED IN -0.2359
-0.3010 FORMULA FOR -0.2962
-0.3010 FORTUNE 500 0.0000
-0.3010 FORUNE 500 0.0000
-0.3010 FOUGHT IN -0.2359
-0.3010 FOUND </s> -0.3010
-0.3680 FOUNDED </s> -0.3010
-1.4472 FOUNDED GSUSA -0.1761
-1.4472 FOUNDED NIVEA 0.0000
-0.3010 FOURNIE DESIGN -0.2218
-0.3010 FOXES RELEASED 0.0000
-0.3010 FRANCESCO SABATINI 0.0000
-0.6021 FRANCISCO </s> -0.3010
-0.6021 FRANCISCO INTERNATIONAL 0.0000
-0.6021 FRANK LLOYD 0.0000
-0.6021 FRANK SINATRA 0.0000
-0.3010 FRAZIER II -0.1761
-0.3010 FREE EXHIBITS -0.1761
-0.3010 FREEBASE </s> -0.3010
-0.3010 FREEDOM FIGHTER 0.0000
-0.6021 FRENCH OPERAS 0.0000
-0.6021 FRENCH RESTAURANTS 0.0000
-0.3010 FRIDA KAHLO 0.0000
-1.0792 FROM 2004 -0.1761
-1.0792 FROM </s> -0.3010
-1.0792 FROM AFRICA -0.0969
-1.0792 FROM COTTON 0.0000
-1.0792 FROM MOTION 0.0000
-1.0792 FROM ROMAN 0.0000
-0.3010 FRONTIER TIMES 0.0000
-0.3010 FRY </s> -0.3010
-0.6021 FUEL DOES -0.2897
-0.6021 FUEL ECONOMY 0.0000
-0.3010 FUJI LAST -0.1761
-0.3010 FULHAM F. 0.0000
-0.3010 FURIOUS </s> -0.3010
-0.3010 G.H. MUMM 0.0000
-0.3010 GALILEO SPACECRAFT 0.0000
-0.3010 GALL LISTED 0.0000
-0.9031 GAME </s> -0.3010
-0.4260 GAME OF -0.2398
-0.6021 GAMES ARE -0.2134
-0.9031 GAMES DID -0.2984
-0.9031 GAMES HAS -0.2935
-0.3010 GAP, INC. -0.1761
-0.3010 GARCIA GONE 0.0000
-0.3010 GARRY KASPAROV 0.0000
-0.6021 GARTER DID -0.2744
-0.6021 GARTER HAVE -0.1729
-0.3010 GATE BRIDGE 0.0000
-0.3010 GATO CLASS -0.2632
-0.3010 GATORADE 'S -0.2863
-0.7782 GENERATION FORD -0.2430
-0.7782 GENERATION OF -0.2996
-0.7782 GENERATION PARTICLES 0.0000
-0.3010 GENERATIONS OF -0.2430
-0.9031 GENRE DID -0.2984
-0.6021 GENRE IS -0.1486
-0.9031 GENRE OF -0.2996
-0.7782 GENRES </s> -0.3010
-0.7782 GENRES DID -0.2984
-0.7782 GENRES DOES -0.2973
-0.6021 GERMAN </s> -0.3010
-0.6021 GERMAN BEERS -0.1761
-0.6021 GET IN -0.2965
-0.6021 GET PER 0.0000
-0.3010 GETTYSBURG ADDRESS -0.2218
-0.3010 GIANTS ALSO 0.0000
-0.3010 GILLIGAN_S ISLAND 0.0000
-0.3010 GIRARDI CURRENTLY -0.2632
-0.3010 GIRL SCOUTS 0.0000
-0.6021 GLASS 'S -0.2553
-0.9031 GLASS DO -0.2499
-0.9031 GLASS IN -0.2733
-0.3010 GLOBE AWARD -0.2041
-0.3010 GLOSTER METEOR 0.0000
-0.3010 GLS SEDAN 0.0000
-0.3010 GLUTAMINE </s> -0.3010
-0.3010 GO SOLO 0.0000
-0.3010 GOALKEEPERS </s> -0.3010
-0.3010 GOBLET OF -0.2996
-0.3010 GOD </s> -0.3010
-0.3010 GOING ON -0.2795
-0.9031 GOLD </s> -0.3010
-0.6021 GOLD MEDAL -0.1249
-0.9031 GOLD SPEECH 0.0000
-0.9031 GOLDEN FLEECE 0.0000
-0.6021 GOLDEN GATE 0.0000
-0.9031 GOLDEN GLOBE 0.0000
-0.3010 GONE TO -0.2455
-0.3010 GOOGLE SPONSOR 0.0000
-0.3010 GOT THE -0.3004
-0.3010 GOTHAM CITY -0.2218
-0.3010 GOTTEN AN -0.2632
-0.3010 GRADE </s> -0.3010
-0.3010 GRAEME BROWN -0.2218
-0.6021 GRAMMY AWARD -0.2041
-0.6021 GRAMMY AWARDS -0.1383
-0.3010 GRAND MASTER 0.0000
-0.3010 GREATEST GUITARIST 0.0000
-0.3010 GREEN PARTY -0.1761
-0.3010 GROHL 'S -0.2711
-0.3010 GROPIUS' ARCHITECTURAL 0.0000
-0.3010 GROSS CLINIC 0.0000
-0.3010 GROUP OF -0.2430
-0.3010 GROVER CLEVELAND 0.0000
-0.3010 GRUTA DAS 0.0000
-0.6021 GSUSA </s> -0.3010
-0.6021 GSUSA PRODUCE -0.0969
-0.6021 GUARDIAN CIRCULATED 0.0000
-0.6021 GUARDIAN FIRST -0.2840
-0.3010 GUIDEBOOKS ARE -0.2406
-0.3010 GUITAR HERO: 0.0000
-0.3010 GUITARIST OF -0.2996
-0.3010 GULL BEEN -0.2762
-0.3010 GUNPOWDER TEA -0.1761
-0.3010 H&R BLOCK 0.0000
-0.7782 HAD </s> -0.3010
-0.4771 HAD IN -0.2965
-0.9031 HALL A -0.2962
-0.9031 HALL LOCATED 0.0000
-0.6021 HALL OF -0.2982
-0.3010 HALO: REACH 0.0000
-0.3010 HALPER HAVE -0.1729
-0.3010 HANA YORI 0.0000
-0.3010 HANK AARON 0.0000
-0.3010 HAPPENED IN -0.2965
-0.3010 HARDIN ARMSTRONG -0.1761
-0.6021 HARRY </s> -0.3010
-0.6021 HARRY POTTER 0.0000
-1.7634 HAS ADRIENNE 0.0000
-1.7634 HAS CLARIS 0.0000
-1.7634 HAS CURLY 0.0000
-1.7634 HAS EGYPT 0.0000
-1.7634 HAS FLEET 0.0000
-1.7634 HAS GARRY 0.0000
-1.7634 HAS HELD -0.1249
-1.7634 HAS HILLARY 0.0000
-1.7634 HAS HUGH 0.0000
-1.7634 HAS INFLUENCED -0.2430
-1.7634 HAS JERRY -0.2688
-1.7634 HAS JRR 0.0000
-1.7634 HAS LARRY 0.0000
-1.7634 HAS LINDSEY 0.0000
-1.7634 HAS LOST 0.0000
-1.7634 HAS MATTEL 0.0000
-1.7634 HAS MICROSOFT 0.0000
-1.7634 HAS NATHANAEL 0.0000
-1.7634 HAS ORACLE 0.0000
-1.7634 HAS PORTRAYED 0.0000
-1.7634 HAS ROBERT -0.2218
-1.7634 HAS RUDI 0.0000
-1.7634 HAS SEAN 0.0000
-0.9853 HAS THE -0.2961
-0.3010 HATS </s> -0.3010
-0.3010 HAUNTED MANSION 0.0000
-0.5925 HAVE </s> -0.3010
-1.2553 HAVE A -0.2762
-1.9542 HAVE AN -0.2632
-1.9542 HAVE ATTENDED 0.0000
-1.4771 HAVE BEEN -0.2218
-1.9542 HAVE GONE 0.0000
-1.9542 HAVE GOTTEN 0.0000
-1.9542 HAVE HELD -0.1249
-1.9542 HAVE ICEMAN 0.0000
-1.9542 HAVE IN -0.2965
-1.9542 HAVE JURISDICTION 0.0000
-1.9542 HAVE THE -0.2998
-1.4771 HAVE THERE -0.2802
-1.6532 HAVE TO -0.2833
-0.3010 HAWK </s> -0.3010
-0.3010 HAWKER SEA 0.0000
-0.4771 HAYDEN PANETTIERE 0.0000
-0.7782 HAYDEN USE -0.2218
-0.3010 HAYDN </s> -0.3010
-0.3010 HEAD COACH -0.1761
-0.3010 HEADQUARTERED </s> -0.3010
-0.3010 HEADQUARTERS </s> -0.3010
-0.3010 HEART ATTACK -0.1761
-0.3010 HEATHROW AIRPORT -0.2218
-0.3010 HEAVY HARRY -0.1761
-0.3010 HEDGEHOG HAVE -0.1729
-0.3010 HEIGHT RESTRICTION 0.0000
-0.7782 HELD </s> -0.3010
-0.4771 HELD THE -0.2998
-0.3010 HENRY III 0.0000
-0.3010 HER SINGING 0.0000
-0.3010 HERALD FIRST -0.2663
-0.3010 HERITAGE SITE 0.0000
-0.3010 HERM </s> -0.3010
-0.3010 HERO: AEROSMITH 0.0000
-0.3010 HERRESHOFF DESIGNED -0.2109
-0.3010 HEY ARNOLD! 0.0000
-0.3010 HIGGINS STOP -0.2553
-0.4771 HIGH COURT -0.0969
-0.7782 HIGH IS -0.2996
-0.6021 HIGHEST ELEVATION 0.0000
-0.6021 HIGHEST WIND 0.0000
-0.7782 HIGHWAY 1 -0.1249
-0.7782 HIGHWAY FUEL -0.1761
-0.7782 HIGHWAY SYSTEM 0.0000
-0.3010 HILLARY CLINTON 0.0000
-0.3010 HINDUISM </s> -0.3010
-0.3010 HIS CAREER -0.0969
-0.3010 HISTORY HAPPENED 0.0000
-0.3010 HOBBIT SET -0.1761
-0.3010 HOBBY </s> -0.3010
-0.3010 HOCKEY PLAYERS -0.2430
-0.3010 HOLY ANNUNCIATION 0.0000
-0.3010 HOME COMPANION 0.0000
-0.6021 HONDA CIVIC 0.0000
-0.6021 HONDA FIT 0.0000
-0.3010 HOPKINS PLAY -0.2218
-0.3010 HORSE </s> -0.3010
-0.3010 HOSPITAL HAVE -0.1729
-0.3010 HOSPITALS SPECIALIZE 0.0000
-0.3010 HOST </s> -0.3010
-0.3010 HOSTED THE -0.2998
-0.3010 HOSTS OF -0.2996
-0.3010 HOUND OF -0.2430
-0.3010 HOUSE HAVE -0.1729
-2.5105 HOW DID -0.2984
-2.5105 HOW HIGH -0.2218
-2.2095 HOW IS -0.1465
-1.6654 HOW LONG 0.0000
-0.3738 HOW MANY -0.0000
-1.7324 HOW MUCH 0.0000
-2.5105 HOW OFTEN 0.0000
-2.5105 HOW OLD 0.0000
-1.7324 HOW TALL 0.0000
-0.3010 HUB FOR -0.2813
-0.3010 HUBBLE SPACE -0.2553
-0.3010 HUGH LAURIE 0.0000
-0.3010 HUGO AWARD -0.2041
-0.3010 HULL MADE -0.1091
-1.0000 HURRICANE ANDREW 0.0000
-1.0000 HURRICANE IVAN 0.0000
-1.0000 HURRICANE KATRINA 0.0000
-0.6990 HURRICANE SEASON 0.0000
-0.3010 HYBRID </s> -0.3010
-0.3010 HYUNDAI ACCENT 0.0000
-0.3010 I STOP -0.2553
-0.3010 ICEMAN ON -0.1807
-0.3010 IGNEOUS ROCK -0.2688
-0.6021 II </s> -0.3010
-0.9031 II COLLECT -0.1761
-0.9031 II USE -0.2218
-0.3010 III BURIED 0.0000
-0.3010 ILLINOIS </s> -0.3010
-0.3010 ILLUMINATED WIN -0.2499
-0.3010 IMAGE </s> -0.3010
-0.3010 IMMORTAL GAME -0.2430
-2.2878 IN 1948 -0.1761
-2.2878 IN 1968 0.0000
-2.2878 IN 1981 0.0000
-2.2878 IN 1993 0.0000
-2.2878 IN 2000 0.0000
-2.2878 IN 2002 0.0000
-2.2878 IN 2003 -0.1761
-2.2878 IN 2010 -0.0969
-2.2878 IN 2011 -0.1761
-1.2086 IN </s> -0.3010
-1.9868 IN A -0.2913
-1.9868 IN AFRICA -0.0969
-2.2878 IN AUGUST 0.0000
-2.2878 IN BRUCE -0.0792
-2.2878 IN CARDIOLOGY 0.0000
-2.2878 IN DAMAGES 0.0000
-2.2878 IN DELAWARE 0.0000
-2.2878 IN FALLINGWATER 0.0000
-2.2878 IN FILM -0.2499
-2.2878 IN FIREFLY 0.0000
-2.2878 IN GERMAN -0.1761
-2.2878 IN GOTHAM 0.0000
-2.2878 IN HALO: 0.0000
-2.2878 IN HANA 0.0000
-2.2878 IN HER 0.0000
-1.9868 IN HIS 0.0000
-2.2878 IN HISTORY 0.0000
-1.9868 IN HOW -0.0623
-2.2878 IN HURRICANE -0.2553
-2.2878 IN IOWA 0.0000
-2.2878 IN ITALIAN 0.0000
-2.2878 IN JAY 0.0000
-2.2878 IN MEN_S 0.0000
-2.2878 IN NORTH 0.0000
-2.2878 IN PEANUTS 0.0000
-2.2878 IN QUINOA 0.0000
-1.9868 IN SEISHINDO 0.0000
-2.2878 IN SEPTEMBER 0.0000
-2.2878 IN SONIC -0.1761
-2.2878 IN SPACE -0.2553
-2.2878 IN SUNNI 0.0000
-2.2878 IN SYDNEY 0.0000
-0.8564 IN THE -0.2782
-2.2878 IN TIME -0.2730
-2.2878 IN TITANIC -0.2041
-2.2878 IN TO -0.2923
-2.2878 IN TRISTAN 0.0000
-1.4427 IN WHAT -0.2922
-2.2878 IN WHICH -0.2218
-0.6021 INC. </s> -0.3010
-0.6021 INC. HEADQUARTERS 0.0000
-0.3010 INCOME </s> -0.3010
-0.3010 INDEPENDENCE HALL -0.2430
-0.3010 INDIAN RUPEE 0.0000
-0.3010 INDONESIAN RUPIAH 0.0000
-0.3010 INDUCTED INTO 0.0000
-0.3010 INDUSTRIES DOES -0.2973
-0.3010 INDUSTRY </s> -0.3010
-0.3010 INFECTION IS -0.2982
-0.3010 INFLUENCE </s> -0.3010
-0.6021 INFLUENCED BY -0.2730
-0.9031 INFLUENCED KARL 0.0000
-0.9031 INFLUENCED STEPHEN 0.0000
-0.3010 INGREDIENTS ARE -0.2774
-0.3010 INSTANT MESSENGER 0.0000
-0.3010 INSTITUTE OF -0.2996
-0.3010 INSTITUTIONS WAS -0.2985
-0.3010 INSTRUMENT DID -0.2984
-0.3010 INTERNAL COMBUSTION 0.0000
-0.3010 INTERNATIONAL AIRPORT -0.1249
-0.3010 INTERSTATE 5 0.0000
-0.3010 INTO THE -0.2998
-0.3010 INTRODUCED </s> -0.3010
-0.3010 INVENTED SCRABBLE 0.0000
-0.3010 INVERTIGO OPEN 0.0000
-0.3010 INVISIBLE MAN -0.1761
-0.3010 IOWA </s> -0.3010
-0.3010 IPHONE </s> -0.3010
-0.3010 IPOD ARE -0.2406
-0.3010 IRON WORKS -0.2430
-1.6378 IS A -0.2659
-2.4829 IS AFRICA -0.2430
-2.4829 IS ANGELINA 0.0000
-2.4829 IS B12 0.0000
-2.4829 IS BETWEEN 0.0000
-2.4829 IS BIG 0.0000
-2.4829 IS BING 0.0000
-2.4829 IS BRITNEY 0.0000
-1.7839 IS CURRENCY -0.0512
-2.4829 IS CURRENTLY -0.2632
-2.4829 IS DANNY 0.0000
-2.4829 IS DOONESBURY 0.0000
-2.4829 IS FATIGUE 0.0000
-2.4829 IS GRUTA 0.0000
-2.4829 IS GUNPOWDER 0.0000
-2.4829 IS H&R 0.0000
-2.4829 IS ILLINOIS 0.0000
-2.4829 IS ILLUMINATED 0.0000
-2.4829 IS IN -0.2988
-2.4829 IS INDEPENDENCE 0.0000
-2.4829 IS INVISIBLE 0.0000
-2.4829 IS JCPENNEY -0.1761
-2.0058 IS JERRY -0.0580
-2.4829 IS KEVIN 0.0000
-2.4829 IS LAMARCUS 0.0000
-2.4829 IS LOHENGRIN 0.0000
-2.4829 IS MILLER -0.2218
-2.4829 IS MOUNT -0.1761
-2.4829 IS NIAGARA 0.0000
-2.4829 IS OMARION -0.2430
-2.4829 IS PANASONIC -0.1249
-2.4829 IS PROSTATE 0.0000
-2.4829 IS REAL 0.0000
-2.4829 IS RNA 0.0000
-2.1818 IS RON 0.0000
-2.4829 IS SARAH 0.0000
-2.4829 IS SERGE 0.0000
-2.4829 IS SPACE -0.2553
-2.4829 IS SPLASH 0.0000
-2.4829 IS SPOCK 0.0000
-2.1818 IS SYPHILIS 0.0000
-2.4829 IS TAGLIABLOG 0.0000
-2.4829 IS TAI 0.0000
-2.4829 IS TARGET -0.1249
-0.5335 IS THE -0.2309
-2.4829 IS TITANIC -0.2553
-2.4829 IS TUNGSTEN 0.0000
-2.4829 IS WALDEN 0.0000
-2.4829 IS WELLS 0.0000
-2.4829 IS WESTMINSTER 0.0000
-0.3010 ISLAM </s> -0.3010
-0.3010 ISLAND FIRST -0.2840
-0.3010 ISLANDS ARE -0.2774
-0.3010 ISOLDE </s> -0.3010
-0.9031 ISSUE 1 -0.1249
-0.9031 ISSUE DID -0.2984
-0.6021 ISSUE OF -0.2982
-0.6021 ISSUES ARE -0.2406
-0.6021 ISSUES OF -0.2996
-0.3010 IT WAS -0.2985
-0.3010 ITALIAN CUISINE 0.0000
-0.3010 IVAN </s> -0.3010
-0.3010 JACK ALBERTSON 0.0000
-0.3010 JACKSON GO 0.0000
-0.6021 JAMES BOND 0.0000
-0.6021 JAMES CRAIG -0.1761
-0.3010 JAPAN OPENED 0.0000
-0.3010 JAPANESE YEN 0.0000
-0.3010 JAVA LANGUAGE -0.2553
-0.3010 JAY LENO'S 0.0000
-0.6021 JCPENNEY 'S -0.2863
-0.6021 JCPENNEY FOUNDED -0.0580
-0.3010 JEEP WRANGLER 0.0000
-1.1461 JERRY GARCIA 0.0000
-0.3680 JERRY SEINFELD 0.0000
-0.6021 JESSICA PARKER 0.0000
-0.6021 JESSICA PARKER'S 0.0000
-0.3010 JIM THORPE 0.0000
-0.6021 JOE FRAZIER 0.0000
-0.6021 JOE GIRARDI 0.0000
-0.3010 JOHN F 0.0000
-0.3010 JOLIE'S NET 0.0000
-0.3010 JONATHAN MILLER -0.2218
-0.3010 JONI MITCHELL -0.1761
-0.3010 JOSE SHARKS 0.0000
-0.3010 JOSEPH HAYDN 0.0000
-0.3010 JOURNAL OF -0.2996
-0.3010 JOURNALS </s> -0.3010
-0.3010 JR ABUSED 0.0000
-0.3010 JRR TOLKEIN 0.0000
-0.3010 JUDAISM ARE -0.2406
-0.3010 JUDGE PRESIDED 0.0000
-0.3010 JUDGES HAS -0.2536
-0.3010 JUDO </s> -0.3010
-0.3010 JULIEN FOURNIE 0.0000
-0.3010 JULY 1967 0.0000
-0.3010 JUN MATSUMOTO 0.0000
-0.3010 JUNE 2010 -0.0969
-0.3010 JUPITER </s> -0.3010
-0.3010 JURISDICTION </s> -0.3010
-0.3010 JUSTICE HAD -0.2218
-0.3010 KA </s> -0.3010
-0.3010 KAHLO EXHIBIT -0.1761
-0.3010 KARL MARX 0.0000
-0.3010 KASPAROV WON -0.2109
-0.3010 KATRINA </s> -0.3010
-0.3010 KELLY </s> -0.3010
-0.6021 KENNEDY DIE -0.0580
-0.6021 KENNEDY OWN 0.0000
-0.3010 KENNEL CLUB 0.0000
-0.3010 KENPO </s> -0.3010
-0.3010 KEPLER SPACECRAFT 0.0000
-0.3010 KEVIN YOUKILIS 0.0000
-0.3010 KEYON DOOLING 0.0000
-0.3010 KIDS USUALLY 0.0000
-0.3010 KID_S CORNER 0.0000
-0.3010 KIFM SERVE 0.0000
-0.3010 KILL A -0.2962
-0.3010 KIND OF -0.2996
-0.3010 KINDS OF -0.2996
-0.3010 KINGDA KA 0.0000
-0.3010 KINGDOM GET -0.1761
-0.3010 KIRKSTALL ABBEY -0.1249
-0.3010 KITTY PRYDE 0.0000
-0.3010 KNICKERBOCKERS </s> -0.3010
-0.3010 KNIGHTS OF -0.2430
-0.7782 KNOWN AS -0.2218
-0.4771 KNOWN BY -0.1761
-0.3010 KOERTZEN REFEREED 0.0000
-0.3010 KRONA </s> -0.3010
-0.3010 KRONER IS -0.2909
-0.3010 KWAK </s> -0.3010
-0.3010 LABEL DOES -0.2973
-0.6021 LABELS DOES -0.2973
-0.6021 LABELS WAS -0.2960
-0.3010 LAMARCUS ALDRIDGE'S 0.0000
-0.3010 LAMBEAU COACHED 0.0000
-0.3010 LANDERS CERTIFIED 0.0000
-1.0000 LANGUAGE </s> -0.3010
-0.6990 LANGUAGE IS -0.2982
-0.6990 LANGUAGE OF -0.2414
-1.0792 LANGUAGES ARE -0.2989
-0.7782 LANGUAGES HAS -0.2858
-1.0792 LANGUAGES SPOKEN -0.2430
-1.0792 LANGUAGES USE -0.2762
-1.0792 LANGUAGES WERE -0.2863
-0.3010 LARRY BIRD -0.2218
-0.6021 LAST ERUPT 0.0000
-0.6021 LAST MINUTE 0.0000
-0.3010 LATER </s> -0.3010
-0.3010 LATITUDE AND -0.2730
-0.3010 LAUNCHED </s> -0.3010
-0.3010 LAURIE CREATED -0.2218
-0.3010 LEAD BELLY 0.0000
-0.3010 LEADING ROLE 0.0000
-0.3010 LEAFS </s> -0.3010
-0.3010 LEAGUE IS -0.2996
-0.6021 LEE </s> -0.3010
-0.6021 LEE OWN 0.0000
-0.3010 LEGAL OFFENCES 0.0000
-0.3010 LENO'S CAR -0.1761
-0.3010 LEONARDO DA 0.0000
-0.3010 LEPTON FAMILY 0.0000
-0.3010 LETTER ABREVIATION 0.0000
-0.3010 LEUKEMIA </s> -0.3010
-0.3010 LEWIS CURRENTLY -0.2632
-1.0000 LIBRARY </s> -0.3010
-1.0000 LIBRARY ANNUALLY 0.0000
-0.6990 LIBRARY HAVE -0.1729
-1.0000 LIBRARY IN -0.2733
-0.3010 LIFE </s> -0.3010
-0.3010 LIGHTHOUSE MADE -0.1091
-0.3010 LIGHTNIN' HOPKINS 0.0000
-0.3010 LIKE </s> -0.3010
-0.3010 LIL HARDIN 0.0000
-0.3010 LIMA PUBLIC -0.2553
-0.3010 LIMITED </s> -0.3010
-0.3010 LINDSEY LOHAN 0.0000
-0.6021 LINE </s> -0.3010
-0.6021 LINE STOP -0.2553
-0.3010 LINEBACKERS ON -0.1807
-0.6021 LINES DOES -0.2278
-0.6021 LINES PRODUCED -0.1963
-0.3010 LISA </s> -0.3010
-0.3010 LISTED AS -0.2632
-0.3010 LITE </s> -0.3010
-0.6021 LIVE </s> -0.3010
-0.6021 LIVE ONCE 0.0000
-0.3010 LIVED IN -0.2988
-0.3010 LIVERPOOL F.C. 0.0000
-0.3010 LLOYD WRIGHT 0.0000
-0.3010 LOCATED </s> -0.3010
-0.3010 LOCATIONS ARE -0.2406
-0.3010 LOCOMOTIVE CLASS -0.2632
-0.3010 LODGES ARE -0.2774
-0.3010 LOHAN COMMITTED 0.0000
-0.3010 LOHENGRIN IN -0.2733
-0.7782 LONDON HEATHROW 0.0000
-0.7782 LONDON OVERGROUND 0.0000
-0.7782 LONDON ZOO 0.0000
-1.1461 LONG ARE -0.2989
-0.4472 LONG IS -0.1486
-1.1461 LONG OVERALL 0.0000
-0.3010 LONGITUDE OF -0.2430
-0.3010 LOOK LIKE 0.0000
-0.3010 LOS ANGELES 0.0000
-0.3010 LOSSES HAS -0.2935
-0.3010 LOST WON -0.2109
-0.6021 LOUIS BLUES 0.0000
-0.6021 LOUIS CARDINALS 0.0000
-0.3010 LOWELL OBSERVATORY 0.0000
-0.3010 LSE COVER -0.1761
-0.3010 LUKE SKYWALKER 0.0000
-0.3010 LUTHER FOUND 0.0000
-0.3010 LUX RADIO -0.1761
-0.3010 MACINTOSH INTRODUCED 0.0000
-1.1461 MADE FROM -0.2632
-0.4472 MADE OF -0.2811
-1.1461 MADE OUT -0.2218
-0.3010 MADRID A -0.2962
-0.3010 MAGIC KINGDOM 0.0000
-0.3010 MAGICIAN_S NEPHEW 0.0000
-0.7782 MAIN CAST 0.0000
-0.7782 MAIN CHARACTERS -0.2632
-0.7782 MAIN LIBRARY -0.2553
-0.6021 MAJOR EVENTS -0.1761
-0.6021 MAJOR SPONSORS 0.0000
-0.6021 MAKES DOES -0.2973
-0.6021 MAKES UP 0.0000
-0.3010 MAKEUP ARTISTS -0.1761
-0.3010 MALL </s> -0.3010
-0.3010 MALLS DOES -0.2973
-0.3010 MAMMOTH CAVE 0.0000
-0.6021 MAN </s> -0.3010
-0.6021 MAN DEDICATED 0.0000
-0.3010 MANAGE </s> -0.3010
-0.3010 MANAGED LIVERPOOL 0.0000
-0.3010 MANAGES FULHAM 0.0000
-0.3010 MANHATTAN PROJECT 0.0000
-0.3010 MANSION RIDE -0.1761
-0.3010 MANUFACTURED THE -0.3004
-0.3010 MANUFACTURES THE -0.2998
-0.3010 MANUFACTURING PLANTS 0.0000
-2.4378 MANY ALBUMS -0.1761
-2.4378 MANY ANIMALS 0.0000
-2.4378 MANY AREAS 0.0000
-2.4378 MANY ATHLETES 0.0000
-2.4378 MANY AWARD -0.2788
-1.8357 MANY AWARDS -0.1383
-2.4378 MANY BEDS 0.0000
-2.4378 MANY BEERS -0.1761
-2.4378 MANY BOATS 0.0000
-2.1367 MANY BOOKS -0.1249
-2.4378 MANY BRANCHES -0.1761
-2.4378 MANY BRANDS 0.0000
-2.4378 MANY BREEDS 0.0000
-2.4378 MANY BROADCASTS 0.0000
-2.4378 MANY CANCER -0.2553
-2.4378 MANY CANON -0.2218
-2.4378 MANY CARDS 0.0000
-2.4378 MANY CARS 0.0000
-2.4378 MANY CELEBRITIES 0.0000
-2.4378 MANY COLLECTIONS 0.0000
-2.4378 MANY COMIC -0.2218
-2.4378 MANY COMMANDERS 0.0000
-2.4378 MANY COMPANIES -0.1761
-2.4378 MANY CONFERENCES -0.2218
-1.5347 MANY COUNTRIES 0.0000
-2.4378 MANY DIALECTS 0.0000
-2.4378 MANY DIFFERENT 0.0000
-2.1367 MANY DINOSAUR 0.0000
-2.4378 MANY DOCUMENTARIES 0.0000
-2.4378 MANY ENGINES 0.0000
-2.4378 MANY EPISODES -0.1761
-2.4378 MANY EXHIBITIONS -0.1761
-2.4378 MANY EXPANSION 0.0000
-1.7388 MANY FILM -0.1597
-2.4378 MANY FILMS -0.1761
-2.4378 MANY FIRST -0.2663
-2.4378 MANY FLOORS 0.0000
-2.4378 MANY FREE 0.0000
-2.4378 MANY FRENCH -0.1761
-1.9606 MANY GAMES -0.0969
-2.4378 MANY GENERATIONS 0.0000
-2.4378 MANY GRAMMY -0.1761
-2.4378 MANY HOCKEY 0.0000
-2.4378 MANY INDUSTRIES 0.0000
-2.4378 MANY ISLANDS 0.0000
-2.4378 MANY ISSUES -0.1761
-2.4378 MANY JUDGES 0.0000
-2.4378 MANY KINDS 0.0000
-2.4378 MANY KNIGHTS 0.0000
-2.4378 MANY LANGUAGES -0.2218
-2.4378 MANY LEGAL 0.0000
-2.4378 MANY LOCATIONS 0.0000
-2.4378 MANY LOSSES 0.0000
-2.4378 MANY MAIN -0.2218
-2.4378 MANY MALLS 0.0000
-2.1367 MANY MILITARY -0.1249
-2.4378 MANY NICKNAMES -0.1761
-2.4378 MANY NOMINATIONS 0.0000
-2.4378 MANY ORDERS 0.0000
-2.4378 MANY OSCAR 0.0000
-1.7388 MANY OTHER 0.0000
-2.4378 MANY PARENT -0.1761
-2.4378 MANY PEABODY 0.0000
-1.3586 MANY PEOPLE -0.0322
-2.4378 MANY PETS 0.0000
-2.4378 MANY PRODUCTS -0.1761
-2.4378 MANY PROSTHETIC 0.0000
-2.4378 MANY RECORD 0.0000
-2.4378 MANY RELIGIONS -0.1761
-2.4378 MANY ROCK -0.1963
-2.4378 MANY RUNWAYS 0.0000
-1.9606 MANY SCHOOLS 0.0000
-2.4378 MANY SEASONS 0.0000
-2.1367 MANY SHIPS 0.0000
-2.4378 MANY SHOWS -0.2041
-2.4378 MANY SOCCER 0.0000
-2.4378 MANY SONGS -0.1761
-2.4378 MANY SPEEDS -0.1761
-2.4378 MANY SPIN -0.1761
-2.4378 MANY STAGES 0.0000
-2.4378 MANY STARRING 0.0000
-2.4378 MANY STORMS 0.0000
-2.4378 MANY SUB-TYPES 0.0000
-1.9606 MANY TEAMS 0.0000
-2.4378 MANY TEST 0.0000
-2.4378 MANY TOPICS 0.0000
-2.4378 MANY TRACKS 0.0000
-1.9606 MANY TV -0.1461
-2.4378 MANY TYPES -0.0792
-2.4378 MANY UNITS -0.1761
-2.4378 MANY US -0.2632
-2.4378 MANY VISITORS 0.0000
-2.4378 MANY VISITS 0.0000
-2.4378 MANY WINS 0.0000
-2.1367 MANY WORKS -0.0969
-0.3010 MAPLE LEAFS 0.0000
-0.3010 MARGIELA START -0.2430
-0.3010 MARINA MALL 0.0000
-0.6021 MARK MCKINNEY 0.0000
-0.6021 MARK VII 0.0000
-0.3010 MARKET-FRANKFORD LINE -0.1761
-0.3010 MARSHALL HALL -0.2430
-0.3010 MARTIAL ARTS 0.0000
-0.6021 MARTIN LUTHER 0.0000
-0.6021 MARTIN MARGIELA 0.0000
-0.3010 MARX </s> -0.3010
-0.6021 MASCOT </s> -0.3010
-0.6021 MASCOT OF -0.2430
-0.3010 MASS OF -0.2430
-0.3010 MASSIVE ATTACK -0.1761
-0.3010 MASTER OF -0.2430
-0.3010 MATHEMATICS ARE -0.2406
-0.3010 MATRIX RELOADED 0.0000
-0.3010 MATSUMOTO PLAY -0.2499
-0.3010 MATTEL PRODUCED -0.1963
-0.3010 MATTER IS -0.2909
-0.3010 MATTHEW HAYDEN -0.2218
-0.3010 MAURITANIA </s> -0.3010
-0.3010 MAX SPEED 0.0000
-0.3010 MAXIMUM ALTITUDE 0.0000
-0.6021 MAY LIGHTHOUSE 0.0000
-0.6021 MAY MAIN -0.2218
-0.3010 MCKINNEY BORN -0.0580
-0.3010 MCLEAN HOSPITAL 0.0000
-0.3010 MCNABB PLAY -0.2499
-0.7782 MEDAL </s> -0.3010
-0.7782 MEDAL DID -0.2984
-0.7782 MEDAL IN -0.2988
-0.3010 MEET THE -0.2973
-0.3010 MELLON PUBLISH 0.0000
-0.3010 MELTING POINT 0.0000
-0.3010 MEMBER OF -0.2840
-0.3010 MEMBERS OF -0.2382
-0.3010 MEN_S SINGLES 0.0000
-0.3010 MERLIN </s> -0.3010
-0.3010 MESSENGER </s> -0.3010
-0.3010 METAMORPHIC ROCK -0.2688
-0.3010 METEOR </s> -0.3010
-0.6021 MEXICAN FEDERAL 0.0000
-0.6021 MEXICAN PESO 0.0000
-0.3010 MICHAEL JACKSON 0.0000
-0.3010 MICROSOFT DESIGNED -0.2109
-0.3010 MIKE BROWN -0.2218
-0.3010 MILE CONSIST 0.0000
-0.7782 MILITARY BRANCHES -0.1761
-0.7782 MILITARY CONFLICTS 0.0000
-0.7782 MILITARY UNITS -0.1761
-0.7782 MILLER DIRECT 0.0000
-0.7782 MILLER HAD -0.1249
-0.7782 MILLER LITE 0.0000
-0.3010 MINUTE BLOG -0.1761
-0.3010 MISSION </s> -0.3010
-0.3010 MISSISSIPPI RIVER 0.0000
-0.6021 MITCHELL INDUCTED 0.0000
-0.6021 MITCHELL PUBLIC -0.0792
-0.3010 MOCKINGBIRD </s> -0.3010
-0.3010 MODE </s> -0.3010
-0.3010 MODEL T 0.0000
-0.3010 MOLASSES DISASTER 0.0000
-0.3010 MONA LISA 0.0000
-0.7782 MONEY </s> -0.3010
-0.7782 MONEY CURRENCY -0.0512
-0.7782 MONEY IN -0.2988
-0.3010 MONOPOLY </s> -0.3010
-0.3010 MONORAIL INTRODUCED 0.0000
-0.3010 MONSANTO RANK -0.1761
-0.3010 MONTREAL CANADIENS 0.0000
-0.3010 MOON </s> -0.3010
-0.3010 MOONS OF -0.2996
-0.3010 MOORED </s> -0.3010
-0.3010 MORPHINE </s> -0.3010
-0.7782 MOST HOLY 0.0000
-0.7782 MOST PERFORMED -0.1761
-0.7782 MOST REVENUE 0.0000
-0.3010 MOTION PICTURES 0.0000
-0.3010 MOTOR NEURON 0.0000
-0.3010 MOTOROLA HAVE -0.2962
-0.3010 MOTTO OF -0.2430
-0.6021 MOUNT EVEREST 0.0000
-0.6021 MOUNT FUJI 0.0000
-0.6021 MOUNTAIN </s> -0.3010
-0.9031 MOUNTAIN IN -0.2733
-0.9031 MOUNTAIN SKI 0.0000
-0.7782 MOVIE </s> -0.3010
-0.7782 MOVIE BIG 0.0000
-0.7782 MOVIE OF -0.2996
-0.7782 MOVIES WERE -0.2863
-0.4771 MOVIES WON -0.2109
-0.3010 MOZART DEDICATE 0.0000
-1.0792 MUCH DANISH 0.0000
-0.7782 MUCH DID -0.2932
-1.0792 MUCH MONEY -0.2218
-1.0792 MUCH PROTEIN 0.0000
-1.0792 MUCH TIME -0.2730
-0.3010 MUHAMMAD ALI 0.0000
-0.3010 MULTIPLAYER MODE 0.0000
-0.3010 MUMM CORDON 0.0000
-0.3010 MUSEUM </s> -0.3010
-0.9031 MUSIC AWARDS -0.2730
-0.6021 MUSIC BY -0.2730
-0.9031 MUSIC IS -0.2996
-0.6021 MUSICAL CAREER -0.2430
-0.6021 MUSICAL GENRES -0.2218
-0.3010 MUSSOLINI COMMAND 0.0000
-0.3010 MUSTANG </s> -0.3010
-0.3010 MUTANT NINJA 0.0000
-0.3010 MY CELLO 0.0000
-0.3010 NAME FOR -0.2962
-1.0792 NAMES ARE -0.2406
-0.3802 NAMES IS -0.1383
-0.6021 NATHAN FILLION 0.0000
-0.6021 NATHAN SMITH 0.0000
-0.3010 NATHANAEL HERRESHOFF 0.0000
-0.3010 NATIONAL PARK -0.1761
-0.6021 NATIONS FOUNDED -0.0580
-0.6021 NATIONS KNOWN -0.1249
-0.3010 NAUTILUS </s> -0.3010
-0.6021 NAVY BELONG 0.0000
-0.6021 NAVY OWN 0.0000
-0.3010 NEANDERTHAL 1 -0.2218
-0.3010 NEED TO -0.2833
-0.3010 NEON </s> -0.3010
-0.3010 NEPHEW </s> -0.3010
-0.3010 NET WORTH 0.0000
-0.3010 NETFLIX </s> -0.3010
-0.6021 NETWORK </s> -0.3010
-0.6021 NETWORK WAS -0.2985
-0.3010 NEURON DISEASE -0.1761
-0.3010 NEW YORK 0.0000
-0.3010 NEWS </s> -0.3010
-0.3010 NEWSCASTER IN -0.2988
-0.3010 NEWSPAPERS DOES -0.2973
-0.3010 NHL </s> -0.3010
-0.3010 NIAGARA FALLS 0.0000
-0.6021 NICKNAMES DOES -0.2973
-0.6021 NICKNAMES FOR -0.2962
-0.3010 NINJA TURTLES 0.0000
-0.3010 NINTENDO DS 0.0000
-0.3010 NIVEA </s> -0.3010
-0.3010 NOMINATED FOR -0.2333
-0.3010 NOMINATIONS DID -0.2879
-0.3010 NORTH AMERICA 0.0000
-0.3010 NOTABLE AGNOSTIC 0.0000
-0.3010 NOVEL </s> -0.3010
-1.0000 NUMBER 6 0.0000
-1.0000 NUMBER </s> -0.3010
-1.0000 NUMBER IS -0.2996
-1.0000 NUMBER OF -0.2996
-1.0000 NUMBER WAS -0.2985
-0.3010 NUTTY PROFESSOR 0.0000
-0.3010 NYSE </s> -0.3010
-0.3010 O'NEAL HAVE -0.1729
-0.3010 OAKS REHAB -0.1761
-0.3010 OBAMA WIN -0.2762
-0.3010 OBSERVATORY HAVE -0.1729
-2.4942 OF 13 0.0000
-2.4942 OF 2010 -0.0969
-1.4150 OF </s> -0.3010
-1.2900 OF A -0.2160
-2.4942 OF ABNORMAL 0.0000
-2.4942 OF ALL 0.0000
-2.4942 OF ANTARCTICA 0.0000
-2.4942 OF APPLE -0.2218
-2.4942 OF ARABIC -0.1761
-2.4942 OF ASIA 0.0000
-2.1931 OF AUSTRALIA 0.0000
-2.4942 OF BEER 0.0000
-2.4942 OF BICYCLE 0.0000
-2.4942 OF BIRTH 0.0000
-2.4942 OF BMW 0.0000
-2.4942 OF BREAST 0.0000
-2.4942 OF BRIE 0.0000
-2.4942 OF BRITISH -0.1761
-2.4942 OF BRUCE -0.2553
-2.4942 OF CAR -0.1761
-2.4942 OF CATAN 0.0000
-2.4942 OF CHANCERY 0.0000
-2.4942 OF CHARLIE_S 0.0000
-2.4942 OF CLOTHING 0.0000
-2.4942 OF COAL 0.0000
-2.4942 OF COLORADO 0.0000
-2.4942 OF DINOSAURS 0.0000
-2.4942 OF DISNEYLAND -0.1761
-2.4942 OF EASY 0.0000
-2.4942 OF ENGINEERING 0.0000
-2.1931 OF FAME 0.0000
-2.4942 OF FERDINAND 0.0000
-2.4942 OF FIRE -0.1761
-2.4942 OF FOOLS 0.0000
-2.4942 OF FOOTWEAR 0.0000
-2.4942 OF FRONTIER 0.0000
-2.4942 OF FUEL -0.1761
-2.4942 OF GAP, 0.0000
-2.4942 OF GLUTAMINE 0.0000
-2.1931 OF GOLD -0.1761
-2.4942 OF GRAND 0.0000
-2.4942 OF HATS 0.0000
-2.4942 OF HINDUISM 0.0000
-2.4942 OF INFECTION 0.0000
-2.4942 OF JAVA 0.0000
-2.4942 OF JUDAISM 0.0000
-2.4942 OF JUDO 0.0000
-2.4942 OF JUPITER 0.0000
-2.4942 OF JUSTICE 0.0000
-2.4942 OF KINGDA 0.0000
-2.4942 OF LIFE 0.0000
-2.4942 OF LIMA 0.0000
-2.4942 OF LUX 0.0000
-2.4942 OF MARTIAL 0.0000
-2.4942 OF MATTER 0.0000
-2.4942 OF MAURITANIA 0.0000
-2.4942 OF METAMORPHIC 0.0000
-2.4942 OF MORPHINE 0.0000
-2.4942 OF MOTOR 0.0000
-2.4942 OF MUSIC -0.2430
-2.4942 OF NORTH 0.0000
-2.4942 OF ON -0.1807
-2.4942 OF OZ 0.0000
-2.4942 OF PHILADELPHIA -0.2218
-2.4942 OF POLARIS 0.0000
-2.4942 OF PROSTATE 0.0000
-2.4942 OF QUARTZITE 0.0000
-2.4942 OF SANDMAN 0.0000
-2.0170 OF SESAME 0.0000
-2.4942 OF SIGMA 0.0000
-2.4942 OF SIKHISM 0.0000
-2.4942 OF SILICON 0.0000
-2.4942 OF ST. -0.2218
-2.4942 OF STRATUS 0.0000
-2.4942 OF SURVIVAL -0.1761
-2.4942 OF SYPHILIS -0.1249
-2.4942 OF TEA -0.1761
-2.4942 OF TEENAGE 0.0000
-0.9031 OF THE -0.2670
-2.4942 OF THRONES 0.0000
-2.4942 OF TRAIN 0.0000
-2.4942 OF UNFORTUNATE 0.0000
-2.4942 OF UTAH 0.0000
-2.4942 OF WATER 0.0000
-2.4942 OF WBA 0.0000
-2.4942 OF WEBSITE 0.0000
-2.4942 OF X-MEN -0.2218
-0.3010 OFFENCES HAS -0.2935
-0.3010 OFFICIAL LANGUAGE -0.2041
-0.3010 OFFS DOES -0.2935
-0.3010 OFTEN DOES -0.2278
-0.3010 OLD DO -0.2218
-0.3010 OLYMPIC GOLD -0.1761
-0.3979 OLYMPICS </s> -0.3010
-1.0000 OLYMPICS HAS -0.2935
-0.9031 OMARION 'S -0.2711
-0.9031 OMARION BORN -0.0580
-0.9031 OMARION KNOWN -0.1249
-0.9031 OMARION UNDER -0.2218
-1.7924 ON 28 0.0000
-1.3153 ON 30 0.0000
-1.7924 ON </s> -0.3010
-1.7924 ON ANTARCTICA 0.0000
-1.7924 ON BEYOND 0.0000
-1.4914 ON CBS 0.0000
-1.4914 ON COMPUTER 0.0000
-1.3153 ON FREEBASE 0.0000
-1.7924 ON NETFLIX 0.0000
-0.6163 ON THE -0.2840
-1.7924 ON WHAT -0.3002
-0.3010 ONCE IMAGE 0.0000
-0.3010 ONLY LIVE -0.1761
-0.3010 OPEN </s> -0.3010
-0.3010 OPENED </s> -0.3010
-0.3010 OPERA DID -0.2984
-0.3010 OPERAS ARE -0.2406
-0.3010 OPERATE </s> -0.3010
-0.3010 OPERATES THE -0.3004
-0.3010 OPERATING INCOME 0.0000
-0.3010 OPERATORS RUN 0.0000
-0.3010 OPPENHEIMER'S ROLE 0.0000
-0.3010 OR PRIVATE 0.0000
-0.3010 ORACLE DESIGNED -0.2109
-0.3010 ORBITAL PERIOD -0.2430
-0.9031 ORDER BELONGS 0.0000
-0.4260 ORDER OF -0.2430
-0.3010 ORDERS DID -0.2984
-0.3010 OREO COOKIE 0.0000
-0.6021 ORIENTATION </s> -0.3010
-0.6021 ORIENTATION SENSOR 0.0000
-0.3010 ORIGIN OF -0.2430
-0.6021 ORIGINAL LANGUAGE -0.2041
-0.6021 ORIGINAL NETWORK -0.1761
-0.3010 ORIGINATE </s> -0.3010
-0.3010 ORIGINATED IN -0.2988
-0.3010 OSCAR SHOWS -0.1461
-0.3010 OTHER NAMES 0.0000
-0.4771 OUT </s> -0.3010
-0.7782 OUT OF -0.2840
-0.6021 OVER STATE -0.1761
-0.6021 OVER WHAT -0.2986
-0.3010 OVERALL IS -0.1506
-0.3010 OVERGROUND OPERATE 0.0000
-0.3010 OWN </s> -0.3010
-0.3010 OWNED DORITOS 0.0000
-0.3010 OWNER OF -0.2996
-0.6021 OWNS FLICKR 0.0000
-0.6021 OWNS WXPN 0.0000
-0.7782 OXFORD </s> -0.3010
-0.7782 OXFORD FIRST -0.2840
-0.7782 OXFORD PROPERTIES 0.0000
-0.3010 OZ </s> -0.3010
-0.3010 PABLO PICASSO 0.0000
-0.3010 PACKS DOES -0.2278
-0.3010 PAINTED THE -0.3004
-0.4771 PANASONIC CORPORATION 0.0000
-0.7782 PANASONIC DX3000 0.0000
-0.6021 PANETTIERE APPEAR -0.1761
-0.6021 PANETTIERE ON -0.2940
-0.6021 PARENT DISEASE -0.1761
-0.6021 PARENT TYPES -0.2553
-0.5229 PARENTS </s> -0.3010
-1.0000 PARENTS CONSIST 0.0000
-1.0000 PARENTS OF -0.2996
-0.3010 PARIS </s> -0.3010
-0.9031 PARK </s> -0.3010
-0.9031 PARK DESIGNATED 0.0000
-0.9031 PARK GET -0.1761
-0.9031 PARK IS -0.2996
-0.3010 PARKER WEAR 0.0000
-0.3010 PARKER'S HOBBY 0.0000
-0.3010 PART OF -0.2840
-0.3010 PARTICIPATE IN -0.2359
-0.3010 PARTICIPATED IN -0.2036
-0.3010 PARTICLES ARE -0.2134
-0.6021 PARTY DID -0.2984
-0.6021 PARTY FOUNDED -0.0580
-0.3010 PASS </s> -0.3010
-0.3010 PASSENGER CAPACITY 0.0000
-0.3010 PATIENT WON -0.2109
-0.3010 PAUWEL KWAK 0.0000
-0.3010 PAYNE FINISH 0.0000
-0.3010 PEABODY AWARD -0.2788
-0.3010 PEAK OPEN 0.0000
-0.3010 PEANUTS </s> -0.3010
-1.4150 PEOPLE BLOG -0.2430
-1.4150 PEOPLE CAN 0.0000
-1.4150 PEOPLE COLLECT -0.1761
-1.4150 PEOPLE DIED 0.0000
-1.4150 PEOPLE DOES -0.2973
-1.1139 PEOPLE HAVE -0.2813
-1.4150 PEOPLE INFLUENCED -0.2430
-1.4150 PEOPLE ON -0.1807
-1.4150 PEOPLE SURVIVED 0.0000
-1.4150 PEOPLE VISIT 0.0000
-1.4150 PEOPLE WERE -0.2863
-1.4150 PEOPLE WORKED 0.0000
-0.3010 PER YEAR -0.2041
-0.3010 PERCENT ALCOHOL 0.0000
-0.4771 PERFORMANCES DID -0.2932
-0.7782 PERFORMANCES DOES -0.2973
-0.6021 PERFORMED </s> -0.3010
-0.6021 PERFORMED SONGS -0.1761
-0.6021 PERIOD </s> -0.3010
-0.9031 PERIOD DID -0.2984
-0.9031 PERIOD OF -0.2430
-0.3010 PERIODICALS ON -0.2868
-0.3010 PESO </s> -0.3010
-0.3010 PETS DID -0.2958
-0.3010 PHI EPSILON 0.0000
-0.7782 PHILADELPHIA </s> -0.3010
-0.7782 PHILADELPHIA ART -0.2218
-0.7782 PHILADELPHIA EAGLES 0.0000
-0.3010 PHILLIES PLAY -0.2499
-0.3010 PICASSO </s> -0.3010
-0.3010 PICTURES </s> -0.3010
-0.3010 PIERCE WRITE 0.0000
-0.3010 PILSNER URQUELL 0.0000
-0.3010 PISTA </s> -0.3010
-0.3010 PISTON CONFIGURATION 0.0000
-0.3010 PITTSBURGH STEELERS 0.0000
-0.4771 PLACE </s> -0.3010
-0.7782 PLACE OF -0.2996
-0.3010 PLANTS </s> -0.3010
-0.3010 PLASTIKI PROPELLED 0.0000
-0.7782 PLAY </s> -0.3010
-1.5563 PLAY CANASTA 0.0000
-1.5563 PLAY CENTER 0.0000
-1.0792 PLAY FOR -0.2160
-0.9542 PLAY IN -0.2007
-1.5563 PLAY MONOPOLY 0.0000
-1.5563 PLAY ON -0.1807
-1.5563 PLAY SETTLERS 0.0000
-0.3010 PLAYABLE IN -0.2988
-0.3010 PLAYED IN -0.2359
-0.9031 PLAYERS ARE -0.2989
-0.9031 PLAYERS CURRENTLY -0.2632
-0.9031 PLAYERS PLAY -0.2888
-0.9031 PLAYERS SCORED 0.0000
-0.3010 PLAYING FOR -0.2389
-0.3010 PLAYS FOR -0.2389
-0.3010 POINT OF -0.2968
-0.3010 POLARIS </s> -0.3010
-0.3010 POLIO VACCINE 0.0000
-0.3010 POND LOCATED 0.0000
-0.7782 POPULATION IN -0.2988
-0.4771 POPULATION OF -0.2414
-0.3010 PORGY AND -0.2730
-0.3010 PORTRAYED JAMES -0.1761
-0.3010 POSITION DOES -0.2897
-0.3010 POSITON DOES -0.2973
-0.3010 POSITRON </s> -0.3010
-0.3010 POST COME -0.1249
-0.3010 POTTER AND -0.2730
-0.3010 POWERS DOES -0.2973
-0.6021 POWERSHOT A75 0.0000
-0.6021 POWERSHOT TX1 0.0000
-0.3010 PRACTICES OF -0.2996
-0.3010 PRACTITIONERS OF -0.2996
-0.3010 PRAIRIE HOME 0.0000
-0.3010 PRESENT </s> -0.3010
-0.6021 PRESENTED </s> -0.3010
-0.6021 PRESENTED THE -0.3004
-0.3010 PRESIDED OVER -0.1761
-0.7782 PRESIDENT </s> -0.3010
-0.7782 PRESIDENT OF -0.2996
-0.7782 PRESIDENT TO -0.2923
-0.3010 PRESIDENTIAL ELECTION 0.0000
-0.3010 PRESS </s> -0.3010
-0.3010 PRICE OF -0.2168
-0.3010 PRINCETOWN RAILWAY -0.1761
-0.3010 PRIVATE </s> -0.3010
-0.3010 PROCESSOR DID -0.2744
-0.4260 PRODUCE </s> -0.3010
-0.9031 PRODUCE SMARTPHONES 0.0000
-0.6690 PRODUCED </s> -0.3010
-0.8451 PRODUCED BY -0.1761
-1.1461 PRODUCED COUNTRY -0.1249
-1.1461 PRODUCED THE -0.3004
-0.3010 PRODUCER FOR -0.2962
-0.3010 PRODUCES MEET 0.0000
-0.3010 PRODUCTION </s> -0.3010
-0.3010 PRODUCTIONS DID -0.2984
-0.6021 PRODUCTS DOES -0.2973
-0.6021 PRODUCTS HAS -0.2935
-0.6990 PROFESSOR </s> -0.3010
-1.0000 PROFESSOR BY -0.1761
-1.0000 PROFESSOR HAVE -0.1729
-1.0000 PROFESSOR PRODUCED -0.2341
-0.3010 PROGRAM IS -0.2909
-0.6021 PROGRAMMING </s> -0.3010
-0.6021 PROGRAMMING LANGUAGES -0.2632
-0.3010 PROGRAMS HAS -0.2935
-0.6021 PROJECT </s> -0.3010
-0.6021 PROJECT ABOUT -0.1761
-0.3010 PROPELLED </s> -0.3010
-0.3010 PROPERTIES OWN 0.0000
-0.3010 PROPOSED THE -0.3004
-0.3010 PROSTATE CANCER -0.1461
-0.3010 PROSTHETIC MAKEUP 0.0000
-0.3010 PROTECTED PLACE -0.1249
-0.3010 PROTEIN IS -0.2996
-0.3010 PROTON </s> -0.3010
-0.3010 PRYDE FIRST -0.2840
-0.3010 PSYCHIATRIST </s> -0.3010
-0.6021 PSYCHOLOGY </s> -0.3010
-0.6021 PSYCHOLOGY JOURNALS 0.0000
-0.3979 PUBLIC LIBRARY -0.0792
-1.0000 PUBLIC OR 0.0000
-0.3010 PUBLISH </s> -0.3010
-0.3010 PUBLISHED </s> -0.3010
-0.3010 PUBLISHES THE -0.3004
-0.3010 PUERTA DE 0.0000
-0.3010 QUALIFICATION DOES -0.2973
-0.3010 QUARK </s> -0.3010
-0.3010 QUARTZITE </s> -0.3010
-0.3010 QUEEN VICTORIA 0.0000
-0.3010 QUINOA </s> -0.3010
-0.6021 RADIO PROGRAM 0.0000
-0.6021 RADIO THEATER 0.0000
-0.6021 RAILWAY </s> -0.3010
-0.6021 RAILWAY CLOSE 0.0000
-0.6021 RANK IN -0.2359
-0.6021 RANK ON -0.1807
-0.3010 RATED </s> -0.3010
-0.3010 RATES FOR -0.2962
-0.3010 RATIFIED </s> -0.3010
-0.3010 RAVENS </s> -0.3010
-0.3010 RAY LEWIS 0.0000
-0.3010 REACH </s> -0.3010
-0.3010 REAL MADRID 0.0000
-0.6021 RECEIVE AT -0.1413
-0.6021 RECEIVE IN -0.2988
-0.3010 RECORD LABELS -0.1761
-0.3010 RECORDED </s> -0.3010
-0.3010 RED SOX 0.0000
-0.3010 REFEREED </s> -0.3010
-0.3010 REGIONS DOES -0.2278
-0.6021 REHAB FACILITIES 0.0000
-0.6021 REHAB FACILITY 0.0000
-0.3010 RELEASE DATE -0.1761
-0.3010 RELEASED </s> -0.3010
-0.6021 RELIGION </s> -0.3010
-0.9031 RELIGION DID -0.2958
-0.9031 RELIGION WAS -0.2985
-0.6021 RELIGIONS BRANCHED 0.0000
-0.6021 RELIGIONS WORSHIP 0.0000
-0.3010 RELIGIOUS ORDER -0.2430
-0.3010 RELOADED IMAGE 0.0000
-0.3010 RENAISSANCE BEGIN 0.0000
-0.3010 REPORT </s> -0.3010
-0.3010 REPRESENT </s> -0.3010
-0.3010 RESTAURANTS </s> -0.3010
-0.3010 RESTORATION OF -0.2430
-0.3010 RESTRICTION ON -0.1807
-0.3010 RETAIL FLOOR 0.0000
-0.3010 REVENUE </s> -0.3010
-0.3010 RICK CARLISLE 0.0000
-0.6021 RIDE AT -0.2840
-0.6021 RIDE THE -0.2998
-0.3010 RIDES AT -0.2840
-0.3010 RIGHT TO -0.2923
-0.3010 RIJKSMUSEUM SUPPOSED 0.0000
-0.3010 RITZ CRACKERS 0.0000
-0.3010 RIVER </s> -0.3010
-0.3010 RNA BINDING 0.0000
-0.3010 ROAD BIKE 0.0000
-0.7782 ROBERT DOWNEY 0.0000
-0.7782 ROBERT OPPENHEIMER'S 0.0000
-0.7782 ROBERT SCOBLE 0.0000
-0.3010 ROBIN WILLIAMS 0.0000
-0.3010 ROBSON </s> -0.3010
-1.1461 ROCK AND -0.2730
-1.1461 ROCK ARE -0.2406
-0.6690 ROCK FORMATIONS 0.0000
-1.1461 ROCK HAVE -0.1729
-1.1461 ROCK IS -0.2996
-0.3010 ROE V. -0.1761
-0.3010 ROLE IN -0.2036
-0.3010 ROLES DID -0.2906
-0.3010 ROLL HALL -0.1761
-0.3010 ROLLER SOAKER 0.0000
-0.6021 ROLLING STONES 0.0000
-0.6021 ROLLING STONES' 0.0000
-0.3010 ROLLS ROYCE 0.0000
-0.3010 ROLLS-ROYCE WELLAND 0.0000
