Language model created by QuickLM on Thu Dec 11 20:24:27 EST 2014
Copyright (c) 1996-2010 Carnegie Mellon University and Alexander I. Rudnicky

The model is in standard ARPA format, designed by Doug Paul while he was at MITRE.

The code that was used to produce this language model is available in Open Source.
Please visit http://www.speech.cs.cmu.edu/tools/ for more information

The (fixed) discount mass is 0.5. The backoffs are computed using the ratio method.
This model based on a corpus of 2831 sentences and 5571 words

\data\
ngram 1=5571
ngram 2=15566
ngram 3=20585

\1-grams:
-4.2329 ! -0.2997
-4.8349 "I'LL -0.3008
-4.8349 #1 -0.2885
-4.8349 #477 -0.2827
-4.8349 $1 -0.2998
-4.8349 $200 -0.2885
-4.8349 $28 -0.3010
-4.5339 $5 -0.2998
-4.8349 $85 -0.3010
-4.1360 & -0.3010
-3.3035 ' -0.2868
-2.6363 '' -0.2560
-4.8349 'L -0.3010
-4.5339 'LL -0.3010
-4.5339 'N -0.3010
-4.8349 'RE -0.3010
-2.3740 'S -0.2595
-3.9898 'T -0.2998
-2.5494 , -0.2162
-4.1360 - -0.2865
-3.1189 . -0.2816
-4.8349 ...THE -0.3010
-4.8349 .COM -0.2885
-4.8349 .DBF -0.2885
-3.9898 0 -0.2884
-4.8349 000-A-YEAR -0.3010
-4.8349 000TH -0.3010
-3.7935 1 -0.2662
-4.8349 1-CENT -0.3010
-4.8349 1-DOLLAR -0.3010
-4.3578 10 -0.2883
-4.8349 10-?? -0.2961
-4.8349 101 -0.3010
-4.8349 103 -0.3010
-4.1360 11 -0.2883
-4.8349 118 -0.2998
-4.8349 11TH -0.2827
-4.3578 12 -0.2823
-4.8349 12-HOUR -0.3010
-4.8349 12-YEAR-OLD -0.3010
-4.8349 126 -0.2998
-4.1360 13 -0.2872
-4.8349 134 -0.2998
-4.8349 14-MILE -0.3010
-4.8349 142 -0.2998
-4.5339 15 -0.2998
-4.8349 158 -0.2998
-4.5339 16 -0.2885
-4.8349 16-YEAR -0.3010
-4.8349 1642-1649 -0.2998
-4.8349 165 -0.3010
-4.8349 167 -0.2998
-4.5339 16TH -0.3008
-4.8349 16TH-CENTURY -0.3010
-4.8349 175 -0.2998
-4.8349 177 -0.2998
-4.5339 1797-185 -0.2998
-4.8349 18 -0.2992
-4.8349 1830 -0.2992
-4.8349 1832 -0.2885
-4.8349 1866 -0.2885
-4.8349 1872 -0.3010
-4.8349 1873 -0.2885
-4.8349 1879 -0.2998
-4.8349 187S -0.3010
-4.8349 1880 -0.2998
-4.8349 1881 -0.2885
-4.8349 1885 -0.2885
-4.8349 1891 -0.2885
-4.8349 1893 -0.2885
-4.8349 1896 -0.3010
-4.2329 1899 -0.2869
-4.3578 19 -0.2885
-4.8349 1904 -0.3010
-4.8349 1913 -0.2885
-4.8349 1915 -0.3009
-4.5339 1920S -0.2885
-4.5339 1923 -0.2885
-4.8349 1926 -0.2998
-4.8349 1929 -0.2885
-4.8349 193 -0.2992
-4.8349 1930S -0.3008
-4.8349 1932 -0.2885
-4.8349 1933 -0.3009
-4.8349 1936 -0.2998
-4.5339 1939 -0.2883
-4.8349 1940 -0.2992
-4.8349 1941 -0.2992
-4.5339 1942 -0.2885
-4.8349 1945 -0.3010
-4.3578 1948 -0.2875
-4.8349 195 -0.2885
-4.8349 1950 -0.2885
-4.8349 1951 -0.2885
-4.8349 1953 -0.2992
-4.8349 1958 -0.2885
-4.5339 1960 -0.2992
-4.8349 1960'S -0.2885
-4.8349 1961 -0.2885
-4.5339 1963 -0.2885
-4.5339 1964 -0.2986
-4.3578 1965 -0.2996
-4.8349 1966 -0.3010
-4.2329 1967 -0.2884
-4.8349 1968 -0.2827
-4.3578 1969 -0.2883
-4.8349 197 -0.2995
-4.8349 1971 -0.2885
-4.3578 1972 -0.2884
-4.5339 1973 -0.3010
-4.8349 1976 -0.2885
-4.5339 1978 -0.2883
-4.8349 1979 -0.2885
-4.5339 1980 -0.2980
-4.5339 1981 -0.2773
-4.5339 1982 -0.2866
-4.5339 1983 -0.2866
-4.2329 1984 -0.2884
-4.8349 1985 -0.2885
-4.8349 1989 -0.2885
-4.8349 199 -0.3010
-4.8349 1990 -0.2885
-4.5339 1990S -0.2696
-4.1360 1991 -0.2885
-4.5339 1992 -0.2885
-4.5339 1993 -0.3000
-4.3578 1994 -0.2885
-4.8349 1997 -0.2885
-4.5339 1998 -0.2884
-4.8349 1999 -0.2885
-4.8349 19TH -0.3010
-4.5339 19TH-CENTURY -0.3010
-4.8349 1ST -0.3006
-3.7557 2 -0.2828
-4.8349 2-FOOT-SQUARE -0.3010
-4.5339 2000 -0.2696
-4.8349 2002 -0.2827
-4.5339 2003 -0.2827
-4.5339 2004 -0.2994
-4.8349 2005 -0.3010
-4.3578 2006 -0.3010
-4.8349 2007 -0.3010
-4.5339 2008 -0.3010
-4.8349 2009 -0.3010
-4.2329 2010 -0.2827
-4.5339 2011 -0.2827
-4.8349 2012 -0.3010
-4.2329 21 -0.2872
-4.8349 21-27 -0.2885
-4.8349 219 -0.3010
-4.5339 22 -0.3009
-4.8349 227 -0.3010
-4.8349 22ND -0.3008
-4.8349 23 -0.3010
-4.8349 24 -0.3010
-4.8349 24-HOUR -0.3010
-4.8349 25 -0.3007
-4.8349 25TH -0.3010
-4.8349 26 -0.2998
-4.8349 27 -0.2885
-4.8349 28 -0.3010
-4.8349 280 -0.3010
-4.8349 2TH-CENTURY -0.3010
-4.5339 3 -0.2998
-4.3578 30 -0.2827
-4.8349 35-MILLIMETER -0.3009
-4.8349 39 -0.3010
-4.5339 4 -0.2998
-4.8349 401 -0.2998
-4.8349 42.3 -0.3010
-4.8349 45MHZ -0.3010
-4.8349 46 -0.2998
-4.8349 468-POUND -0.3010
-4.5339 49 -0.2998
-4.8349 4TH -0.2961
-4.0568 5 -0.2932
-4.5339 500 -0.2975
-4.5339 52 -0.3007
-4.8349 55 -0.3010
-4.8349 576 -0.3010
-4.5339 5TH -0.2998
-4.2329 6 -0.2988
-4.5339 6TH -0.3010
-4.5339 7 -0.2998
-4.8349 7-MINUTE -0.3010
-4.8349 72 -0.3010
-4.8349 737 -0.3005
-4.2329 8 -0.2948
-4.8349 8/28/1941 -0.2885
-4.8349 84 -0.3010
-4.8349 86 -0.3000
-4.8349 86ED -0.3000
-4.8349 9 -0.2998
-4.8349 9/11 -0.2827
-4.8349 98 -0.2885
-4.8349 985 -0.2885
-4.8349 9TH -0.3010
-3.4200 : -0.2992
-4.5339 ; -0.3010
-1.3830 </s> -0.3010
-1.3830 <s> -0.2539
-1.5453 ? -0.2788
-2.2329 A -0.2768
-4.8349 A.G. -0.2961
-4.8349 A.M. -0.2998
-4.8349 A75 -0.3005
-4.8349 AA -0.3010
-4.3578 AARON -0.3010
-4.3578 ABBEY -0.2775
-4.1360 ABBR:ABB -0.2901
-3.4370 ABBR:EXP -0.2891
-4.8349 ABBREVIATED -0.3010
-3.9318 ABBREVIATION -0.2947
-4.8349 ABBY -0.2885
-4.8349 ABDICATION -0.2885
-4.8349 ABNER -0.2992
-4.8349 ABNORMAL -0.3010
-4.8349 ABOMINABLE -0.3010
-3.2117 ABOUT -0.2531
-4.8349 ABRAHAM -0.3010
-4.8349 ABREVIATION -0.2998
-4.8349 ABSOLUTE -0.3010
-4.8349 ABUNDANT -0.3010
-4.8349 ABUSE -0.3010
-4.8349 ABUSED -0.2827
-4.8349 ABUSING -0.3010
-4.3578 ACADEMY -0.3009
-4.8349 ACCENT -0.3010
-4.8349 ACCESS -0.2885
-4.8349 ACCESSORY -0.2986
-4.8349 ACCIDENTS -0.2885
-4.8349 ACCOMPANYING -0.2892
-4.8349 ACCORDING -0.2995
-4.8349 ACCOUNT -0.2885
-4.8349 ACETYLSALICYLIC -0.3010
-4.3578 ACID -0.2871
-4.8349 ACQUAITANCE -0.3010
-4.8349 ACREAGE -0.2961
-4.8349 ACRES -0.2975
-4.8349 ACROSS -0.2892
-4.3578 ACT -0.2834
-4.3578 ACTED -0.2968
-4.8349 ACTIVE -0.3010
-3.9318 ACTIVITY -0.3005
-3.7557 ACTOR -0.2844
-4.8349 ACTORS -0.2992
-3.9898 ACTRESS -0.2915
-4.8349 ACTUAL -0.3010
-4.5339 AD -0.3010
-4.8349 ADAMS -0.3008
-4.8349 ADAPTATIONS -0.2961
-4.8349 ADAPTED -0.3006
-4.8349 ADDING -0.3010
-3.7557 ADDRESS -0.2637
-4.5339 ADDRESSES -0.2948
-4.8349 ADJOINING -0.3010
-4.8349 ADJOURNMENT -0.2961
-4.8349 ADMIRAL -0.2961
-4.8349 ADMIT -0.2995
-4.8349 ADMONITION -0.3009
-4.8349 ADOLF -0.3010
-4.8349 ADOPTED -0.3010
-4.8349 ADORNS -0.2892
-4.8349 ADRIENNE -0.3010
-4.5339 ADS -0.2995
-4.5339 ADULT -0.2885
-4.8349 ADVANCED -0.3010
-4.8349 ADVENTURE -0.3009
-4.8349 ADVENTURES -0.2961
-4.8349 ADVERTISE -0.2998
-4.8349 ADVERTISED -0.3007
-4.8349 ADVERTIZING -0.2998
-4.8349 ADVISED -0.3010
-4.8349 AEROSMITH -0.2827
-4.8349 AEUL -0.3010
-4.8349 AFFAIR -0.3007
-4.5339 AFFECTED -0.3007
-4.8349 AFFECTIONATE -0.3010
-4.8349 AFGHANISTAN -0.2975
-3.8807 AFRICA -0.2676
-4.3578 AFRICAN -0.3006
-3.6588 AFTER -0.2720
-4.3578 AGAINST -0.2892
-4.0568 AGE -0.2817
-4.8349 AGED -0.2885
-4.8349 AGENCY -0.2958
-4.8349 AGENT -0.2885
-4.8349 AGENTS -0.2998
-4.3578 AGES -0.2961
-4.8349 AGNOSTIC -0.3010
-4.5339 AGO -0.2991
-4.8349 AGREE -0.2995
-4.8349 AHEAD -0.2961
-4.8349 AHOY -0.3010
-4.2329 AIDS -0.2883
-4.8349 AILMENT -0.3005
-4.8349 AIM-54C -0.3010
-3.9318 AIR -0.2567
-4.8349 AIRBORNE -0.3000
-4.8349 AIRCRAFT -0.3010
-4.8349 AIRED -0.2827
-4.8349 AIRLINES -0.2958
-4.8349 AIRMAN -0.3009
-4.8349 AIRPLANE -0.3006
-3.9318 AIRPORT -0.2761
-4.5339 AIRPORTS -0.2885
-4.8349 AIRSPEED -0.3010
-4.8349 AIRWAVES -0.3007
-4.8349 AKERS -0.3001
-4.8349 AKITA -0.2885
-4.8349 AL -0.3010
-4.8349 AL-FARRI -0.2885
-4.8349 ALABAMA -0.3010
-4.8349 ALAMEIN -0.2885
-4.8349 ALAN -0.3010
-4.3578 ALASKA -0.2866
-4.2329 ALBERTSON -0.3003
-4.3578 ALBUM -0.2695
-4.5339 ALBUMS -0.2987
-4.8349 ALCOHOL -0.2958
-4.8349 ALDOUS -0.3010
-4.8349 ALDRIDGE'S -0.3009
-4.5339 ALDRIN -0.3009
-4.8349 ALEXANDRA -0.2992
-4.8349 ALEXANDRE -0.3010
-4.8349 ALGIERS -0.2885
-4.3578 ALI -0.3010
-4.8349 ALICE -0.2975
-4.8349 ALIVE -0.2885
-4.8349 ALKALINE -0.3010
-3.6888 ALL -0.2869
-4.8349 ALL-STAR -0.3009
-4.8349 ALLAH -0.2885
-4.8349 ALLAN -0.3010
-4.8349 ALLEGEDLY -0.3010
-4.5339 ALLEY -0.2885
-4.8349 ALLIANCE -0.2885
-4.8349 ALLOWED -0.2995
-4.2329 ALMIGHTY -0.2826
-4.8349 ALMOST -0.3010
-4.8349 ALONE -0.2885
-4.5339 ALONG -0.2891
-4.8349 ALPHA -0.3010
-4.3578 ALPHABET -0.2871
-4.2329 ALSO -0.3008
-4.8349 ALTA -0.3010
-4.8349 ALTERNATOR -0.2885
-4.8349 ALTITUDE -0.2961
-4.8349 ALVIN -0.2992
-4.5339 ALWAYS -0.3009
-4.8349 ALYSSA -0.3010
-4.3578 AM -0.3004
-4.8349 AMARETTO -0.3010
-4.8349 AMATEUR -0.3010
-4.8349 AMAZING -0.3009
-4.8349 AMENDEMENTS -0.3010
-4.0568 AMENDMENT -0.2668
-3.5127 AMERICA -0.2578
-3.3725 AMERICAN -0.2948
-4.3578 AMERICANS -0.3009
-4.8349 AMERICAS -0.2885
-4.8349 AMHERST -0.2885
-4.8349 AMICABLE -0.3010
-4.8349 AMISH -0.3010
-4.8349 AMONG -0.3006
-4.8349 AMOUNT -0.2995
-4.8349 AMPHIBIANS -0.2885
-4.8349 AMSTERDAM -0.2885
-3.1537 AN -0.2992
-4.8349 ANALYSIS -0.2885
-4.5339 ANCIENT -0.3006
-2.5516 AND -0.2610
-4.8349 ANDERSON -0.2992
-4.8349 ANDERSSEN -0.3008
-4.8349 ANDREA -0.3010
-4.8349 ANDRESS -0.2885
-4.2329 ANDREW -0.2997
-4.8349 ANDREWS -0.3010
-4.8349 ANDY -0.3010
-4.8349 ANGEL -0.3006
-4.3578 ANGELES -0.2872
-4.8349 ANGELICA -0.3009
-4.8349 ANGELINA -0.3010
-4.1360 ANGELS -0.2874
-4.8349 ANGLES -0.2992
-4.8349 ANGLICAN -0.3010
-3.7935 ANIMAL -0.2554
-3.8349 ANIMALS -0.2912
-4.8349 ANIMATED -0.3010
-4.8349 ANKA -0.2885
-4.5339 ANNA -0.3010
-4.8349 ANNE -0.3010
-4.1360 ANNIVERSARY -0.2790
-4.8349 ANNOTATED -0.3010
-4.8349 ANNOUNCED -0.2995
-4.8349 ANNUALLY -0.2827
-4.8349 ANNUNCIATION -0.2827
-4.8349 ANOPHELES -0.3010
-4.8349 ANOREXIA -0.2885
-4.0568 ANOTHER -0.2866
-4.5339 ANSWERS -0.2994
-4.5339 ANSWERS.COM -0.2991
-4.3578 ANTARCTICA -0.2696
-4.8349 ANTE -0.3010
-4.5339 ANTHEM -0.2885
-4.3578 ANTHONY -0.2998
-4.8349 ANTIDISESTABLISHMENTARIANISM -0.3000
-4.8349 ANTILLES -0.2827
-4.8349 ANTONIO -0.3010
-4.3578 ANY -0.2960
-4.8349 ANYBODY -0.3010
-4.8349 ANYONE -0.3010
-4.8349 ANZUS -0.3010
-4.8349 AOL -0.3010
-4.8349 AOL.COM -0.3006
-4.8349 APART -0.3006
-4.8349 APARTHEID -0.3010
-4.2329 APOLLO -0.3006
-4.8349 APPAREL -0.2885
-4.2329 APPEAR -0.2789
-4.5339 APPEARANCE -0.2972
-4.3578 APPEARED -0.2975
-4.8349 APPEARS -0.3001
-4.8349 APPENDIX -0.2885
-4.3578 APPLE -0.2820
-4.8349 APPLE, -0.3010
-4.3578 APPLES -0.2864
-4.3578 APPLIED -0.2995
-4.8349 APPROACHES -0.2961
-4.8349 APPROACHING -0.3001
-4.8349 APPROPRIATELY -0.3010
-4.8349 APPROVAL -0.3010
-4.5339 APPROXIMATE -0.3008
-4.8349 APRICOT -0.3010
-4.8349 APRIL -0.3010
-4.8349 APSO -0.3009
-4.8349 ARAB -0.3010
-4.8349 ARABIAN -0.3010
-4.3578 ARABIC -0.2992
-4.8349 ARCH -0.3005
-4.8349 ARCH-ENEMY -0.2885
-4.8349 ARCHITECT -0.2961
-4.5339 ARCHITECTS -0.2827
-4.8349 ARCHITECTURAL -0.3010
-4.8349 ARCHITECTURE -0.3010
-4.8349 ARCHY -0.2998
-4.3578 ARCTIC -0.3010
-2.3770 ARE -0.2773
-3.6888 AREA -0.2629
-4.3578 AREAS -0.2830
-4.8349 ARGON -0.2885
-4.8349 ARIGNAR -0.3010
-4.8349 ARISTOTLE -0.3010
-4.8349 ARKANSAS -0.2998
-4.5339 ARMA -0.2995
-4.8349 ARMED -0.3010
-4.8349 ARMORY -0.3009
-4.8349 ARMS -0.2961
-4.3578 ARMSTRONG -0.2996
-4.3578 ARMY -0.2962
-4.5339 ARNOLD -0.2885
-4.8349 ARNOLD! -0.3010
-4.8349 AROMETHERAPY -0.2885
-4.3578 AROUND -0.2892
-4.8349 ARRIVING -0.3008
-3.9898 ART -0.2807
-4.8349 ARTEMIS -0.2885
-4.8349 ARTHUR -0.3010
-4.3578 ARTICLES -0.2942
-4.8349 ARTIFICIAL -0.3010
-4.2329 ARTIST -0.2948
-4.3578 ARTISTS -0.2866
-4.5339 ARTS -0.2958
-3.0287 AS -0.2347
-4.8349 ASCAP -0.3009
-4.8349 ASH -0.3000
-4.5339 ASIA -0.2814
-4.2329 ASIAN -0.3001
-4.5339 ASK -0.2985
-4.3578 ASPARTAME -0.2831
-4.8349 ASPIRIN -0.3010
-4.8349 ASSASSINATE -0.2885
-4.3578 ASSASSINATED -0.2884
-4.5339 ASSASSINATION -0.2885
-4.8349 ASSEMBLY -0.2885
-4.8349 ASSIGN -0.3010
-4.5339 ASSOCIATED -0.3007
-4.8349 ASSOCIATES -0.3008
-4.5339 ASSOCIATION -0.3010
-4.8349 ASSOCIATON -0.3010
-4.8349 ASSUME -0.2998
-4.8349 ASTAIRE -0.2975
-4.5339 ASTRONAUT -0.2995
-4.1360 ASTRONAUTS -0.2951
-4.8349 ASTRONOMICAL -0.3010
-3.2117 AT -0.2389
-4.8349 ATARI -0.3010
-4.8349 ATHENS -0.2961
-4.5339 ATHLETE -0.3007
-4.8349 ATHLETES -0.3005
-4.2329 ATLANTIC -0.2879
-4.8349 ATM -0.3010
-4.8349 ATOM -0.2885
-4.8349 ATOMIC -0.3009
-4.1360 ATTACK -0.2684
-4.8349 ATTACKED -0.2975
-4.5339 ATTACKS -0.2763
-4.5339 ATTEMPT -0.2869
-4.8349 ATTEMPTS -0.2995
-4.1360 ATTEND -0.2689
-4.8349 ATTENDANT -0.2885
-4.2329 ATTENDED -0.2826
-4.8349 ATTENDS -0.3010
-4.8349 ATTIC -0.3000
-4.8349 ATTIRE -0.3006
-4.2329 ATTRACTIONS -0.2965
-4.8349 ATTRACTS -0.3010
-4.8349 AUBERGE -0.2975
-4.3578 AUGUST -0.2826
-4.2329 AUSTRALIA -0.2805
-4.2329 AUSTRALIAN -0.2989
-4.0568 AUTHOR -0.2941
-4.8349 AUTHORS -0.2885
-4.8349 AUTO -0.3010
-4.5339 AUTOBIOGRAPHY -0.2958
-4.8349 AUTOIMMUNE -0.3010
-4.8349 AUTOMOBILE -0.3007
-4.8349 AUTOMOBILES -0.2827
-4.8349 AVAILABLE -0.2998
-4.8349 AVENUE -0.2998
-3.6888 AVERAGE -0.2993
-4.8349 AVERY -0.3003
-3.7557 AWARD -0.2744
-4.3578 AWARDED -0.2856
-3.8807 AWARDS -0.2847
-4.5339 AWAY -0.3000
-4.8349 AYKROYD -0.2998
-4.8349 AZTEC -0.3010
-4.8349 B -0.2885
-4.8349 B12 -0.2827
-4.8349 BABAR -0.2885
-4.1360 BABY -0.2923
-4.8349 BABYSITTER -0.2827
-4.5339 BACALL -0.2992
-4.1360 BACK -0.2816
-4.8349 BACK" -0.2827
-4.5339 BACKGROUND -0.3010
-4.8349 BACKUP -0.3010
-4.8349 BADGERS -0.2885
-4.8349 BAGGINS -0.3006
-4.8349 BAKER -0.2998
-4.5339 BAKING -0.3010
-4.5339 BALANCE -0.2834
-3.9898 BALL -0.2865
-4.8349 BALLCOCK -0.2998
-4.8349 BALLET -0.2885
-4.8349 BALLOON -0.2885
-4.8349 BALLOTS -0.2975
-4.1360 BALLS -0.2849
-4.8349 BALTIC -0.3010
-4.8349 BALTIMORE -0.3010
-4.1360 BAND -0.2870
-4.8349 BANDIT -0.3000
-4.8349 BANK -0.2885
-4.8349 BANKS -0.2961
-4.5339 BANNED -0.3005
-4.8349 BANNER -0.3000
-4.5339 BAR -0.2884
-4.8349 BARACK -0.3010
-4.5339 BARBADOS -0.2885
-4.8349 BARBARA -0.3010
-4.8349 BARBEQUE -0.2885
-4.8349 BARE -0.2885
-4.8349 BARKIS -0.2958
-4.8349 BARNEY -0.3010
-4.8349 BAROSAURUS -0.3009
-4.8349 BARR -0.2998
-4.8349 BARRED -0.3006
-4.8349 BARREMIAN -0.3010
-4.8349 BARROOM -0.3010
-4.8349 BARRY -0.3010
-4.8349 BARS -0.2885
-3.6588 BASEBALL -0.2850
-4.3578 BASED -0.2965
-4.8349 BASEEMEN -0.2975
-4.8349 BASKERVILLES -0.2827
-4.3578 BASKETBALL -0.3010
-4.8349 BASOPHOBIC -0.3009
-4.8349 BASQUE -0.3007
-4.5339 BASTILLE -0.3009
-4.8349 BAT -0.3010
-4.8349 BATH -0.3010
-4.8349 BATHING -0.3010
-4.8349 BATMAN -0.3010
-4.8349 BATTERIES -0.2885
-4.3578 BATTERY -0.2696
-3.7557 BATTLE -0.2955
-4.3578 BATTLES -0.2995
-4.8349 BATTLESHIP -0.2885
-4.8349 BAUHAUS -0.3010
-4.8349 BAVARIA -0.2885
-4.8349 BAVARIAN -0.3010
-4.5339 BAY -0.2834
-4.8349 BAYER -0.3010
-3.2909 BE -0.2630
-4.1360 BEACH -0.2849
-4.5339 BEAK -0.2998
-4.8349 BEANIE -0.3010
-4.1360 BEAR -0.2916
-4.8349 BEARD -0.3010
-4.5339 BEARS -0.2825
-4.3578 BEAT -0.2840
-4.8349 BEATA -0.3010
-4.3578 BEATLES -0.2873
-4.8349 BEATRIX -0.3000
-4.8349 BEAUTY -0.2995
-4.3578 BEAVER -0.2862
-3.8807 BECAME -0.2878
-4.3578 BECAUSE -0.2950
-4.8349 BECKETT -0.3009
-3.7935 BECOME -0.2688
-4.8349 BECOMING -0.3007
-4.8349 BEDS -0.2999
-4.3578 BEE -0.3010
-3.6308 BEEN -0.2645
-4.3578 BEER -0.2958
-4.8349 BEER-PRODUCING -0.3005
-4.1360 BEERS -0.2795
-4.5339 BEES -0.2881
-4.5339 BEETHOVEN -0.2991
-4.8349 BEFELL -0.2892
-4.0568 BEFORE -0.2890
-4.8349 BEGAN -0.3010
-3.9318 BEGIN -0.2662
-4.5339 BEGINS -0.3005
-4.8349 BEHIND -0.2892
-3.8807 BEING -0.2999
-4.8349 BELGIUM -0.2885
-4.1360 BELIEVE -0.2849
-4.8349 BELIEVED -0.2995
-4.8349 BELLWORTS -0.2885
-4.8349 BELLY -0.2827
-4.1360 BELONG -0.2995
-4.8349 BELONGED -0.3007
-4.8349 BELONGS -0.2995
-4.5339 BELT -0.2925
-4.8349 BELUSHI -0.3010
-4.2329 BEN -0.2884
-4.8349 BENDS -0.2992
-4.8349 BENELUX -0.3009
-4.8349 BENGALI -0.3010
-4.8349 BENNY -0.3010
-4.8349 BENTOS -0.3010
-4.8349 BERGKAMP -0.3008
-4.3578 BERLIN -0.2992
-4.8349 BERMUDA -0.3010
-4.5339 BERT -0.3010
-4.8349 BERTRAND -0.3010
-4.8349 BESIDES -0.3010
-4.8349 BESS -0.3003
-3.4547 BEST -0.2947
-4.8349 BEST-SELLER -0.2961
-4.5339 BET -0.2998
-4.8349 BETRAYED -0.3010
-4.8349 BETSY -0.3010
-4.8349 BETTER -0.3008
-4.8349 BETTER-KNOWN -0.3000
-4.5339 BETTING -0.2948
-4.5339 BETTY -0.3010
-3.5127 BETWEEN -0.2863
-4.5339 BEYONCE -0.3001
-4.8349 BEYOND -0.3010
-4.8349 BIANCHI -0.3010
-4.2329 BIBLE -0.2878
-4.8349 BIBLES -0.2992
-4.8349 BIBLICAL -0.3010
-4.8349 BIBLIOGRAPHIES -0.2998
-4.8349 BIBLIOGRAPHY -0.2885
-4.8349 BIC -0.2995
-4.8349 BICEPS -0.3008
-4.8349 BICORNATE -0.3010
-4.8349 BICYCLE -0.2958
-3.8807 BIG -0.2957
-4.8349 BIGGER -0.3010
-3.9898 BIGGEST -0.3008
-4.8349 BIKE -0.2827
-4.8349 BIKINI -0.3010
-4.8349 BILBO -0.3010
-3.9318 BILL -0.2833
-4.8349 BILLIE -0.3008
-4.8349 BILLY -0.3010
-4.8349 BINDING -0.2827
-4.8349 BING -0.2827
-4.8349 BINGO -0.2885
-4.0568 BIRD -0.2827
-4.0568 BIRDS -0.2951
-4.0568 BIRTH -0.2679
-4.0568 BIRTHDAY -0.2696
-4.8349 BIRTHS -0.2998
-4.8349 BIRTHSTONE -0.2885
-4.8349 BISCAY -0.2885
-4.8349 BISCUITS -0.2885
-4.8349 BITE -0.3010
-4.8349 BJORN -0.3010
-3.7557 BLACK -0.2762
-4.8349 BLACK-AND-WHITE -0.3010
-4.8349 BLACKHAWK -0.3010
-4.8349 BLACKJACK -0.3010
-4.8349 BLACKS -0.2885
-4.8349 BLADERUNNER -0.2885
-4.8349 BLAISE -0.3010
-4.8349 BLASS -0.3010
-4.8349 BLEACH -0.3000
-4.3578 BLIND -0.2994
-4.8349 BLOBBO -0.2885
-4.8349 BLOCK -0.3010
-4.2329 BLOG -0.2804
-4.8349 BLOGS -0.2992
-4.8349 BLOGTALKRADIO -0.3010
-4.8349 BLONDES -0.2885
-4.3578 BLOOD -0.2970
-4.8349 BLOOM -0.3010
-4.5339 BLUE -0.2998
-4.5339 BLUES -0.2883
-4.8349 BLUNDER -0.2975
-4.8349 BLUSH -0.2885
-4.8349 BMW -0.2827
-4.8349 BMW'S -0.3010
-3.9898 BOARD -0.2882
-4.8349 BOARDS -0.3010
-4.8349 BOARDWALK -0.2885
-4.0568 BOASTS -0.2892
-4.8349 BOAT -0.3009
-4.8349 BOATS -0.2999
-4.5339 BOB -0.3010
-4.8349 BOBBY -0.3010
-4.8349 BOCCI -0.3010
-3.9318 BODY -0.2752
-4.8349 BOEING -0.3010
-4.8349 BOG -0.2885
-4.8349 BOG-DWELLERS -0.3009
-4.8349 BOGART -0.3010
-4.8349 BOGS -0.2885
-4.8349 BOHANNON -0.3010
-4.8349 BOHEME -0.2885
-4.8349 BOIL -0.3010
-4.8349 BOILING -0.3010
-4.8349 BOLEYN -0.3010
-4.8349 BOLIVIA -0.3001
-4.8349 BOLT -0.2885
-4.3578 BOMB -0.2884
-4.5339 BOMBAY -0.2885
-4.8349 BOMBING -0.2961
-4.8349 BOMBSHELL -0.2885
-4.2329 BOND -0.2849
-4.8349 BONE -0.3010
-4.8349 BONES -0.3005
-4.8349 BOOB -0.3010
-3.5339 BOOK -0.2535
-3.9898 BOOKS -0.2851
-4.8349 BOOP -0.2992
-4.8349 BOOSTERS -0.2885
-4.8349 BOOTH -0.2998
-4.3578 BORDER -0.2763
-4.3578 BORDERS -0.3009
-4.8349 BORG -0.3009
-4.8349 BORIS -0.3010
-3.4547 BORN -0.2658
-4.8349 BORN-CHILD -0.2975
-4.5339 BORROW -0.3010
-4.8349 BORROWER -0.3010
-4.8349 BOSON -0.3010
-4.1360 BOSTON -0.3010
-4.8349 BOTH -0.3009
-4.5339 BOTTLE -0.2834
-4.8349 BOTTLES -0.3001
-4.8349 BOTTOM -0.2961
-4.5339 BOUGHT -0.2972
-4.8349 BOULEVARD -0.2885
-4.2329 BOUNTY -0.3010
-4.8349 BOURBON -0.3010
-4.8349 BOURDON -0.3010
-4.8349 BOW -0.2885
-4.1360 BOWL -0.2883
-4.1360 BOWLING -0.2884
-4.8349 BOWLS -0.2885
-4.5339 BOX -0.2884
-4.8349 BOXER -0.2992
-4.0568 BOXING -0.2973
-4.5339 BOY -0.2874
-4.8349 BOYFRIEND -0.2885
-4.5339 BOYS -0.2996
-4.8349 BPH -0.2885
-4.8349 BRA -0.2885
-4.5339 BRADBURY -0.2992
-4.8349 BRAILLE -0.3010
-4.5339 BRAIN -0.2884
-4.8349 BRANCHED -0.3006
-4.5339 BRANCHES -0.2997
-4.5339 BRAND -0.2998
-4.8349 BRANDENBURG -0.3010
-4.8349 BRANDS -0.2999
-4.8349 BRAUN -0.2885
-4.8349 BRAVE -0.3009
-4.5339 BRAZIL -0.2885
-4.5339 BRAZILIAN -0.3010
-4.8349 BREAKFAST -0.3010
-4.8349 BREAST -0.3010
-4.8349 BREED -0.2961
-4.8349 BREED, -0.2998
-4.8349 BREEDING -0.3010
-4.8349 BREEDS -0.2992
-4.8349 BREWERIES -0.2975
-4.8349 BREWS -0.3010
-4.8349 BRICKS -0.3006
-3.9898 BRIDGE -0.2585
-4.8349 BRIE -0.3010
-4.8349 BRIGHAM -0.3010
-4.8349 BRIGHTEST -0.3009
-4.8349 BRING -0.3010
-4.8349 BRITAIN -0.2992
-3.9318 BRITISH -0.2847
-4.8349 BRITNEY -0.3010
-4.3578 BROADCAST -0.2695
-4.5339 BROADCASTING -0.2849
-4.8349 BROADCASTS -0.2999
-4.5339 BROADWAY -0.3009
-4.2329 BROKEN -0.2825
-4.8349 BRONTOSAURUSES -0.3010
-4.5339 BRONZE -0.3010
-4.8349 BROOKLYN -0.3010
-4.5339 BROOKS -0.2885
-4.5339 BROTHER -0.2960
-4.3578 BROTHERS -0.2694
-4.8349 BROTHER’S -0.3010
-4.5339 BROUGHT -0.3000
-4.0568 BROWN -0.2807
-4.5339 BROWNS -0.2884
-4.8349 BROWSER -0.3010
-4.1360 BRUCE -0.3010
-4.8349 BRUEGEL -0.3006
-4.8349 BRUSH -0.3010
-4.8349 BRUT -0.2827
-4.8349 BUDGET -0.2998
-4.8349 BUDWEIS -0.2885
-4.8349 BUDWEISER -0.3010
-4.5339 BUFFALO -0.3006
-4.8349 BUG -0.2885
-4.2329 BUILD -0.2865
-3.9898 BUILDING -0.2679
-4.8349 BUILDINGS -0.3006
-4.0568 BUILT -0.2526
-4.8349 BULGARICUS -0.2995
-4.8349 BULGE -0.3009
-4.5339 BULL -0.2885
-4.8349 BULLETIN -0.2961
-4.5339 BULLS -0.2826
-4.8349 BUMS -0.3000
-4.8349 BUREAU -0.2961
-4.8349 BUREAUCRACY -0.2885
-4.8349 BURGLARY -0.3010
-4.8349 BURIAL -0.2885
-4.3578 BURIED -0.2658
-4.8349 BURKINA -0.3010
-4.8349 BURNED -0.2975
-4.8349 BURNFORD -0.2992
-4.8349 BUS -0.3010
-4.5339 BUSES -0.2869
-4.8349 BUSH -0.2885
-4.8349 BUSIEST -0.3010
-3.9898 BUSINESS -0.2791
-4.1360 BUT -0.2980
-4.8349 BUTANE -0.2827
-4.8349 BUTCH -0.3010
-4.8349 BUTTER -0.3010
-4.3578 BUY -0.2985
-4.8349 BUZZ -0.3010
-3.1447 BY -0.2511
-4.5339 C -0.3010
-4.8349 C. -0.2827
-4.8349 CABINETS -0.2885
-4.8349 CABLE -0.3010
-4.8349 CABLE-MODEM -0.3010
-4.5339 CACHE -0.2885
-4.8349 CACTUS -0.2885
-4.8349 CAESAR -0.2885
-4.5339 CAFFEINATED -0.2884
-4.5339 CAFFEINE -0.2831
-4.5339 CAGE -0.2866
-4.5339 CAIRO -0.2995
-4.8349 CAJUN -0.3010
-4.8349 CALCIUM -0.3010
-4.5339 CALCULATOR -0.2975
-4.8349 CALDERA -0.2885
-4.8349 CALENDAR -0.2885
-4.8349 CALIENTE -0.3000
-3.8349 CALIFORNIA -0.2673
-3.6588 CALL -0.2835
-3.3298 CALLED -0.2599
-4.5339 CALLOSUM -0.2831
-4.8349 CALLS -0.3010
-4.8349 CALLUSES -0.2885
-4.5339 CALORIES -0.2992
-4.5339 CAMARO -0.2883
-4.8349 CAMCORDERS -0.3010
-4.3578 CAME -0.3001
-4.8349 CAMELS -0.3010
-4.5339 CAMERAS -0.2991
-4.3578 CAMP -0.3010
-4.8349 CAMPS -0.3009
-2.9484 CAN -0.2826
-4.2329 CANADA -0.2815
-4.3578 CANADIAN -0.3009
-4.8349 CANADIANS -0.3010
-4.8349 CANADIENS -0.2827
-4.8349 CANAL -0.2885
-4.8349 CANASTA -0.2827
-3.9318 CANCER -0.2579
-4.8349 CANDLE -0.3010
-4.8349 CANDLEMAS -0.3009
-4.8349 CANDY -0.3010
-4.8349 CANFIELD -0.2998
-4.8349 CANKER -0.3010
-4.2329 CANON -0.2975
-4.8349 CANS -0.3010
-4.5339 CANYON -0.2997
-4.8349 CAP -0.3010
-4.5339 CAPACITY -0.2961
-4.8349 CAPE -0.3010
-3.9898 CAPITAL -0.2773
-4.8349 CAPP -0.2885
-4.8349 CAPRI -0.3010
-4.8349 CAPTAIN -0.3010
-3.5797 CAR -0.2653
-4.8349 CARCINOGENS -0.2885
-4.1360 CARD -0.2788
-4.8349 CARDINALS -0.2827
-4.8349 CARDIOLOGY -0.2827
-4.0568 CARDS -0.2805
-4.8349 CARE -0.3010
-3.9898 CAREER -0.2669
-4.5339 CARIBBEAN -0.2884
-4.8349 CARL -0.3010
-4.8349 CARLISLE -0.3010
-4.8349 CARMANIA -0.2885
-4.8349 CARNEGIE -0.3010
-4.8349 CAROLINA -0.2885
-4.8349 CAROLL -0.3010
-4.8349 CARRE -0.2992
-4.8349 CARRIED -0.2892
-4.8349 CARRIER -0.2892
-4.8349 CARRIERS -0.2885
-4.5339 CARRY -0.2975
-4.8349 CARRYING -0.2892
-4.3578 CARS -0.2985
-4.8349 CARTA -0.2885
-4.8349 CARTER -0.2885
-4.8349 CARTESIAN -0.3010
-4.2329 CARTOON -0.2883
-4.5339 CARTOONS -0.2958
-4.8349 CASCADE -0.2885
-4.5339 CASE -0.2951
-4.3578 CASES -0.2877
-4.5339 CASH -0.3009
-4.8349 CASH-CONSCIOUS -0.3010
-4.8349 CASINOS -0.2992
-4.8349 CASPER -0.2992
-4.8349 CASSIDEY -0.2998
-4.8349 CAST -0.3010
-4.8349 CASTELLATED -0.3010
-4.8349 CASTING -0.3010
-4.3578 CASTLE -0.2872
-4.8349 CASTOR -0.2998
-4.8349 CAT -0.2885
-4.8349 CAT-BEAR -0.2885
-4.8349 CATALOGUES -0.2975
-4.8349 CATAN -0.2827
-4.8349 CATCH -0.3008
-4.8349 CATCHER -0.2975
-4.3578 CATEGORY -0.2939
-4.8349 CATHEDRAL -0.2885
-4.8349 CATHERINE -0.2885
-4.5339 CATHOLIC -0.2998
-4.8349 CATHOLICISM -0.2827
-4.8349 CATHY -0.3010
-4.5339 CATS -0.2823
-4.8349 CAUCASIAN -0.3000
-4.8349 CAUSE -0.3010
-4.0568 CAUSED -0.2885
-3.7557 CAUSES -0.2829
-4.8349 CAUSING -0.2985
-4.8349 CAVE -0.3010
-4.3578 CBS -0.3010
-4.8349 CC -0.3010
-4.2329 CD -0.3006
-4.8349 CDS -0.3006
-4.1360 CELEBRATED -0.2963
-4.3578 CELEBRITIES -0.3003
-4.8349 CELEBRITY -0.3010
-4.8349 CELLO -0.2827
-4.5339 CELLS -0.2992
-4.8349 CEMENT -0.3001
-3.9898 CENTER -0.2623
-4.3578 CENTERS -0.2982
-4.3578 CENTRAL -0.3009
-4.8349 CENTS -0.3007
-4.3578 CENTURY -0.2683
-4.8349 CEO -0.2961
-4.8349 CERATOPSIA -0.3005
-4.8349 CEREAL -0.3010
-4.5339 CERTIFIED -0.3006
-4.8349 CERVANTES -0.2992
-4.8349 CESSNA -0.3010
-4.8349 CHAIN -0.2885
-4.8349 CHAIRBOUND -0.3010
-4.5339 CHAIRMAN -0.2960
-4.8349 CHAIRS -0.2885
-4.8349 CHALLENGERS -0.2961
-4.5339 CHAMPION -0.2696
-4.3578 CHAMPIONS -0.2695
-4.5339 CHAMPIONSHIP -0.2885
-4.5339 CHANCE -0.2948
-4.8349 CHANCERY -0.3005
-4.8349 CHANGED -0.2892
-4.8349 CHAPEL -0.2885
-4.8349 CHAPMAN -0.2992
-4.8349 CHAPPELLET -0.3010
-4.5339 CHAPTER -0.2961
-3.6588 CHARACTER -0.2669
-3.8349 CHARACTERS -0.2920
-4.8349 CHARACTERSTICS -0.2961
-4.8349 CHARCOAL -0.2998
-4.8349 CHARGE -0.2961
-4.8349 CHARGED -0.3007
-4.0568 CHARLES -0.3003
-4.2329 CHARLIE -0.2991
-4.3578 CHARLIE_S -0.3010
-4.8349 CHARTERED -0.2975
-4.8349 CHECKMATE -0.2885
-4.8349 CHEEKS -0.3001
-4.8349 CHEERING -0.3000
-4.5339 CHEESE -0.2827
-4.8349 CHEETAHS -0.3010
-4.8349 CHEFS -0.3009
-4.2329 CHEMICAL -0.3009
-4.5339 CHEMICALS -0.2991
-4.8349 CHEROKEE -0.3010
-4.8349 CHESAPEAKE -0.3010
-4.8349 CHESS -0.3010
-4.8349 CHESSBOARD -0.2885
-4.8349 CHEST -0.3010
-4.8349 CHEVROLET -0.3000
-4.8349 CHI -0.3010
-4.2329 CHICAGO -0.2975
-4.8349 CHICAGO-STYLE -0.3010
-4.5339 CHICKEN -0.3009
-4.8349 CHICKENS -0.3005
-4.8349 CHICKS -0.2885
-4.8349 CHIEF -0.3010
-4.8349 CHIHUAHUAS -0.3009
-3.8349 CHILD -0.2668
-3.8807 CHILDHOOD -0.3008
-3.9898 CHILDREN -0.2864
-4.8349 CHINA -0.2998
-4.2329 CHINESE -0.2995
-4.8349 CHIPS -0.3010
-4.8349 CHIVINGTON -0.3010
-4.2329 CHOCOLATE -0.2882
-4.8349 CHOCOLATES -0.3006
-4.8349 CHOMPER -0.2885
-4.8349 CHOOSE -0.3010
-4.8349 CHOPS -0.2885
-4.8349 CHRIS -0.3010
-4.3578 CHRISTIAN -0.3000
-4.8349 CHRISTINA -0.3008
-4.5339 CHRISTMAS -0.2997
-4.3578 CHRISTOPHER -0.3010
-4.8349 CHROMOSOME -0.3009
-4.5339 CHRONIC -0.3010
-4.8349 CHRONICLE -0.2827
-4.8349 CHRONICLED -0.2892
-4.8349 CHRONICLES -0.3009
-4.8349 CHUAN -0.2827
-4.5339 CHURCH -0.2998
-4.8349 CHURCHILL -0.2985
-4.5339 CIGARETTE -0.3000
-4.8349 CINCINNATI -0.3010
-4.8349 CINDERSLUT -0.2998
-4.3578 CIRCLE -0.2824
-4.8349 CIRCULATED -0.2827
-4.8349 CIRCUMCISION -0.2961
-4.8349 CIRCUMORBITAL -0.3010
-4.8349 CIRRUS -0.3010
-4.8349 CISALPINE -0.3010
-4.8349 CITATION -0.3010
-3.9318 CITIES -0.2759
-4.5339 CITIZEN -0.2945
-4.8349 CITIZENS -0.2885
-2.9106 CITY -0.2237
-4.8349 CITY, -0.3008
-4.8349 CITY/TOWN/VILLAGE -0.2827
-4.8349 CIVIC -0.3010
-4.0568 CIVIL -0.3009
-4.8349 CIVILIZATION -0.3003
-4.3578 CLAIM -0.2995
-4.3578 CLAIMED -0.2994
-4.3578 CLAIMS -0.2993
-4.8349 CLARIS -0.3010
-4.8349 CLARK -0.3009
-4.0568 CLASS -0.2719
-4.3578 CLASSIC -0.3000
-4.3578 CLASSICAL -0.3010
-4.8349 CLASSIFIED -0.3010
-4.5339 CLAUS -0.2998
-4.8349 CLAY -0.3009
-4.3578 CLEAN -0.2884
-4.8349 CLEANER -0.2885
-4.8349 CLEAR -0.2885
-4.5339 CLEVELAND -0.3010
-4.8349 CLIMB -0.2975
-4.5339 CLINIC -0.2884
-4.8349 CLINTON -0.3010
-4.5339 CLIP -0.2885
-4.8349 CLITORIS -0.3010
-4.1360 CLOCK -0.2872
-4.8349 CLOCKWISE -0.3009
-4.5339 CLOSE -0.2825
-4.8349 CLOSED -0.2885
-4.8349 CLOSEST -0.3010
-4.8349 CLOSET -0.3005
-4.5339 CLOSING -0.3007
-4.3578 CLOTHES -0.2866
-4.3578 CLOTHING -0.2992
-4.2329 CLOUDS -0.2789
-4.3578 CLUB -0.2658
-4.0568 CNN -0.2937
-4.8349 CO-EDUCATIONAL -0.3009
-4.8349 CO-PILOT -0.2961
-4.1360 COACH -0.2738
-4.8349 COACHED -0.2827
-4.8349 COACHES -0.2892
-4.5339 COAL -0.2825
-4.8349 COAST -0.2885
-4.8349 COASTAL -0.3005
-4.8349 COASTLINE -0.2885
-4.8349 COASTLINES -0.3010
-4.8349 COBIA -0.2827
-4.5339 COCAINE -0.2827
-4.8349 COCKROACHES -0.3008
-4.5339 COCKTAIL -0.3001
-3.7935 CODE -0.2801
-4.8349 CODONS -0.2961
-4.8349 CODY -0.2992
-4.8349 COFFEE -0.2885
-4.8349 COGNAC -0.2885
-4.8349 COHO -0.3010
-4.8349 COHOST -0.2975
-4.8349 COIN -0.2885
-4.8349 COINED -0.2892
-4.8349 COLBY -0.3010
-4.1360 COLD -0.2884
-4.5339 COLIN -0.3010
-4.8349 COLLABRATIVE -0.2885
-4.2329 COLLECT -0.2696
-4.5339 COLLECTION -0.2790
-4.8349 COLLECTIONS -0.2991
-3.6308 COLLEGE -0.2618
-4.8349 COLLEGES -0.2992
-4.8349 COLLINS -0.3010
-4.8349 COLOMBIA -0.2998
-4.8349 COLONEL -0.3010
-4.8349 COLONIES -0.3006
-4.8349 COLONY -0.2975
-3.5127 COLOR -0.2535
-4.5339 COLORADO -0.2821
-4.3578 COLORED -0.2826
-4.0568 COLORS -0.2676
-4.8349 COLT -0.2885
-4.5339 COLUMBIA -0.3010
-4.5339 COLUMBUS -0.2993
-4.3578 COMANECI -0.3009
-4.8349 COMBINATIONS -0.2885
-4.8349 COMBUSTION -0.3010
-3.6888 COME -0.2941
-4.3578 COMEDIAN -0.2981
-4.8349 COMEDIENNE -0.3010
-4.8349 COMEDIENNES -0.2992
-4.8349 COMEDY -0.3009
-4.8349 COMES -0.3006
-3.9318 COMIC -0.3007
-4.5339 COMICS -0.2881
-4.3578 COMMAND -0.2692
-4.5339 COMMANDERS -0.3006
-4.8349 COMMANDMENTS -0.3010
-4.3578 COMMERCIAL -0.2991
-4.8349 COMMERCIALLY -0.3007
-4.8349 COMMISSION -0.2995
-4.8349 COMMISSIONER -0.2961
-4.8349 COMMITTED -0.2827
-4.8349 COMMITTEE -0.3007
-4.8349 COMMODITY -0.3010
-3.7935 COMMON -0.2871
-4.3578 COMMONLY -0.3009
-4.8349 COMMONLY-SPOKEN -0.3010
-4.8349 COMMUNE -0.2885
-4.5339 COMMUNITY -0.2992
-4.2329 COMPANIES -0.2956
-4.3578 COMPANION -0.2952
-3.4732 COMPANY -0.2713
-4.8349 COMPETITION -0.2885
-4.8349 COMPETITOR -0.2961
-4.8349 COMPLETE -0.3010
-4.8349 COMPOSED -0.2892
-4.3578 COMPOSER -0.2918
-4.8349 COMPREHENSIVE -0.2827
-4.8349 COMPRISED -0.2892
-3.8349 COMPUTER -0.2866
-4.8349 COMPUTERS -0.2885
-4.8349 CONCEIVED -0.2998
-4.8349 CONCEIVING -0.3010
-4.8349 CONCENTRATION -0.3010
-4.8349 CONCEPTION -0.2885
-4.5339 CONCERT -0.3000
-4.8349 CONCOCT -0.3007
-4.8349 CONCORDE -0.2885
-4.8349 CONDIMENT -0.2986
-4.8349 CONDITION -0.2975
-4.5339 CONDITIONING -0.2872
-4.5339 CONDITIONS -0.2964
-4.8349 CONDOR -0.2885
-4.8349 CONDUCTOR -0.2961
-4.8349 CONEY -0.3010
-4.5339 CONFEDERATE -0.3009
-4.1360 CONFERENCE -0.2823
-4.3578 CONFERENCES -0.2991
-4.8349 CONFESSION -0.3000
-4.5339 CONFIGURATION -0.2775
-4.8349 CONFLICTS -0.2991
-4.8349 CONGRESS -0.2995
-4.3578 CONGRESSMAN -0.2884
-4.8349 CONNECTICUT -0.2992
-4.8349 CONNECTION -0.3009
-4.8349 CONRAD -0.3010
-4.8349 CONSECUTIVELY -0.2885
-4.8349 CONSIDER -0.3008
-4.2329 CONSIDERED -0.2876
-4.2329 CONSIST -0.2961
-4.8349 CONSTELLATION -0.3010
-4.8349 CONSTIPATION -0.2985
-4.8349 CONSTITUTES -0.3007
-4.2329 CONSTITUTION -0.2882
-4.8349 CONSTRUCTION -0.2961
-4.5339 CONTACT -0.3008
-4.8349 CONTAIN -0.3010
-4.8349 CONTAINED -0.2975
-3.9318 CONTAINS -0.2862
-4.8349 CONTEMPTIBLE -0.3010
-4.8349 CONTENTS -0.2961
-4.8349 CONTEST -0.3001
-4.8349 CONTESTANT -0.3010
-4.5339 CONTINENT -0.2940
-4.8349 CONTRACEPTIVES -0.2885
-4.5339 CONTRACT -0.3010
-4.8349 CONTRIBUTIONS -0.2995
-4.8349 CONVENTION -0.3010
-4.8349 CONVENTIONS -0.3006
-4.8349 CONVERGE -0.2885
-4.5339 CONVICTED -0.2961
-4.8349 COOK -0.3001
-4.8349 COOKERS -0.3010
-4.8349 COOKIE -0.3010
-4.5339 COOLER -0.2958
-4.8349 COOPER -0.3008
-4.8349 COOT -0.2885
-4.8349 COPACABANA -0.3010
-4.8349 COPIER -0.3010
-4.8349 COPIES -0.2995
-4.8349 COPPERTOP -0.3000
-4.8349 COPROLITE -0.2885
-4.8349 COPY -0.2961
-4.8349 COPYRIGHT -0.3010
-4.8349 COPYRIGHTED -0.2998
-4.8349 CORDON -0.3010
-4.8349 CORGI -0.2958
-4.5339 CORK -0.3005
-4.8349 CORNELL -0.3009
-4.3578 CORNER -0.2953
-4.8349 CORONADO -0.2885
-4.8349 CORONET -0.3010
-4.8349 CORPORAL -0.2885
-4.5339 CORPORATION -0.3007
-4.5339 CORPUS -0.3010
-4.5339 CORRECT -0.2995
-4.5339 CORRECTLY -0.3010
-4.8349 CORRESPONDENT -0.2998
-4.3578 COSMOLOGY -0.2881
-3.8807 COST -0.2603
-4.8349 COSTA -0.3010
-4.8349 COSTLIEST -0.3010
-4.3578 COSTNER -0.3005
-4.8349 COSTS -0.3008
-4.5339 COSTUME -0.3010
-4.8349 COSTUMED -0.3010
-4.8349 COTRUBAS -0.2885
-4.8349 COTTON -0.2827
-4.8349 COULD -0.3010
-4.8349 COULEE -0.3010
-4.3578 COUNCIL -0.2881
-4.5339 COUNT -0.2872
-4.8349 COUNTERCLOCKWISE -0.2885
-4.8349 COUNTERPART -0.2995
-3.4547 COUNTRIES -0.2743
-3.0946 COUNTRY -0.2601
-3.9318 COUNTY -0.2730
-4.3578 COURSE -0.2849
-3.9898 COURT -0.2936
-4.8349 COUSIN'S -0.3003
-4.5339 COUSINS -0.2696
-4.8349 COUSTEAU -0.2992
-3.9898 COVER -0.2718
-4.8349 COVERS -0.3010
-4.8349 COVREFEU -0.2998
-4.8349 COW -0.3010
-4.3578 COWBOY -0.2883
-4.8349 COWBOYS -0.2961
-4.8349 COWS -0.2885
-4.8349 CRACKER -0.3010
-4.8349 CRACKERS -0.3010
-3.9898 CRAFT -0.2837
-4.5339 CRAIG -0.2827
-4.8349 CRANBERRY -0.3010
-4.8349 CRAVE -0.2885
-4.5339 CREAM -0.2872
-4.2329 CREATE -0.2856
-3.6588 CREATED -0.2563
-4.8349 CREATIVITY. -0.2892
-4.8349 CREATOR -0.2961
-4.8349 CREATORS -0.2961
-4.2329 CREATURE -0.2939
-4.3578 CREDIT -0.3000
-4.8349 CREDITED -0.3007
-4.8349 CREEK -0.3000
-4.8349 CREEPS -0.3010
-4.8349 CRETACEOUS -0.3010
-4.8349 CREW -0.3010
-4.8349 CRICKET -0.3006
-4.2329 CRIMINAL -0.2884
-4.8349 CRIMINOLOGIST -0.3010
-4.8349 CROAKER -0.3010
-4.8349 CROKINOLE -0.2885
-4.8349 CROONER -0.3010
-4.8349 CROP -0.3010
-4.2329 CROSS -0.2710
-4.8349 CROSSWORD -0.3009
-4.8349 CROWD -0.3000
-4.8349 CROWNED -0.2975
-4.8349 CROWS -0.2885
-4.8349 CRUCIFIXION -0.2885
-4.8349 CRUISER -0.2995
-4.8349 CRUSADERS -0.3010
-4.8349 CRUSH -0.2827
-4.8349 CRUST -0.2885
-4.8349 CRY -0.3009
-4.8349 CTBT -0.2885
-4.8349 CUBA -0.2885
-4.3578 CUBE -0.2871
-4.8349 CUBIC -0.3010
-4.8349 CUCKOO -0.2992
-4.5339 CUCUMBER -0.3010
-4.8349 CUISINE -0.2827
-4.8349 CULTURE -0.3010
-3.9898 CUP -0.2642
-4.8349 CUPBOARD -0.2986
-4.8349 CURIES -0.2885
-4.8349 CURLY -0.3010
-3.9318 CURRENCY -0.2826
-3.9898 CURRENT -0.3009
-4.0568 CURRENTLY -0.2997
-4.8349 CUSHMAN -0.2998
-4.8349 CUT -0.2885
-4.8349 CWT. -0.2885
-4.8349 CYBERSPACE -0.3000
-4.8349 CYCLIST -0.3010
-4.8349 CYCLONE -0.3007
-4.8349 CYLINDER -0.3010
-4.8349 CYSTIC -0.3010
-4.8349 CZAR -0.2992
-4.8349 CZECH -0.3009
-4.8349 D -0.3010
-4.8349 D-DAY -0.2885
-4.5339 D. -0.3010
-4.8349 D.B. -0.3010
-4.5339 D.C. -0.2884
-4.8349 DA -0.3010
-4.8349 DABBLE -0.3010
-4.8349 DAD'S -0.3003
-4.5339 DADDY -0.3010
-4.5339 DAILY -0.2885
-4.8349 DAIRY -0.3010
-4.5339 DAKOTA -0.3007
-4.8349 DALI -0.2992
-4.5339 DAM -0.2885
-4.8349 DAMAGE -0.2995
-4.8349 DAMAGES -0.2991
-4.8349 DAME -0.3009
-4.8349 DAMINOZIDE -0.2885
-4.8349 DAMS -0.2885
-4.8349 DAN -0.3010
-4.8349 DANCED -0.3009
-4.8349 DANCING -0.2995
-4.8349 DANE -0.3000
-4.8349 DANGLES -0.3010
-4.8349 DANGLING -0.3010
-4.8349 DANGO -0.2827
-4.8349 DANIEL -0.2992
-4.8349 DANISH -0.3010
-4.0568 DANNY -0.3010
-4.5339 DANUBE -0.2884
-4.8349 DANZA -0.2885
-4.8349 DARE -0.3007
-4.8349 DARIUS -0.2885
-4.8349 DARN -0.3010
-4.8349 DARWIN -0.2885
-4.8349 DAS -0.3010
-4.8349 DATA -0.3010
-4.5339 DATABASE -0.2885
-3.8807 DATE -0.2795
-4.8349 DATES -0.3007
-4.8349 DATING -0.3007
-4.1360 DAUGHTER -0.2816
-4.5339 DAUGHTERS -0.2834
-4.8349 DAVE -0.3010
-4.3578 DAVID -0.3010
-4.8349 DAVIES -0.2998
-4.8349 DAWSON -0.2992
-4.8349 DAXAM -0.2885
-3.4732 DAY -0.2724
-4.5339 DAYCARE -0.3010
-4.8349 DAYS -0.3010
-4.2329 DC -0.2991
-4.0568 DE -0.3009
-4.2329 DEAD -0.2973
-4.8349 DEADLIEST -0.2885
-4.8349 DEADWOOD -0.2998
-4.5339 DEAL -0.3006
-4.8349 DEALER -0.3001
-4.8349 DEALING -0.3007
-4.8349 DEALT -0.2885
-4.8349 DEAR -0.3010
-3.8349 DEATH -0.2830
-4.8349 DEBATE -0.3008
-4.8349 DEBBIE -0.3010
-4.5339 DEBUT -0.2696
-4.8349 DECADE -0.2885
-4.8349 DECATHLON -0.3010
-4.3578 DECEMBER -0.3010
-4.8349 DECIDED -0.3007
-4.8349 DECK -0.2961
-4.8349 DECLARATION -0.2961
-4.8349 DECLARE -0.3009
-4.5339 DECLARED -0.3009
-4.8349 DECO -0.2827
-4.8349 DEDICATE -0.2995
-4.8349 DEDICATED -0.2827
-4.8349 DEEPEST -0.3009
-4.8349 DEER -0.2885
-4.8349 DEFECTS -0.2885
-4.8349 DEFENSIVE -0.3010
-4.5339 DEFINE -0.2892
-3.9898 DEFINITION -0.2950
-4.5339 DEGAS -0.2885
-4.5339 DEGREE -0.3005
-4.5339 DEGREES -0.3010
-4.8349 DEITIES -0.2961
-4.3578 DELAWARE -0.2825
-4.8349 DELEGATE -0.2975
-4.8349 DELILAH -0.3001
-4.8349 DELIVERED -0.3008
-4.8349 DEM -0.3010
-4.8349 DEMOCRATIC -0.3010
-4.8349 DENA -0.3010
-4.5339 DENNIS -0.2892
-4.8349 DENTAL -0.3010
-4.8349 DENTIST -0.3010
-4.8349 DENVER -0.3010
-4.8349 DEODORANT -0.3010
-4.3578 DEPARTMENT -0.3010
-4.8349 DEPARTMENTS -0.2975
-4.8349 DEPENDED -0.2885
-4.8349 DEPICTED -0.3001
-4.8349 DEPRECIATES -0.3000
-4.3578 DEPRESSION -0.2838
-2.6363 DESC:DEF -0.2901
-2.8349 DESC:DESC -0.2892
-2.8759 DESC:MANNER -0.2983
-2.9898 DESC:REASON -0.2886
-4.8349 DESCENDENTS -0.2961
-4.5339 DESCRIBE -0.2866
-4.2329 DESERT -0.2880
-4.2329 DESIGN -0.2748
-4.8349 DESIGNATE -0.3010
-4.8349 DESIGNATED -0.3006
-3.9318 DESIGNED -0.2703
-4.3578 DESIGNER -0.2997
-4.8349 DESIGNING -0.2998
-4.8349 DESIGNS -0.2998
-4.2329 DESMOND -0.2986
-4.8349 DESPONDENT -0.3010
-4.8349 DESTINATION -0.2975
-4.8349 DESTROYED -0.2975
-4.8349 DESTROYING -0.3010
-4.8349 DESTRUCTOR -0.3010
-4.8349 DETAILS -0.3008
-4.8349 DETECT -0.3010
-4.5339 DETECTIVE -0.3010
-4.8349 DETERGENT -0.2885
-4.8349 DETERMINE -0.3010
-4.8349 DETERMINED -0.2885
-4.8349 DETROIT -0.3010
-4.8349 DEVELOP -0.2975
-4.1360 DEVELOPED -0.2703
-4.8349 DEVELOPER -0.2961
-4.8349 DEVELOPMENTAL -0.3010
-4.8349 DEVEOPMENT -0.2961
-4.8349 DEVICES -0.3006
-4.0568 DEVITO -0.2984
-4.8349 DEVO -0.3010
-4.8349 DEVOURED -0.3007
-4.8349 DEW -0.3010
-4.8349 DIAGNOSE -0.3010
-4.8349 DIALECT -0.2885
-4.8349 DIALECTS -0.2961
-4.8349 DIALOGUE -0.3010
-4.8349 DIAMETER -0.3010
-4.8349 DIAMOND -0.3010
-4.8349 DIANE -0.3010
-4.8349 DIARY -0.2975
-4.3578 DICK -0.3000
-4.5339 DICKENS -0.2991
-4.5339 DICTATOR -0.3005
-2.3636 DID -0.2675
-4.8349 DIDN'T -0.3010
-3.7210 DIE -0.2642
-3.7557 DIED -0.2782
-4.2329 DIEGO -0.3010
-4.8349 DIET -0.2991
-3.8349 DIFFERENCE -0.3009
-4.8349 DIFFERENCES -0.2975
-3.8807 DIFFERENT -0.3003
-4.5339 DIGITAL -0.3010
-4.8349 DIGITALIS -0.2885
-4.2329 DIGITS -0.2961
-4.5339 DIMENSIONS -0.2961
-4.8349 DIMINUTIVE -0.3008
-4.5339 DINOSAUR -0.3010
-4.8349 DINOSAURS -0.3006
-4.8349 DIPLOMACY -0.2885
-4.8349 DIPLOMATIC -0.3010
-4.8349 DIPSOMANIAC -0.3010
-4.3578 DIRECT -0.2816
-4.1360 DIRECTED -0.2879
-4.8349 DIRECTIONS -0.3001
-4.2329 DIRECTOR -0.2912
-4.8349 DIRECTORIAL -0.3010
-4.8349 DIRTY -0.2885
-4.5339 DISABILITIES -0.3010
-4.8349 DISAPPEAR -0.2885
-4.5339 DISASTER -0.2703
-4.8349 DISC -0.3010
-4.8349 DISCOVER -0.2998
-4.2329 DISCOVERED -0.2872
-4.8349 DISCOVERY -0.2827
-3.9318 DISEASE -0.2529
-4.3578 DISEASES -0.2831
-4.8349 DISH -0.3009
-4.8349 DISHES -0.2827
-4.8349 DISKETTES -0.2885
-4.8349 DISKS -0.2999
-4.8349 DISMISSED -0.3010
-4.5339 DISNEYLAND -0.2772
-4.8349 DISPATCHED -0.2985
-4.5339 DISPLAY -0.2849
-4.8349 DISPOSABLE -0.3010
-4.8349 DISTANCE -0.3010
-4.8349 DISTINCT -0.3010
-4.8349 DISTINCTION -0.2961
-4.8349 DISTINGUISHING -0.3010
-4.8349 DISTRIBUTE -0.2827
-4.8349 DISTRIBUTIONS -0.2885
-4.8349 DISTRIBUTORS -0.2998
-4.8349 DISTRICT -0.2961
-4.8349 DITA -0.3010
-4.8349 DIVER -0.2885
-4.8349 DIVERS -0.3010
-4.8349 DIVING -0.2885
-4.3578 DIVISION -0.2857
-4.8349 DIVISIONS -0.2961
-4.8349 DIVORCE -0.3010
-4.8349 DIXVILLE -0.3010
-4.5339 DNA -0.3010
-2.6796 DO -0.2441
-4.8349 DO-RIGHT -0.2992
-4.8349 DOCTOR -0.2827
-4.8349 DOCTORATE -0.2975
-4.5339 DOCTORS -0.2827
-4.8349 DOCUMENT -0.2991
-4.8349 DOCUMENTARIES -0.2992
-4.8349 DODGERS -0.2827
-2.5701 DOES -0.2825
-4.8349 DOESN -0.3010
-3.6045 DOG -0.2597
-4.8349 DOGS -0.3008
-4.8349 DOGSLEDDING -0.2885
-4.3578 DOGTOWN -0.2975
-3.8807 DOING -0.2812
-4.0568 DOLLAR -0.2825
-4.8349 DOLPHINS -0.3008
-4.8349 DOMAIN -0.3010
-4.8349 DOMESTIC -0.3010
-4.8349 DOMESTICA -0.3010
-4.8349 DOMESTICATED -0.3010
-4.8349 DOMINICA -0.2998
-4.8349 DOMINOES -0.3000
-4.8349 DOMINOS -0.3010
-4.8349 DON -0.3010
-4.5339 DONATED -0.2872
-4.5339 DONE -0.2882
-4.8349 DONOR -0.2885
-4.8349 DONOVAN -0.3010
-4.8349 DOO -0.2885
-4.8349 DOODYVILLE -0.3010
-4.8349 DOOLING -0.3008
-4.8349 DOOM -0.3005
-4.3578 DOONESBURY -0.2695
-4.8349 DOOR -0.2995
-4.8349 DOOR-TO-DOOR -0.3010
-4.8349 DORIA -0.2885
-4.8349 DORITOS -0.2827
-4.8349 DORSETS -0.2998
-4.8349 DOSTOEVSKI -0.2992
-4.8349 DOTS -0.3009
-4.8349 DOUBLE -0.3010
-4.8349 DOUBLE-WORD-SCORE -0.3010
-4.8349 DOUBLESPEAK -0.3009
-4.8349 DOUGHBOYS -0.3000
-4.8349 DOW -0.3003
-4.2329 DOWN -0.2975
-4.8349 DOWNEY -0.3010
-4.8349 DOWNHILL -0.3010
-4.8349 DOWNLOAD -0.3010
-4.8349 DOXAT -0.2995
-4.8349 DOYLE -0.2885
-4.8349 DOZEN -0.3010
-4.8349 DR. -0.3010
-4.5339 DRACULA -0.2975
-4.8349 DRAFT -0.2961
-4.8349 DRAKE -0.2892
-4.8349 DRAMA -0.3009
-4.8349 DRAVIDIAN -0.3010
-4.8349 DRAW -0.2985
-4.8349 DRAWS -0.3010
-4.0568 DREAM -0.2832
-4.8349 DREAMED -0.3007
-4.8349 DRESSED -0.3010
-4.8349 DRILL -0.2885
-4.8349 DRILLS -0.2998
-3.8807 DRINK -0.2786
-4.8349 DRINKER -0.3010
-4.3578 DRIVE -0.2997
-4.8349 DRIVEN -0.2975
-4.8349 DRIVER'S -0.3010
-4.8349 DRIVING -0.3010
-4.8349 DROPPED -0.3010
-4.8349 DROPPING -0.3009
-4.8349 DROPS -0.3010
-4.3578 DRUG -0.2939
-4.3578 DRY -0.3010
-4.8349 DS -0.2827
-4.2329 DT -0.3009
-4.8349 DUBAI -0.3010
-4.2329 DUBBED -0.2881
-4.8349 DUCATS -0.3006
-4.8349 DUCK -0.2885
-4.8349 DUDLEY -0.3010
-4.8349 DUKE -0.2961
-4.8349 DUMAS -0.3009
-4.8349 DUMBO -0.2992
-4.8349 DUMMY -0.3010
-4.5339 DUMPTY -0.2849
-4.8349 DUNES -0.2885
-4.8349 DUNGRI -0.2998
-3.6045 DURING -0.2744
-4.8349 DWARF -0.2995
-4.8349 DWIGHT -0.3010
-4.8349 DX3000 -0.3005
-4.8349 DYCK -0.2998
-4.8349 DYE -0.3010
-4.8349 DYING -0.3006
-4.2329 E-MAIL -0.3009
-4.8349 E.G. -0.3009
-3.9898 EACH -0.2956
-4.5339 EAGLE -0.2807
-4.8349 EAGLES -0.2827
-4.8349 EAR -0.2885
-4.8349 EARLY -0.3010
-4.8349 EARN -0.2985
-4.8349 EARNED -0.3007
-4.8349 EARNS -0.3009
-4.5339 EARS -0.3003
-3.7210 EARTH -0.2670
-4.8349 EARTHWORMS -0.2992
-4.8349 EASIEST -0.3010
-4.8349 EASILY -0.3010
-4.2329 EAST -0.2999
-4.5339 EASTER -0.3010
-4.5339 EASY -0.3010
-4.0568 EAT -0.2849
-4.8349 EATEN -0.2885
-4.8349 ECHIDNA -0.3010
-4.8349 ECONOLINE -0.3010
-4.8349 ECONOMIC -0.3010
-4.8349 ECONOMISTS -0.3001
-4.3578 ECONOMY -0.2834
-4.8349 ED -0.3010
-4.8349 EDBERG -0.2992
-4.8349 EDGAR -0.3010
-4.8349 EDITH -0.3010
-4.8349 EDITION -0.2961
-4.8349 EDITOR -0.2961
-4.8349 EDMONTON -0.3009
-4.8349 EDMUND -0.3010
-4.8349 EDUARD -0.3010
-4.1360 EDUCATION -0.3000
-4.5339 EDWARD -0.3010
-4.8349 EDWIN -0.3010
-4.8349 EELS -0.3009
-4.8349 EENTY -0.3009
-4.5339 EFFECTS -0.2951
-4.5339 EFFICIENT -0.2975
-4.5339 EGG -0.2883
-4.3578 EGGS -0.2872
-4.8349 EGYPT -0.3010
-4.8349 EGYPTIANS -0.3010
-4.8349 EH -0.2885
-4.5339 EIFFEL -0.3010
-4.8349 EIGHT -0.3010
-4.8349 EINSTEIN -0.2992
-4.8349 EISENHOWER -0.2992
-4.8349 EITHER -0.3009
-4.8349 EJACULATE -0.2885
-4.8349 EJACULATION -0.2885
-4.1360 EL -0.3010
-4.8349 ELDEST -0.2961
-4.8349 ELECT -0.3009
-4.5339 ELECTED -0.2883
-4.3578 ELECTION -0.2642
-4.8349 ELECTORAL -0.3010
-4.2329 ELECTRIC -0.2884
-4.5339 ELECTRICITY -0.2873
-4.8349 ELECTRONICS -0.3009
-4.0568 ELEMENT -0.2838
-4.5339 ELEMENTARY -0.3009
-4.3578 ELEMENTS -0.2849
-4.8349 ELEPHANT -0.2885
-4.8349 ELEVATION -0.3008
-4.8349 ELEVATORS -0.3001
-4.3578 ELEVEN -0.2998
-4.8349 ELICIT -0.2892
-4.8349 ELIZABETH -0.3010
-4.8349 ELK -0.3010
-4.8349 ELLA -0.2885
-4.8349 ELM -0.3009
-4.8349 ELROY -0.3010
-4.5339 ELSE -0.3010
-4.8349 ELVIS -0.3010
-4.8349 ELYSIUM -0.3008
-4.3578 EMAIL -0.2997
-4.8349 EMBASSY -0.2885
-4.8349 EMBEDDED -0.2975
-4.8349 EMIL -0.3010
-4.8349 EMMA -0.3010
-4.8349 EMMIGRATE -0.3010
-4.3578 EMPEROR -0.2872
-4.3578 EMPIRE -0.3008
-4.5339 EMPLOY -0.2696
-4.8349 EMPLOYED -0.3010
-4.8349 EMPLOYEE -0.2961
-4.8349 EMPLOYER -0.2827
-4.8349 ENCLOSE -0.3010
-4.8349 ENCYCLOPEDIA -0.3010
-4.5339 END -0.2885
-4.8349 ENDED -0.3007
-4.8349 ENDS -0.3007
-4.8349 ENEMIES -0.2885
-4.8349 ENEMY -0.3010
-4.5339 ENERGY -0.2957
-4.5339 ENGAGED -0.2790
-4.0568 ENGINE -0.2655
-4.8349 ENGINEERING -0.2827
-4.5339 ENGINES -0.2993
-4.1360 ENGLAND -0.2884
-3.8349 ENGLISH -0.2881
-4.8349 ENLIST -0.3010
-4.8349 ENOLA -0.3010
-4.5339 ENOUGH -0.2942
-4.8349 ENTEBBE -0.3010
-4.3578 ENTER -0.2864
-4.8349 ENTERED -0.2892
-4.8349 ENTERPRISE -0.2995
-4.8349 ENTERS -0.2985
-3.0715 ENTY:ANIMAL -0.2886
-4.0568 ENTY:BODY -0.2770
-3.6308 ENTY:COLOR -0.2901
-2.9599 ENTY:CREMAT -0.2840
-3.2439 ENTY:DISMED -0.2897
-3.4036 ENTY:EVENT -0.2901
-3.3578 ENTY:FOOD -0.2877
-3.9898 ENTY:INSTRU -0.2901
-4.1360 ENTY:LANG -0.2891
-4.1360 ENTY:LETTER -0.2901
-2.9159 ENTY:OTHER -0.2808
-3.9898 ENTY:PLANT -0.2901
-3.6045 ENTY:PRODUCT -0.2886
-4.8349 ENTY:RELIGION -0.2975
-3.4925 ENTY:SPORT -0.2865
-3.6045 ENTY:SUBSTANCE -0.2901
-4.2329 ENTY:SYMBOL -0.2901
-3.6045 ENTY:TECHMETH -0.2891
-3.2909 ENTY:TERMEQ -0.2873
-3.9898 ENTY:VEH -0.2891
-3.9318 ENTY:WORD -0.2901
-4.8349 ENVIRONMENT -0.2885
-4.8349 ENZYMES -0.2885
-4.8349 EPIC -0.3010
-4.3578 EPISODE -0.2960
-4.5339 EPISODES -0.2814
-4.8349 EPSILON -0.2827
-4.5339 EQUAL -0.2985
-4.8349 EQUALS -0.3007
-4.8349 EQUATOR -0.3008
-4.8349 EQUINOX -0.2885
-4.8349 EQUIPMENT -0.3006
-4.8349 EQUITY -0.3010
-4.8349 EQUIVALENCE -0.3010
-4.3578 EQUIVALENT -0.2982
-4.8349 ERA -0.2885
-4.8349 ERECTED -0.2885
-4.8349 ERIKSEN -0.2885
-4.8349 ERMAL -0.3010
-4.8349 ERUPT -0.2827
-4.5339 ERUPTION -0.2834
-4.8349 ESKIMO -0.3008
-4.8349 ESPIONAGE -0.3000
-4.8349 ESTABLISH -0.3010
-4.5339 ESTABLISHED -0.2800
-4.8349 ESTATE -0.3001
-4.5339 ETC. -0.2998
-4.5339 ETERNITY -0.2885
-4.8349 ETHEL -0.3010
-4.8349 ETHNIC -0.3010
-4.8349 ETHOLOGY -0.2885
-4.8349 ETTA -0.3009
-4.8349 EUCHRE -0.2885
-4.8349 EUNICE -0.2885
-4.8349 EURO -0.3009
-4.3578 EUROPE -0.2872
-3.8807 EUROPEAN -0.2987
-4.8349 EUROS -0.2827
-4.8349 EVAPORATE -0.2885
-4.5339 EVENING -0.3010
-3.6588 EVENT -0.2637
-4.0568 EVENTS -0.2732
-4.1360 EVER -0.2883
-4.5339 EVEREST -0.2802
-4.8349 EVERY -0.3010
-4.8349 EVERYTHING -0.2958
-4.8349 EVIDENCE -0.2998
-4.8349 EXAMPLE -0.2961
-4.5339 EXAMPLES -0.2961
-4.8349 EXCHANGE -0.3010
-4.8349 EXCLUDED -0.3006
-4.8349 EXCLUSIVE -0.3010
-4.8349 EXCUSE -0.2991
-4.3578 EXECUTED -0.2958
-4.8349 EXECUTION -0.2885
-4.8349 EXECUTOR -0.2975
-4.3578 EXHIBIT -0.2981
-4.8349 EXHIBITED -0.2827
-4.5339 EXHIBITIONS -0.3000
-4.5339 EXHIBITS -0.2987
-4.5339 EXIST -0.2966
-4.8349 EXPANSION -0.3010
-4.8349 EXPECTANCY -0.3009
-4.5339 EXPECTANT -0.3010
-4.8349 EXPELLED -0.3006
-4.8349 EXPENSIVE -0.3010
-4.8349 EXPERIENCED -0.2892
-4.8349 EXPERIMENTING -0.3007
-4.5339 EXPLORER -0.2974
-4.8349 EXPLORERS -0.3010
-4.8349 EXPLORING -0.3007
-4.8349 EXPLOSIVE -0.3001
-4.3578 EXPORT -0.2885
-4.3578 EXPRESSION -0.2988
-4.8349 EXTANT -0.3010
-4.8349 EXTENDED -0.3010
-4.8349 EXTENSION -0.3010
-4.8349 EXTENSIONS -0.2992
-4.8349 EXTERMINATE -0.3010
-4.8349 EXTINCT -0.3007
-4.5339 EYE -0.3008
-4.8349 EYEBROWS -0.2885
-4.2329 EYES -0.2665
-4.8349 EZRA -0.3010
-4.3578 F -0.3010
-4.8349 F-5 -0.3010
-3.9318 F. -0.3010
-4.8349 F.C. -0.3006
-4.8349 F25 -0.3010
-4.8349 FA -0.3010
-4.8349 FABER -0.3010
-4.5339 FACE -0.2976
-4.8349 FACED -0.2885
-4.8349 FACES -0.2961
-4.5339 FACIAL -0.3010
-4.8349 FACILITIES -0.3006
-4.5339 FACILITY -0.2826
-4.2329 FACT -0.3001
-4.8349 FACTS -0.2998
-4.8349 FADE -0.3010
-4.8349 FAILURE -0.3010
-4.8349 FAIRGROUND -0.3010
-4.8349 FAITH -0.2998
-4.8349 FALKLANDS -0.2885
-4.8349 FALLINGWATER -0.2827
-4.8349 FALLS -0.2827
-4.8349 FALWELL -0.2885
-4.0568 FAME -0.2629
-4.3578 FAMED -0.3009
-4.2329 FAMILY -0.2827
-4.8349 FAMINE -0.2885
-3.6588 FAMOUS -0.2958
-4.5339 FANS -0.2884
-4.5339 FANTASTIC -0.3010
-4.8349 FANTASY -0.3009
-4.2329 FAR -0.2939
-4.5339 FARE -0.3006
-4.5339 FARGO -0.2991
-4.8349 FASCINATED -0.3007
-4.8349 FASO -0.2885
-4.0568 FAST -0.2936
-4.8349 FASTENER -0.2991
-4.8349 FASTER -0.2885
-3.9898 FASTEST -0.2847
-4.8349 FAT -0.2885
-4.5339 FATAL -0.2993
-4.3578 FATHER -0.2832
-4.8349 FATHOM -0.2885
-4.8349 FATIGUE -0.2985
-4.8349 FATS -0.2998
-3.3725 FAVORITE -0.2995
-4.8349 FAWLTY -0.3010
-4.8349 FAX -0.2998
-4.8349 FCC -0.3010
-4.8349 FE -0.3010
-3.4547 FEAR -0.2834
-4.8349 FEATHERED -0.3010
-4.8349 FEATURE -0.3010
-4.5339 FEATURED -0.2892
-4.1360 FEATURES -0.2891
-4.8349 FEBRUARY -0.3010
-4.3578 FEDERAL -0.3010
-4.8349 FEDOR -0.3010
-4.0568 FEET -0.2755
-4.5339 FEIN -0.2866
-4.8349 FELICITY -0.3000
-4.8349 FELT -0.3009
-4.1360 FEMALE -0.3009
-4.8349 FENCES -0.3009
-4.8349 FERDINAND -0.3010
-4.8349 FERGIE -0.3009
-4.8349 FERRARI -0.3010
-4.8349 FESTIVAL -0.2975
-4.8349 FEUD -0.3010
-4.8349 FEUDAL -0.3010
-4.8349 FEVER -0.2885
-4.8349 FEYNMAN -0.3010
-4.8349 FIBROSIS -0.2885
-4.5339 FICTION -0.3010
-4.3578 FICTIONAL -0.3009
-4.8349 FIDELIS -0.3000
-4.8349 FIEDLER -0.2992
-4.3578 FIELD -0.2884
-4.5339 FIFA -0.3006
-4.1360 FIFTH -0.3009
-4.8349 FIGHT -0.2995
-4.8349 FIGHTER -0.2827
-4.8349 FIGURE -0.2885
-4.8349 FIGURES -0.2827
-4.5339 FILE -0.3006
-4.8349 FILES -0.3006
-4.8349 FILLING -0.2975
-4.8349 FILLION -0.3010
-3.3878 FILM -0.2549
-4.8349 FILMMAKERS -0.3010
-4.1360 FILMS -0.2851
-4.8349 FILTHIEST -0.3007
-4.1360 FINAL -0.2826
-3.2221 FIND -0.2824
-4.8349 FINDS -0.2892
-4.8349 FINED -0.2998
-4.5339 FINGERS -0.2992
-4.3578 FINISH -0.2825
-4.8349 FINNISH -0.3010
-3.8807 FIRE -0.2847
-4.8349 FIRED -0.3010
-4.8349 FIREFLY -0.2827
-4.8349 FIREMEN -0.2885
-4.8349 FIREPLACE -0.2885
-4.8349 FIRES -0.2985
-4.8349 FIREWALL -0.2885
-4.5339 FIRM -0.3006
-2.7819 FIRST -0.2919
-4.8349 FISCHER -0.3010
-4.3578 FISH -0.2968
-4.8349 FIT -0.2827
-3.9898 FIVE -0.2880
-4.8349 FIVE-TEAM -0.3010
-4.8349 FIVEPIN -0.3010
-4.8349 FIXED -0.2975
-4.1360 FLAG -0.2797
-4.3578 FLAGS -0.2883
-4.8349 FLAME -0.3010
-4.8349 FLATFISH -0.3010
-4.8349 FLAVOR -0.2885
-4.8349 FLEECE -0.2827
-4.8349 FLEET -0.3010
-4.8349 FLEMING -0.3010
-4.8349 FLICKR -0.2827
-4.8349 FLIES -0.2975
-4.2329 FLIGHT -0.2885
-4.8349 FLIGHTS -0.2885
-4.8349 FLINTKNAPPING -0.3000
-4.5339 FLINTSTONES -0.2998
-4.8349 FLOAT -0.3010
-4.8349 FLOG -0.3001
-4.8349 FLOODS -0.2885
-4.3578 FLOOR -0.2833
-4.8349 FLOORS -0.2999
-4.5339 FLORENCE -0.2885
-4.8349 FLOURISH -0.2885
-4.8349 FLOW -0.3009
-4.8349 FLOWER -0.2991
-4.8349 FLOWERS -0.2999
-4.8349 FLOWN -0.2827
-4.8349 FLOYD -0.3010
-4.8349 FLUORINE -0.2998
-4.8349 FLUSH -0.3010
-4.2329 FLY -0.2839
-4.8349 FOCUS -0.2961
-4.8349 FODOR -0.2992
-4.8349 FOGS -0.2885
-4.5339 FOLIC -0.3010
-4.8349 FOLK -0.3010
-4.8349 FOLKLORE -0.3010
-4.8349 FOLLOW -0.2885
-4.8349 FOLLOW-UP -0.2995
-4.2329 FOLLOWED -0.2887
-4.1360 FOLLOWING -0.2866
-4.8349 FONDNESS -0.2998
-4.0568 FOOD -0.2868
-4.8349 FOOLS -0.2827
-4.3578 FOOTBALL -0.3008
-4.8349 FOOTWEAR -0.2992
-2.5339 FOR -0.2242
-4.8349 FORCE -0.2975
-4.8349 FORCED -0.2995
-4.5339 FORCES -0.2975
-3.9898 FORD -0.2985
-4.8349 FOREHAND -0.2885
-4.3578 FOREST -0.2885
-3.7935 FORM -0.2642
-4.8349 FORMAT -0.2986
-4.3578 FORMATIONS -0.2988
-4.8349 FORMATS -0.3010
-4.3578 FORMED -0.2974
-4.2329 FORMER -0.2996
-4.8349 FORMS -0.2999
-4.8349 FORMULA -0.2998
-4.8349 FORT -0.3010
-4.3578 FORTUNE -0.2872
-4.8349 FORUNE -0.3010
-4.8349 FOSSILIZES -0.2995
-4.8349 FOSSILS -0.3009
-4.8349 FOSTER -0.2885
-4.1360 FOUGHT -0.2834
-4.8349 FOUL -0.3010
-3.9318 FOUND -0.2638
-3.5797 FOUNDED -0.2564
-4.5339 FOUNDER -0.2948
-4.8349 FOUNDERS -0.2961
-4.8349 FOUNDING -0.3010
-3.7935 FOUR -0.2975
-4.8349 FOUR-HANDED -0.3009
-4.8349 FOUR-LEGGED -0.3010
-4.8349 FOUR-SIDED -0.3010
-4.8349 FOURNIE -0.3010
-4.8349 FOURTEENTH -0.3010
-4.5339 FOURTH -0.2884
-4.8349 FOWL -0.3010
-4.3578 FOX -0.2849
-4.8349 FOXES -0.3010
-4.8349 FRACTION -0.2961
-4.3578 FRANCE -0.2884
-4.8349 FRANCESCO -0.3010
-4.3578 FRANCISCO -0.2826
-4.3578 FRANK -0.3010
-4.8349 FRANKIE -0.2975
-4.8349 FRANKLIN -0.3010
-4.8349 FRAY -0.3010
-4.5339 FRAZE -0.3008
-4.8349 FRAZIER -0.3010
-4.5339 FRED -0.3010
-4.8349 FREDDIE -0.3010
-4.8349 FREDERICK -0.3005
-4.2329 FREE -0.2885
-4.3578 FREEBASE -0.2827
-4.8349 FREEDOM -0.3010
-4.8349 FREEZING -0.3010
-4.8349 FREIDREICH -0.3010
-3.8807 FRENCH -0.2883
-4.8349 FREQUENCY -0.2961
-4.8349 FREQUENT -0.3010
-4.8349 FRESH -0.3000
-4.8349 FREUD -0.3010
-4.8349 FRIDA -0.3010
-4.3578 FRIEND -0.2825
-4.8349 FRITO-LAY -0.2885
-4.8349 FROGS -0.2885
-2.9657 FROM -0.2472
-4.8349 FRONT -0.2885
-4.8349 FRONTIER -0.3010
-4.8349 FROZEN -0.2885
-4.8349 FRUIT -0.2998
-4.8349 FRUIT-TOPPED -0.3010
-4.8349 FRUSTRATED -0.3010
-4.8349 FRY -0.2827
-3.9898 FUEL -0.2989
-4.8349 FUJI -0.3009
-4.8349 FULHAM -0.3010
-4.1360 FULL -0.2949
-4.2329 FUNCTION -0.2949
-4.8349 FUND -0.2998
-4.5339 FUNGAL -0.3010
-4.8349 FUNK -0.3010
-4.8349 FUR -0.2885
-4.5339 FURIOUS -0.2827
-4.8349 FURTH -0.2998
-4.8349 FUSION -0.3000
-4.5339 FUTURE -0.3008
-4.8349 G -0.2885
-4.8349 G. -0.3010
-4.8349 G.H. -0.3010
-4.8349 G.M.T. -0.3009
-4.8349 G2 -0.3010
-4.8349 GAELIC -0.3010
-4.8349 GAIN -0.3010
-4.8349 GAINED -0.3010
-4.8349 GAJA -0.2998
-4.8349 GALAPAGOS -0.3010
-4.8349 GALILEO -0.3010
-4.8349 GALL -0.3010
-4.8349 GALLERY -0.2975
-4.5339 GALLON -0.2960
-4.3578 GAMBLE -0.2884
-4.8349 GAMBLER -0.2885
-3.4200 GAME -0.2494
-3.8349 GAMES -0.2804
-4.8349 GAMING -0.3010
-4.8349 GANDHI -0.2885
-4.5339 GANG -0.2883
-4.8349 GAP, -0.3010
-4.8349 GARCIA -0.3010
-4.8349 GARDEN -0.2961
-4.8349 GARFIELD -0.3000
-4.8349 GARLAND -0.3009
-4.5339 GARRY -0.3010
-4.5339 GARTER -0.2986
-4.8349 GARTH -0.3010
-4.3578 GAS -0.3009
-4.2329 GATE -0.3010
-4.5339 GATES -0.2958
-4.8349 GATO -0.3010
-4.8349 GATORADE -0.2992
-4.8349 GATSBY -0.2885
-4.8349 GAULLE -0.3010
-4.5339 GAVE -0.3007
-4.3578 GAY -0.2994
-4.8349 GAZA -0.3010
-4.8349 GE -0.3009
-4.5339 GEESE -0.2885
-4.8349 GEHRIG -0.3005
-4.8349 GENDER -0.3006
-4.8349 GENE -0.3010
-4.0568 GENERAL -0.2833
-4.8349 GENERALS -0.3008
-4.2329 GENERATION -0.2960
-4.8349 GENERATIONS -0.2961
-4.8349 GENERATOR -0.2998
-4.8349 GENESIS -0.3010
-4.1360 GENRE -0.2700
-4.3578 GENRES -0.2795
-4.2329 GEORGE -0.3010
-4.8349 GEORGETOWN -0.3000
-4.5339 GEORGIA -0.2869
-4.5339 GERALD -0.3010
-4.3578 GERMAN -0.2821
-4.1360 GERMANY -0.2885
-4.8349 GESTAPO -0.2885
-4.8349 GESTATION -0.2885
-4.8349 GESTURE -0.3008
-3.2786 GET -0.2654
-4.3578 GETTING -0.3010
-4.5339 GETTYSBURG -0.2884
-4.8349 GIANT -0.3010
-4.8349 GIANTS -0.3010
-4.8349 GIBSON -0.2992
-4.8349 GILLETTE -0.2885
-4.8349 GILLIGAN_S -0.3010
-4.8349 GINA -0.3008
-4.8349 GIRAFFE -0.2885
-4.8349 GIRARDI -0.3010
-4.2329 GIRL -0.2865
-4.8349 GIRLFRIEND -0.2885
-4.5339 GIRLS -0.2885
-4.1360 GIVE -0.2956
-4.8349 GIVEN -0.3008
-4.3578 GIVES -0.2999
-4.5339 GIVING -0.3010
-4.8349 GLACIER -0.2885
-4.8349 GLAND -0.2975
-4.0568 GLASS -0.2945
-4.8349 GLEN -0.3010
-4.5339 GLITTERS -0.2955
-4.8349 GLOBAL -0.3010
-4.8349 GLOBE -0.3010
-4.8349 GLORY -0.3007
-4.8349 GLOSTER -0.3010
-4.8349 GLOVE -0.2885
-4.8349 GLOWSTICKS -0.2885
-4.8349 GLS -0.3010
-4.8349 GLUTAMINE -0.2827
-4.8349 GM -0.3009
-3.7557 GO -0.2854
-4.8349 GOAL -0.2885
-4.8349 GOALIE -0.3009
-4.8349 GOALKEEPERS -0.2827
-4.8349 GOAT -0.3010
-4.8349 GOBLET -0.2961
-4.2329 GOD -0.2685
-4.8349 GOD-SULLEN -0.2998
-4.8349 GODDAMN -0.3010
-4.5339 GODDESS -0.2885
-4.8349 GODIVA -0.3010
-4.8349 GODS -0.3010
-4.8349 GOERING -0.2885
-4.5339 GOGH -0.2975
-4.1360 GOING -0.2984
-3.9318 GOLD -0.2814
-4.0568 GOLDEN -0.3010
-4.8349 GOLDFUS -0.2885
-4.8349 GOLDIE -0.3010
-4.1360 GOLF -0.3009
-4.3578 GOLFER -0.2990
-4.8349 GOLFERS -0.3010
-4.8349 GOLFING -0.3010
-4.5339 GONE -0.2995
-3.8807 GOOD -0.2993
-4.5339 GOODALL -0.2883
-4.8349 GOODNIGHT -0.2998
-4.8349 GOOGLE -0.3010
-4.8349 GOPHER -0.3010
-4.5339 GORE -0.2980
-4.5339 GOT -0.2890
-4.5339 GOTHAM -0.2879
-4.8349 GOTTEN -0.3007
-4.2329 GOULD -0.2993
-4.8349 GOVERNED -0.3006
-4.3578 GOVERNMENT -0.2973
-4.8349 GOVERNMENTAL -0.3010
-4.3578 GOVERNOR -0.2960
-4.8349 GRABS -0.2892
-4.8349 GRACED -0.2892
-4.5339 GRACES -0.2892
-4.2329 GRADE -0.2827
-4.8349 GRADER -0.2885
-4.8349 GRADERS -0.3010
-4.8349 GRADUAL -0.3010
-4.8349 GRADUATE -0.3009
-4.8349 GRADUATED -0.3006
-4.8349 GRAEME -0.3010
-4.8349 GRAM -0.2885
-4.5339 GRAMMY -0.3009
-4.8349 GRAMMYS -0.2991
-4.5339 GRAND -0.3010
-4.8349 GRANDEUR -0.3007
-4.8349 GRANDFATHER'S -0.3010
-4.8349 GRANDFATHER’S -0.3010
-4.8349 GRANDMOTHER -0.3009
-4.5339 GRANDMOTHER'S -0.3009
-4.8349 GRANT -0.3001
-4.8349 GRANTED -0.3010
-4.8349 GRAPES -0.2961
-4.8349 GRAPHIC -0.3010
-4.8349 GRASS -0.3010
-4.8349 GRAVITY -0.2885
-4.8349 GRAY -0.2998
-3.9898 GREAT -0.3009
-4.3578 GREATEST -0.3009
-4.8349 GREECE -0.2998
-4.2329 GREEK -0.3010
-4.2329 GREEN -0.2884
-4.8349 GREENLAND -0.3008
-4.8349 GRENADA -0.2992
-4.8349 GREW -0.3010
-4.8349 GRIMES -0.2998
-4.8349 GRINGO -0.3008
-4.8349 GROHL -0.2992
-4.8349 GROPIUS' -0.3010
-4.3578 GROSS -0.2992
-4.8349 GROUND -0.3006
-3.8807 GROUP -0.2770
-4.8349 GROUPS -0.3010
-4.8349 GROVER -0.3010
-4.5339 GROW -0.2891
-4.5339 GROWING -0.3008
-4.5339 GROWTH -0.2975
-4.8349 GRUTA -0.3010
-4.5339 GSUSA -0.2826
-4.8349 GUAM -0.2885
-4.8349 GUARANTEE -0.3007
-4.5339 GUARDIAN -0.3003
-4.8349 GUERNSEY -0.2998
-4.8349 GUIDEBOOKS -0.2992
-4.8349 GUILD -0.2885
-4.5339 GUINEA -0.2885
-4.5339 GUITAR -0.2991
-4.5339 GUITARIST -0.2834
-4.8349 GULF -0.2885
-4.8349 GULL -0.3009
-4.8349 GUMMED -0.3010
-4.5339 GUNPOWDER -0.3010
-4.8349 GUSTAV -0.3010
-4.8349 GUTENBERG -0.3010
-4.8349 GUYS -0.3005
-4.8349 GYMNAST -0.3010
-4.8349 GYMNOPHOBIA -0.2885
-4.8349 H&R -0.3010
-4.8349 HACKERS -0.3008
-3.5797 HAD -0.2612
-4.8349 HAIL -0.2985
-4.0568 HAIR -0.2883
-4.8349 HAIRS -0.2885
-4.8349 HAJO -0.2885
-4.8349 HALF-LIFE -0.2961
-4.1360 HALL -0.2934
-4.8349 HALLOWEEN -0.2992
-4.8349 HALO: -0.3010
-4.8349 HALPER -0.3005
-4.8349 HAMBLEN -0.3010
-4.8349 HAMBURGERS -0.3010
-4.8349 HAMILL -0.2992
-4.8349 HAMMER -0.3010
-4.8349 HANA -0.3010
-4.5339 HAND -0.2881
-4.5339 HANDHELD -0.3010
-4.8349 HANDICRAFT -0.3010
-4.8349 HANDLE -0.2892
-4.2329 HANDS -0.2985
-4.8349 HANK -0.3010
-4.5339 HAPPEN -0.2875
-3.8807 HAPPENED -0.2949
-4.8349 HAPPY -0.2885
-4.3578 HARBOR -0.2885
-4.8349 HARD -0.3010
-4.8349 HARD-OF -0.3010
-4.8349 HARDEST -0.3010
-4.8349 HARDIN -0.3010
-4.8349 HARDWARE -0.3010
-4.8349 HARLOW -0.2975
-4.8349 HARNESS -0.2975
-4.8349 HARRIET -0.3010
-4.5339 HARRISON -0.2866
-4.2329 HARRY -0.2826
-4.8349 HARVEY -0.3010
-2.9716 HAS -0.2840
-4.5339 HASS -0.3009
-4.8349 HASTINGS -0.2885
-4.3578 HAT -0.2872
-4.5339 HATE -0.2991
-4.8349 HATS -0.2827
-4.5339 HAUNTED -0.3010
-2.9106 HAVE -0.2435
-4.8349 HAVING -0.2985
-4.8349 HAVLICEK -0.2985
-4.8349 HAVOC -0.3007
-4.8349 HAWAIIAN -0.3010
-4.8349 HAWK -0.2827
-4.8349 HAWKER -0.3010
-4.8349 HAWKS -0.2885
-4.8349 HAWN -0.2992
-4.3578 HAYDEN -0.3009
-4.8349 HAYDN -0.2827
-4.8349 HAYWORTH -0.2885
-4.8349 HAZMAT -0.3010
-3.7210 HE -0.2943
-4.0568 HEAD -0.3006
-4.8349 HEADED -0.3010
-4.5339 HEADQUARTERED -0.2790
-4.1360 HEADQUARTERS -0.2639
-4.8349 HEALTHY -0.3010
-4.8349 HEARD -0.3008
-4.3578 HEARING -0.3000
-4.3578 HEARST -0.2763
-4.5339 HEART -0.3010
-4.8349 HEARTS -0.2999
-4.8349 HEAT-SEEKING -0.3010
-4.8349 HEATHROW -0.3010
-4.8349 HEATING -0.3010
-4.8349 HEAVEN -0.2885
-4.8349 HEAVIER -0.3010
-4.5339 HEAVILY -0.3010
-4.8349 HEAVY -0.3010
-4.8349 HEAVYWEIGHT -0.3010
-4.8349 HEBEPHRENIA -0.2885
-4.8349 HEDGEHOG -0.3005
-4.8349 HEIGHT -0.3010
-4.8349 HEIR -0.2958
-4.2329 HELD -0.2703
-4.8349 HELEN -0.3009
-4.8349 HELIUM -0.3003
-4.8349 HELL -0.2885
-4.8349 HEMATOMA -0.2885
-4.8349 HEMISPHERE -0.2885
-4.8349 HEN -0.2995
-4.8349 HENCE -0.3009
-4.8349 HENDECASYLLABIC -0.3010
-4.8349 HENDRIX -0.3008
-4.2329 HENRY -0.3010
-4.8349 HEPBURN -0.3005
-4.8349 HEPCATS -0.3010
-3.8349 HER -0.3001
-4.8349 HERALD -0.3003
-4.8349 HERB -0.2998
-4.5339 HERE -0.2995
-4.8349 HERETIC -0.3010
-4.8349 HERITAGE -0.3010
-4.5339 HERM -0.2696
-4.5339 HERMANN -0.3010
-4.8349 HERMITAGE -0.3010
-4.8349 HERMITS -0.2885
-4.2329 HERO -0.2685
-4.8349 HERO: -0.3010
-4.8349 HERRESHOFF -0.3010
-4.8349 HESSE -0.3009
-4.8349 HEY -0.3010
-4.8349 HIBERNIA -0.2885
-4.8349 HICCUP -0.3010
-4.8349 HIDING -0.3010
-4.8349 HIGGINS -0.3010
-3.8807 HIGH -0.2956
-4.8349 HIGH-RISK -0.3010
-3.6888 HIGHEST -0.3008
-4.1360 HIGHWAY -0.3008
-4.8349 HIJACKED -0.2975
-4.5339 HILLARY -0.3009
-4.8349 HILLS -0.2998
-4.8349 HIM -0.3010
-4.2329 HIMSELF -0.2726
-4.8349 HINCKLEY -0.3001
-4.8349 HINDUISM -0.2827
-4.8349 HIROHITO -0.3009
-4.8349 HIRSCH -0.2992
-3.3436 HIS -0.2986
-4.2329 HISTORICAL -0.3008
-3.8807 HISTORY -0.2820
-4.3578 HIT -0.2983
-4.1360 HITLER -0.2989
-4.8349 HITS -0.2892
-4.5339 HITTING -0.2890
-4.8349 HIV -0.2885
-4.8349 HIVES -0.3001
-4.8349 HOBBIT -0.3010
-4.8349 HOBBY -0.2827
-4.5339 HOCKEY -0.3010
-4.5339 HOLD -0.2883
-4.8349 HOLDS -0.2985
-4.5339 HOLE -0.2875
-4.5339 HOLES -0.2980
-4.8349 HOLIDAY -0.3010
-4.8349 HOLIDAYS -0.2992
-4.3578 HOLLYWOOD -0.3009
-4.8349 HOLMES -0.3008
-4.8349 HOLSTRUM -0.2998
-4.3578 HOLY -0.3010
-3.5797 HOME -0.2622
-4.8349 HOMELITE -0.3010
-4.8349 HOMER -0.2992
-4.8349 HOMES -0.2885
-4.5339 HOMETOWN -0.2826
-4.5339 HONDA -0.3010
-4.8349 HONECKER -0.3010
-4.8349 HONEY -0.2986
-4.8349 HONEYMOON -0.2827
-4.8349 HONEYMOONERS -0.3010
-4.5339 HONOR -0.3005
-4.5339 HONORARY -0.3010
-4.8349 HOOK -0.3010
-4.8349 HOOLIGANS -0.2885
-4.8349 HOOTERS -0.3000
-4.8349 HOPKINS -0.3008
-3.7935 HORSE -0.2654
-4.8349 HORSEPOWER -0.2961
-4.5339 HORSES -0.2884
-4.8349 HORSESHOES -0.3010
-4.3578 HOSPITAL -0.2985
-4.8349 HOSPITALS -0.3010
-4.1360 HOST -0.2642
-4.8349 HOSTAGES -0.3006
-4.5339 HOSTED -0.2892
-4.8349 HOSTS -0.2961
-4.8349 HOT-RODDER -0.2885
-4.8349 HOTEL -0.3010
-4.8349 HOUDINI -0.2992
-4.8349 HOUND -0.2961
-4.8349 HOURLY -0.3010
-4.8349 HOURS -0.2885
-3.9898 HOUSE -0.2817
-4.8349 HOUSEHOLD -0.3010
-4.8349 HOUSEPLANTS -0.3010
-4.5339 HOUSES -0.2891
-4.8349 HOUSEWIFE -0.3010
-2.2076 HOW -0.2837
-4.8349 HOYA -0.3000
-4.5339 HUB -0.2948
-4.8349 HUBBLE -0.3009
-4.8349 HUDSON -0.3010
-4.8349 HUGH -0.3010
-4.5339 HUGO -0.2884
-4.5339 HULK -0.2988
-4.8349 HULL -0.3009
-3.5797 HUM:DESC -0.2989
-2.9837 HUM:GR -0.2694
-2.2996 HUM:IND -0.2854
-3.8349 HUM:TITLE -0.2891
-4.3578 HUMAN -0.3010
-4.5339 HUMANS -0.2999
-4.8349 HUMBERT -0.2975
-4.8349 HUMPHREY -0.3010
-4.8349 HUMPS -0.2885
-4.5339 HUMPTY -0.3010
-4.8349 HUNTER -0.2961
-4.8349 HUNTING -0.2992
-4.0568 HURRICANE -0.3009
-4.5339 HUSBAND -0.2885
-4.8349 HUSSAIN -0.3010
-4.8349 HUXLEY -0.3009
-4.8349 HYATT -0.3001
-4.8349 HYBRID -0.2827
-4.5339 HYDROGEN -0.3010
-4.8349 HYENAS -0.3009
-4.8349 HYPERLINK -0.2885
-4.8349 HYUNDAI -0.3010
-2.8807 I -0.2886
-4.8349 IAN -0.3010
-4.8349 IBERIA -0.2992
-4.8349 IBM -0.3009
-4.5339 IBM-COMPATIBLE -0.3010
-4.3578 ICE -0.2885
-4.8349 ICEMAN -0.3001
-4.8349 ID -0.2827
-4.8349 IDEA -0.2961
-4.8349 IDIOT -0.3000
-3.9898 IF -0.2965
-4.8349 IGNEOUS -0.3010
-4.8349 IGUANA -0.2885
-3.9898 II -0.2694
-4.5339 III -0.2975
-4.8349 ILEANA -0.3010
-4.5339 ILLINOIS -0.2810
-4.8349 ILLUMINATED -0.3009
-4.5339 ILLUSTRATED -0.3006
-4.5339 IMAGE -0.2827
-4.8349 IMAGINARY -0.3010
-4.8349 IMAM -0.3010
-4.8349 IMMACULATE -0.3010
-4.8349 IMMORTAL -0.3009
-4.8349 IMMORTALS -0.3000
-4.8349 IMPACT -0.2961
-4.8349 IMPORT -0.2998
-4.8349 IMPORTANT -0.3010
-4.8349 IMPORTER -0.2961
-4.8349 IMPRESS -0.3010
-2.0961 IN -0.2238
-4.8349 INAUGURATION -0.3007
-4.3578 INC. -0.2825
-4.5339 INCH -0.2960
-4.8349 INCHES -0.3010
-4.5339 INCLUDE -0.3010
-4.8349 INCLUDED -0.3010
-4.8349 INCLUDES -0.2892
-4.8349 INCLUDING -0.3009
-4.1360 INCOME -0.2764
-4.8349 INCOMPETENT -0.2885
-4.8349 INCORPORATE -0.2892
-4.5339 INCREASE -0.2891
-4.5339 INCREDIBLE -0.3010
-4.2329 INDEPENDENCE -0.2997
-4.3578 INDIA -0.2885
-3.9898 INDIAN -0.3007
-4.1360 INDIANS -0.2870
-4.8349 INDIES -0.2998
-4.5339 INDIVIDUALS -0.3007
-4.8349 INDONESIAN -0.3010
-4.3578 INDUCTED -0.3009
-4.8349 INDUSTRIALIZED -0.3009
-4.8349 INDUSTRIES -0.2999
-4.5339 INDUSTRY -0.2822
-4.8349 INESCAPABLE -0.3010
-4.5339 INFAMOUS -0.3010
-4.8349 INFANT -0.3010
-4.3578 INFECTION -0.2831
-4.8349 INFECTIOUS -0.3010
-4.8349 INFLUENCE -0.2827
-4.2329 INFLUENCED -0.3007
-3.6888 INFORMATION -0.2922
-4.8349 INGREDIENTS -0.2992
-4.8349 INHABIT -0.3009
-4.8349 INJECTION -0.2885
-4.8349 INJECTORS -0.3010
-4.8349 INJURY -0.3010
-4.8349 INNINGS -0.2992
-4.8349 INNOCENT -0.2885
-4.8349 INOPERATIVE -0.3010
-4.8349 INRI -0.3009
-4.3578 INSIDE -0.2834
-4.8349 INSPECTOR -0.3010
-4.8349 INSPIRATION -0.2998
-4.3578 INSPIRED -0.2888
-4.8349 INSTALL -0.2985
-4.8349 INSTANT -0.3010
-4.8349 INSTEAD -0.2961
-4.8349 INSTITUTE -0.2961
-4.8349 INSTITUTIONS -0.2986
-3.9318 INSTRUMENT -0.2759
-4.5339 INSURANCE -0.3010
-4.8349 INSURED -0.2998
-4.8349 INTAKE -0.2961
-4.8349 INTELLIGENCE -0.2885
-4.3578 INTERCOURSE -0.2873
-4.8349 INTERESTING -0.3010
-4.8349 INTERLACE -0.3003
-4.8349 INTERNAL -0.3010
-3.9318 INTERNATIONAL -0.2998
-3.8349 INTERNET -0.2879
-4.8349 INTERRUPTED -0.3007
-4.8349 INTERSTATE -0.3010
-4.8349 INTESTINE -0.2885
-4.8349 INTESTINES -0.2885
-3.6588 INTO -0.2696
-4.8349 INTRACTABLE -0.3010
-4.8349 INTRODUCE -0.3010
-3.7557 INTRODUCED -0.2647
-4.8349 INUIT -0.2998
-4.8349 INVADE -0.3010
-4.3578 INVENT -0.2849
-3.6588 INVENTED -0.2758
-4.5339 INVENTOR -0.2961
-4.8349 INVERTIGO -0.3010
-4.8349 INVESTIGATION -0.2885
-4.8349 INVISIBLE -0.3009
-4.8349 INVOLVED -0.2975
-4.8349 INVOLVES -0.2892
-4.8349 IOC -0.3007
-4.8349 IOWA -0.2827
-4.8349 IP -0.3010
-4.8349 IPANEMA -0.2885
-4.5339 IPHONE -0.2827
-4.8349 IPOD -0.2992
-4.5339 IQ -0.2885
-4.8349 IRAQI -0.3010
-4.8349 IRAQIS -0.3010
-4.8349 IRATE -0.3009
-4.5339 IRELAND -0.2885
-4.3578 IRISH -0.3010
-4.8349 IRKUTSK -0.2998
-4.3578 IRON -0.3009
-1.9238 IS -0.2559
-4.8349 ISIS -0.2892
-4.8349 ISLAM -0.2827
-4.8349 ISLAMIC -0.3010
-3.8807 ISLAND -0.2787
-4.2329 ISLANDS -0.2865
-4.8349 ISLE -0.2961
-4.8349 ISOLDE -0.2827
-4.8349 ISOSCELES -0.3010
-4.8349 ISPS -0.3010
-4.5339 ISRAEL -0.3005
-4.1360 ISSUE -0.2813
-4.5339 ISSUES -0.2942
-4.8349 ISTHMUS -0.2885
-3.1537 IT -0.2539
-4.8349 IT- -0.3010
-4.3578 ITALIAN -0.3010
-4.5339 ITALIANS -0.3009
-4.8349 ITALY -0.2958
-4.8349 ITCH -0.3006
-3.4370 ITS -0.2975
-4.5339 ITSELF -0.2763
-4.8349 IVAN -0.2827
-4.8349 IVY -0.2885
-4.8349 J. -0.3010
-4.8349 J.D. -0.2998
-4.8349 J.R.R. -0.3010
-3.9318 JACK -0.3000
-4.8349 JACKIE -0.3010
-4.1360 JACKSON -0.2990
-4.8349 JACQUES -0.3010
-4.8349 JAIL -0.3010
-3.8349 JAMES -0.3010
-4.8349 JAMIROQUAI -0.3010
-4.8349 JAN. -0.3010
-4.5339 JANE -0.3010
-4.8349 JANELLE -0.3000
-4.8349 JANUARY -0.3010
-4.3578 JAPAN -0.2885
-4.0568 JAPANESE -0.3005
-4.8349 JAVA -0.3010
-4.1360 JAWS -0.3000
-4.5339 JAY -0.3010
-4.8349 JAYNE -0.3010
-4.8349 JAZZ -0.2998
-4.5339 JCPENNEY -0.2991
-4.1360 JEAN -0.2958
-4.8349 JEEP -0.3010
-4.8349 JEFFERSON -0.3001
-4.8349 JELL-O -0.3009
-4.8349 JELLICLE -0.3010
-4.8349 JEREMY -0.3010
-4.8349 JERICHO -0.3010
-4.8349 JERKS -0.2885
-3.9318 JERRY -0.3010
-4.2329 JERSEY -0.2861
-4.5339 JESSICA -0.3010
-4.5339 JESUS -0.2883
-4.3578 JEWISH -0.3010
-4.8349 JEWS -0.3006
-4.5339 JIGGY -0.2997
-4.5339 JIM -0.3010
-4.8349 JIMI -0.3010
-4.3578 JIMMY -0.2892
-4.8349 JJ -0.3007
-4.0568 JOB -0.2654
-4.8349 JOBS -0.2885
-4.8349 JOCKEY -0.3000
-4.8349 JODIE -0.3010
-4.5339 JOE -0.3010
-4.8349 JOEL -0.2885
-4.8349 JOGGING -0.2975
-4.8349 JOGIS -0.2985
-3.6045 JOHN -0.3009
-4.8349 JOHNNIE -0.3010
-4.5339 JOHNNY -0.3010
-4.3578 JOHNSON -0.2884
-4.8349 JOIN -0.2892
-4.8349 JOINED -0.2892
-4.8349 JOKES -0.2885
-4.8349 JOLIE'S -0.3010
-4.8349 JONATHAN -0.3010
-4.3578 JONES -0.2866
-4.8349 JONI -0.3010
-4.8349 JORDAN -0.2885
-4.8349 JOSE -0.3010
-4.5339 JOSEPH -0.3010
-4.8349 JOSIE -0.2998
-4.2329 JOURNAL -0.2833
-4.8349 JOURNALISM -0.2885
-4.8349 JOURNALS -0.2827
-4.8349 JOURNEY -0.2885
-4.8349 JOYCE -0.2995
-4.8349 JR -0.3010
-4.8349 JR. -0.2992
-4.8349 JRR -0.3010
-4.5339 JUDAISM -0.2990
-4.2329 JUDE -0.3010
-4.5339 JUDGE -0.3008
-4.8349 JUDGES -0.3006
-4.8349 JUDICIARY -0.2885
-4.8349 JUDITH -0.3010
-4.8349 JUDO -0.2827
-4.8349 JUDSON -0.3010
-4.8349 JUDY -0.3010
-4.8349 JULIEN -0.3010
-4.3578 JULY -0.2872
-4.8349 JUMP -0.2885
-4.8349 JUN -0.3010
-4.8349 JUNE -0.3010
-4.8349 JUNK -0.3010
-4.8349 JUPITER -0.2827
-4.8349 JURISDICTION -0.2827
-4.8349 JURY -0.2975
-4.3578 JUST -0.3009
-4.2329 JUSTICE -0.2883
-4.8349 JUSTIN -0.3000
-4.5339 K -0.2988
-4.8349 KA -0.2827
-4.8349 KAHLO -0.3010
-4.8349 KAHN -0.3009
-4.8349 KALAHARI -0.3010
-4.8349 KAMCHATKA -0.2885
-4.8349 KANSAS -0.3010
-4.8349 KAPPA -0.3010
-4.8349 KARENNA -0.3010
-4.8349 KARL -0.3010
-4.8349 KARSH -0.3009
-4.8349 KASHMIR -0.3010
-4.5339 KASPAROV -0.3009
-4.8349 KATHARINE -0.3010
-4.8349 KATIE -0.2885
-4.8349 KATRINA -0.2827
-4.8349 KATY -0.3010
-4.8349 KAY -0.3006
-4.8349 KEATON -0.2885
-4.8349 KEEP -0.2892
-4.8349 KEEPS -0.3010
-4.5339 KELLY -0.2825
-3.8807 KENNEDY -0.2971
-4.8349 KENNEL -0.3010
-4.5339 KENPO -0.2827
-4.1360 KENTUCKY -0.2869
-4.8349 KENYAN -0.3005
-4.8349 KEPLER -0.3010
-4.5339 KEPT -0.2892
-4.8349 KERATOMA -0.3000
-4.2329 KEVIN -0.3010
-4.8349 KEYBOARD -0.2885
-4.8349 KEYON -0.3010
-4.8349 KHYBER -0.3010
-4.3578 KID -0.2849
-4.8349 KIDNAPED -0.2885
-4.8349 KIDS -0.3010
-4.8349 KID_S -0.3010
-4.8349 KIFM -0.3010
-4.5339 KILL -0.2859
-3.7557 KILLED -0.2837
-4.5339 KILLER -0.2975
-4.5339 KILLING -0.2885
-4.8349 KILROY -0.3010
-4.8349 KIMPO -0.3010
-3.3878 KIND -0.2960
-4.5339 KINDS -0.2961
-3.8807 KING -0.2883
-4.8349 KINGDA -0.3010
-4.5339 KINGDOM -0.2882
-4.8349 KIRKSTALL -0.3010
-4.5339 KISS -0.2696
-4.8349 KITCHEN -0.2885
-4.8349 KITTY -0.3010
-4.8349 KLONDIKE -0.2998
-4.8349 KNICKERBOCKERS -0.2827
-4.8349 KNIGHTS -0.2961
-4.8349 KNOCK -0.3010
-4.1360 KNOW -0.2990
-3.3436 KNOWN -0.2990
-4.8349 KNOWPOST.COM -0.2885
-4.8349 KNOWS -0.3009
-4.8349 KNOX -0.2975
-4.8349 KNUTE -0.3010
-4.8349 KOERTZEN -0.3010
-4.8349 KONOPKA -0.2885
-4.8349 KOREA -0.3010
-4.8349 KOREAN -0.3005
-4.8349 KOSOVO -0.2985
-4.8349 KREMLIN -0.2885
-4.8349 KRONA -0.2827
-4.8349 KRONER -0.2958
-4.8349 KRYPTON -0.2998
-4.5339 KUWAIT -0.2875
-4.8349 KWAK -0.2827
-4.5339 L. -0.3010
-4.3578 L.A. -0.2997
-4.3578 LA -0.3010
-4.2329 LABEL -0.2821
-4.2329 LABELS -0.2969
-4.8349 LABIANCA -0.3001
-4.8349 LACAN -0.2885
-4.8349 LACTOBACILLUS -0.3010
-4.8349 LADY -0.2961
-4.8349 LAGOON -0.2998
-4.8349 LAGOS -0.2885
-4.8349 LAID -0.2995
-4.2329 LAKE -0.2795
-4.3578 LAKES -0.2885
-4.8349 LAMARCUS -0.3010
-4.8349 LAMBEAU -0.3010
-4.8349 LANDED -0.2985
-4.8349 LANDERS -0.3010
-4.5339 LANDING -0.2998
-4.8349 LANDLOCKED -0.2885
-4.5339 LANDMARK -0.2986
-3.7557 LANGUAGE -0.2543
-3.9318 LANGUAGES -0.2932
-4.8349 LANTERN -0.2992
-4.8349 LAOS -0.2885
-4.5339 LARGE -0.2958
-3.3878 LARGEST -0.2959
-4.5339 LARRY -0.3009
-4.2329 LAS -0.3010
-4.8349 LASER -0.3008
-3.5127 LAST -0.2674
-4.8349 LATA -0.2998
-4.5339 LATE -0.3010
-4.8349 LATENT -0.3010
-4.8349 LATER -0.2827
-4.0568 LATIN -0.2869
-4.3578 LATITUDE -0.2998
-4.5339 LAUGH-IN -0.2885
-4.2329 LAUNCHED -0.2825
-4.8349 LAUNDRY -0.3010
-4.8349 LAUREATE -0.2986
-4.5339 LAUREN -0.3010
-4.8349 LAURIE -0.3009
-3.9898 LAW -0.2884
-4.8349 LAWSUIT -0.3008
-4.1360 LAWYER -0.2845
-4.8349 LAWYERS -0.2992
-4.8349 LAY -0.3010
-4.8349 LAYERS -0.2961
-4.8349 LE -0.3010
-4.3578 LEAD -0.2994
-4.1360 LEADER -0.2985
-4.2329 LEADING -0.3009
-4.8349 LEADS -0.2985
-4.5339 LEAFS -0.2827
-4.1360 LEAGUE -0.2907
-4.1360 LEARN -0.2824
-4.1360 LEARNED -0.3008
-4.1360 LEARNING -0.2882
-4.3578 LEAST -0.3008
-4.8349 LEAST-POPULATED -0.2885
-4.5339 LEAVE -0.3007
-4.8349 LEBANON -0.2992
-4.8349 LED -0.3010
-4.2329 LEE -0.2826
-4.8349 LEFT -0.3010
-4.8349 LEFT-HANDED -0.3009
-4.5339 LEGAL -0.3010
-4.8349 LEGENDARY -0.3010
-4.8349 LEGS -0.2999
-4.8349 LEIA -0.2992
-4.8349 LEICHHARDT -0.2998
-4.8349 LENDER -0.3008
-4.8349 LENGTHS -0.2961
-4.8349 LENO -0.2998
-4.8349 LENO'S -0.3009
-4.8349 LENS -0.3009
-4.8349 LEON -0.3010
-4.8349 LEONARDO -0.3010
-4.8349 LEPROSY -0.2885
-4.8349 LEPTON -0.3010
-4.5339 LESS -0.3010
-4.5339 LET -0.2991
-4.8349 LETHAL -0.3010
-3.9318 LETTER -0.2896
-4.5339 LETTERS -0.3010
-4.5339 LEUKEMIA -0.2827
-4.3578 LEVEL -0.2834
-4.8349 LEVERKUSEN -0.2998
-4.8349 LEWIS -0.3010
-4.8349 LHASA -0.3010
-4.8349 LI -0.3010
-4.8349 LIBERTY -0.3010
-4.8349 LIBRARIES -0.2975
-4.1360 LIBRARY -0.2785
-4.8349 LIBYA -0.2885
-4.8349 LICE -0.2885
-4.5339 LICENSE -0.3009
-4.8349 LIE -0.3009
-4.8349 LIES -0.3009
-3.9898 LIFE -0.2639
-4.8349 LIFESAVER -0.3010
-4.8349 LIFTER -0.2885
-4.8349 LIFTING -0.2885
-4.1360 LIGHT -0.2868
-4.8349 LIGHTHOUSE -0.3009
-4.8349 LIGHTNIN' -0.3010
-4.8349 LIGURIAN -0.3010
-3.7935 LIKE -0.2536
-4.3578 LIKED -0.3007
-4.5339 LIKELY -0.2995
-4.5339 LIKES -0.3010
-4.8349 LIL -0.3010
-4.8349 LIMA -0.3010
-4.8349 LIMITED -0.2827
-4.5339 LINCOLN -0.2992
-4.8349 LINCOLNS -0.2998
-4.8349 LINDBERGH -0.3009
-4.8349 LINDSEY -0.3010
-3.9318 LINE -0.2759
-4.8349 LINEBACKERS -0.3001
-4.8349 LINER -0.2986
-4.8349 LINERS -0.3010
-4.5339 LINES -0.2998
-4.8349 LISA -0.2827
-4.0568 LIST -0.2961
-4.8349 LISTED -0.3006
-4.8349 LISTENERS -0.2995
-4.8349 LISTON -0.3010
-4.8349 LITE -0.2827
-4.8349 LITERAL -0.3010
-4.3578 LITERARY -0.3009
-4.5339 LITERATURE -0.2872
-3.8807 LITTLE -0.3004
-3.3878 LIVE -0.2489
-4.2329 LIVED -0.2972
-4.8349 LIVER -0.3010
-4.8349 LIVERPOOL -0.3010
-4.0568 LIVES -0.2792
-4.8349 LIVING -0.3010
-4.8349 LIVINGSTONE -0.2885
-4.8349 LL.M. -0.2885
-4.8349 LLOYD -0.3010
-4.8349 LO-O-OVE -0.3010
-4.8349 LOBSTER -0.3005
-3.1025 LOC:CITY -0.2861
-3.1107 LOC:COUNTRY -0.2887
-3.8349 LOC:MOUNT -0.2892
-2.6122 LOC:OTHER -0.2831
-3.3878 LOC:STATE -0.2861
-3.7210 LOCATED -0.2647
-4.3578 LOCATION -0.2938
-4.8349 LOCATIONS -0.2992
-4.8349 LOCK -0.3009
-4.8349 LOCKERBIE -0.2998
-4.8349 LOCOMOTIVE -0.3010
-4.8349 LODGES -0.2992
-4.5339 LOG -0.2875
-4.3578 LOGAN -0.3009
-4.8349 LOGIC -0.2885
-4.8349 LOGO -0.2958
-4.8349 LOHAN -0.3010
-4.8349 LOHENGRIN -0.2975
-3.9318 LONDON -0.2883
-3.3725 LONG -0.2878
-3.8349 LONGEST -0.3005
-4.8349 LONGEST-LIVED -0.2998
-4.8349 LONGEST-RUNNING -0.3010
-4.3578 LONGITUDE -0.2961
-4.8349 LONGTIME -0.3009
-4.1360 LOOK -0.2956
-4.8349 LOOMIS -0.3010
-4.8349 LOOP -0.2885
-4.8349 LOOSELY -0.3010
-4.8349 LORD -0.2961
-4.3578 LOS -0.3010
-4.5339 LOSE -0.2696
-4.3578 LOSS -0.2948
-4.8349 LOSSES -0.3006
-4.8349 LOST -0.3009
-4.8349 LOU -0.3010
-4.5339 LOUIE -0.2988
-4.2329 LOUIS -0.2826
-4.0568 LOVE -0.2980
-4.8349 LOVED -0.2885
-4.5339 LOVERS -0.2872
-4.5339 LOW -0.3010
-4.8349 LOWELL -0.3010
-4.8349 LOWEST -0.3010
-4.8349 LP -0.3009
-4.8349 LSE -0.3010
-4.8349 LUCAS -0.2992
-4.8349 LUCIA -0.2885
-4.8349 LUCK -0.2885
-4.8349 LUCKY -0.3010
-4.8349 LUDWIG -0.3010
-4.8349 LUIS -0.3010
-4.5339 LUKE -0.3010
-4.8349 LUNCH -0.2885
-4.8349 LUNG -0.3010
-4.8349 LUST -0.2998
-4.5339 LUTHER -0.3009
-4.8349 LUX -0.3010
-4.8349 LUXURY -0.3010
-4.8349 LYNMOUTH -0.3010
-4.3578 LYRICS -0.2997
-4.8349 M16 -0.3010
-4.8349 M3 -0.3010
-4.8349 MAC -0.2885
-4.8349 MACBETH -0.2885
-4.3578 MACHINES -0.2878
-4.8349 MACINTOSH -0.3010
-4.8349 MACY -0.2992
-4.8349 MADDING -0.3010
-3.4732 MADE -0.2806
-4.8349 MADILYN -0.3010
-4.8349 MADONNA -0.3010
-4.5339 MADRID -0.2859
-4.8349 MAE -0.3010
-4.3578 MAGAZINE -0.2965
-4.2329 MAGIC -0.2838
-4.8349 MAGICIAN_S -0.3010
-4.8349 MAGNA -0.3010
-4.8349 MAGNESIUM -0.2885
-4.8349 MAGNETAR -0.2885
-4.8349 MAGOO -0.3010
-4.8349 MAID -0.2961
-4.5339 MAID-RITES -0.2885
-4.2329 MAIDEN -0.2874
-4.8349 MAIL -0.3010
-4.0568 MAIN -0.3008
-4.8349 MAINLAND -0.2885
-3.9898 MAJOR -0.2998
-4.8349 MAJOR-LEAGUE -0.3010
-4.8349 MAJORITY -0.3010
-3.7210 MAKE -0.2913
-4.8349 MAKE-UP -0.2885
-4.5339 MAKER -0.2959
-3.7935 MAKES -0.2841
-4.8349 MAKEUP -0.3010
-4.8349 MAKING -0.3007
-4.8349 MALAYSIA -0.2885
-4.8349 MALE -0.2995
-4.8349 MALICK -0.2885
-4.5339 MALL -0.2790
-4.8349 MALLS -0.2999
-4.8349 MALTA -0.2885
-4.8349 MAMA -0.2885
-4.5339 MAMMAL -0.2957
-4.8349 MAMMALS -0.2998
-4.8349 MAMMOTH -0.3010
-3.5339 MAN -0.2613
-4.8349 MANAGE -0.2827
-4.8349 MANAGED -0.3010
-4.5339 MANAGER -0.2696
-4.8349 MANAGES -0.3010
-4.8349 MANAGING -0.3010
-4.8349 MANATEES -0.3010
-4.8349 MANCHE -0.2885
-4.8349 MANDRAKE -0.3010
-4.8349 MANDY -0.3010
-4.8349 MANEUVER -0.2991
-4.5339 MANHATTAN -0.3010
-4.8349 MANHATTEN -0.3010
-4.8349 MANIFEST -0.2998
-4.8349 MANKIEWICZ -0.3009
-4.5339 MANNED -0.3009
-4.8349 MANSFIELD -0.3009
-4.8349 MANSION -0.3010
-4.8349 MANUFACTURED -0.2892
-4.5339 MANUFACTURER -0.2958
-4.3578 MANUFACTURES -0.2892
-4.8349 MANUFACTURING -0.3010
-2.4440 MANY -0.2958
-4.5339 MAO -0.2992
-4.5339 MAPLE -0.3010
-4.8349 MARBELLA -0.2885
-4.8349 MARBLE -0.2885
-4.8349 MARBLES -0.3000
-4.0568 MARCH -0.2848
-4.8349 MARCIANO -0.3001
-4.8349 MARE -0.3010
-4.8349 MARGIELA -0.3010
-4.8349 MARIA -0.3010
-4.8349 MARIJUANA -0.3009
-4.8349 MARINA -0.3010
-4.8349 MARION -0.3010
-4.1360 MARK -0.2982
-4.5339 MARKED -0.3000
-4.2329 MARKET -0.2831
-4.8349 MARKET-FRANKFORD -0.3010
-4.8349 MARKETS -0.2885
-4.8349 MARKS -0.3010
-4.8349 MARLEY -0.2885
-4.8349 MARLIN -0.3010
-4.5339 MARLOWE -0.2866
-4.8349 MARQUESAS -0.3010
-4.8349 MARRIAGE -0.2975
-3.9318 MARRIED -0.2806
-4.8349 MARRY -0.3009
-4.8349 MARS -0.2998
-4.5339 MARSHALL -0.2884
-4.8349 MARTHA -0.3010
-4.5339 MARTIAL -0.3010
-4.8349 MARTIAN -0.2885
-4.2329 MARTIN -0.2998
-4.8349 MARTINIS -0.2885
-4.8349 MARTYRS -0.3007
-4.8349 MARVEL -0.3009
-4.8349 MARVIN -0.3009
-4.3578 MARX -0.2826
-4.5339 MARY -0.2998
-4.8349 MARYLAND -0.2885
-4.2329 MASCOT -0.2761
-4.8349 MASQUERADE -0.3006
-4.8349 MASS -0.2961
-4.3578 MASSACHUSETTS -0.2849
-4.8349 MASSACRE -0.2885
-4.8349 MASSAGE -0.2885
-4.8349 MASSIVE -0.3010
-4.2329 MASTER -0.2925
-4.8349 MASTERS -0.2885
-4.8349 MASTERSON -0.3010
-4.8349 MATCH -0.2985
-4.8349 MATERNAL -0.3010
-4.8349 MATH -0.3010
-4.8349 MATHEMATICS -0.2992
-4.8349 MATRIX -0.3010
-4.8349 MATSUMOTO -0.3008
-4.8349 MATTEL -0.3010
-4.5339 MATTER -0.2958
-4.8349 MATTHEW -0.3010
-4.5339 MAURITANIA -0.2826
-4.3578 MAURIZIO -0.3010
-4.3578 MAX -0.3010
-4.8349 MAXIMO -0.3000
-4.8349 MAXIMUM -0.3010
-4.3578 MAY -0.3010
-4.8349 MAYANS -0.2885
-4.8349 MAYO -0.3010
-4.8349 MAYOR -0.2961
-4.8349 MAZE -0.2961
-4.8349 MCCARREN -0.3010
-4.8349 MCKINLEY -0.3010
-4.8349 MCKINNEY -0.3009
-4.8349 MCLEAN -0.3010
-4.8349 MCNABB -0.3008
-4.8349 MCQUEEN -0.2998
-3.9318 ME -0.2605
-3.3725 MEAN -0.2839
-3.9318 MEANING -0.2950
-4.8349 MEANS -0.3000
-4.8349 MEANT -0.3000
-4.8349 MEASURE -0.3007
-4.8349 MEASURED -0.2975
-4.8349 MEAT -0.2958
-4.2329 MEDAL -0.2718
-4.8349 MEDALS -0.2975
-4.8349 MEDIAN -0.2998
-4.3578 MEDICAL -0.3009
-4.5339 MEDICINE -0.2885
-4.5339 MEDIEVAL -0.3010
-4.5339 MEDIUM -0.2945
-4.8349 MEERKAT -0.2885
-3.5562 MEET -0.2696
-4.3578 MEETING -0.3009
-4.8349 MEHITABEL -0.2885
-4.8349 MEL -0.3010
-4.8349 MELANCHOLY -0.3010
-4.8349 MELLON -0.3010
-4.8349 MELTING -0.3010
-4.8349 MELTS -0.2975
-3.9898 MEMBER -0.2960
-4.3578 MEMBERS -0.2961
-4.3578 MEMORABLE -0.3009
-4.8349 MEMORY -0.2885
-4.8349 MEMPHIS -0.3010
-4.1360 MEN -0.2963
-4.8349 MENACE -0.2885
-4.8349 MENUS -0.2885
-4.8349 MEN_S -0.3010
-4.8349 MERCHANDISE -0.3010
-4.3578 MERCURY -0.3010
-4.8349 MERLIN -0.2827
-4.8349 MESSAGE -0.3000
-4.8349 MESSENGER -0.2827
-4.2329 MET -0.2789
-4.8349 META -0.3000
-4.8349 METABOLIZE -0.3010
-4.8349 METAL -0.3010
-4.8349 METAMORPHIC -0.3010
-4.8349 METEOR -0.2827
-4.8349 METER -0.2991
-4.8349 METERS -0.2992
-4.8349 METHODIST -0.3010
-4.8349 METROPOLIS -0.3010
-4.3578 MEXICAN -0.3010
-4.8349 MEXICO -0.2885
-4.8349 MEYER -0.3010
-4.8349 MGM -0.2885
-4.8349 MIAMI -0.3010
-4.2329 MICHAEL -0.3010
-4.8349 MICHAGIN -0.3010
-4.3578 MICHELANGELO -0.2988
-4.8349 MICHENER -0.3009
-4.8349 MICHIGAN -0.2885
-4.8349 MICRO -0.2885
-4.8349 MICROCONTROLLERS -0.2885
-4.8349 MICROPROCESSORS -0.3010
-4.3578 MICROSOFT -0.2991
-3.9898 MIDDLE -0.2999
-4.8349 MIDEAST -0.3009
-4.8349 MIDSUMMER -0.3010
-4.8349 MIDWEST -0.3010
-4.8349 MIDWIFE -0.2885
-4.8349 MIGHT -0.3010
-4.8349 MIGHTY -0.3010
-4.8349 MIKE -0.3010
-4.8349 MILANO -0.3010
-4.3578 MILE -0.2885
-4.3578 MILES -0.2812
-4.2329 MILITARY -0.3010
-4.5339 MILK -0.2872
-4.8349 MILKY -0.3010
-4.8349 MILL -0.2975
-4.5339 MILLENNIUM -0.3010
-4.3578 MILLER -0.3009
-4.8349 MILLIGRAMS -0.2992
-4.0568 MILLION -0.2872
-4.8349 MILLISECONDS -0.2975
-4.8349 MILO -0.2885
-4.8349 MIND -0.3000
-4.8349 MINDED -0.2892
-4.8349 MINIATURE -0.3010
-4.2329 MINIMUM -0.3010
-4.8349 MINING -0.3010
-4.3578 MINISTER -0.2821
-4.5339 MINNESOTA -0.2958
-4.5339 MINOR -0.2885
-4.8349 MINOW -0.3010
-4.8349 MINUTE -0.3010
-4.5339 MINUTES -0.2881
-4.0568 MISS -0.2996
-4.8349 MISSILE -0.3008
-4.3578 MISSION -0.2775
-3.8349 MISSISSIPPI -0.2811
-4.5339 MISSOURI -0.2885
-4.5339 MITCHELL -0.3010
-4.8349 MIX -0.2885
-4.8349 MIXABLE -0.3000
-4.8349 MIXING -0.3010
-4.8349 MLA -0.3010
-4.8349 MOB -0.2961
-4.8349 MOCKINGBIRD -0.2827
-4.8349 MODE -0.2827
-4.3578 MODEL -0.2936
-4.8349 MODESTLY -0.3010
-4.8349 MOJAVE -0.3010
-4.8349 MOLASSES -0.3010
-4.8349 MOLECULES -0.3010
-4.8349 MOLLY -0.3010
-4.8349 MOLYBDENUM -0.2885
-4.8349 MONA -0.3010
-4.8349 MONACO -0.2961
-4.8349 MONARCH -0.2961
-4.8349 MONARCHS -0.3010
-4.5339 MONET -0.2872
-3.8807 MONEY -0.2463
-4.8349 MONGOL -0.3010
-4.5339 MONKEY -0.2885
-4.0568 MONOPOLY -0.2695
-4.8349 MONORAIL -0.3010
-4.8349 MONSANTO -0.3010
-4.8349 MONSTER -0.2975
-3.5562 MONTH -0.2914
-4.2329 MONTHS -0.2964
-4.8349 MONTREAL -0.3010
-3.8807 MOON -0.2658
-4.8349 MOONS -0.2961
-4.8349 MOORE -0.3009
-4.8349 MOORED -0.2827
-4.1360 MORE -0.3006
-4.8349 MORLEY -0.2885
-4.8349 MORMONS -0.3010
-4.8349 MORNING -0.3000
-4.8349 MORPHINE -0.2827
-4.8349 MORTEM -0.3008
-4.8349 MORTGAGE -0.3010
-4.8349 MOSAIC -0.2885
-4.8349 MOSCOW -0.3010
-4.5339 MOSQUITO -0.2866
-3.1025 MOST -0.2963
-4.8349 MOSTLY -0.3010
-3.9318 MOTHER -0.2806
-4.5339 MOTHER'S -0.3003
-4.5339 MOTION -0.2885
-4.8349 MOTOR -0.3010
-4.8349 MOTORCYCLES -0.2885
-4.8349 MOTOROLA -0.3005
-4.5339 MOTORS -0.2883
-4.2329 MOTTO -0.2766
-4.1360 MOUNT -0.3010
-3.8349 MOUNTAIN -0.2779
-4.8349 MOUNTAINOUS -0.3010
-4.2329 MOUNTAINS -0.2849
-4.8349 MOURNING -0.2975
-4.8349 MOUSE -0.2986
-4.3578 MOUTH -0.2821
-4.8349 MOVEMENT -0.2975
-3.4370 MOVIE -0.2415
-4.2329 MOVIES -0.2996
-4.5339 MOVING -0.2974
-4.8349 MOXIE -0.2885
-4.5339 MOZAMBIQUE -0.2884
-4.8349 MOZART -0.3010
-4.8349 MPILO -0.3010
-4.5339 MR. -0.3010
-4.3578 MRS. -0.3009
-4.8349 MS. -0.2998
-3.3578 MUCH -0.2844
-4.5339 MUFFINS -0.2885
-4.3578 MUHAMMAD -0.3008
-4.8349 MULTICOLORED -0.3009
-4.8349 MULTIPLAYER -0.3010
-4.8349 MULTIPLE -0.3010
-4.8349 MUMM -0.3010
-4.8349 MUNCHING -0.3001
-4.8349 MUNICH -0.2975
-4.5339 MUPPETS -0.2999
-4.8349 MURDER -0.2975
-4.8349 MURDERED -0.3010
-4.8349 MUSCA -0.3010
-4.8349 MUSCLE -0.2885
-4.3578 MUSEUM -0.2696
-3.9898 MUSIC -0.2954
-3.8349 MUSICAL -0.2983
-4.8349 MUSICIAN -0.3010
-4.8349 MUSLIM -0.3007
-4.8349 MUSLIMS -0.2885
-4.8349 MUSSOLINI -0.3010
-4.3578 MUST -0.2983
-4.8349 MUSTACHIOED -0.3010
-4.8349 MUSTANG -0.2827
-4.8349 MUSTARD -0.2885
-4.8349 MUTANT -0.3010
-4.5339 MUTINY -0.3009
-3.6045 MY -0.2997
-4.5339 MYRTLE -0.3010
-4.5339 MYSTERY -0.2960
-4.8349 MYSTICAL -0.3010
-4.8349 MYTH -0.2961
-4.8349 MYTHOLOGICAL -0.3009
-4.1360 N'T -0.2999
-4.8349 N.M -0.2885
-4.8349 NABOKOV -0.3010
-4.3578 NADIA -0.3010
-4.8349 NAFTA -0.3009
-4.8349 NAIL -0.3010
-4.8349 NAILS -0.3000
-4.8349 NAKED -0.2998
-2.6201 NAME -0.2266
-4.8349 NAME, -0.3010
-3.8807 NAMED -0.2872
-3.5562 NAMES -0.2706
-4.8349 NANOMETER -0.2885
-4.8349 NANTUCKET -0.3010
-4.8349 NAPLES -0.2998
-4.8349 NAPOLEON -0.2992
-4.8349 NARRAGANSETT -0.3010
-4.8349 NASDAQ -0.3009
-4.3578 NATHAN -0.3010
-4.8349 NATHANAEL -0.3010
-4.8349 NATION -0.2992
-3.8349 NATIONAL -0.3009
-4.8349 NATIONALITY -0.2986
-4.1360 NATIONS -0.2881
-4.5339 NATIVE -0.2991
-4.8349 NATO -0.3007
-4.5339 NATURAL -0.3010
-4.3578 NATURE -0.2942
-4.8349 NAUTILUS -0.2827
-4.8349 NAVAL -0.3010
-4.2329 NAVY -0.3000
-4.5339 NAZI -0.3010
-4.5339 NAZIS -0.2885
-4.8349 NBA -0.3010
-4.5339 NEANDERTHAL -0.3008
-4.5339 NEAR -0.2763
-4.8349 NEAREST -0.3010
-4.8349 NEBRASKA -0.2992
-4.8349 NECESSARILY -0.3010
-4.8349 NECKLACES -0.2885
-4.8349 NECROSIS -0.3008
-4.0568 NEED -0.2969
-4.5339 NEIGHBORS -0.2816
-4.8349 NEIL -0.2998
-4.8349 NEITHER -0.2985
-4.8349 NELSON -0.2885
-4.8349 NEOCLASSICAL -0.3010
-4.8349 NEON -0.2827
-4.8349 NEPAL -0.2885
-4.8349 NEPHEW -0.2827
-4.5339 NERO -0.3010
-4.8349 NERVE -0.3010
-4.8349 NESTS -0.2998
-4.5339 NET -0.3008
-4.8349 NETFLIX -0.2827
-4.3578 NETWORK -0.2800
-4.8349 NEURASTHENIA -0.2885
-4.8349 NEUROLOGICAL -0.3010
-4.8349 NEUROMANCER -0.3000
-4.8349 NEURON -0.3010
-4.8349 NEUROSURGEON -0.2885
-4.5339 NEVADA -0.3010
-4.2329 NEVER -0.3007
-3.4370 NEW -0.3002
-4.8349 NEWLY -0.3010
-4.3578 NEWS -0.2824
-4.8349 NEWSCAST -0.3001
-4.8349 NEWSCASTER -0.2975
-4.1360 NEWSPAPER -0.2658
-4.8349 NEWSPAPERS -0.2999
-4.8349 NEWTON -0.3010
-4.5339 NEXT -0.3009
-4.8349 NHL -0.2827
-4.8349 NIAGARA -0.3010
-4.5339 NICHOLAS -0.3010
-4.8349 NICKLAUS -0.3010
-3.7935 NICKNAME -0.2617
-4.3578 NICKNAMED -0.2780
-4.5339 NICKNAMES -0.2986
-4.8349 NICOIS -0.3009
-4.8349 NICOLET -0.2885
-4.8349 NICOLO -0.3010
-3.9898 NIGHT -0.2904
-4.8349 NIGHTCLUBS -0.2885
-4.8349 NIGHTINGALE -0.3010
-4.8349 NIGHTMARE -0.3001
-4.8349 NIHILIST -0.3010
-4.8349 NILE -0.3010
-4.5339 NINE -0.3010
-4.8349 NINJA -0.3010
-4.8349 NINO -0.2885
-4.8349 NINTENDO -0.3010
-4.8349 NIPSY -0.3010
-4.8349 NITRATES -0.3005
-4.8349 NITROGEN -0.2885
-4.8349 NITROX -0.3010
-4.8349 NIVEA -0.2827
-4.1360 NIXON -0.2982
-4.8349 NJ -0.2885
-3.6588 NN -0.2993
-4.0568 NNP -0.2996
-4.5339 NNS -0.2975
-4.8349 NO -0.3010
-4.5339 NO. -0.3010
-4.8349 NO.1 -0.3010
-4.0568 NOBEL -0.3010
-4.8349 NOIR -0.2885
-4.8349 NOISE -0.2975
-4.3578 NOMINATED -0.2998
-4.3578 NOMINATIONS -0.2865
-4.8349 NOMINEE -0.2975
-4.8349 NON-CONTAGIOUS -0.3010
-4.8349 NONAGGRESSION -0.3010
-4.8349 NONCHLORINE -0.3010
-4.8349 NOR -0.2985
-4.8349 NORA -0.3010
-4.8349 NORDIC -0.3010
-4.5339 NORMAL -0.3010
-3.7557 NORTH -0.2815
-4.5339 NORTHEAST -0.2960
-4.3578 NORTHERNMOST -0.3002
-4.8349 NORTHWESTERN -0.3009
-4.8349 NORWAY -0.2995
-4.8349 NOSTRUM -0.2885
-3.8349 NOT -0.2835
-4.8349 NOTABLE -0.3010
-4.8349 NOTCH -0.2975
-4.8349 NOTES -0.2885
-4.8349 NOTHING -0.2885
-4.8349 NOTRE -0.3010
-3.8349 NOVEL -0.2632
-4.5339 NOVELIST -0.3010
-4.8349 NOVELS -0.2992
-4.5339 NOVEMBER -0.2980
-4.5339 NOW -0.2972
-4.8349 NOW-DEFUNCT -0.3010
-4.8349 NUCLEAR -0.3010
-4.3578 NUM:CODE -0.2901
-2.7486 NUM:COUNT -0.2741
-2.8954 NUM:DATE -0.2732
-3.8349 NUM:DIST -0.2874
-3.4925 NUM:MONEY -0.2874
-4.5339 NUM:ORD -0.2892
-3.5562 NUM:OTHER -0.2874
-3.7935 NUM:PERC -0.2850
-3.4925 NUM:PERIOD -0.2751
-3.9898 NUM:SPEED -0.2874
-4.8349 NUM:TEMP -0.2901
-4.2329 NUM:VOLSIZE -0.2874
-4.8349 NUM:WEIGHT -0.2901
-3.4925 NUMBER -0.2537
-4.3578 NUMBERS -0.2885
-4.8349 NUMERAL -0.2885
-4.5339 NUMERALS -0.2880
-4.8349 NUN -0.2885
-4.8349 NURSE -0.3010
-4.2329 NUTTY -0.3010
-4.8349 NYSE -0.2827
-4.8349 O -0.3000
-4.8349 O'NEAL -0.3005
-4.8349 OAKS -0.3010
-4.5339 OAT -0.3010
-4.8349 OBAMA -0.3009
-4.5339 OBJECTS -0.2884
-4.8349 OBSCENE -0.3010
-4.8349 OBSERVATORY -0.3005
-4.8349 OBTAINED -0.2885
-4.5339 OCCASSION -0.2827
-4.3578 OCCUPATION -0.2834
-4.5339 OCCUPY -0.2872
-3.4925 OCCUR -0.2789
-4.5339 OCCURS -0.2975
-4.2329 OCEAN -0.2819
-4.3578 OCEANS -0.2853
-4.8349 OCHO -0.3010
-4.8349 OCTOPUS -0.3005
-4.8349 ODDS -0.2961
-4.8349 ODDSMAKER -0.3010
-4.8349 ODIN -0.3006
-1.9434 OF -0.2186
-4.2329 OFF -0.2973
-4.8349 OFFENCES -0.3006
-4.8349 OFFER -0.2985
-3.8807 OFFICE -0.2736
-4.8349 OFFICES -0.3006
-4.5339 OFFICIAL -0.3009
-4.8349 OFFICIALLY -0.3010
-4.8349 OFFS -0.2999
-4.1360 OFTEN -0.2978
-4.8349 OFTENTIMES -0.3010
-4.8349 OH -0.3010
-4.3578 OHIO -0.2880
-4.3578 OIL -0.2999
-3.6588 OLD -0.2815
-4.8349 OLDER -0.3009
-3.7210 OLDEST -0.3008
-4.8349 OLESTRA -0.2885
-4.8349 OLIVES -0.2975
-4.8349 OLSEN -0.3000
-4.8349 OLYMPIA -0.2998
-3.9898 OLYMPIC -0.3009
-3.9898 OLYMPICS -0.2691
-4.2329 OMARION -0.2988
-2.6502 ON -0.2291
-4.5339 ON-LINE -0.2885
-4.8349 ONASSIS -0.2992
-4.1360 ONCE -0.2983
-4.8349 ONCE-A-YEAR -0.3010
-3.6308 ONE -0.2785
-4.8349 ONE-BRAND -0.3010
-4.8349 ONE-POUND -0.3010
-4.8349 ONES -0.3007
-4.3578 ONLINE -0.2885
-3.5562 ONLY -0.2986
-4.8349 OOMPAS -0.2885
-4.3578 OPEN -0.2696
-4.8349 OPENED -0.2827
-4.8349 OPENER -0.3001
-4.3578 OPERA -0.2967
-4.8349 OPERANT -0.3010
-4.8349 OPERAS -0.2992
-4.8349 OPERATE -0.2827
-4.8349 OPERATES -0.2892
-4.2329 OPERATING -0.3009
-4.8349 OPERATORS -0.3010
-4.8349 OPPENHEIMER'S -0.3010
-3.4547 OR -0.2856
-4.8349 ORACLE -0.3010
-4.5339 ORANGE -0.3009
-4.8349 ORBITAL -0.3010
-4.8349 ORCA -0.3007
-4.0568 ORDER -0.2936
-4.8349 ORDERS -0.2991
-4.8349 OREO -0.3010
-4.8349 ORGAN -0.3010
-4.8349 ORGANIC -0.3010
-4.0568 ORGANIZATION -0.2888
-4.8349 ORGANIZED -0.3006
-4.8349 ORGANS -0.3007
-4.5339 ORIENTATION -0.2827
-3.4547 ORIGIN -0.2948
-3.9318 ORIGINAL -0.2998
-4.1360 ORIGINATE -0.2658
-4.8349 ORIGINATED -0.2975
-4.8349 ORINOCO -0.2885
-4.8349 ORPHANS -0.3008
-4.8349 ORTHOPEDICS -0.2975
-4.8349 OSBOURNE -0.3009
-4.3578 OSCAR -0.2997
-4.8349 OSWALD -0.3010
-3.6588 OTHER -0.2811
-4.8349 OTTAWA -0.2885
-4.8349 OUAGADOUGOU -0.2885
-4.8349 OUARTERLY -0.3010
-4.8349 OUIJA -0.3010
-4.8349 OUR -0.3010
-3.6045 OUT -0.2481
-4.5339 OUTCOME -0.2960
-4.8349 OUTER -0.3009
-4.5339 OUTSIDE -0.2885
-4.8349 OVEN -0.3008
-3.7935 OVER -0.2751
-4.8349 OVERALL -0.2958
-4.8349 OVERALLS -0.2992
-4.8349 OVERCOME -0.2985
-4.8349 OVERFLOW -0.3010
-4.8349 OVERGROUND -0.3010
-4.8349 OVERLOOK -0.2885
-4.8349 OVERTHROW -0.2892
-4.8349 OWE -0.3009
-3.9898 OWN -0.2825
-4.2329 OWNED -0.2800
-4.3578 OWNER -0.2947
-4.2329 OWNS -0.2890
-4.3578 OXFORD -0.2819
-4.8349 OXFORDS -0.2998
-4.8349 OXIDATION -0.3010
-4.8349 OXIDE -0.2885
-4.8349 OXYGEN -0.2998
-4.3578 OZ -0.2695
-4.8349 OZYMANDIAS -0.2885
-4.8349 OZZIE -0.2998
-4.8349 OZZY -0.3010
-4.8349 P-32 -0.2885
-4.8349 P.M. -0.2885
-4.8349 PABLO -0.3010
-4.5339 PACIFIC -0.2885
-4.8349 PACKIN -0.3010
-4.8349 PACKS -0.2999
-4.8349 PACT -0.3007
-4.8349 PAGANINI -0.2885
-4.3578 PAGE -0.2882
-4.8349 PAGEANT -0.2885
-4.2329 PAID -0.2839
-4.8349 PAINFUL -0.3010
-4.3578 PAINT -0.2821
-4.8349 PAINTBALL -0.2885
-4.1360 PAINTED -0.2891
-4.5339 PAINTER -0.3009
-4.8349 PAINTERS -0.3010
-4.1360 PAINTING -0.2868
-4.8349 PAIRS -0.2961
-4.8349 PALATE -0.2885
-4.8349 PALEOZOIC -0.3010
-4.8349 PAN -0.3010
-4.3578 PANASONIC -0.3010
-4.8349 PANDORO -0.2885
-4.5339 PANETTIERE -0.3000
-4.8349 PANIC -0.3010
-4.8349 PANORAMIC -0.3010
-4.2329 PAPER -0.2999
-4.8349 PARACETAMOL -0.2885
-4.8349 PARADE -0.2885
-4.8349 PARASITES -0.2885
-4.5339 PARENT -0.3009
-3.9898 PARENTS -0.2761
-4.8349 PARENTS’ -0.3010
-4.8349 PARIS -0.2827
-3.8807 PARK -0.2598
-4.8349 PARKER -0.3010
-4.8349 PARKER'S -0.3010
-4.8349 PARKS -0.3006
-4.5339 PARROT -0.2992
-3.9898 PART -0.2941
-4.8349 PARTICIPATE -0.2975
-4.5339 PARTICIPATED -0.2975
-4.8349 PARTICIPLE -0.2885
-4.5339 PARTICLES -0.2992
-4.8349 PARTNER -0.2998
-4.2329 PARTY -0.2966
-4.8349 PASCAL -0.3010
-4.5339 PASO -0.2998
-4.3578 PASS -0.2568
-4.8349 PASSED -0.2885
-4.5339 PASSENGER -0.3010
-4.8349 PASSING -0.3010
-4.8349 PASTA -0.2885
-4.8349 PASTERNAK -0.3009
-4.8349 PASTURE -0.2885
-4.1360 PATENT -0.2943
-4.5339 PATENTED -0.2889
-4.8349 PATIENT -0.3009
-4.8349 PATRICIA -0.3010
-4.8349 PATTI -0.3010
-4.8349 PAUL -0.3010
-4.8349 PAUWEL -0.3010
-4.8349 PAYNE -0.3010
-4.8349 PC -0.2885
-4.8349 PEA-SOUP -0.3010
-4.8349 PEABODY -0.3010
-4.3578 PEACE -0.3010
-4.5339 PEACHY -0.3010
-4.2329 PEAK -0.2849
-4.5339 PEANUT -0.3010
-4.5339 PEANUTS -0.2696
-4.2329 PEARL -0.3010
-4.8349 PEARLS -0.3006
-4.8349 PECAN -0.2998
-4.8349 PECOS -0.2885
-4.8349 PEEL -0.2885
-4.8349 PEGGY -0.2885
-4.8349 PEGNITZ -0.3010
-4.3578 PELLEGRIN -0.2998
-4.8349 PENALTY -0.3009
-4.8349 PENCEY -0.3010
-4.8349 PENCIL -0.3010
-4.8349 PENDULUM -0.2885
-4.8349 PENINSULA -0.2961
-4.8349 PENN -0.2992
-4.5339 PENNED -0.2999
-4.3578 PENNSYLVANIA -0.2883
-4.8349 PENNY-FARTHINGS -0.2992
-3.0946 PEOPLE -0.2637
-4.8349 PER -0.3007
-4.8349 PER-CAPITA -0.3010
-4.5339 PERCENT -0.3010
-4.1360 PERCENTAGE -0.2960
-4.5339 PERFECT -0.3010
-4.8349 PERFORM -0.3010
-4.3578 PERFORMANCES -0.2980
-4.5339 PERFORMED -0.2826
-4.5339 PERFORMER -0.2942
-4.8349 PERFUME -0.3010
-4.2329 PERIOD -0.2755
-4.8349 PERIODICALS -0.3001
-4.8349 PERMANENT -0.2998
-4.8349 PERMANENTLY -0.3010
-4.8349 PERMITTED -0.2995
-4.5339 PERPETUAL -0.3010
-4.8349 PERPETUALLY -0.3010
-3.5562 PERSON -0.2642
-4.8349 PERSONAL -0.3010
-4.8349 PERSONALITY -0.3010
-4.8349 PERSONALLY -0.3010
-4.8349 PERSONAS -0.2961
-4.8349 PESO -0.2827
-4.8349 PET -0.2827
-4.3578 PETER -0.3010
-4.8349 PETRIFIED -0.3010
-4.8349 PETS -0.2991
-4.8349 PHALANX -0.2885
-4.8349 PHENOMENON -0.3010
-4.8349 PHEONIX -0.3010
-4.8349 PHI -0.3010
-4.2329 PHILADELPHIA -0.2813
-4.8349 PHILATELIST -0.3010
-4.8349 PHILIP -0.3010
-4.5339 PHILIPPINES -0.2884
-4.8349 PHILLIES -0.3008
-4.8349 PHOENIX -0.2885
-4.2329 PHONE -0.3009
-4.8349 PHONOGRAPH -0.2885
-4.8349 PHOTOGRAPHER -0.3010
-4.8349 PHRASE -0.3000
-4.5339 PHYSICAL -0.3010
-4.8349 PHYSICS -0.2885
-4.8349 PIANO -0.3009
-4.8349 PIANOS -0.2998
-4.8349 PICASSO -0.2827
-4.8349 PICKED -0.2985
-4.8349 PICKERING -0.2885
-4.8349 PICKING -0.3008
-4.8349 PICTORIAL -0.3010
-4.8349 PICTS -0.2885
-4.8349 PICTURES -0.2827
-4.8349 PIECE -0.3001
-4.8349 PIERCE -0.3009
-4.8349 PIG-THE -0.3009
-4.5339 PIGGY -0.2885
-4.5339 PIGS -0.3008
-4.8349 PILOT -0.2885
-4.8349 PILSNER -0.3010
-4.8349 PINATUBO -0.2885
-4.5339 PINK -0.2998
-4.8349 PIRATE -0.3009
-4.8349 PISSARRO -0.2998
-4.8349 PISTA -0.2827
-4.8349 PISTOL -0.3010
-4.5339 PISTON -0.3010
-4.5339 PIT -0.2996
-4.8349 PITCHER -0.2986
-4.5339 PITTSBURGH -0.2958
-4.8349 PIVEN -0.2885
-4.3578 PIZZA -0.2875
-3.6888 PLACE -0.2554
-4.8349 PLACED -0.3010
-4.5339 PLACES -0.2998
-4.5339 PLAN -0.2885
-4.8349 PLANET -0.2885
-4.5339 PLANT -0.2954
-4.8349 PLANTAR -0.3010
-4.5339 PLANTED -0.2881
-4.5339 PLANTS -0.2823
-4.8349 PLASTIC -0.2885
-4.8349 PLASTIKI -0.3010
-4.8349 PLATE -0.2961
-3.3298 PLAY -0.2414
-4.8349 PLAYABLE -0.2975
-3.7210 PLAYED -0.2712
-4.5339 PLAYER -0.2955
-3.9898 PLAYERS -0.2988
-4.5339 PLAYING -0.2872
-4.2329 PLAYS -0.2881
-4.8349 PLC -0.2885
-4.8349 PLEA -0.3008
-4.5339 PLO -0.2885
-4.8349 PLOT -0.2885
-4.8349 PLURAL -0.2961
-4.8349 PNEUMONIA -0.2885
-4.8349 POE -0.2992
-4.3578 POEM -0.2994
-4.3578 POET -0.2944
-4.8349 POETRY -0.2885
-4.8349 POETS -0.3010
-4.1360 POINT -0.2787
-4.8349 POINTS -0.3009
-4.8349 POISON -0.3010
-4.8349 POKEMON -0.2885
-4.5339 POKER -0.3009
-4.8349 POLARIS -0.2827
-4.3578 POLE -0.2883
-4.8349 POLICE -0.3010
-4.8349 POLICEMAN -0.3010
-4.5339 POLIO -0.3010
-4.8349 POLISH -0.3009
-4.8349 POLITICAL -0.3010
-4.8349 POLLEN -0.3010
-4.8349 POLLOCK -0.2885
-4.8349 POLLUTION -0.2992
-4.8349 POLLUX -0.2885
-4.8349 POLYNESIAN -0.3007
-4.8349 POND -0.3009
-4.3578 POOH -0.2831
-4.8349 POOP -0.3010
-4.8349 POORLY -0.2885
-4.8349 POP -0.2885
-4.8349 POPCORN -0.3010
-4.3578 POPE -0.2885
-4.5339 POPEYE -0.2992
-4.8349 POPS -0.3009
-3.8349 POPULAR -0.2881
-3.8349 POPULATION -0.2794
-4.8349 POPULOUS -0.3008
-4.8349 PORGY -0.2998
-4.8349 PORTLY -0.3010
-3.8349 PORTRAYED -0.2996
-4.8349 POS -0.3009
-4.8349 POSH -0.3008
-4.0568 POSITION -0.2963
-4.8349 POSITIONS -0.2989
-4.8349 POSITON -0.2999
-4.8349 POSITRON -0.2827
-4.8349 POSSESSION -0.3001
-4.5339 POST -0.3009
-4.8349 POTENTIAL -0.3010
-4.8349 POTHOOKS -0.3000
-4.8349 POTLATCH -0.2885
-4.8349 POTSDAM -0.3010
-4.5339 POTTER -0.2872
-4.5339 POUND -0.2885
-4.5339 POUNDS -0.2849
-4.5339 POWELL -0.2883
-4.2329 POWER -0.2820
-4.8349 POWERFUL -0.3010
-4.5339 POWERS -0.2986
-4.5339 POWERSHOT -0.3010
-4.8349 POWHATAN -0.3007
-4.8349 PRACTICES -0.2961
-4.8349 PRACTITIONERS -0.2961
-4.8349 PRAIRIE -0.3009
-4.8349 PRAYER -0.3009
-4.8349 PREACHER -0.2989
-4.8349 PREDATORS -0.3010
-4.8349 PREFERRED -0.3010
-4.8349 PREFIX -0.2975
-4.5339 PREGNANCY -0.2997
-4.8349 PREGNANT -0.2885
-4.8349 PREHISTORIC -0.3010
-4.8349 PRELUDE -0.2975
-4.8349 PREP -0.3009
-4.8349 PREPARED -0.3010
-4.8349 PREQUEL -0.2885
-4.8349 PRESCRIPTION -0.3010
-4.8349 PRESENT -0.2827
-4.5339 PRESENTED -0.2703
-4.8349 PRESERVE -0.3010
-4.5339 PRESIDED -0.3006
-4.5339 PRESIDENCY -0.2881
-3.3436 PRESIDENT -0.2556
-4.8349 PRESIDENT-TO-BE -0.2986
-4.2329 PRESIDENTIAL -0.3010
-4.5339 PRESIDENTS -0.3001
-4.8349 PRESLEY -0.2885
-4.5339 PRESS -0.2826
-4.5339 PRESSURE -0.3010
-4.8349 PREVENT -0.3007
-4.5339 PREWITT -0.3008
-4.1360 PRICE -0.2834
-4.8349 PRIDE -0.2961
-4.8349 PRIMAL -0.3010
-4.3578 PRIME -0.3010
-4.8349 PRIMITIVES -0.2961
-4.5339 PRINCE -0.2992
-4.8349 PRINCESS -0.3010
-4.8349 PRINCETOWN -0.3010
-4.8349 PRINCIPLES -0.2885
-4.8349 PRINZE -0.2998
-4.3578 PRIVATE -0.2826
-4.1360 PRIZE -0.2836
-4.8349 PRIZES -0.3010
-4.8349 PRO -0.3010
-4.8349 PROBABILITY -0.3007
-4.8349 PROBLEM -0.2975
-4.8349 PROCESS -0.2885
-4.8349 PROCESSING -0.2885
-4.5339 PROCESSOR -0.2865
-4.3578 PROCTER -0.2998
-3.9898 PRODUCE -0.2645
-3.7557 PRODUCED -0.2560
-4.3578 PRODUCER -0.2820
-4.8349 PRODUCERS -0.2998
-4.5339 PRODUCES -0.3009
-4.0568 PRODUCT -0.2789
-4.8349 PRODUCTION -0.2827
-4.8349 PRODUCTIONS -0.2991
-4.0568 PRODUCTS -0.2992
-4.5339 PROFESSION -0.2885
-4.8349 PROFESSIONAL -0.3010
-3.9318 PROFESSOR -0.2806
-4.8349 PROFICIENT -0.3007
-4.8349 PROFITS -0.2961
-4.3578 PROGRAM -0.2772
-4.3578 PROGRAMMING -0.2825
-4.8349 PROGRAMS -0.3006
-4.1360 PROJECT -0.2692
-4.8349 PROMISING -0.3009
-4.3578 PROMOTE -0.2750
-4.8349 PROMOTERS -0.3010
-4.8349 PROMPTED -0.2892
-4.8349 PRONOUNCE -0.3009
-4.8349 PROOF -0.3007
-4.8349 PROPELLED -0.2827
-4.8349 PROPER -0.3010
-4.8349 PROPERTIES -0.3010
-4.8349 PROPHECIES -0.2892
-4.8349 PROPHET -0.2961
-4.8349 PROPOSED -0.2892
-4.8349 PROPOSITION -0.3010
-4.3578 PROSTATE -0.3010
-4.8349 PROSTHETIC -0.3010
-4.8349 PROTAGONIST -0.2992
-4.8349 PROTANOPIA -0.2885
-4.8349 PROTECT -0.2892
-4.8349 PROTECTED -0.3009
-4.5339 PROTEIN -0.2958
-4.8349 PROTESTANT -0.3010
-4.8349 PROTON -0.2827
-4.8349 PROUD -0.3010
-4.8349 PROVIDE -0.3010
-4.5339 PROVIDER -0.3008
-4.8349 PROVIDES -0.3010
-4.8349 PROVINCE -0.2958
-4.8349 PROVINCE, -0.2998
-4.8349 PROVO -0.3010
-4.8349 PRUSSIAN -0.3009
-4.8349 PRYDE -0.3003
-4.8349 PSEUDONYM -0.2961
-4.8349 PSI -0.3008
-4.8349 PSORISIS -0.3010
-4.8349 PSYCHIATRIST -0.2827
-4.5339 PSYCHOLOGY -0.2827
-4.0568 PUBLIC -0.3008
-4.3578 PUBLISH -0.2695
-4.1360 PUBLISHED -0.2696
-4.8349 PUBLISHER -0.3010
-4.8349 PUBLISHES -0.2892
-4.8349 PUCCINI -0.2992
-4.8349 PUDDING -0.3009
-4.8349 PUERTA -0.3010
-4.8349 PULASKI -0.2998
-4.5339 PULL-TAB -0.3005
-4.8349 PULLS -0.2892
-4.8349 PULSE -0.3008
-4.8349 PUMP -0.3010
-4.8349 PUNCTUATION -0.3010
-4.3578 PURCHASE -0.2983
-4.8349 PURIFIED -0.2885
-4.5339 PURPOSE -0.2948
-4.8349 PURSUIT -0.3009
-4.8349 PURVEYOR -0.2961
-4.8349 PUSSYCATS -0.2885
-4.2329 PUT -0.2819
-4.8349 PUTTING -0.2985
-4.3578 PUTTY -0.2860
-4.8349 PUZZLE -0.3003
-4.8349 PYM -0.3007
-4.8349 PYROTECHNIC -0.3010
-4.8349 Q.I.D -0.3007
-4.3578 QIGONG -0.3008
-4.5339 QUADRUPLETS -0.2883
-4.8349 QUALIFICATION -0.2999
-4.8349 QUANTITY -0.2961
-4.8349 QUARK -0.2827
-4.8349 QUART -0.2885
-4.8349 QUARTERBACKS -0.2885
-4.8349 QUARTERS -0.3010
-4.8349 QUARTS -0.2961
-4.8349 QUARTZITE -0.2827
-3.9318 QUEEN -0.2959
-4.8349 QUESTION -0.2998
-4.8349 QUESTION.. -0.3007
-4.3578 QUESTIONS -0.2857
-4.8349 QUICKEST -0.2998
-4.8349 QUICKLY -0.2885
-4.8349 QUINOA -0.2827
-4.8349 QUINTILLION -0.3010
-4.3578 QUIT -0.2891
-4.8349 QUIXOTE -0.2885
-4.8349 QUOTATION -0.2986
-4.8349 RABBIT -0.3008
-4.8349 RACE -0.2986
-4.8349 RACES -0.3009
-4.8349 RACING -0.2885
-4.8349 RACISM -0.2885
-4.8349 RACOON -0.2958
-4.0568 RADIO -0.2884
-4.8349 RAGING -0.3010
-4.8349 RAID -0.2885
-4.8349 RAIL -0.3010
-4.3578 RAILROAD -0.2965
-4.3578 RAILWAY -0.2696
-4.2329 RAIN -0.2872
-4.8349 RAINBOW -0.3010
-4.8349 RAINFALL -0.2885
-4.8349 RAINSTORM -0.2885
-4.5339 RAISE -0.2878
-4.8349 RAISING -0.2985
-4.8349 RAJA -0.2885
-4.8349 RAM -0.2885
-4.8349 RANDOLPH -0.3010
-3.9898 RANDY -0.3010
-4.8349 RANGE -0.2958
-4.8349 RANGER -0.2989
-4.3578 RANK -0.2965
-4.8349 RAREST -0.3010
-4.2329 RASCALS -0.3000
-4.2329 RATE -0.2948
-4.8349 RATED -0.2827
-4.8349 RATES -0.2998
-4.5339 RATIFIED -0.2696
-4.8349 RATING -0.3009
-4.5339 RAVENS -0.2827
-4.8349 RAWHIDE -0.2885
-4.0568 RAY -0.3010
-4.8349 RAZOR -0.3007
-4.1360 REACH -0.2567
-4.8349 REACHES -0.3010
-4.8349 REACTIVITY -0.2961
-4.3578 READ -0.2872
-4.5339 READING -0.3010
-4.0568 REAL -0.2997
-4.8349 REALLY -0.3010
-4.3578 REASON -0.2979
-4.8349 RECAPTURE -0.3006
-4.1360 RECEIVE -0.2723
-4.2329 RECEIVED -0.2888
-4.8349 RECENTLY -0.2885
-4.8349 RECEPTION -0.2986
-4.8349 RECESSED-FILTER -0.3010
-4.8349 RECESSION -0.2885
-4.8349 RECIPE -0.3010
-4.8349 RECOGNIZE -0.3010
-4.8349 RECOMMEND -0.3010
-4.5339 RECORD -0.3009
-4.5339 RECORDED -0.2696
-4.3578 RECORDS -0.2882
-4.8349 RECRUITED -0.2998
-4.8349 RECRUITS -0.3010
-4.8349 RECYCLED -0.3010
-4.1360 RED -0.3010
-4.8349 REDFORD -0.2992
-4.8349 REDNESS -0.2975
-4.8349 REDNITZ -0.2998
-4.8349 REED -0.2892
-4.8349 REFER -0.2995
-4.8349 REFEREED -0.2827
-4.8349 REFEREES -0.3010
-4.8349 REFERENCE -0.2985
-4.8349 REFERRING -0.2995
-4.8349 REFLECTIONS -0.2885
-4.8349 REFUGE -0.2995
-4.5339 REGARDING -0.3010
-4.8349 REGENERATE -0.3010
-4.8349 REGION -0.2961
-4.8349 REGIONS -0.2999
-4.8349 REGISTER -0.3009
-4.5339 REGULAR -0.3010
-4.8349 REGULATION -0.3010
-4.5339 REHAB -0.3010
-4.3578 REIGN -0.2884
-4.2329 REIMS -0.2885
-4.8349 RELATIONS -0.2885
-4.3578 RELATIONSHIP -0.2956
-4.8349 RELATIVE -0.2961
-4.8349 RELAX -0.2998
-4.2329 RELEASE -0.2957
-3.9898 RELEASED -0.2686
-4.8349 RELEVANT -0.3009
-4.8349 RELIABLE -0.3010
-4.0568 RELIGION -0.2650
-4.3578 RELIGIONS -0.2885
-4.8349 RELIGIOUS -0.3010
-4.8349 RELOADED -0.3010
-4.8349 REMAIN -0.3010
-3.8349 REMEMBER -0.3007
-4.8349 REMEMBERED -0.2885
-4.2329 REMOVE -0.2891
-4.8349 RENAISSANCE -0.3010
-4.8349 RENOIR -0.2998
-4.8349 RENOWN -0.2998
-4.8349 RENT -0.3006
-4.8349 RENT-A-CARS -0.2885
-4.8349 REPEALED -0.3010
